/**************************************************************
* Created by jdwang on 2016-11-26.
* DESCRIPTION :
****************************************************************/

#ifndef DR_Binary8B_FC1_Map_Weight_H
#define DR_Binary8B_FC1_Map_Weight_H
// 1'st layer - convolution layer weight 400*1925
static int Binary8B_FC1_Map_Weight[]={
        2631,-10692,-5307,4586,-13421,1192,6489,11473,-9970,10476,-11493,12866,-2495,13824,-11818,15395,4620,16732,-10455,-6332,3039,6799,9874,-6363,6763,-8726,-12121,919,-8308,-3149,-4070,-9368,-14901,7608,10673,4170,16386,5680,10307,-10415,-10832,-7879,-9412,-961,7884,19587,-317,-8013,1308,-1631,4760,-14259,-9710,6799,-6035,14682,14992,-11479,3283,-1171,-26198,-4191,7825,-12782,-13611,-8579,2514,2921,-3390,-19078,-14513,-4666,12965,-3559,12949,15752,3021,-6773,-2754,12211,-14789,15477,-8327,8490,12964,15087,10094,8276,-2954,-9130,14104,165,12391,4253,-7812,-14275,11958,5303,6582,-2343,-8807,13706,-9414,11366,13170,3791,-5136,14056,-281,11280,11409,7024,2812,4906,717,3439,-14335,13548,5840,-8940,-4739,6828,9762,-12758,4864,8864,-6732,-1950,6484,-8997,8765,14021,-11422,13121,4099,-16815,4672,-14581,11838,-13830,876,-15501,8899,15664,-9599,-14515,14681,-12181,1706,-3966,1663,-2464,-7605,-23359,6476,3593,-16572,-5706,-13050,10521,2297,8356,8417,2000,-11612,889,-16119,11806,-3150,-8865,-6514,13653,-5048,-4529,-7665,12058,-2605,473,10466,-7863,
        -8906,-5377,154,-9189,3944,-10468,1394,13533,-8845,-15185,15045,3267,14733,8012,15313,-14588,-4385,3224,-8737,12549,9070,-3167,14870,2020,4155,14761,-11809,2077,3867,15064,4261,-661,2349,1224,14443,11600,4904,7331,-5917,12444,13783,-13525,-2186,12640,5547,-13325,-10183,-7454,-6518,-5962,-3368,-5237,3317,1486,-11462,-11279,-7062,9543,-14527,-11534,5864,10945,-15306,15345,-12373,-10803,1448,2967,-7512,2888,-12980,13214,-9688,12156,-583,-1195,7080,5133,3792,7647,-8269,-10474,476,-12250,-8729,-2890,-5216,3976,-14911,14921,-9988,-1710,-440,2189,-3691,-8183,-12032,11064,-1752,-3481,913,-3127,-12038,3556,-11784,4229,-309,9514,-6687,10753,-12813,14407,2702,6185,-12574,-12987,-15747,4795,-11415,-7843,-8026,6186,-10338,-11145,14656,-12662,-15982,14796,-9953,-3931,-5422,-14166,683,-9585,-10161,2795,-3635,598,9566,11898,4235,10260,-2001,-4144,8361,11363,-13822,-3383,7312,1887,13619,-14168,-4391,-7423,-8396,2571,2469,10656,11534,13901,13737,4240,-10085,2473,13893,11058,-10176,-11579,-10211,13823,2261,-9378,4311,13217,8018,-10447,-4992,-15272,16040,9911,
        15993,-3260,4745,6820,4778,-8651,-345,1233,4052,8148,-15488,3881,9745,3731,6419,-13652,6657,-10267,-135,9540,-12775,8612,13064,10207,8020,-13905,12625,-11170,-10981,1605,-1117,14757,-8219,15172,9266,-748,7024,4692,-8243,-6307,4734,2119,2850,-6236,11633,6087,-15706,-14425,6873,-2521,5029,8196,8634,-2998,-16762,7168,-1893,-7116,-1501,-7498,-22867,-8853,11482,-1288,12171,-10094,11757,9991,-13620,-22570,-11585,8755,-2738,-9304,9811,-15002,6566,-704,13946,-12885,7142,-5979,-9477,-1942,-3264,-6540,-709,8559,11357,-16508,-14008,-7426,-11678,8442,-8406,-15900,-15441,12488,-2763,15986,-14474,-15542,16975,993,-6061,-3752,-2104,4218,9455,-12842,-13683,2594,-15573,-5561,16163,12614,-8794,-9149,12577,7371,3109,-4509,4696,-14721,-176,-8349,-3037,-11056,16869,-9550,-5269,4871,2631,-12843,-2399,12023,-4541,-9655,-4337,-2722,-15274,11230,2077,13360,15562,-10846,-582,-11658,9446,-7991,5794,14990,-8847,-7532,-13878,-14669,5338,-1620,-16017,-2417,-275,8551,-9151,3421,821,-11264,12404,-12451,-7957,550,16492,14553,1019,4503,-12574,-2774,14506,-11101,-8892,1986,
        2149,-14319,14742,16303,-12196,1253,11019,15972,5197,15916,6196,1234,5921,-1317,-11621,-12952,-108,974,-9178,-10422,6202,12763,-4530,-15913,-8963,-1230,16301,144,-1836,11966,4576,10897,-3562,-9690,14672,-12873,14294,-14412,-1662,-12343,12879,12102,2317,-8782,-15349,-2905,-15950,16427,-1195,-9968,-16511,6517,-9014,2251,12626,1597,15685,-9076,-13811,-308,14614,-8414,5260,-728,-10955,-8575,1028,15252,-11508,-6047,-8888,-6110,-1878,11421,5949,-2206,-6853,-8830,-393,5663,326,14254,12774,-9029,8032,-3198,12909,2495,2147,9207,-1396,15878,-9515,1122,10636,16267,-595,2783,1108,-10934,-9854,-5404,10092,14676,-2648,6128,9689,7693,-7319,2509,-10959,-468,6014,-1451,12634,15489,2682,16158,-14135,-9052,-12087,-8171,-13381,3885,-6490,-2590,7430,2676,-14255,16434,7253,4217,-4970,8458,-12334,-16118,-13385,-8609,2783,15146,-370,10131,11945,10779,-4321,-4389,-15560,-1692,3469,191,5509,-14986,801,6073,2200,-14991,-11425,11069,-11530,-2993,16390,-13512,5667,4732,5778,12123,-1825,10054,-4769,1367,-6173,-1801,-14701,3432,4054,-5766,13053,1974,12668,-9008,
        6548,5177,-16122,14301,13326,-7466,1434,16754,13626,-8231,14604,3279,1459,-14228,3888,-2112,8899,15188,-998,-7183,8690,-14997,-4344,10067,14871,-7836,-7432,17337,-1541,3806,10573,-11564,61,-8422,-10815,-5965,-18273,-18198,-8438,-220,-9518,-9222,-4140,-502,4176,6954,15575,10748,13638,-2828,1271,8692,-6014,-12498,-13402,-9672,9485,18451,13434,6907,355,19649,7569,-10120,-2456,12319,7045,18606,-5150,17637,-244,9454,7127,-17741,-4357,9183,-6689,-11223,-2745,-9139,4166,3809,15932,-5466,12771,8588,-9424,-3041,-12397,4560,13171,2206,3010,3353,-2779,1785,12950,10301,-16286,-11502,15718,7056,-4142,-8623,731,-1544,-13183,11212,3471,-9450,-6472,-15054,-4178,10303,7852,1991,14817,1477,-25208,-16457,8547,16265,-4890,-3269,11105,3181,1639,555,-10404,-581,9959,-6852,-7598,-5338,-7623,-3731,-1758,8796,-10678,2230,-2855,-4961,641,2608,-1620,-10227,-9119,-3801,-4157,-6667,-9258,14388,7976,18172,1755,-9887,5324,-6259,4474,-14051,-7145,-5415,-1412,-6887,-2096,15584,7867,6205,13603,323,-15809,1530,-14617,4053,-12703,-6150,2943,-823,-6078,7074,
        -9938,-12981,1856,12401,9087,3301,5655,12653,15249,8514,13229,-14738,16387,6008,-13522,-11174,15493,-4125,-3531,6987,1798,741,13576,-6436,-9854,4699,-5350,9300,12110,-3956,15321,11466,-7222,4893,-15881,7524,-24281,-11321,-6897,8115,-4244,-3898,12357,9236,5819,7438,4633,10237,12049,13036,-3310,13878,4280,7629,2942,-3975,8818,1239,10136,-7368,16232,22370,8456,-7918,7696,3212,-6562,-3530,6059,17089,-7464,1231,3366,-14139,1308,10879,13195,-8869,-5320,755,16237,-725,-4475,9141,2845,16140,16144,-11596,-4929,12192,-13358,-13809,-1808,-11962,15456,8495,6439,12303,6210,-15844,-15602,-11863,-12350,-15438,-6077,-340,667,15367,863,-18006,-4000,-13974,13497,10784,10333,-6160,7630,-11426,-17613,-927,5059,-10450,10597,-11438,-5072,9749,3576,-14770,-6330,7956,11182,-15227,9926,-9732,-2949,-1630,-16156,-7122,-10037,7182,2855,-12585,15979,-14176,-14491,7429,-6333,-2206,16692,13418,-672,-15583,-3973,16061,438,-3481,-4880,15593,-15311,-1028,15935,15069,-10524,7260,12961,-11404,1795,7597,15752,12887,15651,8270,-5059,-8155,2864,16008,3151,-2469,138,16503,
        -1412,8585,5908,-13603,9765,-16391,-10838,-357,-7056,11376,6823,-8830,-13374,-7429,-12629,11212,-8475,-9592,-4945,18001,15529,-13389,13904,7242,7955,3942,-4184,-14120,6403,-16674,438,-2709,15602,4041,1012,-9630,9418,-9246,3509,9384,-10299,-9902,-5057,2562,13749,-9129,10302,-14196,-6550,-556,-16147,17458,5107,11634,-6314,92,4309,-13269,-15792,874,-11846,-10937,-7084,-1664,7195,-4237,-2848,13813,17580,-10145,-9681,350,-1114,12001,1837,-6566,-14817,9887,-13877,-12018,5183,-9767,18488,14903,3955,9758,-14696,510,-7058,-529,3974,-1014,-9152,-8,-13098,-13290,-9952,10137,6429,11425,15092,14385,12815,-12593,10642,-6324,7844,-7031,-487,4190,-4991,11394,14031,7802,-18084,1486,-14123,-10088,-9074,12571,-4098,4948,7197,8799,9675,-8512,14551,-87,15066,13634,-5721,2327,9403,7490,-146,148,7590,13204,-11345,-1445,5377,-7806,2421,2888,-4489,3649,-878,-608,5623,-2387,5463,-7958,-7477,3307,-206,6246,-5671,10921,8096,-10988,-2525,16500,6142,15537,16833,-14174,-457,-6610,12342,11232,16048,-6833,-2593,-14437,13774,-6342,-1966,10351,-14491,-5818,
        -2119,3554,-11889,-15624,9421,-13350,-11337,7694,-769,12308,2760,2354,12126,8720,-12688,-4185,-9554,11304,-3306,3203,-553,-1632,-4842,3011,12107,-3310,6160,-3354,6474,14527,-1581,16057,-11783,-6014,-9443,-13851,-10681,1762,-7394,10408,631,-1603,11102,-12500,-15064,2129,8689,1124,4793,-4727,-16939,-5209,5804,7733,10662,6652,-9658,4807,1587,14420,-7444,-2110,4534,5734,-12036,-5186,-6644,-15978,-12744,-14634,1258,5563,15202,10966,12041,6798,-7441,3739,-13193,9812,-16736,3168,-2192,9964,6139,14804,9285,8217,14627,-934,16140,1200,6722,-3202,16334,-11438,-12159,13809,13697,-11503,11805,9062,-13548,-15152,-1174,-7582,7290,-4166,-7069,9478,-6731,10884,11042,-9571,-12094,7914,2769,-2408,8258,9169,-2606,-11825,1798,6739,-13357,-9064,6945,-4260,11834,12284,-5798,-15317,827,-7711,4857,-13067,11757,-15983,13995,9678,2395,14651,-14182,-4859,-1762,7423,5884,-2143,-18413,-17221,11328,-6049,-16292,-24520,-15720,-3463,3605,9404,10013,15192,15315,3530,14368,-3571,-5073,-8655,7031,7179,9976,14695,8741,-7533,-8887,5422,-11070,6481,-1459,11565,-14804,6113,
        277,-16144,7520,8458,8398,8400,16078,9837,-3464,6684,-8206,-14171,-14760,-6433,-3025,-3703,1212,10253,16400,-6812,11709,10511,-11166,16578,3092,876,-10933,-1763,-7982,-4513,-8513,16671,4243,4598,-6449,-16343,14272,1704,-2005,-16429,7018,6419,3959,7675,-3562,-13655,-11256,1202,-3762,-9986,-4194,-6325,11482,4186,-3982,-8219,3943,-13718,-16609,-14477,-1134,-12801,-3344,-10587,13908,2749,-9733,-5356,3207,-9016,4063,8134,1569,-16216,4091,15889,-1355,-15576,-16424,16057,6890,-3378,5925,13183,-11035,-15,11185,-15736,-4167,-16119,-9991,-16373,-4681,-11888,4339,7768,8498,-9630,-11955,-15596,-8242,11024,-10955,-16230,-8232,4964,-9416,12735,-9069,161,8023,-8811,-9381,9063,-13634,-2120,9380,-13703,-11926,-16518,11163,-5652,-6101,7490,8674,1000,-8622,-2702,-10121,5343,-2474,-9731,-3654,-75,3163,8103,-3234,894,-9265,11069,-5104,-12773,10590,-7020,146,-2434,3734,4366,-8503,5953,13531,10413,-3588,6331,2891,15572,-2505,15205,-13035,-16174,-14638,-5151,-13998,-10838,6862,7016,7420,13427,-1168,-4902,-16427,-4714,-4853,-7947,-11706,5967,1021,-8505,-9080,-7467,
        -12290,11857,-1598,9608,9027,-2298,-15456,-7660,-9504,-6452,-8510,-1050,-711,-1874,15587,-5608,-2808,-14212,1170,-14093,12842,8215,5913,-5114,5067,-10049,8698,14552,5787,12729,13551,8091,15856,16551,10231,-10209,-22554,-6146,14329,-13223,-4245,6246,-11007,12962,3201,-1346,1392,11636,-3432,21190,2120,674,-11500,-16980,-6293,-2321,470,4249,9068,-15073,1180,12694,-2786,16379,1705,-11706,-9089,-10568,11704,20219,9113,-743,6022,4155,533,12743,-10294,9308,7208,-16694,-1842,-9422,14044,18119,-6879,-17359,4417,9543,3150,3399,8181,44,1236,-1969,-3468,12169,3515,5072,-9402,6769,-15038,10380,-11013,-9652,-2199,-13231,-5843,-9073,1318,-16005,-3460,-8859,-14874,-16973,-15466,-232,-2290,7037,-1034,1698,-2481,-10444,9990,-11224,9213,184,7859,9185,-1349,-11293,1247,-6022,-1815,-9734,16660,9327,13420,-4138,2605,13346,-5465,-11854,6865,17442,-11426,3208,-9163,11358,8221,11501,2485,-14826,15918,4434,-10899,9451,14380,5951,-12660,8807,-1685,13734,7838,-3621,1068,-11505,-3237,5041,-12558,12931,13245,-13790,-2377,-11240,-14456,8401,-8934,16956,-8396,-7802,
        6068,-5077,457,6290,4279,15544,-8754,3985,-7214,-14296,13127,8001,2015,4250,-12101,3037,8801,-3590,-14904,-1033,11551,5634,-2324,8880,7323,-8665,3238,-2949,-16474,10638,9628,11065,-2593,13789,-2584,4750,-6411,5806,6596,-16012,12314,6700,-7258,13164,11460,9942,11217,11203,10202,8051,4989,-219,-9588,-14064,10751,12750,-7549,5050,4840,-3863,-5092,-12714,7382,12296,-9401,10030,-9117,-902,13261,13403,-5598,3172,-1904,-14803,14493,-4932,4580,-7881,-5416,-1890,-987,-6191,-12215,7323,-6793,-776,15223,3993,-13413,2603,-7191,6835,10901,3796,-10854,10638,1245,-16372,-11669,-12507,7881,-640,-9874,2895,9059,14040,235,15019,-8233,4911,6048,10172,648,-3894,-272,-14016,2721,15241,4848,8899,6046,7091,8049,-7860,-8483,-4346,-6006,13251,2377,13640,14868,-2677,-4522,15631,-7988,-2117,11922,-11962,12162,12229,-3285,81,10877,7624,10894,15822,-10426,297,11683,-472,7378,700,10153,1180,13919,12247,4020,3834,844,15581,-9746,-9610,16328,9388,-11110,13720,-993,-13796,13355,-13452,-2726,15553,-8190,-1999,4830,10355,6471,8530,2459,10928,
        -12574,8146,2102,-12044,-32,-9766,6409,-13382,-15028,-270,-10899,-17976,-2392,-8260,-7728,19060,6918,8301,18119,-15964,10346,295,1537,-10546,2331,11591,-15198,-14856,-4965,-15639,-7248,-11413,-780,5774,7244,441,7366,-1547,8041,7032,-7957,2802,-16439,-7267,-2681,2910,-13281,10901,3215,-13754,9286,11501,-4903,-15239,-5798,-11168,-4747,-1389,10963,-9231,-8052,-5331,13770,-9353,-6867,7746,16224,-3737,-21403,-24378,-14542,-12159,-658,11265,-9437,13402,12229,3071,-3058,-15525,-9497,-1171,-3906,-12030,-16409,-16187,-744,-11036,-3629,3586,12387,591,4548,-12041,-1411,-1276,-15249,1274,10808,-11888,12142,10526,-1148,3886,-7914,-6372,-15062,-14004,6792,7579,9605,4187,-7716,-15197,2851,15683,-18128,20334,7542,-1691,-15840,-816,18816,11841,11484,-8730,2014,-7066,-11691,-8978,15478,-16414,1550,-7809,15955,-10249,8398,267,-16307,14593,6656,3735,-10242,10812,11650,4009,-7298,-15643,-1617,-5613,28623,-3173,5005,-25796,-4746,4976,-24541,11391,3488,11389,9190,9883,15494,-9763,11505,-221,13594,-12427,236,-6332,-14142,7667,4704,-12410,-4974,1885,-4160,6437,-7380,-6745,
        -6733,-8041,9337,-14164,4512,-5003,-5366,-12575,10956,-713,-20853,8237,-5062,4506,-10935,-10354,-2744,-2781,12238,-13430,4855,7368,5108,9278,14928,10651,-253,3648,14070,-13478,-11812,-5991,-10679,-10708,5237,-4597,1203,7490,-13244,11363,-7076,-12123,-9954,-2847,-2887,-155,-14638,-2963,-15609,-11546,-17849,5873,-12825,2352,-14904,341,150,-5542,-8276,2322,-14316,-15206,-3583,3040,-14466,12582,15414,8167,-7898,-21008,-3898,171,-9338,14836,8681,8302,13212,10429,-10662,-4362,7458,6393,-5350,-16613,16587,14872,7650,-10875,-5688,-6041,5361,-7572,11579,11781,-1841,-13163,2317,10031,188,-2165,-10679,-16166,-11423,-3550,-4947,9024,10968,11563,-19,10064,13279,-7974,-9499,13600,13999,6992,-16041,13797,13434,-10282,2889,-12151,4498,4590,19850,13479,-15422,14101,-7123,11972,14380,9452,-9642,9219,-13059,-9142,-14518,14363,-261,2952,-1437,10665,-11160,-11122,-13116,9486,2604,-12953,132,-13117,7056,724,10539,-18305,-7292,8562,-5306,7926,-12484,6282,-11567,-10270,-15081,-5909,15743,12397,1180,2660,11111,-3549,15905,-13704,15621,11743,6473,12698,-3713,-1214,13455,14680,
        5586,2290,5397,-11141,13046,11782,-10965,-11147,12957,-2859,17067,7755,-1486,-12119,1251,5165,-15138,5048,-7982,10580,11352,8348,12856,-2431,13220,15241,8677,15605,-5740,-7255,-1741,9333,13685,12197,11182,-13523,-16639,-6688,13165,-1703,-869,2463,7119,-7649,8439,-3685,6039,9637,-14742,-5666,11217,3604,-7212,2291,4721,7207,-13006,2741,-2251,-9531,11135,17684,7297,14861,-4961,7213,-628,-163,7754,14526,12467,-1445,-13626,-6932,6160,12225,4127,-14744,12221,-11366,-4372,-14861,14931,2173,4250,-180,6617,6968,-3423,12514,5934,5959,-5828,856,6122,5952,-8084,9158,15536,-3200,15076,-3288,12757,-12073,-6295,-5103,3654,264,2537,8071,8594,-12428,3482,-11326,-15035,-12779,-13894,-16058,-17259,8514,3994,13343,-2988,7849,5486,16120,-5486,-10397,-15719,10595,-7653,-3954,-4636,7987,-12576,-15498,10619,8109,-15036,10843,-4186,-15829,5511,-14441,5805,8508,-8709,-6570,6407,1462,-9446,1065,3786,15590,4189,-7708,6214,4661,-12996,-6514,-12368,-212,-5120,-6944,2464,-2222,10508,-206,-5628,-15975,-523,14576,12966,14324,-3402,-16458,14331,-9336,-11329,2687,
        15994,-11651,2603,8834,-13222,10273,7151,-8515,5474,-856,31,3952,-14580,-2982,7463,11956,8720,10382,-259,12001,-5016,-2815,-27,-6791,10670,-2442,-16420,-15829,14959,489,13253,-5833,11470,2088,-4026,-9993,19863,-3464,-999,-15017,6474,-2287,-10332,-1184,-8413,23276,10491,13713,-9940,3768,-15365,-14259,-12185,-5737,-12888,8641,-12688,-11902,5330,6058,-30734,-6608,17377,-4398,-1741,1603,10422,-19577,4965,-20968,-3553,-16611,4207,22960,-10354,448,13446,-2173,13982,-9237,-5491,12128,-11291,-2420,15323,14933,-11188,8994,-15034,433,4788,13153,13678,4946,13615,-1592,11530,-2847,-9755,3807,14282,4496,-3058,-15356,-10787,-13950,9697,2758,14654,-7545,15868,-12215,7971,-9052,1203,18585,-11114,9009,21654,-1446,-18291,-4919,2140,269,-4364,139,5224,14285,6211,1718,-8669,6269,-4974,-8536,7756,-11730,-10615,-1599,14940,-9612,-7912,15011,917,1384,4444,-12322,9780,-24828,4046,7180,3573,6616,8928,-27842,-1720,-17671,1478,-9663,14943,9181,1869,-279,12510,-4416,-3119,7523,-9060,-11668,-14388,3437,1975,10401,-677,-9112,-7649,-9814,-4014,-3694,-1189,10284,
        3028,13444,-13648,-1941,8164,15044,1905,1238,17619,-9220,-2896,-6565,-10186,-4326,3355,7254,13868,4859,8192,7298,-818,9742,-2642,-14180,-4412,-13671,-13056,18336,8692,4227,-3819,172,3332,8544,15152,14154,-566,-9779,15888,14196,-5366,5467,-11603,1243,2259,-8640,-12559,-12923,16830,12460,-9476,15157,-6463,9664,15396,-5539,10168,7622,4706,11948,4056,-2063,12552,-4,-12281,15054,-1394,12483,-4576,18833,20755,10415,-10434,-16006,6943,15097,1986,-6285,-13606,12295,-1220,7351,15089,3891,14617,4610,12654,-13257,16559,1629,-15643,16285,-9649,-818,-11703,-2952,-9903,-3244,4553,-6846,9583,16550,-2648,16670,13304,5943,-5016,-2843,2133,12417,-16048,11892,-12206,4789,9964,-7347,15892,2100,-15255,8655,-4635,13893,5690,10785,7199,3770,15965,-14810,15456,2227,2582,7818,-14558,3299,-12557,-10517,15887,-1411,2530,8459,-7770,-1314,-1021,-14036,3105,10552,17290,8672,19943,-12428,-245,6052,-13495,17229,-5598,16822,17197,13123,-12799,-9517,-6823,3424,-5503,3512,13029,-1975,3532,-15398,1579,-12270,16526,6623,-8192,-11875,5150,888,9275,13258,2243,11792,
        -4302,-6924,-14596,-11436,-7153,-8893,1588,-4254,4219,-11365,17317,-3507,-7043,-7370,-14416,-12713,16024,9272,-6297,-16615,7817,-5286,-8447,12830,2985,-6517,16225,14373,-8108,11927,-6192,8336,5358,234,14370,-10921,-4053,2760,-7100,-4141,13758,-9539,14373,-12783,12267,-11676,11272,11582,8487,7175,15499,-9555,8859,-10331,4744,-4025,5559,-8727,-506,-13426,-2502,3696,15981,-8178,-9697,3986,-6857,-10126,164,-6521,-3605,-12473,-16069,-11436,10418,-8592,8451,12188,-13740,8747,946,724,-13468,17088,-11452,16784,9387,17114,-5707,12623,12203,-15297,-7370,4223,-2404,-12964,-13702,10808,6815,14583,-8253,-16927,-9281,-10493,-9237,7666,11720,10060,-9742,3245,11170,6545,12722,-14485,11735,5127,13806,-6558,-15626,2676,-3875,2119,-16138,-8731,11852,2032,14578,-14297,-11213,1481,-7289,10219,-15258,15492,1027,5213,9686,15134,2453,6354,7954,-1017,-242,8382,-14124,841,2513,17199,-3304,6012,-19855,-17091,-11434,14680,-11133,6035,-897,11342,-14592,10541,-10442,-11471,-915,-13893,10933,12496,490,-2764,-7262,-13052,7303,1268,-1956,5055,-79,-7640,-9695,10947,-7939,8042,
        8974,7530,1845,4695,10621,-4396,3074,2574,8611,8609,947,-7466,14747,14891,1089,-577,10165,3163,-2141,-4923,-5321,-7767,458,10670,-15299,-13074,7251,724,-8229,-1169,15213,-55,-14983,-11530,385,2174,-16515,-10703,16430,47,-9655,10256,-6905,14168,-3770,-12030,3664,-3451,12428,-7395,12326,16725,-6533,-2166,5059,-249,-5596,-6610,-2276,2547,20296,7566,-12632,-6584,-1452,-13396,-13320,14140,-7686,20565,-4579,5601,-12741,-16810,9361,-9277,4860,-10547,5303,-1838,9238,-15645,-12345,15426,4481,-11635,14184,8972,9564,-6026,15278,1615,-11416,-12358,5428,-13525,-11000,-2613,-3870,-8922,11984,-5548,544,-1796,-13293,12115,5633,8278,3419,-10593,-8790,-532,17902,10930,-8230,-12789,7932,-12452,-23350,9033,7188,-4845,9824,2722,-10372,-802,761,-7744,10822,15424,1707,3464,14118,13101,-7313,978,-7822,-4441,1865,1922,-3330,-1040,-6136,99,-4037,15196,-7485,12125,-3406,5675,-26319,5570,-5944,29394,4764,7971,-5414,4986,1941,-6537,-9208,-6480,-10667,9320,11595,2897,-15520,9357,11905,5172,9692,-7684,3917,8835,-1993,-7064,-3697,-916,-14759,-2106,
        16698,1154,9324,-15066,-14859,4737,-9851,11133,-9537,16355,-3737,-7865,9136,-14047,-14719,2437,13580,-15238,-5290,13560,-3655,753,1866,12406,1251,8993,-15424,625,-11370,7913,12907,2227,4242,-13523,-8725,-3622,8564,-14707,-14369,5983,-5239,-8127,-13981,12833,1417,13943,12301,-2402,-16123,-1290,774,-6212,1020,-3111,-9763,-6420,-8351,-11658,5185,-15312,-17836,-6182,-10750,-4680,4995,12916,14564,-14668,3637,-13254,2313,-4036,5027,-9538,-6408,14446,714,14503,11738,-12969,-13117,8379,9136,-8858,2946,9697,4318,2627,-492,2219,8773,1161,-9968,-9328,2011,7113,11621,5167,-14787,-3810,5061,1697,180,-15943,3256,-15807,-1448,-8452,-10347,-4461,3078,1439,14907,-4553,15787,-9552,15140,9696,-3944,-13854,-11450,15765,-9402,-16002,10527,-6316,51,-14966,-15786,-563,3199,7058,-12851,-11950,-2952,6596,-14564,10184,1827,7874,-5740,13732,-10306,14536,8652,-213,-7846,10319,-10946,-13069,-8554,-7158,-999,146,8280,-8744,-15192,963,-328,-15630,-3257,-9419,-3851,-8766,-7599,2047,-4629,-6524,7266,-13923,15080,11549,8616,-6021,-1992,-3725,-5828,-535,12035,-8901,
        -8677,13926,6830,-13199,-10546,-7699,9190,-5292,16534,11328,7703,5536,-7790,11320,2212,-16570,15561,-8882,-3494,16596,-9090,8868,-95,-9655,-2862,10876,-626,-8858,691,13041,-3433,2278,4706,8516,-10090,-9933,-9420,-10651,-3504,14790,-6539,-292,15507,-276,-539,-4431,-6026,-15206,-6292,-6732,13900,-3218,6795,11758,-6700,2007,4523,9159,13530,4061,2496,21266,5601,1596,14973,9329,4752,1681,9215,3586,20771,-12185,-15600,-18534,6567,13561,7609,-14322,12856,2743,-6604,4847,-289,5525,-1303,11969,-15740,-5386,-14167,-7768,5779,11354,-4948,-12405,3436,9623,7301,10050,-3083,-13389,12794,1640,15495,271,16492,2278,15244,-3553,-7566,5433,-10115,-9465,-4896,-785,5332,6226,17218,-2976,-13155,-4743,-2884,-2551,8536,10629,-15080,12242,-6711,-917,11738,-13986,2626,-10035,16604,11871,1721,7248,-13459,254,839,-9545,15037,-11533,9110,-10668,5149,6560,15978,22446,547,6232,-14574,4641,-5116,38876,17081,7234,1843,-2090,11060,7358,-5751,10990,-8501,-8372,-16156,10382,-15943,-8826,955,9320,9511,-5071,5701,-6167,6536,8542,-3058,5885,-1,-844,
        -4193,799,-9502,-13831,-14847,-13453,4519,-15091,-15803,-12517,-899,-13569,-15059,5942,-3111,-1779,13651,7587,-506,3449,-4517,9325,-14084,-1934,-15894,-17122,-234,11598,-342,-13604,12863,10636,10114,2602,-1311,8603,15200,13230,9308,2508,-5326,3462,-18346,-13909,-9914,-4991,-7398,3706,-11624,-17430,4840,-2596,10657,-15372,-5903,5369,-7854,-9377,-13450,-10498,-9218,-12950,669,-11116,-1187,-11427,-236,6155,-7723,-3886,12455,-14871,12057,-3266,-7030,-7151,-8230,12830,5603,10546,6139,14140,-1897,5469,3675,-8410,5969,-3470,-11599,-3137,-846,9335,-10350,4576,-14414,8422,891,-10512,-10819,-12573,-1282,-3183,9600,-4583,2933,-14231,8457,7714,12571,-11936,7580,14835,12095,7880,7345,800,-3999,13461,19107,13638,-9152,-4314,3667,4613,11841,-3378,9749,-2670,13212,4811,9295,-8864,-11485,-17355,-8563,13385,-11481,3112,10651,11276,-10176,12889,13835,13269,-10080,7331,-14776,-15811,-1133,12643,-8093,14943,-18090,139,-11971,-9610,-14430,4930,-8474,-7150,-8049,2130,5334,-1268,4068,2167,-5009,7988,-2474,-17187,9694,3444,721,-17386,-14658,-14918,-9616,-8875,6310,5458,
        7005,-16336,-7629,5576,2887,2717,-13361,12693,4006,8392,-12551,14408,-59,15339,15729,9566,14723,-13184,15079,9133,-7773,-17646,11986,-15199,-8487,5005,-3502,-4393,-3438,14559,10529,8795,4492,-9154,-7520,-10478,12071,7421,3351,6171,-14120,-1752,15273,7197,10088,5769,15034,2274,10741,8412,550,-9407,-15911,2463,-7539,-1197,2485,-1859,2813,4522,-1004,5121,7409,15,-8353,787,11595,-14566,13321,8472,-6904,-14964,-15257,18643,-15552,11979,12102,8941,-11859,5516,4901,4927,2688,5508,1427,8770,-5038,-3497,-9514,10059,7735,-410,-2933,-8548,15777,14427,-3911,3862,-809,-15706,11468,-4418,8750,-12643,8855,-6391,-10827,-598,4248,-2279,-7206,-5860,9574,8270,-7657,-14620,-566,-2714,8298,4939,11306,-17292,14793,-12812,3768,10885,-4984,-7110,6744,-6193,15554,7274,-15956,-2071,-11419,-11121,4482,-9029,455,9390,15427,-5427,-7399,816,114,7397,1228,-15831,7945,1833,331,690,842,-17669,3008,-6095,4369,-1998,-1622,3556,135,-15821,-1375,11442,7775,6943,1109,-4970,-12119,4262,-2074,11638,-8713,-2554,11626,5711,5935,-13477,-816,-6157,
        -4141,-14245,-8941,2947,357,-8466,3818,-6027,-15376,-8381,-4098,-13037,-12139,4424,14924,-15071,-660,10515,-7708,542,161,-17886,-6807,-13252,-6465,5611,2682,-11537,10179,8707,1331,7012,-745,-15450,-13910,13185,12243,3556,-2817,5616,-9537,10697,8064,-1311,8300,9998,-7755,14590,11531,-12685,-9418,9929,3545,5119,957,273,-7894,-14999,1129,-13337,-6322,-8307,8618,-6299,2024,15227,6928,683,1882,3560,-14594,9092,-6222,-10981,15096,4575,-9516,-2028,12815,-1071,-778,11234,9326,-2122,-5674,-11626,4082,-3968,-8073,6878,-14229,-8179,9301,-2408,-1354,-8806,-13603,-10275,-6342,4237,3795,14935,-6664,-13577,8378,-14408,5928,-15604,16051,-3076,5761,6179,9717,-12358,11173,-6524,9167,-810,2591,2921,-1292,-7537,4961,11354,9780,14254,5830,8504,5088,-5621,5819,4603,965,-5225,10751,-1623,3708,-252,-15041,10646,14879,14089,-12902,-3320,-13858,-13455,10858,-20239,-17682,2646,1321,6162,-13472,-23464,9175,-11870,-13205,-902,11567,12075,-9484,-7656,-1825,5122,1357,-13443,14070,3358,-7554,13357,-7208,-13007,5814,10561,13934,-471,14542,-1856,-7152,-10431,
        -14241,14986,-2605,3737,-16053,9214,-2882,10926,14997,15174,-8314,-16044,-5282,6476,8487,3871,11233,-10636,9164,-522,-2315,-1241,-15417,14893,10652,-7713,11542,-8422,11911,9224,-7293,-4602,13857,-11316,-13728,-3075,-11638,7157,6512,316,-2038,2397,-6571,-8072,9715,-3278,-4245,8853,-13130,-4895,-2926,13223,-9890,5508,-9367,-13543,11423,14306,6584,15038,-10655,1098,11900,11008,10341,3352,3444,-11611,-15860,-9389,-11505,-1125,6739,551,-2455,-11113,-6619,-13232,-11356,-12387,6486,-3474,14752,-5141,14068,728,3768,-1231,10368,-15990,-15078,10566,-14428,-2059,-12079,-12601,3205,-634,9041,-620,-12052,14047,10306,16032,-8673,-6928,-8871,-9795,8796,4401,-12606,4918,-2159,8305,6741,10502,12037,636,-3360,15257,-8329,-2132,-3880,9457,10648,6195,-2948,-15559,-7459,-7485,-8549,-7953,8756,-6262,4909,-608,5720,-8191,-11764,65,-15414,5673,1119,8610,5072,3222,-15331,16,-13351,-10325,11496,6871,10108,-19478,270,123,-7423,15574,-14564,-16694,13714,9399,15230,377,-3897,-9283,7019,-1332,-13795,-7207,-14924,11965,6217,3397,1572,6865,-7910,-11882,-11749,8338,
        -7821,-25,4372,8883,-11240,-2983,-7664,17708,13024,-950,5059,-10263,-10912,10936,10568,2527,-7442,-16798,-12770,-4090,-12420,-5337,-875,6123,-15824,-2947,-3846,7350,2529,-258,-5591,1022,10236,10899,5056,6384,-15525,1863,251,-6706,-9631,-1615,-3772,18653,9258,-3045,-7586,-159,-833,-6940,12257,11085,12098,-13096,4611,10210,12440,-4735,12849,-5069,22655,19252,-7844,5399,-10601,13952,-3323,14071,2783,14946,-8020,4054,-13993,3711,3252,1860,-2239,-2514,-6252,-13026,3398,11630,-11282,15622,-14729,-2138,-4154,6232,-5956,927,14912,4750,-4279,15467,-13654,7615,-5266,-158,9666,8951,-9802,-9100,1724,15120,-11393,8799,3361,15465,11930,-53,9731,5006,12042,-6326,7656,-4392,-897,-9795,-23631,-9043,15847,12890,-140,-10062,-13217,5204,14904,-6961,6442,-34,6786,3173,11143,12135,6969,-15247,15014,9750,13987,4344,-3404,-16774,-7007,13188,1728,-7792,690,10015,-6107,12281,-23654,-11569,-10538,30806,18868,-6432,7559,598,-6835,10962,6736,-8683,-6091,4828,6398,-13594,-11197,10079,-16873,4904,4031,3779,-16462,-12534,-4211,-8670,12151,5468,6079,4075,
        3274,-11066,-6831,10383,5639,-6915,-6495,9296,-149,-1292,8433,10201,-3030,7983,464,-6627,8697,1400,-9130,7020,-13722,-3864,-12191,2548,16919,19304,-5818,12814,7020,-13006,-4363,16621,-6179,-13628,4904,-10860,1737,14246,9304,-1320,-5022,-10217,15624,-19326,2431,20344,-12605,2454,9991,-1416,-16796,-5628,-3689,-12703,9013,3041,7873,8032,-9727,-12815,-10920,5577,-17099,-4874,-11836,-6398,-4289,7969,976,-17210,-17446,-18773,11842,16223,2346,8145,-8056,4898,9172,-12085,-35,-10197,-13394,4577,10666,-9567,3988,10949,1667,-17359,1792,-1236,-13437,15294,6304,-2129,-10180,17844,14573,-686,3019,-10903,1947,15779,5239,-10879,-5476,-554,12916,2497,4806,4718,2953,3606,-8145,926,-9927,11771,-9889,-6502,-4969,-15199,-10696,-4675,17698,-2503,2656,17785,-4752,-7002,-7301,-12538,8539,-10685,-11309,15238,-7200,15396,5705,-5261,-7832,-3997,-6028,-1712,-5067,-1412,-3136,1750,7130,11095,-4192,-7164,7613,-19737,-10815,4510,-2686,-1311,5597,-5574,-3092,4680,-4085,12279,10138,-8610,-2890,-5261,10871,-1475,3473,4360,13195,18505,-8670,-12836,9158,-5615,579,4931,
        -15038,9073,-6078,-9001,9852,5529,6806,-10377,5180,-12189,-377,-9079,4713,-10936,-2859,-13253,14194,2054,-1747,-13690,13143,-12236,-14314,-7567,6415,13517,1893,-2514,-393,-7619,17028,-10863,8944,5762,2611,-13517,-6862,13101,720,11071,8608,-8235,-10421,917,-12082,-15914,8118,8981,8468,15280,8458,3291,-529,1411,-9982,-10690,-1153,14252,-6418,6091,5377,-7666,-15662,708,6878,7593,7909,9606,-1045,5588,12254,16382,5079,105,-7961,-5693,-2539,-8477,7497,12151,-5930,-9119,-13985,16956,807,10622,-12083,8199,9402,-10847,-9000,-13678,14123,-5910,-13648,-15242,-7151,16522,9050,-15256,-5598,11099,-6071,-11156,-8271,16665,11439,7722,-7598,2600,-11308,6059,9621,14211,-9602,-8113,4598,7366,-19344,-842,6291,-3652,-16797,-9827,11474,12148,6788,-3289,-1773,-1943,-1215,-169,-13468,-7295,-2817,10739,17099,-2339,15975,1874,-14158,14045,10479,9722,8378,-5055,-1370,3855,16882,-7831,-17384,-9976,2315,14571,-4359,7960,13558,12386,16669,740,-2287,7642,-9551,-7743,-7388,-7080,2723,-5401,-10745,-8752,16838,14540,-6789,8254,-12735,14251,5767,-13956,11451,-10953,
        13052,4871,9874,-12598,-7791,4496,15000,-2460,-6262,1214,-8264,-6077,16967,957,-12294,4928,-4224,-651,11272,3901,-7580,9242,-1597,5640,-6840,6184,-15434,6622,983,6940,3814,7669,8743,15265,-11782,-9274,-10281,10464,-11173,-13388,5713,10357,2231,-6398,5299,-10940,-1704,-12698,5884,-14,8310,12661,-1844,5797,10068,13940,6559,-3957,6874,12473,13961,-12466,13197,11890,10569,-13818,-22,10748,582,12569,-7094,-13711,11147,7351,14552,3026,-5830,16091,13258,-8145,1657,-11310,-8628,-2874,9869,12448,6417,-1151,-7425,3127,8826,14934,4698,13492,3824,-6728,-13015,-7961,2224,10215,2333,10514,10467,3346,14245,3331,-15386,-12366,8980,-15977,-9841,10002,-5016,-8700,4448,7020,155,-8762,-8513,-16832,-12623,2209,-4727,-4944,6597,14289,16346,-16228,-721,-5388,-1221,-10224,-15778,6898,-12002,-15063,9218,8728,-4680,10043,-13879,12549,3339,-9034,-13977,-4414,-2441,16585,10733,-3319,-16117,-7731,-9611,15591,-8014,14310,-5957,-1533,-15174,2928,-12288,-14912,12211,16155,291,-6162,-6853,-7450,11011,6343,-10037,-10223,15904,-13150,7590,-5121,-16051,-15126,-3214,11490,
        5913,3384,12225,742,10873,-2914,-10619,-2459,-9103,-11250,14917,-552,7987,-4151,-277,7815,-2065,-7413,-6068,10083,-219,-5751,11976,-9597,-9583,4963,-8310,19659,6566,-12797,15159,-5635,6346,-8605,11575,-3,-19968,2302,5535,9344,-3627,4957,13014,13548,-15287,-9833,7995,14963,-3331,16696,2219,-7532,9307,-8203,6830,3509,-4479,14069,12815,-10001,13258,-4003,2708,-1619,6359,9189,-12120,3733,18241,24784,6604,20474,-12917,5801,-19380,-8787,10659,-5640,-14712,-5726,2016,9242,13216,6560,-13974,5253,3428,7232,-2529,-1896,-15973,-4704,2709,4989,-13162,4874,-13478,7001,11216,-15394,-11713,-9532,7412,-7127,3679,10389,5450,-13574,8519,-14901,3438,-9603,3851,-518,-2665,-19233,-1551,-13309,-1200,-8696,7980,7434,-16496,3730,-5567,-2932,8695,4940,1905,10562,6128,15986,-13909,7842,2531,6928,15812,-15581,-1770,-4895,-14542,-2350,12633,4297,-14514,2958,15349,5042,2323,16063,-19124,6767,-3572,32785,15263,-3422,16369,6303,-7220,4798,-4018,4578,13574,7771,-8423,807,15105,232,-8282,-2721,-14635,-4366,-8054,768,5178,6344,-12074,-9134,1775,11292,
        9384,14167,2368,-4949,11975,7595,4144,4258,11516,7343,-5891,-14814,-1991,13882,-10965,1490,8250,-11481,12542,-10856,-5437,1299,9450,-2665,2609,11974,6062,-14812,-9772,8521,-1746,-7823,2081,14721,-11334,15371,14552,105,-3419,-4865,5053,-9379,-11700,-10515,5290,-6926,8411,-10145,7780,-1491,7898,-7589,10104,10690,-4108,2529,8210,-2725,2491,-2233,12744,7490,13778,-9577,-11115,-15210,9414,-5981,-9916,17316,-14166,2100,-1405,9216,7837,-13283,-7424,-15014,3965,7772,-17083,-9217,-9355,-11859,-14886,-3455,-11599,14557,1278,-8673,-13849,1657,11189,4932,13085,-8752,-4504,10900,7750,-5421,-4158,5801,4553,5762,2477,-5226,-14139,14017,14776,11043,-2107,-12625,-15618,10168,-12679,-4196,-8467,8162,9390,-15979,6602,-14656,4633,3312,15162,-11511,7123,-3620,-694,14960,8861,-5700,-15460,1278,-3945,6046,12602,-8834,-14985,12162,10651,8640,-13424,2442,-13243,-509,15093,-8897,3045,-5533,-7249,1517,-15137,-11276,-3162,-11753,-13270,15243,13263,-13972,10645,15636,9180,2903,-14985,12860,10072,-12938,3802,5036,-4250,13408,11242,13032,-9630,7709,-13703,13750,-4161,-8668,
        -12731,13970,7888,-6353,11781,-5236,-2316,3727,-10662,-9922,13158,7877,-2803,3009,6650,-8036,8765,-2068,-9367,-3081,-10279,17310,4934,-8186,7866,-2752,-4611,12600,-11486,16217,13531,-948,-2484,7336,-4489,-9802,-8239,-12327,7113,-3017,13088,15709,2038,12364,-9510,8551,8824,-5045,15633,17914,6879,-11421,5163,-10934,3905,1027,9645,-9151,9681,10200,24493,-8333,11089,10043,5632,-1397,8904,3258,8726,18980,-7917,-14042,9859,-1907,-17304,6240,2154,-323,-8020,2268,-9718,-695,6351,-12338,-17779,-13477,10862,12923,12675,-968,3285,-770,17265,-3679,9230,-1579,17423,-8658,5517,11517,9934,-2501,-13491,-14368,-658,11174,-12067,17178,-16853,-2593,8862,-2932,-6397,212,-12607,-3805,-10919,-18667,-9578,-18789,-8325,9679,-2468,-10727,-7878,-7336,-1468,1237,-14219,11164,-10069,-7872,-9580,6828,9599,14958,12285,-9707,-9672,7777,9513,-9127,7494,5542,-13772,-8153,2447,3890,-5649,-14475,8034,9652,3999,19675,-10101,-6135,12589,-6606,16446,622,3225,-14286,-12597,7501,-2185,-2196,15498,3259,-9180,388,-8522,-2892,15790,-2017,-9143,3936,12375,-9965,4870,-11736,
        -16279,-7136,-2208,106,3110,8389,-3132,14797,-11119,-983,18225,-6110,-4454,483,-12565,-11063,-1407,-11101,-5931,-13892,15433,12256,-10041,4374,2378,-3140,-7351,12183,2261,-12334,15211,-8388,13082,-4395,7637,16221,3964,2487,15948,-4085,11868,-15582,-638,-6632,-1589,6047,9753,-12350,1322,-4950,12513,-13263,12980,-8443,10674,12864,903,11927,-8894,7061,3992,15539,9340,-11233,10394,12390,9177,6138,233,7733,6154,16348,-7909,-1549,-9569,-15828,-11909,228,16582,-11482,-4095,7078,-6901,-8203,4600,-6489,-4178,3868,6843,-3668,14222,781,13808,12715,9007,-16359,1629,8260,15281,3037,7627,-14127,4585,-3070,-9024,-5975,1471,14346,13855,-15436,2223,16409,5634,-5287,960,-14006,-1906,-7527,8965,1790,850,-2613,-16331,11101,14202,-2939,-9857,-4601,-13031,9091,7027,-5890,-9341,-4542,11531,-11010,11121,-8127,6066,8202,14432,-1267,6646,-13701,11332,-12805,11419,19217,16048,14862,-5841,-5976,-5562,10197,-13608,1828,1307,948,15386,13639,11294,9890,14107,218,883,-4806,-9349,13766,-210,-14966,15985,-111,-2380,-1254,11458,-127,14462,-5315,-13356,-8546,
        -5328,6812,11023,8358,4100,-15779,-10956,-4546,-5115,-7165,-1084,8672,14422,4326,-12621,-10336,4068,-15474,4487,-13040,586,-13103,-3954,2601,-11714,16246,3798,-7612,-5843,5063,7089,362,13172,-9078,-215,757,17281,-2653,-11950,12487,14545,-2862,16127,-19345,-5202,-3949,-10788,3258,-5913,-14260,-5557,-5478,-9744,-15113,-16033,14971,15251,-9717,6608,-2191,-4730,-8331,5732,9914,-9563,-2418,8534,-12289,5493,8040,-7429,11037,-9259,-8246,-2560,-4830,-6980,-3903,-5574,4263,-4528,13986,-1233,-12278,7772,12557,13685,13167,-16649,-9751,13748,-12281,839,9874,-3369,-14192,9546,258,-13631,13433,5682,14695,6532,-8478,6565,1949,-6409,-11937,-2023,10414,7125,4477,13802,10115,-7000,-5754,-13415,-2533,14833,2018,-14735,4614,12819,5496,-2595,-14231,-2666,7426,7942,5343,8464,7060,-1369,-1854,-11976,1122,-1037,7570,1814,12118,6318,15152,-11835,-14874,-2330,12719,513,1393,5810,-12025,14530,468,-3086,-7513,3872,14087,2516,-11406,-6739,-2548,-75,-10988,2999,4430,2728,11879,-10078,10602,-12639,9030,-12964,-14508,-5455,10875,-8225,5964,-3461,-12515,574,1009,
        -9620,-2228,9278,12659,4594,12961,-3098,8374,13518,15399,-19588,-5376,-6871,-12555,10721,3294,3801,12878,10187,-8253,9193,-16389,4376,16972,18802,-549,-2222,-12678,156,11506,-331,7430,7616,3341,14938,6397,8323,-10467,-1858,7876,-11609,-12819,-1955,-717,-13323,22676,-654,-11200,11173,-3028,1637,-3290,467,-11300,3080,-8410,4095,511,4101,-5992,-5435,-15324,-16078,-18063,-4054,13480,-3527,-13092,-6776,-19386,-13690,12796,2391,-3341,1789,-7661,12691,-8438,-12288,13256,-12454,7906,-10138,-9302,11975,-2830,-6629,3942,13490,2031,14520,-4161,11606,-11447,7782,9218,11880,778,-6338,9012,-6639,-14794,-10840,780,16921,4825,-12348,2778,9660,-8876,-506,-7580,-5932,-14905,13766,10796,15600,-8702,7814,12800,-10104,-15623,-10731,8515,250,-2503,14154,-11909,-10451,4225,13498,547,-15644,-5652,-12743,-3942,-10823,-9831,14285,-11088,9009,-2302,10232,-14227,13703,-4812,14862,-2934,8609,-3052,-600,-1226,7313,-11422,-13087,948,-14403,3530,-11096,-3178,-8648,-11413,-7807,4513,-8837,-14683,-13402,2103,-8244,6235,6819,303,-2710,-10415,5226,-5371,8657,-779,-15183,-12332,
        -9961,-4297,-13645,-611,11093,5587,9358,9054,2485,-5920,5239,-13817,-12914,10654,15474,-14051,-14736,-1822,5858,-14071,-5607,4685,15584,1274,324,-4746,-10208,6449,-6813,6349,-8666,-2388,14360,583,8859,592,-4979,5246,-10117,-14316,6637,-5074,17841,4661,9043,-4070,5450,-7627,13288,-3655,8738,12232,3752,-2348,16813,3423,-1663,7695,4086,-13302,7973,22528,-16942,-2126,5937,4556,4804,10616,-3318,13895,18300,15818,9840,-6763,8137,12198,-3886,15877,-2270,14087,-7378,1483,5801,7550,-2971,-1084,-7537,10757,-14333,12338,-9925,-15262,-591,4820,2257,3560,-2982,5455,10126,-14438,-14154,5392,-7921,1608,4025,-9760,2386,-2364,-7007,-8724,-12267,5482,-8294,-11048,-1803,9081,9585,-21006,-17558,5360,6936,2668,-9762,5239,-9263,5446,-11572,14348,1422,10399,-15519,15967,12634,-2655,7439,2854,2783,8650,-15878,2456,2768,12616,9693,11677,-3759,-15843,6241,-3313,2402,9397,-447,-3962,7536,27068,-6391,-1246,4907,-11737,-1676,8426,-2170,1749,7410,-6133,2657,-11896,5895,10172,-1340,-12177,1518,4320,15347,-8099,6863,13745,-12589,5103,7201,13405,
        6645,-15297,6383,237,-3528,-275,-9714,-7908,-8527,657,-7303,10647,-1970,-4278,1409,-12807,-4274,12728,-8845,9074,-8317,-2725,9894,9633,-7784,4336,14515,-1142,-6996,10985,8456,-14287,10320,-5403,5866,847,17604,4485,-5346,-7224,9375,16930,-18863,7558,8500,15254,12032,-16919,-8145,-11283,-13704,3546,-14211,-10465,-8786,-11365,4814,9440,-12436,2685,-23866,-1830,16455,2623,4469,-3756,-8416,-17012,-9100,-11857,-11863,12761,18642,16418,-12528,-4733,-8039,5609,839,-13713,10981,-12003,10393,-2375,6761,11168,-5440,3407,10297,-7282,14030,-12101,-2252,-14962,-2387,4518,9576,6526,-13821,3333,-3224,6956,11775,9884,14558,8526,502,3406,4194,14347,10983,11243,-2319,-15449,5961,6603,8679,10723,18396,10689,-10293,5645,13423,12117,-12704,-3519,-8087,-9142,-771,-7356,5306,-13705,-12753,7725,-14131,-8066,2220,-10774,3582,6964,2381,-10963,2564,-6195,10633,11846,7862,-16544,-7719,-4382,-1192,-3374,3501,-18430,433,5088,-5814,1526,7753,1903,-6918,2218,-12180,-17500,-9782,-11580,9323,-2944,12714,-7995,12498,-16409,6409,15147,14626,59,-14559,8327,-3740,2425,
        -680,-9772,7154,10173,5725,-15787,-6188,-7161,-8277,-16068,-15901,5694,-13692,-13684,-11593,-12608,-8045,2401,7456,5841,-11475,-6861,13894,11416,3832,-1998,15474,-9850,-2556,14275,11359,3722,1335,312,-9043,7651,-8330,-1491,-9221,-15330,15065,-13434,-7479,-10923,-3353,-966,10034,-11021,16156,92,-12355,14290,1226,2381,-6294,2301,11080,-13412,13332,-15868,-2493,1101,-9346,12053,7182,8276,-10630,-14504,13153,-11168,4482,-12331,-3356,-15634,-16189,1219,-13827,791,-11617,5713,10215,5939,-3792,-9740,308,-9257,13362,2275,-12655,-6972,-13489,4683,7166,10716,6066,-7799,138,-8399,-10642,-6156,12044,-10342,16297,-2487,-1624,-7986,11559,6776,-14101,-1687,-4351,10721,-1752,-1627,8418,1185,-6,8876,-14190,-3743,-1152,-2754,15705,-8307,-14254,-5375,-861,4549,9102,16318,-8398,-12073,3307,-8864,9545,5635,6247,3168,5817,-10732,1160,15736,12346,-6131,2477,16336,4742,1596,5095,-12418,-14062,-1427,173,8676,4541,10123,5756,2129,2670,13840,-1305,11982,11999,8192,-13326,1296,11747,3370,-296,-14920,13928,1311,12155,9963,-5542,352,-14435,8997,-3591,-1779,
        14437,3942,6812,-3968,5892,-9300,7353,6474,8818,3152,-15774,764,-14385,-6766,1759,-13630,11265,-4712,-7141,4727,-7314,-4569,-1038,10968,-14472,7876,-1733,-2223,-16977,9725,14046,13908,-8560,-710,-8278,-8145,-8236,6446,-4135,9347,-15776,-12445,-7765,1248,10120,11122,-7531,-3089,2677,-16227,13290,8106,-15252,8209,-15155,9138,-4614,-6179,3327,-6301,7455,-16154,-11922,4553,-4281,-13459,-8074,5111,12801,-5474,9734,-10371,-5554,15753,-6939,-7449,504,11155,-7057,-734,7727,5480,8862,-1613,4321,5215,-8781,9834,12127,-9504,-12608,14142,7973,14236,-14965,-9182,13151,-8675,10651,13131,10227,12704,478,13844,-3021,-1161,13004,12141,2406,-14934,90,-10147,4245,-5131,1532,-11335,15603,-6397,529,2309,4504,-9046,695,-6222,-9902,6630,2200,-16192,-8769,3530,-4814,76,-9605,70,13204,-1296,-16792,7871,-14490,-1430,12606,-4977,-2810,15273,8494,10844,12874,-7526,1015,6158,-749,-6287,-1300,-12709,-8536,9109,-15330,13348,14814,-13973,-7771,-15368,803,-3752,5056,9722,-15973,7281,10684,-4608,2564,3717,-3707,2951,10773,7450,2930,-5351,-10290,11711,
        -956,-5505,8568,6123,15793,5195,-6922,4627,-11150,-378,15110,-4723,14914,6183,-11234,4026,-7467,2246,-11342,15513,-11576,15787,-9676,3399,-17408,-4616,8204,5064,-6289,-151,13482,8385,1802,15000,-6527,7833,-23605,-4619,12696,-698,-6433,10620,10805,11106,767,-15607,-10007,-1055,13477,-1484,-5467,6219,-750,-4671,-8061,-8349,788,10184,-6630,-1876,19355,12714,719,-9519,-4359,-8540,12371,17286,9714,-170,11154,7348,1892,3076,-1819,6354,-191,7554,4076,5656,-10464,-13608,3970,10313,-850,16089,-14530,15869,-4630,-8300,4261,4085,10300,-14677,-3512,7122,7148,13695,-6884,-3053,10329,7618,-14483,-15563,-1258,-2913,5790,-6923,10516,-6707,-5860,9723,9258,-6134,-3665,-9003,-7039,-4884,-14108,14475,14616,1435,-10204,16557,-19216,-10652,5042,-4093,12780,9570,12632,-13064,-6869,5412,-4088,-11842,8221,12001,-17389,-10072,4800,451,6907,7154,-12332,12962,4426,18117,-11489,1792,-1030,-2164,15454,34706,8310,4840,11454,9863,-17056,-782,-10625,2948,12913,-3570,12898,12594,12032,-5268,-11107,-17816,-3004,-2573,7937,2950,9331,318,11205,10723,-13150,-13930,
        -10965,1055,14783,16640,3133,13939,-14801,14620,4144,2612,15755,14575,1503,-10609,-8721,-7462,16077,12171,-13453,1787,18648,-4545,-13615,13538,6465,5150,9433,-668,-2496,4003,168,9080,6043,-6476,15387,-6420,-13318,2432,-2470,6569,-7156,-5241,-9084,6368,6906,-5964,14377,-5736,275,9444,-479,-4904,-4573,53,8898,4870,-7098,1621,1527,2853,31112,23965,-10061,14995,-139,-14449,-9784,12140,8344,26441,9759,-10606,7303,-16656,12482,10653,5949,-4006,13750,2882,12683,807,-2105,16825,-8809,-1651,4268,-12974,-5590,-4197,16164,599,205,-10500,-7288,-4452,12008,15522,-5120,13934,-5486,10304,-452,-1380,-4652,15864,-9123,17531,-4137,7208,-11425,-5271,486,12500,-1958,-14592,18504,1183,-26455,-291,22154,-8241,48,10387,-6835,-10437,-3905,-947,-6813,-818,-6103,-4954,9556,12857,12945,2854,-4369,-14860,-9798,10501,5595,10953,6145,17657,5559,2488,-11836,22494,9082,-3430,-23087,-13711,-292,27186,-2718,-578,1121,-1113,-2608,-13545,3577,4561,6283,2425,-3816,1519,-7341,14962,8103,6926,2768,7892,5396,16445,6571,328,3547,-3669,-6498,-9975,

};


#endif //DR_C11_MAP_H
