/**************************************************************
* Created by jdwang on 2016-11-26.
* DESCRIPTION :
****************************************************************/

#ifndef DR_Binary56_FC1_Map_Weight_H
#define DR_Binary56_FC1_Map_Weight_H
// 1'st layer - convolution layer weight 400*1925
static int Binary56_FC1_Map_Weight[]={
        398,-8043,-3875,3722,-7173,494,2620,10790,-7585,8350,-2477,10690,-317,10470,-10823,10238,3213,11725,-6736,-2796,4090,8578,9618,-1903,4739,-6004,-7136,5521,-4823,-511,-1382,-5369,-9929,7224,8008,4134,6265,4612,10043,-7403,-10768,-9527,-3838,5473,4610,7546,-687,-5469,2534,2594,5265,-8864,-6730,5998,-1483,10236,11361,-7498,1288,-4124,-10975,5648,4730,-8892,-9823,-6882,607,5821,-164,-7962,-5021,-918,7373,-7440,8279,10615,972,-5548,-2924,10374,-9644,9045,-4984,9734,8584,11006,6992,6364,-1336,-6851,10937,791,10100,3641,-5712,-10401,9848,4801,5749,-870,-5620,10644,-6624,8685,10635,3679,-3038,11292,-1652,7527,6924,4183,2902,4883,-4446,-1038,-10232,5696,-5030,-8835,2344,6407,4722,-10056,-195,8711,-5068,-1461,4900,-6671,6616,10446,-8030,10321,3620,-11741,3667,-10052,8899,-10047,1168,-10745,7207,11907,-8412,-11025,10832,-5254,4658,-1039,-8389,-3779,-4340,-2859,10141,4495,-10417,-5663,-12141,4970,2504,7811,6191,1661,-8192,886,-11608,9510,-1256,-5276,-3523,11396,-2463,-2601,-5332,9973,-1124,1137,7810,-5466,-4384,-4646,-4622,8019,9282,-10311,7220,-9418,858,-8231,-4546,-11943,-12578,-8494,1362,-104,9232,-6866,10512,-418,8490,-5526,-6302,-107,-3369,-12228,4200,4511,4052,3576,5854,3520,-11538,-8750,-1122,6668,-8707,-9673,7029,12300,6165,1031,-8505,6611,6422,7720,10035,10404,416,-2216,10986,5682,-5455,6053,12434,1078,-7053,-4467,-3300,10979,9965,-5960,7973,10870,4592,349,-6324,-7066,-3908,11434,2714,-608,-3332,-7971,5395,4089,-7568,-10139,10216,741,-5741,6765,9115,-749,6061,-5811,-8679,-7641,-913,2341,-6371,1103,3306,-2782,811,9272,6216,9652,9668,-7687,4337,-1338,-5172,9984,-1597,-7892,-5823,1071,9164,-12812,5675,1582,-2715,8125,-8552,145,9522,6049,11507,2933,10981,10913,-5088,9614,2527,-5751,7000,2359,-1604,-9926,-5357,-2064,-4027,2211,5876,894,6888,-11809,5608,-5414,-8781,686,-1410,-7570,4197,-7875,-10911,-11207,-8908,-1373,-6872,-6937,-7040,9000,-4042,-9029,-6118,8573,8805,306,-4777,8791,-11713,10414,7068,7889,3067,4413,-33,-2563,11801,515,-10703,-10920,-7,2330,-545,6745,-11526,11241,
        -5800,-3889,-28,-7567,1840,-7628,-3516,8668,-4757,-10963,9993,3016,9611,5862,11475,-10538,-3322,2674,-10623,2968,4691,-2821,8756,544,10325,11366,-9599,-1131,2215,10510,10657,2085,2023,873,10788,8305,4936,6251,-4350,9346,10108,-9991,-1773,8295,3901,-9767,-7876,-5271,-5028,-4789,-2803,-3926,1412,791,-12265,-8934,-3861,6977,-10992,-8570,3306,6503,-11567,10257,-9212,-8303,3512,1816,-6355,989,-11468,9254,-6691,10015,-320,-760,5398,3665,2857,5487,-6292,-7396,-630,-10426,-6406,-2234,-3849,2347,-11381,11009,-7409,-1329,-406,1581,-2724,-6056,-9011,8126,-1379,-2661,598,-2333,-8922,2640,-8818,3057,-306,6976,-4991,8560,-9330,10391,120,4307,-8475,-8631,-11747,4474,-7512,-5641,-5713,4655,-7078,-6771,11871,-9698,-8526,12332,-8624,-5070,-5142,-10250,162,-7202,-7683,1876,-2871,303,5249,7374,2580,7430,-1414,-3147,7185,11029,-10246,-3535,5514,1456,12517,-9427,-3403,-8103,-7058,1551,1029,8360,8705,11145,9921,2762,-11929,-5958,8602,7663,-7610,-8608,-8107,9259,1306,-7325,2884,9162,5714,-8427,-4072,-11442,11342,6966,-9158,12119,-6307,-6220,-10842,-3082,-11188,8511,4559,6956,-1269,-10289,3595,-7099,-4539,8543,-9654,3510,-1701,44,8256,-8617,2990,-8586,-208,3762,-3910,8088,1725,6090,-7910,6795,457,-8475,6994,10697,6360,14593,12658,-6651,8211,-7063,-2637,9822,-8197,1293,-7591,12509,-9243,6790,10572,-2153,-8850,12272,-9822,3407,8871,7359,-8985,-9642,-6432,-7740,1158,-3831,-1595,-7433,-9806,7427,-7996,8419,379,-10052,12035,9835,-10661,7850,-4807,-1266,-6167,3111,9348,-10371,-3100,-7109,4978,-6579,1519,-10087,-7197,11698,-11404,8966,-7456,-9370,-5946,-8697,2624,-4309,-12075,9592,3660,-11319,-1070,1949,11734,-2276,-9678,-10355,4912,6552,-11919,-7135,4519,5996,-10769,3040,1269,2918,-3823,311,-9168,-317,4865,-9285,1227,8316,1340,-6241,7446,-2568,-8222,-1304,9732,-4465,6666,9280,-2822,-10256,4905,-10720,-134,-7225,9132,-8449,-4971,488,7577,-5919,-6443,-4029,-11345,10731,-8662,10189,-10027,-5516,-7992,4677,6651,-11507,-10764,7224,7937,11315,7875,-1884,320,-941,-3383,7704,-2735,7519,-2368,9788,-10829,-10129,-3980,-1608,7154,1392,
        10543,-1354,4258,4763,5908,-5698,-1329,1890,4076,5856,-8231,4263,7923,3807,4445,-10866,5522,-7616,689,8007,-9253,7074,10542,8545,4081,-10949,9787,-5764,-7715,1742,-1881,11462,-5568,11885,6581,-919,66,3630,-4665,-4671,3621,1177,4616,-1040,9053,-328,-11935,-10945,6116,2513,6092,7288,7819,-862,-8302,6130,-1902,-3403,-401,-5562,-8708,-945,9660,863,12467,-7635,9561,11032,-7916,-10098,-3830,9209,-3450,-9907,6297,-11500,5305,112,10246,-7993,6500,-6478,-6011,228,-2515,-4587,-453,7262,9685,-12169,-11154,-6302,-9423,5475,-7073,-12662,-12152,8488,-2822,11083,-11497,-12323,11780,-93,-5267,-3555,-2340,2359,6651,-11542,-11038,2008,-10841,-3969,9230,7613,-6226,-8770,2959,4935,7928,-3703,1183,-10503,-4278,-5972,-3719,-8868,12574,-7113,-3969,3550,1724,-9407,-1404,9460,-3328,-6992,-2886,-1455,-10762,8022,1146,10233,10180,-8896,-12,-2543,9986,-4576,-1976,11289,-6273,7396,-6254,-8671,6112,-918,-12929,-3650,288,6695,-6942,2779,743,-8172,9316,-9917,-5877,617,12444,10835,858,3295,-8940,-1107,10375,-8933,-6508,1546,-7234,6439,-3130,10773,-5582,4210,-8867,9917,-5424,11117,6509,2275,-3242,-4763,-10971,3194,-11272,3053,-9812,1277,-584,-1275,-6755,-9527,-3778,178,-5554,-10967,6474,737,-2767,-9889,8108,-3798,4870,-8800,6078,9781,-1074,-7449,-8993,-4655,432,7667,-604,-5449,-8684,11246,7790,-6221,2664,370,8378,7138,-3889,-3277,-8667,-11191,-8404,6687,-980,943,1254,-8457,-8183,-12089,-6664,6691,-3310,-1304,-7329,-5016,-1694,-9950,5124,-8080,-748,10872,5887,190,-2423,-8368,1656,-9154,12213,-5144,-7297,-1016,2579,-6465,-2802,12384,4642,4006,-2906,4030,-5192,-6162,-2073,-9952,3215,9681,1451,-7151,10755,-949,1458,-8371,9044,-5794,2760,-10675,-289,-6988,6753,-8854,10821,5250,-3094,-673,5330,-2981,-3369,-215,5160,4060,12015,10300,-10482,-7353,6123,4105,-4091,-5996,2239,11277,3055,-8453,-11190,11058,-9816,434,5080,5297,8737,-6870,-6825,5063,-11901,-8934,-10902,6719,8905,-5832,5563,-11448,8670,-2880,-6704,12053,-5824,12289,4351,-10971,-11057,-6788,11345,8688,-1528,-9940,-4399,2637,-4693,-3006,11385,11748,-1692,4580,-9873,-886,
        2260,-9992,11247,12490,-8855,1165,5780,12924,5051,12144,5147,851,3661,-761,-8150,-9201,218,1290,-10930,-12415,3233,9548,-4910,-11978,-442,-210,10771,-1128,-1485,9085,11517,10057,-2238,-6787,11257,-8827,10673,-10424,-854,-8891,9842,9108,1505,-5852,-11794,-2798,-11485,13169,-780,-6993,-12001,5161,-6429,1986,5316,313,13214,-5508,-10750,23,12129,-5522,3621,-503,-7728,-6262,3671,11869,-8178,-3927,-6176,-4560,-1524,8197,4153,-1909,-5355,-6817,-426,4034,57,10256,9156,-6977,5957,-2637,9300,1611,1397,6536,-1332,11559,-7328,614,7765,11988,-762,1798,555,-8375,-7572,-4229,7268,10663,-2233,4278,6922,5432,-5834,3032,-8405,-1314,3297,-110,9145,11432,2471,12189,-11031,-6936,-7711,-4700,-8459,4349,-3906,-2470,8825,3558,-11908,9876,4673,3124,-3988,6114,-9293,-12158,-10066,-6582,665,9651,-1296,7222,8802,7721,-1898,-1512,-11707,-1141,3223,1117,4502,-10450,693,4848,1568,-11408,-7782,10184,-7163,-1165,12220,-11290,1428,-727,3156,8246,-1617,7063,-4786,-91,-5487,-2201,-11749,1890,2279,-5593,8936,916,8821,-6136,4272,10178,-742,-5353,-11010,-251,-8827,7532,-2891,-4597,-11731,8882,580,11761,2849,-5148,-8620,10672,-11008,10769,4247,-10504,-5791,11753,10522,-2545,-8287,-10782,-6227,6853,2126,11588,-4405,8073,-6454,-8421,-4810,-9761,-1830,-10069,10760,-9925,-6720,-7586,1878,5466,4588,-7998,4842,-1933,7610,-3702,-841,-2439,-1041,-13167,-6347,-8158,-6496,-9477,-5972,-4841,5290,-5222,-10420,2249,821,-2980,-9829,2979,6714,4202,3013,-3231,2409,8948,2167,11400,-8114,-5366,8776,9411,-1110,-7633,4515,-10089,1923,-6719,7666,8883,7781,9874,12074,2611,-5858,12026,479,-5603,-8309,-9093,7843,-10457,-4384,-8099,415,7996,-6075,-248,-6987,-3671,-899,-12156,5034,8864,2953,4088,6420,-5526,7629,1882,5936,28,7778,-9858,7151,9413,3325,7587,-6680,6904,-5958,10889,1521,1568,11414,-9040,1544,9585,-3390,-10430,-11713,3108,2849,-8547,2159,-9520,-6340,2691,-494,9870,-664,228,4703,5498,10255,9583,1230,11633,11711,-5182,5354,10649,1998,-7310,10977,10420,10562,-10324,11695,-5459,1640,3838,-1454,9320,7470,-3808,4516,-2909,-9113,7122,
        8680,3964,-11347,12070,6279,-5985,-7718,8676,8234,-10258,3280,1272,-6144,-9851,4356,-381,7276,12794,-14894,-17383,4338,-9614,-6423,2823,28258,-2805,-8842,6083,-4644,-2148,30379,783,521,-5895,-6564,-4143,-8494,-11287,-6209,74,-7504,-6069,-7516,-2432,1736,7774,10414,9341,9177,-6665,-1797,5828,-4986,-9319,-25724,-7801,10961,11152,8641,5896,-4059,10233,5855,-7132,-2608,8012,10607,12903,-5382,7190,-4551,1435,8174,-9753,-1589,8113,-3720,-8128,-65,-8609,1631,4373,11156,-5721,11705,6464,-6600,-1969,-10132,2691,9463,2243,1591,3272,-1118,2726,8499,6922,-12795,-9247,10956,5743,-2357,-5951,-159,-1848,-10326,7597,2775,-2466,-278,-10299,-5516,8620,9463,3329,13994,6244,-9316,-8002,4985,13413,589,-368,14182,866,11527,6287,-7694,-3246,3430,-3368,-5940,-4103,-5662,-3082,-916,5503,-13439,-2046,-6525,-6049,577,3578,5195,-708,-5812,-7143,-3322,-1083,1885,15076,4280,2606,-3177,-8382,5527,1361,8603,-4722,-6992,-6101,-10503,-19399,-4107,10271,6076,3263,7784,-2003,-14942,-1128,-12100,2530,-9941,-11047,-393,-1731,-4580,6215,-3320,-433,1094,2113,-2119,732,-10532,-1832,8682,-5229,-10599,9080,9536,-4665,-11290,-5194,-5747,-2265,11387,10233,-8616,-392,-941,7383,-1683,-1397,7051,-2101,-6798,10608,6946,7685,10510,-5932,-9101,2750,-1179,18817,15083,13382,-8821,-5829,9055,12428,14181,8269,389,7899,-8441,-927,-4155,-1111,7423,6407,-5167,-14157,-8450,4509,6156,-11288,5519,-16170,-11084,-3962,-8508,-4805,1444,-3232,5380,-1083,4609,-7381,-3358,4745,-5428,11453,-7307,10910,-6035,-1199,6062,2603,7219,11091,-7496,8628,3458,2536,7791,-2017,3056,7815,-8978,11874,2601,-2539,9793,12421,-1244,-7065,-10065,-1734,12307,-6077,-4654,-5574,-1856,10618,11164,9687,-7314,-11188,9772,6614,-8828,-918,3136,-5914,4839,-3512,5505,7202,7838,11477,-4538,-6501,1418,-4199,-4688,-6424,-8733,11881,9184,-4694,-10628,10161,13331,4369,-5993,3779,-10288,8836,-136,10358,-8881,-4322,-5723,-9485,9915,-9343,3055,-7959,-10085,5767,-4687,-11433,-978,9271,5028,-10597,5524,-7530,-7841,-7655,3214,-7789,-8802,-2304,-2427,1178,919,9200,1077,10387,9837,-10997,-11196,2989,-5182,-1278,
        -9839,-11648,1260,7659,5827,3062,12278,5451,3478,654,1302,-13877,12404,4524,-10178,-7960,10245,-5015,9695,15379,1542,-2000,14201,-1702,-21361,-1802,-4866,5399,8096,-4277,-8094,1899,-5636,2385,-12962,4576,-12822,-7644,-7784,4537,-4892,-2725,7691,980,5666,10083,-164,4347,6823,4411,-6699,7681,3182,5286,10871,932,4096,-3265,8858,-6646,-3462,8251,6776,-9053,758,1400,-9742,-8135,5,3495,-11538,1311,3037,-7466,1573,8707,9327,-7496,-4295,1052,12577,1512,-5901,5075,1066,11823,11908,-9716,-4832,9935,-10032,-9852,-748,-8835,10697,6062,6098,9945,5427,-10929,-10728,-9004,-9512,-11878,-3684,568,1119,12217,4666,-13332,-2685,-9574,9828,7813,11475,-2724,5371,-3498,-204,2682,-7272,-11700,7690,-15302,-4518,8961,-4058,-12922,-1454,9667,9499,-11938,8835,-6225,-131,260,-10855,-3856,-2941,7922,5685,-9101,12504,-9311,-16046,-1059,-4786,-8984,8617,6959,4742,-14019,-2687,-3073,-1875,-3168,-9902,5326,-16351,-3205,10928,13460,-1072,15573,10167,-7415,1042,6887,14565,12034,13970,8160,-2212,-5378,2244,17235,3412,-1102,917,10618,-3106,10493,6309,-620,6978,78,9122,-1012,-91,-11727,-9035,10666,5420,-5778,10529,8411,-9779,5242,-11383,5772,3877,-1243,3760,2865,5755,-5342,412,-11282,-12065,-7625,4550,-6521,6147,-4498,-5159,8095,-367,-708,9135,-10456,6548,-2644,4517,1263,-14590,412,-10145,-3249,-6124,4808,-9576,-2633,-7918,-170,-6396,-4753,-11280,8300,9033,-1164,12257,15975,1737,-3007,13345,-4013,-7193,-6040,2175,-3031,10478,6580,3683,8960,2451,11138,-3840,-9245,2468,2142,-4289,-10980,-10293,1995,-715,-9191,8230,-3759,-3616,-11147,987,-11012,4567,8354,2108,424,-3483,4410,-7923,1530,-12347,-7241,7926,8490,-7791,4693,6921,7737,-10085,4065,6891,-12334,10221,2807,5935,-1682,-5036,-10674,9836,5593,-12176,-10192,-6163,-7621,-1759,-9793,2337,-5576,-3991,-1321,13358,1721,3131,-9190,-11398,-4049,6784,-6304,7876,-11103,5806,-3226,8315,-7516,3548,-1406,-8631,6862,10739,3752,-8129,-10740,-134,8398,2486,-12972,4963,-3341,-10847,3118,-11678,11048,-6767,-6103,-8625,-10874,6844,-8827,3646,11215,6447,11091,-1640,-1865,4942,10468,1848,5505,-10414,5349,
        -2218,5271,3340,-11238,5895,-11136,-3778,-324,-6911,7023,2316,-6309,-10263,-5056,-8334,9869,-6868,-8233,-735,15335,10754,-10895,12038,5195,2235,906,-4646,-11061,5597,-11492,-5027,-4150,11464,2257,-340,-8367,8268,-5060,2044,5989,-6957,-6897,-4645,-1583,11327,-6701,6572,-11836,-5982,-644,-11538,11710,1712,8737,-3004,1446,3266,-11109,-9690,337,-12090,-11374,-4294,-2631,6063,-4051,-2117,9251,11567,-10033,-10484,1099,310,10348,833,-3922,-10972,7341,-9625,-8012,4808,-5861,11427,8761,3586,8045,-10034,161,-4770,660,2216,-1527,-7433,-803,-10652,-10822,-7869,6911,4161,7866,10595,9805,8640,-10235,7291,-5297,5179,-5808,663,3142,-3231,10101,8567,4111,-11417,1485,-12049,-6073,-4969,9803,-4450,1154,4910,6838,6247,-7158,7895,-2130,10554,10083,-4854,762,6393,4965,-749,-643,5057,9097,-8550,-1380,3687,-6648,789,1426,-5062,427,-1506,-1760,3284,-2456,7016,-7064,-6182,-1241,-291,5215,-6423,6304,4846,-7709,-2460,12058,5366,14046,12360,-11077,-948,-5511,9273,8413,11908,-5106,-2143,-11031,9765,-4527,-1648,7176,-11236,-5292,457,2857,-5922,6191,2723,-805,-4393,415,5074,8908,-9138,5290,4225,6097,-1926,-562,5365,10490,751,8959,7969,-11240,-5711,-3093,9733,2610,-5642,-3862,4704,11907,4093,7183,-9095,345,-11484,-9057,-2605,-5178,1367,-2843,12093,1299,-12031,2020,-9495,-2776,-10778,2535,7706,-4172,-359,6457,-3613,10248,-8632,1225,-2301,2980,-7668,11217,-11091,-6414,-2653,-1943,-3296,-5631,-12495,2724,9831,5709,-6931,-6984,9106,434,-4281,500,2830,5338,-3814,-4940,10158,-6219,-11898,12000,2914,7475,-4252,10342,2064,5093,4198,-9111,6833,748,-1922,8857,4806,1710,7659,-9262,2640,260,-12383,6408,-1219,-11834,31,-10705,10052,8924,-11639,-1013,-12228,2642,5683,-9140,11390,-952,-10929,8474,-5162,2257,-4957,5221,4236,6990,-3946,-8744,10054,1143,10925,5185,9455,-1047,-7345,-1741,4481,-5533,-12228,-4260,8350,-389,2794,3657,-1097,-5485,11011,6247,-10620,2449,-8312,7085,9472,994,7705,3385,4854,8424,-4325,-938,1481,-9644,5448,-6402,6649,-12426,9018,-6859,8482,5023,-11254,-6822,10107,-5709,-8487,4682,-3829,3291,-7529,3531,
        967,4800,-7768,-10613,7988,-9273,-18217,10432,-1962,6264,1360,2089,583,7316,-8196,-2673,-5520,10092,-17552,-13286,-3171,-631,-8918,-283,21200,-1388,4485,-3279,4663,6961,23090,18339,-8305,-3795,-5321,-7048,-9521,1656,-4094,8695,1421,-779,7201,-6381,-12933,-2720,5997,1361,4735,-815,-10213,-2572,5953,6925,-8534,258,-3788,8292,-733,11488,3709,3211,3484,5923,-7488,-4336,3008,-8825,-7670,-6749,4384,4939,11464,6679,8607,4995,-5709,2579,-9182,7303,-12186,1045,-1057,8505,5302,10628,6460,6491,11573,-1328,10858,468,3939,-3030,12278,-8222,-10431,9226,9143,-9546,7597,6458,-10352,-11729,-1880,-6630,4466,-4105,-6782,9268,-7035,2326,3499,-3637,-9481,5409,4193,-2075,1753,6781,4473,-6451,4374,11981,-6845,-8761,17581,2354,5153,2131,-6491,-8622,1778,-6208,3244,-9494,7331,-12078,1111,3508,-959,10638,-10772,-4930,1514,9806,3741,1251,-8303,-8773,8048,-1001,-12674,-12064,-9877,-1946,6039,12848,13331,15637,9781,-290,-3046,-16181,-4725,-7126,5871,6441,2969,7819,2119,-9032,-9378,1275,-10048,-1305,-4971,6245,-11652,5690,-6844,2840,-3769,1290,7491,-1234,-8871,11675,-6664,-7436,-10953,805,12885,-8676,12753,8583,12367,-178,-7509,-6454,-2746,1525,-7488,9317,-3793,649,3747,9100,-5545,2845,-10115,6801,11472,-7612,8228,12344,5433,8217,11819,1447,81,-19463,7226,5988,12472,-6474,1718,8577,-7840,-9899,1832,-13587,-8451,11153,1979,-10015,-2606,3941,-10709,7215,-11175,-19808,-14217,-3728,-1315,-11001,10785,8321,4952,5293,-7196,5638,8456,-1638,1451,11334,-982,-10921,-102,-2917,-6901,6529,-3808,7081,7950,5290,7275,12923,-464,519,3921,7447,-10203,9618,4658,-7245,-5853,1280,4812,-5402,-10966,11127,3410,4660,-2046,-4357,5516,-3218,2313,11659,6295,-6325,6225,-2506,3448,4887,6809,-867,11874,4492,-12189,4916,3681,-1814,2744,8087,3416,-4738,7610,-444,-681,-6855,-6756,-9818,-2345,9941,10963,-7975,1362,2246,558,9661,11290,-11560,-809,6897,-5906,-6869,6723,-3171,-11127,10717,10700,3701,8301,949,-2484,109,4985,8334,5898,-5271,-2235,3497,-7525,-4187,7408,-1494,-8190,-3562,10975,6345,8615,2535,11563,12836,-471,-8770,8001,12916,
        1371,-10978,6420,7004,6893,7090,11947,7082,-2299,5131,-6811,-11245,-10711,-3741,-1121,-1719,1961,8731,10261,-6678,7747,6981,-9490,11694,3485,1462,-9380,-2451,-5130,-2542,-5089,13628,4141,4403,-3733,-11802,11890,2421,-487,-11185,6232,5741,2754,6665,-1512,-8888,-7488,1730,-1876,-6466,-2099,-3727,9435,4168,-4869,-6638,4056,-9688,-11186,-9642,-137,-8874,-1518,-6941,11276,2315,-5931,-2989,3318,-6123,3633,4949,1816,-12007,3271,12126,-689,-11548,-11575,10862,4324,-3103,3815,8952,-7282,-514,7711,-11655,-3487,-12940,-7223,-12151,-4382,-8837,3916,6203,5136,-8209,-9933,-12634,-7145,8370,-7669,-11701,-7182,2622,-7982,8377,-6940,-63,6567,-5861,-6477,7095,-10321,-1896,7831,-9339,-7770,-11350,8122,-4515,-4465,6677,7196,-250,-5543,-751,-6507,4944,-852,-6228,-3100,-386,2063,5734,-2113,992,-6053,8936,-4288,-9955,7381,-5293,350,-553,3803,4105,-5512,5368,10209,7689,-3004,4165,2104,11411,-1398,11828,-8612,-11194,-11612,-5086,-9077,-7166,5252,5994,6296,9003,-2393,-5192,-13868,-5060,-5283,-6951,-8453,3216,-368,-7300,-6516,-4770,-6933,-6802,8268,-386,5440,4257,-8037,8874,-5848,-3993,8442,6214,-8310,-8950,9306,8587,2108,12823,-5295,5231,12500,-6303,7994,-2938,-4846,-1379,12321,-3624,7972,-3451,10673,5871,5522,-9500,10922,4111,7329,-6707,-7605,-1750,1654,360,-272,-7257,-501,-10246,-6950,-5906,7485,-6904,1701,10371,9652,-7840,-10503,-3432,-368,8114,5484,-3887,9027,9379,-7856,-7258,-7703,5338,2210,9488,6733,8747,4031,-2965,7875,9267,-5652,11311,13193,7092,-9286,2199,2283,9248,6643,826,7880,11312,11455,-276,9275,-6502,-6209,3328,11648,-10235,-7159,-2848,3232,-5161,7969,3153,9367,-1385,4317,-311,9270,-2870,12434,-8469,3303,1535,-2105,4067,2652,-8439,-11440,9102,-9469,8633,-10111,-9028,5499,-4499,7074,11235,6703,-3791,-10767,9386,-7558,-11298,541,9178,-2221,-1071,9656,-1021,-5537,-11594,-10724,11953,10080,-2050,-2513,11064,-9384,-7928,-6004,1950,-2322,-2395,10095,6380,-2622,-10322,4874,-9573,-4929,-2469,7930,-10594,-5049,5825,-3259,6816,4847,9717,-4229,-9281,12190,-8720,-11041,-5848,7985,-10006,-10097,-10411,6484,-2657,-9864,11760,
        -9613,5952,-3292,5372,5628,-1701,-13215,-8453,-10786,-7699,-10354,-810,-3175,-502,11074,-5166,-4830,-12789,-283,-12927,8131,5282,4480,-3383,5115,-9566,5309,8474,3356,8954,10922,5675,11199,11052,5997,-8573,-10883,-4873,7752,-10525,-4284,4412,-10631,6349,2952,3545,-826,6831,-5354,10877,-2265,-2559,-9725,-12676,-6586,-481,-525,1571,6518,-12179,-9353,4346,-1022,10064,-679,-9692,-6958,-11539,5322,8374,2797,-596,6183,6224,1850,11011,-6879,7546,6355,-11676,-336,-4034,9266,12240,-4515,-11825,4561,6970,2617,4109,5559,-691,369,-2035,-3558,7839,2383,3184,-7550,4443,-11637,6893,-9008,-8070,-2160,-10390,-4956,-7275,2988,-9479,-1334,-6438,-11578,-12309,-8182,1720,-2249,8762,7434,3722,-7754,-8285,9861,-10501,7159,610,4812,5271,-3015,-10605,-804,-6047,-2739,-8519,11036,5522,8545,-4445,25,8119,-5300,-9964,4228,11410,-10968,1400,-8612,2409,2021,4773,7801,-11194,10507,-8636,-11985,5849,6499,1430,-11063,6102,-3568,9398,1192,-7058,-928,-10154,-3776,3031,-9799,9127,9518,-10619,-2083,-9403,-11755,5745,-7205,11853,-7861,-6827,9152,-6981,1160,-6913,-57,519,-11936,-622,-7523,9371,-2226,9530,-972,-12600,8372,-11724,115,-5178,-520,-7427,6644,-3134,11567,-10522,336,-11356,-789,3248,8874,-7054,5971,4664,9327,10206,5929,-607,7357,2187,-9915,10504,4666,3198,4175,-6933,3533,-4608,8669,-1737,8610,7310,8071,-11141,11264,7130,-11693,-3597,-6703,3718,2367,-1648,8453,-5274,-1818,4028,10757,-2194,-1796,1268,-4300,10457,-5257,-4903,-2747,-1588,-5851,11678,5954,11562,-2778,4500,-2928,-9301,-3245,-12323,-2902,8338,5546,1750,-7470,-2115,977,4238,-3247,8996,-11792,6102,-5123,11535,1307,-8196,5554,-8907,-6469,-11513,-3858,5941,7270,5887,-9815,5043,4795,-2584,3399,3167,5623,7779,-8920,7870,8134,-1890,3382,-9065,375,-8115,9208,8668,-8040,-2927,9935,7003,12379,-10774,-6110,-12610,-4562,-5997,-4036,3439,7963,-1428,2213,-3785,8194,11068,-12017,117,9192,4870,-5595,-5455,4563,4358,2847,-8685,-1184,-1252,-7149,-9224,-7445,1691,3949,-11316,-7082,6537,-6848,-9676,8382,6501,-1439,-7789,8438,11506,10651,9127,-4307,-11725,2267,-7774,6035,-19,
        4313,-4401,-731,4080,2386,10633,-11050,2812,-3455,-8788,11843,7404,162,2407,-9701,1223,6067,-3319,-15962,-4722,8147,5324,-2704,5485,9618,-4706,1858,-2783,-13076,7052,13747,9922,-2388,9715,-2419,2064,-5203,3609,4186,-12503,8727,4526,-6663,10736,8371,7358,8641,9342,6823,5361,3041,-799,-7102,-10559,4934,8388,-4885,3974,2546,-3422,-3346,-9294,5185,9043,-7989,6951,-6018,-1302,9460,9205,-4221,1801,-35,-10691,11181,-3528,3756,-5177,-3126,-962,21,-3967,-8416,5932,-4262,105,12307,4245,-8883,2411,-5158,5702,8405,3191,-7181,8415,700,-11742,-8255,-8876,6420,63,-6583,2634,7116,10812,576,11538,-6891,3755,4237,5603,-634,-2053,-1133,-11101,1417,10931,3380,6262,3579,5411,6262,-6033,-5650,-3896,-3282,10481,446,8414,9758,-2559,-4137,10674,-6868,-2467,7938,-9725,7501,7566,-3190,-79,7797,5246,8840,13683,-8600,-1277,9403,421,6036,-183,7539,633,9524,9160,4182,4222,1935,12113,-7115,-6876,10530,1891,-9559,9128,-1044,-10056,10180,-10006,-1552,12070,-5668,-949,3041,7104,5094,6669,2121,7563,6173,1088,-5443,-965,2624,-3189,10050,-779,-1635,9800,1957,3762,6931,-1588,-10631,3045,10097,-8904,-307,6635,-6045,3091,29,-9058,-6744,5103,-10525,8564,11242,9448,1111,4157,10328,-7998,-420,1989,971,11705,4844,4882,-12539,7822,496,-685,1543,3689,-57,8527,6884,-9986,134,6435,10416,3895,5947,7270,-7706,-11575,-12083,-4957,8941,-14057,5183,2705,6131,9473,-504,2103,10625,6847,1861,-7746,-2287,-529,-10347,-9695,3398,1484,-11979,-6716,6851,-4654,-1375,2247,-6755,8263,9730,8338,10650,-11460,2827,8712,-10110,5996,2361,-6626,116,-7906,-7666,-1932,3765,-4060,10451,2605,7857,-11334,-8407,9030,2996,-571,-9474,-798,-10661,-9612,-10416,6122,-4774,-7501,12708,13020,-8402,-460,1858,10493,-11419,-11355,-2986,-12177,-11923,3687,1722,-5097,10683,4292,465,2639,-10742,-11110,8320,-8009,10327,-7534,7061,6356,7366,10698,-6198,1216,-1698,4386,2044,3916,-6512,-7254,7619,-1730,11385,5961,10994,9478,-5534,961,-2234,7902,-3714,-10289,-8547,-2665,4334,-12274,-2203,-1986,802,-6511,7343,-6587,-1625,-5087,-12678,-6370,
        -11837,6659,1940,-8411,3448,-9255,324,-9811,-11746,320,77,-11923,365,-7955,-9168,9116,7691,6482,16183,-7359,10609,4306,2294,-6449,-926,7284,-9748,-3680,-1908,-10487,-7929,-8888,360,7255,5275,474,-7932,-7804,7688,5976,-11732,-3410,-6642,690,-5643,-9706,-11699,7526,4518,-5602,7992,11772,-3610,-11849,1014,-7703,-6863,306,8475,-7431,8172,9832,10286,-4843,-881,7542,8400,5041,-9901,-7095,278,-6746,-4436,-1432,-12110,9297,10177,5037,-2896,-10337,-6045,-3707,-2494,-7103,-12423,-11777,-665,-7600,-1771,2837,9367,203,3553,-8933,-1314,-939,-10615,1005,8076,-8756,9065,7555,-789,3112,-5808,-4666,-11206,-10326,5255,5894,7392,4467,-3169,-10988,-993,9171,-10567,12989,-7786,-3480,316,3204,12657,10593,5342,-2689,998,-5434,-7642,-6406,12238,-11574,2187,-4641,13002,-6140,7048,1465,-11050,11974,6095,3858,-7516,8499,7065,804,-4852,755,2911,-4268,10081,-4217,4789,7316,4998,7710,-12174,8815,366,8800,8618,7596,11695,-4487,9937,635,10433,-9278,598,-4253,-10029,5889,3703,-9509,-3474,2075,-2963,4794,-5953,-5254,5848,12029,-10881,8137,7256,11830,-2451,-2669,-4023,-11298,-12341,-5798,9436,2931,-596,-9467,-10730,1556,-3215,-5207,-10645,-12291,7546,532,7486,-1764,-6322,-9266,-4194,-3270,4131,5716,-12325,8202,1359,-984,10081,-10036,-961,-11660,-10799,-6215,-10272,999,-13183,5807,-7187,-8656,1559,11261,-2034,-2556,4059,11194,2996,6777,4500,-4956,-11229,-8659,1143,11979,-514,-7717,1878,-4849,-5365,4941,2467,-11212,6000,5840,-10448,-11722,-668,10372,-4422,340,9439,-4066,-4865,1382,-2068,7841,-8976,-5691,2884,-1114,5715,-11463,9088,11438,11628,7573,4773,-326,-6617,10289,3366,-2308,-8264,6542,7693,-4198,-887,-11316,9413,11792,-4732,-4145,-8347,-8306,-7394,-5325,5793,-383,-4489,6828,-8206,-11270,2369,9872,-677,-8138,-5749,2163,5282,6206,7081,-1310,-10870,7016,3200,10792,9072,11651,2737,6518,897,4199,-4011,-4341,-2530,-5102,3669,10341,-10653,4614,-3731,-7104,8950,5780,-6434,9479,1643,-4430,-4350,9873,-1026,-5319,-6083,4073,5847,11841,3477,-1861,1588,9523,-10242,8813,-8910,5450,-10625,6716,1850,11722,806,7902,8283,5817,
        -3238,-2976,9698,-7036,8874,-2226,-11319,-3306,14145,2494,-5478,10384,-4934,4045,-6759,-7256,447,936,-2662,-16072,4567,8274,-1004,7936,18770,12822,3213,3700,9904,-9648,8792,2215,-7434,-6057,6204,-588,-8204,3860,-6231,9806,-4084,-10080,-4788,8244,-3406,-7757,-7762,275,-9482,218,-7833,7485,-8640,3689,-13287,-1169,399,2110,-9414,4355,10553,1010,-2592,6915,-7709,9432,15922,13304,679,-2148,6753,2703,-10427,4225,5659,4396,8568,7326,-9270,-2800,5685,-63,-4130,-10185,11115,9887,4455,-8561,-4343,-5868,2714,-6196,7905,8117,-2041,-10119,826,6772,-527,-2273,-8652,-12561,-9099,-3229,-4336,6025,7505,7908,-5167,6570,8094,-8918,-8196,11276,4346,-493,-11656,5696,-5329,-11667,13151,-6100,3324,8515,13885,8714,-5675,11798,-6979,6600,9780,6936,-6791,5223,-11173,-8151,-11462,9173,-2381,-1053,-3747,8109,-7548,-9354,-6498,8828,2012,-3400,5964,-3981,-6107,-659,6951,6217,-702,7864,5248,12879,-4758,8284,-7072,-11408,-18157,-12420,10547,8022,56,2124,5164,-6776,8154,-13508,8455,6848,2842,4837,-4518,-1270,7827,10639,1760,-4051,12742,-8665,5560,-5241,-4291,11299,5500,8517,3812,-11173,1315,-2951,-4189,6344,10229,106,12458,-6800,6470,10975,-9471,6207,-2540,-722,-6166,1501,8612,11477,-3307,-10928,-10118,1274,-38,-3721,-1281,248,-4462,12520,-1012,-11327,-5547,13734,14335,5410,-3176,3616,1264,-8739,634,1043,-7528,3503,-12761,3518,1215,-9273,7569,-6108,9552,740,-13769,-13889,-5343,509,-2264,-5191,1624,-7134,-435,11871,-9622,-5894,5247,-10398,-7726,4139,4692,11506,-9383,-6146,11812,-9411,11509,570,3090,-4584,-1952,10175,7381,-3026,-10629,19,-4243,-1881,7900,12623,7164,-7641,1161,3176,-4772,-8136,3726,7091,4480,4772,9607,-8734,-13288,-10302,5673,-2833,-1606,-5653,4583,-11157,-3938,1818,6141,5592,10240,-9177,207,-3492,6585,-7645,10883,-9175,-1824,-1152,5371,-11366,-11216,612,-4569,-4160,-9358,5184,5170,-7270,-4477,-1990,-4323,-8529,459,6858,-2630,-10445,-10291,1425,3762,2322,-2294,6258,3502,-10648,-744,5672,-10213,-3169,-7146,9034,220,10185,-5474,11436,3642,10695,-2755,-6598,8226,9689,-7321,-7542,1278,1767,-11021,-4061,
        3053,885,4363,-10056,7836,9727,-126,-9311,3880,-7405,5910,4363,-959,-10303,2088,4097,-12005,2983,6966,16160,10753,6556,15176,946,349,5711,6644,11411,-5199,-6228,-17676,3143,10877,8016,7474,-10495,-8303,-4590,7694,-2577,-966,2173,5296,-14492,4559,-170,1937,5730,-12524,-8840,5089,970,-6949,105,10177,7632,-12616,-436,-307,-7543,-7136,4415,5161,9297,-9070,5941,-4986,-6041,1993,1899,1939,-1290,-10459,-764,7279,9734,3363,-11546,8458,-9153,-4119,-8465,11837,1539,2005,243,5162,5473,-3280,9801,6530,5243,-2800,1611,5091,4346,-3500,8286,13016,-879,12728,-1224,10718,-7766,-3122,-2290,4204,1718,5164,7334,7163,-9969,2431,-8849,-7418,-7396,-11287,-9039,-2792,8378,-5624,7822,-1836,270,4471,13648,-8929,-8787,-9336,10544,-4287,-1990,-2074,8120,-6534,-8720,10205,7997,-8714,10713,123,-9852,5221,-9019,-174,1462,-6435,-12018,-558,-4489,-988,1637,4311,-2350,-328,-6506,80,-2243,-15334,-6688,-10399,2333,641,4036,4503,-728,8556,1419,-1626,-8943,2378,12865,12134,12229,-1345,-7873,12344,-5782,-7863,1894,7100,-4776,3769,7640,-10915,-11502,-4908,-4223,5784,4867,-5717,-8658,1230,1644,-6201,-11897,-6198,1571,-4353,-9063,-9794,-1748,7567,-1057,-6597,-12642,2253,-6883,3841,8362,-552,-3858,8215,2265,-12385,2487,2568,3337,-5010,-5895,2888,9052,-8115,-12554,-830,-4198,3009,-8145,918,-9889,2331,-4749,8950,-2409,-555,-7347,-3844,3631,-930,-1271,-1460,11874,11934,-933,9455,3325,-5324,-6979,6468,4908,-6032,10279,-6372,-11706,-8388,-10843,10101,9354,346,253,1682,4577,6919,10765,-2711,10012,-12784,10703,2927,-9140,8215,7688,-9469,7934,-3205,-873,-10129,3282,-9062,7616,10086,-6623,-1472,3688,10294,6933,4219,-9530,-13285,-9758,7135,-10784,2451,11133,10158,-12624,-1909,-9104,3274,4207,-4099,-8943,-9693,6994,1771,-8104,-453,9879,-1776,-568,1373,-9856,3969,-7963,9904,801,-1617,-9834,-9422,-4131,9106,11825,8019,3006,-7308,9615,7985,423,11068,11080,3628,5922,3097,-5697,-3904,3528,-521,4729,-4431,-10635,4666,-7602,9195,-4815,7451,-2395,8936,8568,-8703,5703,5959,8671,-4747,3195,7569,-11528,5741,4451,1204,-7462,
        12576,-7344,3057,7919,-8030,6818,-9585,-1968,6692,-2408,4356,4322,-14570,-3533,5265,6775,9641,10232,-18916,-5762,-3052,2682,-5899,-7717,24341,1089,-10719,-9090,7211,-2005,36713,3712,7879,2662,-1472,-3791,5959,-4217,1676,-10932,5231,-2052,-8001,4777,-12467,6744,7390,11582,-7103,10393,-7349,-8289,-9073,-5171,-21777,3219,-4767,-3049,3342,3374,-4688,8616,8802,-2315,5911,542,16013,-7021,10958,-3618,4960,-7398,1952,11619,-9885,-753,10293,-908,10646,-7023,-4212,5442,-6126,2532,11960,10613,-8563,7724,-10512,-451,2775,9801,9637,3402,9960,-554,7386,-2581,-7703,2354,9957,3918,-2743,-11773,-8498,-10783,6763,1568,6436,-5439,10383,-13107,3770,-5201,-5226,11973,-4748,4726,3966,-3697,-1529,904,1420,5603,-1177,22,15147,13749,-98,-6805,-9411,5054,-3427,-5637,5848,-8642,-7420,168,3454,-13118,-11348,11824,-1360,-2055,9486,-2267,6344,-12583,10071,11011,-7073,6176,6754,-4266,2938,-11585,9444,-1684,16059,10195,3486,-2148,-3078,-18271,-3718,4783,-6502,-8262,-12285,-698,-1383,5274,-3464,-7153,-7337,-15611,-3956,-3932,-1748,7047,-7253,-6425,-7692,-2459,-2217,-8438,4770,-8054,-9395,-10211,47,-5201,-518,-641,-9794,-1066,2548,-1287,4995,-9349,5857,5519,-7703,3055,-5811,9962,-4131,-10853,10892,-9238,-7900,7254,-2943,-794,224,-5751,7727,13472,3482,4118,3566,-13370,9050,14015,-1349,2185,121,5665,-16387,-9393,-10312,3958,-3095,9170,746,-16231,-6658,5788,-12029,6244,-9019,-13058,-17619,2273,-6004,-3369,-5571,6660,-4269,-2133,-4569,-4422,9917,12046,-4389,-4866,-1656,967,-1948,712,-8308,-4156,12825,-10029,1105,869,-4660,9578,-10494,-6024,4163,-1762,-2744,-10759,-5411,9851,-9072,12031,8399,6640,-7834,5891,-464,223,1761,4206,10111,-5543,2757,-1239,11239,2222,-8064,11812,-6158,7876,1795,7170,-932,-4019,-5172,-3368,-3988,319,-5027,912,-11573,-13054,-11443,5802,7985,-50,6159,-9513,-1699,2433,-7319,-1542,7001,-10055,4232,-9087,5974,10753,1659,-7867,3999,2706,-3616,6997,9012,11868,9399,-4773,-9936,-8331,2688,8873,-910,-8787,-4463,-9862,10756,10616,12204,-10682,-6447,-11420,8354,1680,3671,3077,10633,4497,-1027,4099,12584,5494,2841,8024,
        3251,8509,-11062,-2064,3888,11739,2238,-211,13077,-6910,-5205,-4466,-8889,-2731,2932,5927,9553,3309,3679,2844,-1441,7097,-2700,-10788,-174,-9228,-10604,12314,7318,3836,836,482,3060,6208,10830,10031,3772,-6380,10436,10131,-4647,3873,-11608,-2556,2873,-2422,-9851,-10417,11454,5878,-9622,9970,-6604,7211,6716,-3439,10617,3946,4371,9022,-3540,-6539,9951,-1324,-9979,10783,-745,7517,-5228,9122,11532,6049,-5281,-8849,6107,12311,2377,-4406,-8951,8851,-926,7798,10009,861,12454,3874,9993,-10140,12020,1690,-12135,11990,-7651,-824,-8725,-2066,-8228,-2853,2929,-5525,6592,12015,-2305,11977,9385,3960,-4167,-2572,3526,11633,-10305,10891,-9989,3046,11774,-4343,11208,4832,-5063,8204,-5622,10488,7146,10674,8281,2091,12744,-10757,10864,832,1208,5443,-11237,1676,-10186,-8723,11018,-1955,704,5107,-6509,-969,-792,-11001,3609,8272,11247,1716,11909,-9721,5290,4477,-11546,2389,-8716,11173,10374,10288,-8739,-4123,-6474,523,-4404,1482,8382,-2484,1348,-12196,-694,-11345,10166,2949,-8027,-10270,2061,-1694,5892,9181,847,7739,7434,-4265,1999,-1343,6147,-4675,-9201,-10488,-1223,4605,367,-11751,-11648,5103,-5519,7499,3197,986,-11054,12057,1892,-158,-7612,-13,4972,-7943,-5920,-5027,-10134,-2428,9953,1505,3500,-2006,4862,4285,-1702,-6930,-5680,-5264,7594,-7134,-66,5514,9926,9502,-10197,-11285,5585,11806,9722,2754,585,-5649,-2443,-1511,7366,-5322,-1271,-2108,-4505,-1679,-11890,11449,1712,7012,8476,-9265,5242,-7882,-7126,-11532,-11416,6348,-6789,1969,-7528,-9449,1110,-4457,3783,11116,6884,-3257,3,11338,11955,-4514,1569,1177,-4177,-5774,-7396,-7301,-6138,-4479,5508,5418,-9261,9536,1476,-10387,-3893,-1020,-3250,203,3415,11397,4420,-4843,-5626,11888,5291,799,729,7463,5947,-590,10291,12428,-9407,10253,-10124,10569,-5801,9124,-9185,-7338,1997,10444,2389,-3197,-5440,11046,-6506,-6598,-5076,-2639,3400,-10404,4857,-2921,3229,-3646,-3836,-6040,-1146,-4507,-9983,-3685,10127,7965,-11228,1250,-10774,5645,11869,8444,639,10672,-7300,-1224,-1086,-7967,10017,1086,2523,4044,-4530,-11841,5808,-9093,4231,1110,2889,-10976,11380,-4467,1038,7248,
        -1603,-5071,-10647,-7366,-7364,-6983,993,-4698,3021,-7466,9395,-3552,-5118,-5902,-11084,-7775,11484,7037,-6359,-14139,5249,-4332,-7100,9965,5247,-3028,12392,9964,-5426,9726,-1464,7940,5023,894,11833,-7240,856,4599,-4490,-1577,11480,-5251,10461,-11298,9832,-4744,9613,9648,7006,4535,11477,-6517,6256,-7577,737,-2704,5416,-7988,-37,-9055,-6067,-223,12032,-7131,-7830,3517,-4882,-9125,-1167,-7559,-5195,-10248,-12297,-7254,8077,-7284,5508,7718,-11212,4873,-822,226,-11628,10620,-9612,11263,5866,11629,-5735,8173,9024,-11230,-5365,3260,-1547,-9371,-10132,8116,5154,10915,-6023,-12375,-6718,-7601,-6750,5785,8801,7561,-7847,2278,7660,4888,9236,-11032,9435,5044,10078,-4214,-8685,1537,-5134,1591,-11502,-6250,11082,1267,11750,-10101,-8525,811,-5271,7623,-11366,11359,609,3686,7091,11101,1618,4609,5533,-834,-130,6141,-9482,2236,2097,9596,-4112,3441,-11414,-11893,-8699,4364,-11384,2690,-2255,8353,-10994,8806,-8162,-8637,-1776,-12050,7978,9290,425,-1971,-5502,-9871,5267,954,-1528,3764,-90,-5968,-7126,8221,-5793,6392,6489,2964,-11166,-4816,-2487,10322,6243,1049,531,-5573,516,2577,-2501,3629,-2214,-3595,-7773,-9139,-8024,-10011,-32,-3084,-301,-6993,-6962,-8366,12778,-9003,-176,11374,-739,-8071,12003,-2768,10660,11391,-3897,9206,7798,9068,8574,-5625,2714,-3660,-4879,-5604,2556,6164,-9393,10240,-624,9048,8990,-5639,7761,-13056,-11094,-8576,9064,7021,11093,-13492,-5560,-1319,9171,-9953,7135,-9881,-6780,-9591,2527,-3665,105,8967,1069,5584,10206,-7215,7856,-10367,-1071,1817,255,5314,4505,5151,-1930,7113,3601,792,-11560,8883,4162,12038,-9037,9696,11570,-9972,1213,-8685,11917,4040,-3000,3525,-11629,-11105,2788,-9790,-467,5740,6565,9012,7940,8604,2455,5623,4734,-5757,-12320,-8223,610,-11881,-5815,-11909,2780,9035,-4379,-6924,-7154,-9040,-7715,8151,-372,4077,-7976,-4421,-1284,8789,-4323,5754,-6605,-10039,235,-6176,-664,5485,-8034,-8646,-5537,-4071,-1368,-9389,-5041,3491,-10904,-3852,2629,9253,3584,-9360,6833,1295,-3822,-1924,1129,-5415,-11324,-3612,-10498,2872,-1462,-5073,1315,6454,12515,12239,-3795,-5531,3260,2559,
        10206,6697,1233,4158,8031,-3114,2166,1675,7391,7697,-2402,-8135,7081,11882,2915,2205,8324,4166,-10320,-11264,-6357,-9068,-4252,5000,-4989,-6618,3741,-5112,-5844,-2160,18361,1201,-10737,-9499,1296,-135,-1237,-7573,10841,-1426,-5643,11569,-10920,9120,5,-1028,4036,-1250,7263,-10971,6291,11157,-3374,-1633,-7253,-3071,-3609,-8044,-6035,788,1649,-2566,-9105,-7710,-7552,-10986,-8952,2788,-11457,5184,-9383,-240,-6685,-9577,8750,-6142,3775,-8939,4870,-4000,4906,-9945,-11600,8679,4165,-9129,10462,6614,6300,-5136,10803,1477,-9193,-9255,4685,-9669,-9659,-2598,-3531,-7277,8375,-4231,436,-1311,-10530,8324,3527,5451,2375,-7471,-6342,-3988,10602,9492,-4198,-8912,4510,-7139,-5195,10483,-7526,-4652,12355,445,-3359,-3788,3878,-4259,6981,10361,901,3221,10000,8546,-6647,-695,-6103,-4068,-708,763,-3476,-1384,-4048,-47,-219,14521,-6076,198,-6381,3990,-9091,5130,-5268,4322,-3304,2579,-7705,6240,6737,-3539,-10378,-7095,-9548,2449,8415,2204,-11153,6790,7096,1757,5545,-6720,1478,5570,-2076,-7446,-3583,-945,-9906,-1402,-4856,1060,-6070,-10182,-9412,-2130,-7373,-8064,-7887,99,8137,6673,1724,-8785,-6164,-6143,7868,-4737,-10292,-1611,-7987,7037,2390,-7029,1114,9675,-1514,2834,4423,12310,-5659,-9420,428,-3918,1474,-5814,-4054,-2836,493,12734,-8533,4336,-3989,15668,3035,5551,-2544,75,-12948,-1939,-10409,-9320,-5817,-2190,-3842,5092,7060,-8372,1186,1265,-7737,4204,6889,7064,-2047,7851,8854,478,1055,-5861,3627,5210,3322,11631,3366,-8247,-3032,202,3069,9655,-259,-9343,10156,2773,9341,-7527,4421,7326,10632,1807,3956,3956,-7773,-3929,9594,7929,10112,-7900,4870,-10368,9776,10103,6184,-4077,2576,7007,3986,4699,1375,2934,11429,10368,7381,141,-5715,-4426,-5153,13110,7015,11515,11591,7614,9529,9387,-6787,-44,3878,-4223,-956,4022,-10380,5859,2631,-526,-4021,-8263,5677,-4253,-7823,-6602,3586,-2146,6662,-3791,-815,-8289,-10402,661,-9214,7156,4106,10552,-5978,5851,8977,11269,7065,-4648,-7673,-8541,3103,6877,-3401,-7098,-6943,10528,-2758,3582,11540,-1023,2255,-5315,7626,-8537,7198,-11471,6097,-11445,3955,12160,
        12044,969,6292,-11869,-12186,2896,-10447,7284,-6567,11751,-2970,-5360,5938,-11335,-11687,1651,9185,-11792,-6508,6461,-3371,763,630,8500,5451,7176,-12424,-1424,-9268,5197,14437,3157,2865,-10379,-6792,-2247,5776,-11135,-10911,4141,-4386,-6660,-10440,10083,534,9680,9646,-1013,-12429,-1310,118,-4968,-239,-3163,-8970,-4634,-4962,-7514,3698,-12144,-12035,-4449,-8299,-4362,3657,9440,12530,-11117,2071,-9501,1027,-2043,3972,-6887,-4830,11048,840,11061,9016,-8990,-9133,6470,7136,-6264,2603,7530,3564,2169,214,1997,7307,1672,-6580,-6107,2297,6083,9431,4644,-10155,-2014,4566,2069,941,-11017,3226,-10911,-262,-5457,-7778,-2526,2727,1232,10689,-2738,11379,-6167,11799,7006,-4192,-10459,-7109,12408,-6226,-10416,8455,-4551,2391,-10051,-11986,-1069,2135,5915,-8749,-8165,-1544,5426,-10234,8183,1242,5637,-3932,10949,-6708,11363,7423,2263,-5242,8614,-6909,-8789,-5218,-4077,-119,2059,7062,-6242,-10737,2085,853,-10615,-1493,-6418,-5006,-10707,-6029,1661,-2860,-4040,5819,-10046,11724,9186,6955,-4051,-1001,-2517,-3641,313,9117,-5632,6498,-3943,-4464,10543,3619,141,-118,-10179,-8043,-10762,-27,-319,6029,-5431,-10618,-7320,-9620,6569,-9481,8290,10106,-802,4936,-4948,-8875,5256,3436,-11137,4430,368,1369,-5492,-3508,6382,-4931,11317,10737,-4304,5279,9815,-5353,-12209,-6561,740,7192,9461,10600,4847,-8186,-11839,-4312,3519,-898,-790,-54,-8890,-9671,8235,-9878,8584,-8550,-496,6738,7648,-7631,-5853,-5696,5085,-11646,-1956,-9455,3297,989,-9085,5509,603,10063,4477,-8647,-7649,-1895,9617,10492,521,10928,-6945,6476,3230,2415,-9691,-5241,2797,1444,3436,3792,8979,6736,4173,4690,2941,7185,-3190,8329,-10782,11032,-1648,11434,9786,-11399,-2739,3210,-3626,3274,-11663,-10060,-3121,9722,-10667,-2062,-403,-7754,-11379,12473,-8625,4672,11773,-217,10074,7217,11084,-2949,-2796,2477,10480,4322,-2697,-8432,-3283,12014,9079,8437,11936,1146,1070,5634,11310,3340,11127,-4721,-10106,-6195,1296,-2821,-4548,2824,9144,-1718,8133,8454,-1921,-10483,80,9831,8513,10324,7621,10087,6967,5971,7563,-5968,-7568,-4344,5604,2968,7320,6416,-2891,10268,-6828,
        -6052,10232,5414,-9614,-10567,-5066,17562,-7515,6634,4775,-4164,2503,-3289,9942,3807,-10470,11494,-6447,8352,21033,-4628,4742,3833,-5644,-10680,5475,321,-5509,1382,10080,-17682,-1893,4772,5605,-7362,-7264,77,-7687,-5314,11090,-3432,2095,9484,-8185,1514,4198,-6168,-13550,-6159,-10971,7871,-4034,4884,9198,-1206,3017,-288,2955,13800,5778,-13316,6640,5680,-218,9524,6903,157,-3346,5234,-6132,8965,-10200,-11372,-10155,4562,9670,4556,-12378,8685,536,-6433,5959,-3216,-2,-2272,8061,-12269,-5700,-12518,-6057,3747,7554,-4210,-10180,1600,5818,5327,6997,-2743,-10386,8939,188,10841,-297,11774,1232,10771,-3092,-1569,4494,-5744,-5175,-3375,-2402,9620,7483,11879,2086,1562,-1541,-12648,-4453,7246,3340,-10021,10297,-10273,-3397,10067,-7331,3309,-7030,12633,9549,2292,6231,-9462,1056,3485,-4538,12702,-9583,5836,-7394,1329,1180,11746,11256,-2138,301,-408,3309,-3394,12073,11150,4903,-5333,-5147,6274,4693,-5945,8939,436,4917,-9706,9075,-11013,-6165,1859,8900,8428,-2684,5548,-3268,6754,9773,-1953,4256,76,-693,-3069,-585,-11636,9807,-5448,10794,-9707,6845,-11328,-6775,-242,6488,-5136,-3791,10067,-3850,569,-11625,-10114,12593,12193,-6857,-6768,-10405,-10641,-11626,-2023,-5631,5402,8379,6338,-1250,1940,10503,-4772,12006,-11537,3348,2542,-9841,1116,3379,-4510,4994,-10311,-6910,-4135,9597,16110,6087,-2480,8211,-8414,7798,-439,-110,-5596,4635,3842,9177,2470,7813,-190,-9028,-7142,12017,-12329,-13128,9154,6882,-6001,-4824,-1551,-7372,11151,11025,-11305,744,-7873,-908,181,6989,-9326,-7509,-1518,-10585,-9353,-3641,4484,12330,10038,-7005,9308,-4883,11221,-4598,-7902,8537,-3202,-945,9434,-924,10074,-1092,-10243,-11336,2049,-6101,-10604,-12572,-8394,-4968,-1458,-10871,-6226,10283,4201,-520,5015,-5072,8007,8816,4396,-1972,5754,8864,5056,1172,5434,-12073,1675,-1367,4741,-648,4641,-6158,8004,-1918,-12290,3251,4833,6574,-5421,9077,7352,7882,6139,-5298,2080,-10587,8467,11027,-7533,12448,-5133,9002,-11653,-289,-5041,-902,-10608,7966,-1252,-1859,7890,181,-2828,12541,3531,-7754,9244,468,6709,-3922,-2406,9857,-5220,4267,12028,5853,
        -3875,1313,-6891,-9397,-10934,-10325,10192,-10759,-12368,-7868,1062,-12129,-7843,3417,-3634,35,9583,4850,9163,12254,-888,6225,-6820,1438,-20073,-12403,3290,12757,1832,-8042,-3057,4988,8911,3460,-21,8025,10284,10695,8775,2930,-3882,2764,-10969,-11410,-8657,-5112,-6527,2124,-6714,-12075,4286,-245,8249,-12158,1190,3639,-8666,-11031,-9159,-8036,-3993,-8445,304,-9327,217,-6354,-3583,4875,-5959,657,11656,-9626,6304,-4710,-6930,-7269,-8206,7928,2063,7350,3933,8612,-784,4755,537,-7862,2711,-4479,-10283,-3615,-72,7560,-6582,4186,-10273,6687,1996,-6713,-6941,-8242,97,-1905,7619,-2879,3325,-9496,7251,6867,9095,-11470,1833,9357,9606,5146,4593,595,-2839,7862,11236,8264,-6044,-2920,630,-56,5576,-7,2445,-5212,10838,5379,6974,-6401,-6253,-10965,-4167,11981,-7410,4073,10506,9629,-4029,11136,10828,10493,-11328,1627,-10503,-10321,-1692,6223,-12051,9018,-11216,5144,-7671,-7564,-14534,-1138,-12074,-12134,-5955,3439,9749,8697,4806,3194,-2748,6757,-103,-9842,9808,4372,2875,-11337,-9783,-7434,-5532,-5772,4563,3770,-4769,-4627,-3872,1287,-6364,11477,-10253,-3988,367,-4753,2361,8059,-434,9658,-406,8317,-9245,11432,-7983,6183,3997,11133,11357,1311,11658,7274,-2754,-356,-5730,-8967,-8687,-7209,666,-7236,2869,-5875,-3539,-5951,-2018,-47,-3544,-4227,3108,-12020,-2302,-5958,-12900,8557,9914,10227,-7781,11620,-1734,1345,13973,706,-4405,115,11659,9223,12015,6044,-2092,1760,5519,-9666,565,-3049,8652,8122,83,-2474,4601,-938,-9541,10324,7977,-591,8636,9479,-4572,11696,-5567,6337,-3283,1552,8199,4858,7627,-3854,9107,138,-9564,10630,-11947,-9150,-3179,-9196,7905,-5490,10683,7568,-4008,3399,3041,-1211,-10184,-2898,-5446,4587,-6897,4869,-1190,10772,-2640,-9810,8989,-10221,-11247,-9427,-6916,-10116,-5870,684,-5403,9265,-5324,10293,3092,-6477,-1161,2494,-1129,4512,4598,-8214,933,1135,4766,7269,-3753,7947,10242,6675,9572,9523,7271,-9869,6041,-6849,9247,-5250,6815,-8629,-11942,-9188,-4103,3847,-10440,12262,-8496,6310,-6922,8869,-3947,11698,515,3900,10674,-10070,-8102,-9577,8320,1075,-7269,10736,-8299,8939,-4107,2345,
        3782,-12329,-6257,3834,2979,1446,-6515,10037,1849,5801,-6874,10200,961,10888,10597,5475,10532,-10557,15697,12715,-3041,-11395,11186,-10734,-12613,2524,-1431,140,-962,10286,137,3674,2824,-6959,-6151,-8086,5983,3449,2102,4005,-11527,-2403,12291,6805,6136,2273,10826,1173,7953,7077,414,-7094,-11128,1275,-1798,-322,860,-393,1592,2672,1533,6500,4867,618,-6649,421,6285,-10378,10550,8764,-2573,-10365,-11430,12495,-11238,9216,9552,7507,-8385,4924,4318,3299,3699,6466,1362,7096,-3237,-1490,-5969,7982,6695,531,-1306,-5499,12568,11442,-1915,3729,265,-10783,9366,-2431,7454,-8381,7432,-3875,-7165,421,3143,-2489,-6006,-4845,7807,6800,-6973,-11757,289,-3378,3583,3141,9722,-12546,10341,-10586,1686,9096,-6144,-5848,6101,-3230,11954,5320,-11458,-1084,-7964,-7612,3774,-6214,1709,8180,11948,-3618,-5252,1328,-859,3539,1230,-9444,6622,1344,-3656,-737,945,-7552,3760,-3990,4886,-1530,-1376,1442,1128,-10883,3726,15525,6411,5807,1132,-2975,-8035,4401,-811,9320,-5807,-1085,9477,5482,5109,-9329,-24,-4200,4688,3516,2899,-6088,-12404,9778,-8655,1726,-8001,-12593,-799,994,1632,4989,2906,-4548,-11585,-625,5570,-6850,-8478,9222,-8697,-3413,-1376,7511,-2127,-5717,53,5591,-12668,4764,8984,-8535,5582,5310,-12144,-5798,-7312,1969,12114,-6489,-5089,-9071,-7163,11025,-12768,-1597,10921,4945,5387,11049,-8805,6313,9119,564,2622,10,-2931,729,2278,16401,11765,9878,2474,6896,232,8132,-9279,-9600,5500,-6012,2052,-761,6681,6606,5679,5153,1812,8937,6397,-9280,2473,1814,7334,-10748,10085,-1326,-8484,8172,7137,8939,-12535,151,7164,6379,54,3834,-1236,-9006,-11210,6700,571,3965,3752,-9483,-3079,8754,174,-1564,-4535,12281,11425,-4041,3901,-8353,3051,5235,4632,752,9989,-9913,-3920,11485,10603,2407,-8999,-41,8816,4809,-8197,6760,8478,-627,-7366,7392,-8431,341,-8389,-4557,3424,-7345,4088,-2023,-7044,-8330,-6789,-11256,5276,-9391,9768,11038,5705,-2425,6381,4141,9684,2468,-2183,-442,2589,-6615,3619,-507,197,9191,-1983,-9841,3612,5594,6896,-8952,-6852,4793,9017,3527,-3495,-9265,1314,-2809,
        -3196,-9977,-6765,3100,979,-7462,2321,-3836,-11111,-4956,-734,-10497,-7970,2286,9458,-10978,-1001,7582,-5888,1099,1037,-12036,-4557,-9516,-4183,4977,2755,-6885,8222,7342,2687,6621,398,-10137,-9286,10214,5483,2641,-184,6060,-6175,8008,8345,2824,5501,4775,-4377,12423,10824,-6485,-4939,9210,3370,4566,-173,-1260,-5910,-10389,429,-11032,2494,-1173,5957,-5220,3074,11630,5435,2642,2589,8105,-7776,7273,-5631,-10654,10783,2911,-7456,-1417,9161,-609,-532,6624,8725,769,-4428,-9195,2427,-2942,-5554,4159,-9627,-5353,7353,-864,140,-5433,-9845,-7222,-4305,3541,3199,12134,-3915,-9021,6612,-10287,4911,-11174,10750,-3903,3732,5821,8674,-8513,5966,-6228,8935,-2406,-4419,239,4491,-4252,2372,10429,6518,11429,5411,7391,4792,-3140,5355,4419,1180,-3561,8309,-755,3616,173,-10089,8923,11539,10879,-9190,-1396,-10246,-9069,9083,-10979,-10415,3862,-4510,4800,-9107,-7581,9828,-9097,-7951,228,8843,7822,-5866,-5095,-230,4717,1640,-9004,11262,2892,-5272,10269,-4986,-9282,4679,8603,11194,109,11178,-957,-4208,-6992,9006,-11713,3450,-9521,-8204,6084,8104,9649,4851,-3784,8590,8317,2013,6819,-9897,9118,9056,3036,12228,4845,10837,6780,-7743,4164,-5540,7813,-7158,8790,4411,8712,11603,694,-8626,6562,5685,5090,-11013,2665,-1866,-8852,6795,11714,-8665,-2473,-7952,-694,9246,-5915,3681,7108,-614,10809,613,-1218,1538,3289,7704,-5934,9190,2750,1292,-10984,-9998,-4474,-12005,8050,9038,-7475,-10315,-3652,3963,-922,-5300,9235,12443,-10090,-5881,9386,5631,-9635,6398,-8362,4738,-1886,-79,3638,-9319,5589,-11738,9634,-988,-2036,-2235,-2867,4736,-4090,-2432,4738,758,3571,4295,2174,9392,-1,3099,-6374,9040,-3599,3460,-4253,540,1401,600,7556,-3358,7992,-6007,-1362,-5993,4065,-9828,3678,1617,9335,-766,-10441,-4632,-7027,2629,-3896,-9708,-1385,-7100,5072,-8427,-11881,5203,-10209,2124,8135,-10044,-11912,2676,-11401,3527,-11263,4926,6578,-1156,-8937,5423,-10753,1260,5806,6858,-9531,-7376,-6214,-5087,-24,-8203,4751,-4972,1286,-5322,4808,7768,11041,10991,-701,-6557,914,9575,-10091,7749,-8774,-8599,7149,-1638,8372,
        -11728,10986,-2310,1534,-11605,6941,-3257,8197,10237,9227,-6419,-11509,-4890,5317,6071,1989,8170,-8175,8141,-561,-2350,-1720,-11475,11090,7154,-7994,7936,-7233,7178,5895,-7605,-4617,9352,-9281,-11076,-2339,-9555,4930,4420,-251,-1969,1232,-3606,-7049,6193,-5042,-5006,5300,-10051,-2991,-1873,9220,-7833,4258,-4753,-8866,7900,11085,5551,10825,-7316,2178,9345,7892,9176,2951,2756,-7678,-11534,-5434,-8024,637,4702,525,-1923,-7852,-4642,-9387,-8275,-8155,5672,-2139,11260,-3405,10439,1330,3364,-632,8588,-11036,-11366,6791,-11115,-2292,-10125,-10600,2640,-974,6201,-963,-9333,9737,6907,11125,-6872,-5641,-7082,-7728,6917,3241,-9357,4154,-2311,5763,4852,7497,8521,297,-4618,11013,-4881,-2023,-3348,6633,6138,5444,-3241,-12766,-6956,-7028,-7478,-6882,5470,-5153,3134,-971,3452,-6653,-9916,-899,-11687,3778,289,5267,2030,612,-12263,1388,-10466,-9000,8351,5108,7480,-12116,1191,861,-5609,9955,-12658,-13491,10496,6960,8581,-1590,-3577,-7967,4485,-1507,-9893,-5206,-10858,8860,4687,1870,940,5441,-6371,-9544,-9948,5407,6805,7656,10611,2304,-11860,-9798,-2181,-4559,4793,-922,4316,-8670,-4392,-11989,585,11312,6728,-8932,-9290,10163,-4670,-5552,-7414,-7366,2532,-4477,-7375,-10032,2045,4940,10311,-2370,9352,1215,9791,3769,11881,829,-7703,9004,-4673,-1575,10557,-7402,220,9318,-2021,-49,9859,-1354,-8518,129,-124,-686,-10839,6101,-9950,-1693,-10278,-9240,2629,-1778,2561,-5450,-11312,9224,10857,1044,-10177,9400,604,-8994,-4884,-5398,-5986,-4881,-5500,2062,-1384,7504,-7983,849,-6191,11524,5152,4779,-3274,-3224,-994,-5054,-6805,-4748,-3569,1543,5950,-8378,-10419,-3489,-8443,-4228,-8713,-3118,-3275,-9636,-9441,-1934,-1494,1807,9145,-12035,3042,10898,10362,3821,-7780,-647,-10533,4485,2120,10650,-12782,-1584,5123,-1643,-11724,7789,2312,-9611,5519,-6072,-11059,10119,-390,5855,-2104,7732,-3115,612,-9287,-246,2768,159,3881,-10507,-1851,1622,6942,-4196,-5980,-10717,7894,1765,7658,9182,5396,10577,8335,8611,1782,-10183,-547,-3053,-4521,4552,-6245,8492,10211,4525,-1497,-2276,3177,-10459,-8397,-7033,-3339,-1710,10260,9180,-8673,8588,
        -3566,-988,3902,8117,-11511,-2844,-3655,10681,9074,-815,-2847,-8903,-8045,8812,8152,2664,-5956,-11794,-8036,-2410,-9192,-6717,-2467,3093,-11878,-1820,-2860,1668,654,-1368,-6592,-761,6597,6854,4546,5243,-3752,4073,-642,-3357,-6312,474,-3339,10021,8316,6394,-5468,355,-120,-9960,7310,8085,10176,-10584,2096,8459,9474,-5745,10793,-1536,7110,8073,-5722,3430,-11476,10852,-3712,6586,-269,4449,-11367,-68,-9793,7907,4593,1130,-1637,-2497,-5095,-11890,648,10802,-9337,9955,-11759,-2400,-3874,4236,-6241,-266,11715,4142,-2556,12090,-9522,6237,-3277,499,7786,7256,-6652,-6144,1892,11838,-7832,7143,3110,12086,11850,1047,7936,6097,8487,-5352,11938,-327,-990,-3746,-9505,-6218,6860,9637,1551,-7544,-5407,4857,11850,-4372,5524,577,5668,2966,8776,9673,5826,-10717,11748,7842,10864,3848,-1862,-11929,-4621,10425,2863,-4936,619,630,-7667,8161,-10421,-6617,-7691,8368,10132,-7149,2458,-865,-6333,10714,5471,-6328,-3494,4757,5591,-9271,-7529,8243,-11750,4472,3808,3565,-11407,-8610,-2373,-5802,9591,4731,5172,3792,-5197,265,2151,10421,8884,-4753,-8688,-6946,6382,-11661,4962,7,-11340,-176,-4145,518,3723,-8635,5694,-5598,-10856,-7085,-10679,2984,1682,-9236,-3355,6012,9875,-1998,-4214,-11066,41,-9756,11263,3002,4485,9542,-6275,9144,-9673,-4973,10625,3499,-4767,-5160,4648,6008,3580,9134,-3129,-5460,9113,-7741,2406,-6224,-4857,-10316,11823,-4117,-11189,7367,-4467,1946,-3348,7352,8547,-5732,-2586,-10276,10161,10441,-6545,-2202,5889,7694,4390,-5741,-1995,3444,-9378,11320,3923,7083,8714,11847,-549,-1430,10616,-3076,-5221,-1174,-11232,1587,-10378,11354,6662,9753,-671,4161,11422,-11956,-2013,-832,12209,-5147,-465,-2465,10805,5844,-8631,1932,-2780,-5073,1130,368,-9919,7020,-6298,3723,419,9480,-922,-11631,-3893,-5189,-6877,6501,-11832,-4364,9691,-4091,-8944,5517,6848,10819,-5991,-449,1790,-8933,5887,-11201,-11169,-8819,5852,11338,-8931,-11211,6907,6590,-6767,3920,-1610,7169,7818,-1316,-9934,-7372,-7649,-427,4062,7220,3737,-8476,5718,-603,-9222,7043,2696,-5676,8561,-6482,9059,-6986,7931,5879,11052,-5838,1379,-2808,
        2567,-7907,-5216,7089,6244,-3950,-16316,7472,-31,-3950,6767,8538,-5917,8080,1483,-6217,7672,1609,-19025,-8581,-13201,-1455,-11326,-1522,26023,11807,-8865,5295,2401,-9390,16999,17497,-5272,-10669,2338,-8265,-2439,9651,5872,-2219,-4601,-9198,9916,-11565,-1221,7296,-11316,1933,6068,1368,-11037,-4867,-1689,-7962,-2735,1644,8442,9669,-7289,-9184,-512,10343,-10993,-1189,-6257,-6086,4683,10694,4088,-8859,-9176,-10481,10146,11248,2479,7870,-4123,5784,9188,-7446,1687,-6934,-9896,4566,10702,-5217,4865,10351,3545,-11370,-937,-3264,-12721,9163,2841,-3382,-10467,10452,8027,-3290,-574,-10066,-453,9681,1103,-10849,-6755,-3194,9286,4395,4581,1145,-1015,5555,-6285,326,-4635,10082,-9413,-2636,2212,-8285,-4098,1773,13715,-2669,8788,14304,-6769,-10585,-8517,-8382,4228,-10410,-11194,8954,-7196,9640,-2437,-8313,-9706,-5535,-6650,-3773,-2842,942,-3845,3875,7544,11248,-2730,-1699,4603,-7623,-4349,5694,2427,2859,7093,-1957,-3716,47,-16090,-8080,2844,-9091,-3658,-6294,4438,-4304,-872,-143,6905,10844,-9229,-15768,3549,-6407,-1940,2360,-6118,-9796,5279,8144,4411,1696,2391,-9939,-7425,-2275,7599,8674,5540,-7446,9386,12607,4040,-988,11081,6337,-10695,12300,4064,5730,4420,-6078,1944,-8558,5214,3907,-4767,5942,12567,-2562,12860,6664,-4472,6848,15085,11809,-9713,-10863,2313,7512,13470,4876,-2543,10647,545,-8824,-8232,6726,-3610,6591,3590,-1007,10284,-10741,-11497,-3736,-9967,-22414,-14370,1446,944,908,9788,-8772,7947,-4237,10783,9349,-7282,-11029,-5084,967,-5141,-1564,-1554,5993,7167,10802,155,8363,-480,5836,-4883,-1687,-5647,-1335,-8982,5931,8327,8954,4951,-7335,-866,-8525,-4501,-8232,10817,-9681,-7688,3353,-5420,-4453,3963,4198,-6823,13154,-11447,10992,6723,3925,5895,4314,3683,3082,-11631,8132,-2875,-7869,8190,11406,-6660,9429,-9188,-4102,-7386,2201,3504,-6274,405,-9933,3636,3134,-819,-2501,-4844,10951,9608,4009,7088,-11586,9746,4411,-4020,-4766,11580,5477,9480,8253,5059,-1120,8089,-2040,4863,3828,-2798,-5377,-3236,-2628,-7430,4286,-8717,-1569,4553,9225,-5560,-2195,-9734,4326,-10124,-8303,-7049,-1871,2379,-6180,11134,-3438,
        -8007,3680,-6137,-6478,4559,2295,-7200,-7358,7616,-7596,-368,-1797,-3005,-8298,-2970,-10918,9686,932,-14997,-23697,8065,-6937,-14619,-8582,22731,11070,-718,-6142,-1798,-7327,33299,-2989,5387,2948,698,-8815,-1715,9391,-2067,7481,6112,-6300,-10733,959,-7519,-7117,9927,9887,4136,8501,4234,48,-1064,1163,-22523,-8473,1817,10272,-5902,3229,-307,-9084,-12152,-261,2347,4841,11154,4667,-2968,-1644,6380,10277,7564,4779,-2617,-1441,652,-4285,7922,9471,-3894,-4116,-9893,12740,2760,9894,-7194,8499,8405,-6445,-6833,-9182,10724,-3710,-9181,-10414,-6285,12294,6753,-11273,-4146,8671,-4399,-8508,-6078,12415,8568,5768,-7408,4853,-8318,-196,874,11150,-5482,-4775,3131,6344,-11699,987,4214,-154,-6029,-4109,13712,7176,13669,522,-4739,-6222,-2486,-129,-12002,-8308,-4582,5633,9584,-3235,2499,-4526,-15675,8556,6708,3745,12623,2924,-1458,-1790,12771,-3700,-3609,-4171,14,696,-7811,4910,11946,13834,17138,5723,-4297,3154,-17401,-19486,-6961,-6151,553,-3375,-10976,-9647,9791,8529,-8526,3715,-12352,3643,2097,-9732,5654,-8556,-9548,-8581,-11248,-4413,6861,-7619,1251,5127,-5786,-10784,-1924,5481,-1528,7658,-5156,9704,-4420,6319,-5295,-9420,5130,-3153,11124,5832,9756,-5413,1570,-7391,5525,7625,5866,-10382,9147,10800,10911,-1449,1875,-4492,14058,15119,-2112,-6562,10392,12840,667,-5143,13748,-4000,-15094,3153,-6045,-3903,-11268,5796,4451,3687,1498,10754,-1184,3741,-11442,-16664,-19139,-1213,-7996,7536,-7687,-7265,-6211,237,-6360,-10365,-10196,-123,-9494,11058,11005,10631,5686,9858,-6041,4906,5350,-8367,3123,-11471,-305,9751,-4371,5931,-5862,3124,4371,3206,7361,-8098,-1248,4933,11007,-9059,7734,-1358,2894,748,6263,6015,8441,-5111,937,-6368,-9071,-2226,7861,8554,-7479,-1013,-8940,4571,2572,-1067,11179,1093,8606,-3508,4046,9849,7836,1720,-8004,10814,-103,-9888,6943,-7924,1335,-6029,6002,10441,-5532,-8605,7729,-10283,7118,7755,-6894,-1923,7595,2763,7541,-6276,7068,8914,-11823,4855,-7970,10251,6090,-4382,-7642,7351,-10238,6313,4746,5163,-9699,6750,-9365,-7929,10915,6617,-2817,5581,-10159,-2825,-212,-7654,5950,-11425,-1813,2757,
        6529,2270,6057,-11053,-6629,2458,17163,-2174,-6965,772,-7428,-5282,10137,-112,-10256,2691,-4157,-1976,17276,13287,-3500,4636,504,2817,-23041,-578,-12243,3279,-433,3750,-18523,-3670,5205,9607,-10058,-8423,-5756,7241,-9355,-10479,3188,6742,1837,-6552,5362,-4919,-2051,-10875,3831,-2651,4574,8306,-2119,4431,15764,14146,3056,-5157,5581,8752,3846,-12997,9403,7166,6785,-10183,-6047,4802,-1476,6179,-7831,-8881,10009,8472,12576,3400,-3345,12623,10600,-5324,2037,-6973,-6450,-2676,7657,10012,5613,-200,-5074,3213,7202,11637,4094,10593,3263,-4912,-8995,-5295,2258,8184,2345,8247,8308,3038,11172,3079,-10805,-8562,8481,-13841,-5581,11155,-219,-7124,5228,5783,165,-4866,-2080,-10857,-13882,-1306,-5390,-6214,3260,11226,4202,-14852,2548,-283,-1198,-6768,-12369,5426,-7798,-10143,7892,7225,315,11353,-8460,8920,1056,-5739,-12787,-7079,-1514,10672,6204,-4215,-9955,-6624,-7095,7858,-6483,10057,-6441,-4821,-14050,-516,-8459,-8115,15687,19863,637,-3752,-4848,-5535,11221,7423,-4346,-4823,13663,-8691,6966,-64,-10853,-10724,-1446,5795,2417,9419,5888,-5419,-7516,-1472,-9527,11122,10233,4088,-7789,6144,9006,-5551,-4334,7236,-10957,7567,6456,7693,10638,-11688,-8796,9128,5900,-2498,7663,2193,9551,3709,-1125,2209,5709,-4302,-3071,11041,4229,-9682,-13631,-944,-5062,4103,6940,-12589,-11168,-7070,7300,-2734,-2591,2867,-4898,1711,11485,2200,15894,-1883,5260,-7336,-4295,10886,2542,20990,14694,9986,10148,-6823,-3367,-13335,-160,-8249,-1601,11231,496,9370,3750,8721,-10501,5689,6257,-7649,-4630,1324,7735,5246,8804,7377,6944,5550,-9872,10347,-11315,-11369,-12489,7023,-12287,-4208,-9920,5734,11127,-11545,4306,-7424,-10298,9516,2221,-4920,11299,-3096,-1982,7237,-11166,7304,-8202,-6961,-2922,6791,11772,12433,-10519,-3585,-712,-2297,2338,9619,-7172,4869,12629,-1889,-2164,3995,4459,10042,1354,-5876,-10930,-1484,4490,802,668,-315,-2509,-3355,763,1336,-8939,9582,-1443,-1291,-5406,-446,9337,-4404,2438,-3246,-6894,-10123,-7592,-4643,3652,-11054,3460,-2753,-1100,7998,-1860,-8077,-12642,-3231,-8043,6445,-9442,1753,-12403,4618,3489,9685,6474,-6039,-3375,9941,
        5081,993,8398,-212,6799,-4822,-3004,-5090,-9041,-10424,5495,-1654,4140,-4228,-281,6757,-4913,-6382,-2068,9521,-21,-8990,7018,-10115,-12478,2493,-6720,9538,3025,-11600,2917,-9143,1550,-9826,8209,-698,-5555,1665,1094,7897,405,8518,6799,5580,-11632,1970,6159,10526,-2968,9095,1843,-7570,7727,-7289,3326,3527,-7274,7511,10536,-5894,-3297,-12434,1493,-2548,1352,6940,-11566,-2826,10775,9206,-2875,11247,-7363,11866,-11223,-5422,9619,-3938,-10310,-6112,367,9866,11947,6418,-9945,4122,2944,5280,-3083,-1165,-11772,-3438,2073,3766,-9703,3672,-9908,5247,8374,-11361,-8622,-7003,5567,-5209,2783,7759,4094,-10011,8504,-11327,4411,-6849,1932,223,4915,-11204,-1772,-6875,9563,-4474,-2854,4394,-11180,1604,971,-1566,4901,3089,1694,8660,4546,11655,-10613,5811,1872,4787,11742,-11559,-982,-3314,-10624,-1910,9202,3015,-11136,477,11434,-3409,-1292,9894,-5372,5131,-3158,5775,8391,-3184,8800,3379,-6646,6554,-4162,2822,11981,8848,-5908,740,11198,200,-5982,-1742,-10867,-3218,-5980,706,3844,4748,-8859,-6686,1384,7676,8479,9680,-10197,4365,-8439,6730,-195,-7932,7422,-20,1774,-11989,-4751,8784,9116,-1550,-7279,-4794,-3404,5683,4780,7180,2484,-10234,7342,-7883,-12110,5209,-5274,4640,-2404,-2266,566,-11088,-2484,-11094,-1500,-3669,-1331,5556,-9956,-6795,11567,-1605,-4146,2833,-11925,-7387,12139,7724,-4557,10229,880,-12554,2713,6968,6739,10573,4337,1357,-9698,7905,-2455,-8540,-5011,-5572,-3425,4822,10883,11933,6262,6183,-4712,10909,-758,6009,8972,6349,-4160,5636,-4359,-8685,8380,-8202,3035,-6455,711,9742,10318,8885,8686,-8679,6585,-11676,-5320,11788,6225,-10714,-12267,-4417,-6045,-1316,4667,-6606,1717,2333,-9956,-5894,-11099,7802,2660,3658,-10804,-11368,-2139,-5463,-335,-11011,-959,6550,2462,-10228,8983,-339,-2651,-1856,-10574,-1161,2984,-11308,4262,3612,11937,9798,-7890,2722,11403,11458,7742,11523,2552,9056,-11344,-9666,-125,6986,7718,-3424,-10525,-9020,2553,9213,-9455,-658,-7504,4815,1065,7002,1963,7876,-6964,-555,4444,7134,-3908,11743,-6353,-4531,-3690,-8179,-12431,680,-7239,-5825,7574,-1551,-10252,-2250,-2617,-6945,
        7092,9543,304,-5185,7425,4880,388,2783,9999,6088,-4248,-10243,-3801,9767,-8156,1491,5205,-9038,4905,-11891,-5498,658,5450,-3697,5166,9735,2615,-13032,-7483,6489,5525,-4264,1395,10451,-9217,10458,11002,249,-3190,-4550,3419,-7437,-11249,-8564,5049,-4482,6165,-7212,4950,-1501,5499,-6582,6038,7850,-6838,769,7080,-2443,1635,-2407,9514,4631,10320,-8036,-8120,-12380,8569,-4748,-8473,11126,-12161,561,2023,8704,7188,-8106,-3722,-9589,5186,6693,-11431,-5217,-6489,-8745,-8211,-1053,-6534,12509,2318,-5473,-9640,1628,8160,4280,10554,-5167,-4254,8109,5773,-3995,-3012,5311,4155,4846,1795,-3850,-10303,10420,10524,8618,-131,-8571,-12645,7704,-9325,-3120,-6407,6973,7733,-11200,5064,-11313,4153,5633,12533,-10370,6878,-1735,-933,10532,5874,-4402,-12321,222,-4208,2976,8940,-7452,-11914,7629,6702,5945,-9879,462,-7957,1285,11245,-6656,3155,-1496,-3146,1597,-11027,-8947,-2247,-8259,-8923,13324,11511,-7743,7103,10874,7017,-309,-11580,9120,7597,-10439,2139,2608,-3860,9552,7652,9104,-8057,3300,-10307,10258,-3132,-6183,2995,3005,-2599,-6037,2156,1212,8699,7082,4079,7777,2062,5606,4503,-8687,7653,6199,9793,-3127,-620,4976,-3695,-11963,-11381,-5809,10120,-10133,-6358,-10324,-6275,-10521,-4398,828,7459,-9818,-2914,1692,815,-580,475,-4577,5217,-8164,10127,3216,7233,12646,10774,10831,5407,11040,6439,-4794,5775,9171,-12272,6141,-10109,5045,-3140,7686,11151,3441,-2831,9954,-822,7732,-3836,-6317,11218,1268,6957,8851,-6795,8496,-3101,5660,2772,-11297,278,-9752,-4789,-3765,3375,3997,-12052,11671,-10681,5029,-606,-2726,-5645,4003,10250,-9615,-8606,9825,1518,5618,3124,-6658,-8511,-1013,5944,-10205,-5810,9959,9550,7087,-9417,-9036,7934,-5213,-5484,-9586,9044,-8129,-3449,-2469,9741,-3099,-5710,-7649,-9494,-9687,6543,12553,5716,4944,-6722,5473,-8379,-5879,12659,-7944,11148,-6594,-672,-5135,14018,-6967,4889,5240,-2077,-7351,-6633,9691,52,-2887,-11849,-4848,-3162,-6530,6962,6542,1033,-11291,-12691,1609,1345,7073,15,-4755,-3407,5875,5441,78,-4432,-11223,-2913,4805,-5715,5191,-10879,-5114,2971,2205,529,8873,11096,2604,
        -7598,8860,4106,-6090,6106,-4626,-17110,-421,-6565,-9137,4604,7036,-8802,2343,6000,-7126,6120,-2012,-23241,-19091,-11700,11727,-5847,-7498,20532,-1211,-8401,-768,-10801,7798,34541,7654,-2870,3686,-4868,-6452,-3259,-9354,2363,-4203,9560,11214,-4280,7735,-7098,7611,5899,-3512,7094,10238,1879,-11427,1761,-8064,-14026,-3221,9883,-6688,4299,7877,15020,-10169,8024,6505,1635,-2347,13169,582,5039,7791,-11400,-10173,12773,4940,-8829,7476,4802,2589,-2206,2616,-5659,2840,3934,-10983,-9065,-7638,10307,11961,11243,1194,1609,197,12122,-2477,7484,39,11254,-6956,3556,8006,6706,-1222,-10074,-11087,-1126,7751,-9473,12204,-12247,4090,8624,-4336,-9554,3384,-8030,337,-5649,-7552,728,-9121,-7355,7405,2252,-2844,-2102,-10483,9287,4981,-11915,4882,-8770,-3921,-8972,3003,5011,9219,8180,-7162,-15508,-1546,936,-8421,2787,3143,-2612,2625,2203,-1157,-3126,-4968,17454,8687,514,5182,-11530,-4397,10847,843,17355,7705,390,-13028,-21843,-10457,-5711,-4776,9020,2060,-9380,-2130,-9431,-4016,9175,-3944,-11429,-4685,7545,-8674,398,-9805,9902,9329,-876,-9470,-11015,-4271,-9878,-6410,5437,11055,6426,-6676,8209,-5426,-9274,-7282,-11796,-8332,-3143,-730,3639,-5948,-5117,-4716,6462,1818,-12410,-2991,-7897,-992,10742,-12359,6827,3438,-6971,-10735,14104,18559,4989,1762,5063,-8084,11292,15306,1812,11999,11929,3500,-11259,-441,-7415,-7162,-5189,13020,-5750,4969,6182,-2563,1100,-1771,296,-22375,-7909,5727,2787,1380,2704,8097,5953,-1297,-4049,2894,-2773,5307,11163,7411,5231,-5197,-9962,5715,-7179,1321,-10616,-9501,-6984,1236,-9111,6776,2420,-5005,6336,-12106,-2567,5125,5867,-10743,-4736,3535,11172,-2204,-6828,9618,1589,-4125,1212,9179,-9740,-4374,13632,13585,-6658,5891,-8263,-913,10666,-6551,-1830,-6193,-7411,-2900,12438,-7481,838,-3206,-2437,4079,-4065,-5979,-9144,-4996,-3972,-10533,-5314,1575,5764,2624,-2759,4872,14214,-7739,-9221,4365,-3646,1194,8744,11299,7209,11288,9946,-7441,5629,-5969,7474,-1776,1016,-12231,7211,-12284,7638,-6638,5543,10580,796,-516,6132,3130,6539,-4315,1381,1919,-12621,-4600,-9721,851,7611,-2684,-2932,3179,-6202,1394,
        -10151,-5358,-1181,923,1689,6962,-4054,10099,-7704,-24,12609,-4573,-3698,854,-8101,-7295,-291,-7454,-6989,-13951,9820,8389,-9001,3378,7032,-527,-5073,7984,2082,-9030,15776,-3803,10407,-2968,6496,12594,5415,2965,12228,-2478,9535,-10642,-790,-6270,-499,6709,7722,-8651,1225,-4337,8872,-9629,9885,-6090,6280,8958,1380,8489,-6516,6517,249,9295,6984,-7920,6997,9680,8065,4198,-37,3433,2792,11121,-5813,-385,-7433,-12103,-9004,-309,11811,-9605,-4048,5428,-6532,-7953,2916,-5409,-3662,1933,4187,-3337,10295,317,9941,9179,6468,-12344,889,5827,11034,1954,5372,-10705,3175,-2516,-6995,-4730,800,10340,10286,-10954,1554,11509,3245,-4670,1767,-10254,-2492,-5355,9179,1584,-933,-1887,-11547,8042,11685,-2827,-5526,-2616,-10036,5723,5243,-4430,-7272,-3794,8150,-8553,7624,-6489,3378,5317,10045,-1432,4585,-10418,9644,-7576,8491,11695,10835,10416,-2419,-3248,-4537,2222,-12429,340,-457,703,11942,11051,7507,6478,8295,-3387,317,-3862,-7083,10345,-796,-11652,11377,-510,-2198,-1343,8209,-690,10216,-4302,-10137,-5716,-3365,7510,227,1870,-5041,9341,9329,-11165,-7374,-10960,-4345,-8338,-2357,-6245,-8105,-8069,-5704,-3627,-7447,10425,-716,-7905,10550,-9028,-4411,-1714,12603,-3580,-5670,-386,-5136,7926,6229,465,-4304,-9286,13565,13509,-7074,-6775,9097,-6593,9587,-1778,-8147,7683,-10106,5537,-7039,7547,-2065,-4343,-1289,-158,3423,-11571,-5132,-8753,-9514,5224,-6459,-13534,3337,-11650,-584,-3416,-6430,-8024,3703,11877,2153,-4838,-6178,2674,-5896,-9696,9479,-2993,-10805,-8865,2674,1589,-3582,-3363,7308,9360,-8099,2347,-2672,8895,4653,-7828,-8960,6911,1691,10468,11577,5773,2821,-1335,11547,-2498,8115,5906,-1995,10525,-8895,6587,-10717,10900,11191,-4806,-8685,-10603,-3558,-10562,7295,-5278,-12,-9849,2320,-3592,6657,2656,11315,-10651,1438,-299,-10363,-5188,-1080,3474,-8337,5618,415,-5398,7313,-8787,2378,10627,1324,11238,3828,-2215,-552,7639,-8083,7862,5123,-8805,-6908,-6133,5608,-11289,326,-8256,-4406,-5597,-6968,5221,264,1486,8499,6496,8541,489,6608,-4507,5385,2696,-1931,-5450,-6731,-10609,-9208,-9703,3198,-11114,4455,-810,
        -5083,5248,7481,4698,4268,-11461,-14841,-2667,-2166,-5474,2325,7580,8953,3878,-9361,-8912,2712,-12101,-3697,-16707,-1875,-9978,-5402,241,-1350,11783,989,-6772,-4417,4073,14253,2205,8944,-7654,-1444,-634,11150,-2737,-9462,7988,10318,-3212,10569,-11287,-3365,-5894,-8222,2118,-5450,-9199,-3809,-4862,-6814,-10382,-14917,10173,12194,-4476,4445,-2480,825,-2322,4945,7814,-6175,-2752,10513,-7269,5216,8176,-3204,10505,-6129,-6847,-1894,-2504,-4272,-1642,-2829,4771,-1768,10802,-514,-8242,7212,10607,11435,11246,-10744,-5982,9137,-10084,-405,6333,-3448,-11478,5988,-834,-11135,8936,3194,9891,3871,-7298,3835,420,-5769,-9878,-1446,8826,5443,1486,7442,8262,-6311,-5198,-9620,-2042,8349,1799,-8351,4057,11148,6314,-2781,-11429,240,5438,3323,355,4133,4307,-2145,-2563,-10289,-560,-1920,4339,-1779,6023,2490,9939,-9719,-11947,-1335,11027,-666,3173,6505,-7154,10542,1392,-3234,-613,5240,11829,4102,-6118,-2785,-698,-512,-9442,-4244,-5651,-618,7395,-8462,6956,-10721,5111,-11033,-11962,-5388,6600,-7326,2374,-3703,-10435,-350,304,-2310,-5502,-5494,10219,11000,-6685,-6300,10720,5496,9485,3447,-69,192,-106,-11026,-7942,1197,-320,11032,10844,-11,11073,3517,4067,-4436,-1083,10542,-4811,5307,455,-9649,-10040,3078,2790,9159,-2630,1726,7750,328,2466,-10038,4714,7209,-6714,13717,-10209,4307,9807,-1949,10339,-3674,-3668,1545,-7049,6424,-9448,-824,-7868,-6308,-4615,-1215,-16885,1029,7422,-4408,-584,5510,-3285,-307,3624,576,8071,-9174,11266,1889,7135,-2542,-10153,-10782,-8231,8401,4989,-8939,-688,-4584,10959,-7530,-2644,6949,3820,10895,9900,6893,-666,-10904,8364,5686,942,-6889,-4884,-3330,-8007,4789,1071,476,-5800,8734,12125,3266,4764,-10148,-2174,-3346,9071,11123,-9885,2322,-7471,10720,8290,-1366,2260,6544,8994,4525,-8182,10726,-10601,2893,11199,-7279,8862,3614,-6505,6037,-3377,6523,6463,-1876,-10599,9746,5269,-5572,-11068,7525,-12100,-1268,-4278,8026,10929,-9210,-7432,4298,10409,-5339,224,2823,-9583,5774,265,11087,-2220,-10334,926,-8698,-4551,-1132,9427,3788,3826,-4092,3271,-2639,11202,-9233,10293,-2392,5317,6041,6528,
        -12991,-1412,7202,8922,6423,9515,10951,2587,7716,10409,-7215,-5163,3133,-9535,6721,-1456,3547,8270,28611,11369,8390,-12551,12561,13943,-14905,-9216,616,-2305,1245,10603,-35565,-3961,3446,1784,9153,5084,-3207,-12045,-1763,4355,-10674,-10597,2786,443,-9146,11856,805,-11355,9485,212,4016,-2677,1166,-8839,23052,-2183,-5507,-2357,4639,-4788,-1338,-4577,-11295,-9954,-298,12596,-14727,-6636,-1383,-7144,-3897,6580,-1927,-7467,-917,-5552,9693,-4827,-9565,12611,-7600,4274,-4786,-2868,7623,-227,-4408,4124,12400,3331,11874,-4429,8981,-9521,4923,6304,10922,734,-4543,6840,-5142,-11427,-8394,534,12789,3717,-9020,2217,9635,-10729,3608,-565,3320,-9893,7902,4254,8514,-10721,-4288,8449,-3480,-12503,-11327,500,-9850,5217,-1729,-11043,-1409,9208,13092,-704,-10102,-1396,-6292,1143,-7343,-6609,18194,3,12185,-2473,7019,-6878,-1877,-9730,11449,7170,5054,-11108,-14680,-4646,5212,6636,-3891,3458,-12815,-5839,-18588,-13100,-4545,-5085,5530,20842,-4821,-10963,-10326,-3205,-5658,6609,6564,-64,-35,-7253,6221,3265,7938,432,-10488,-8671,-12022,-914,-4407,8342,-2347,6152,-7732,3161,7037,4741,-11021,4168,3804,-4187,-3340,-4080,3870,-1696,10452,6506,-9057,941,5388,2066,-203,-9010,-7015,-1657,-6431,4330,-3870,-9642,6077,5751,6292,10417,-3054,-8799,-20560,-17829,646,23715,-8663,-8222,-15143,-519,-10479,7516,14698,835,1781,-513,-1264,3116,9552,1031,414,-430,12390,-90,-3672,26027,17101,4782,-54,4843,-2194,-7283,-7037,6408,7431,3033,-1131,-7597,11134,2286,9024,3980,-8172,-8951,703,-12824,-5100,6677,-5881,-411,-11881,-12858,-999,3858,-5191,1696,-12167,6514,-6312,-7678,2335,7007,-12377,-6845,2980,7368,-8621,2625,-4551,4919,7476,-8776,5262,-6225,-1479,12417,-7821,11614,-4874,7363,-9040,-5256,-6250,13025,-8616,4861,-2095,-167,-5691,-5937,4929,-4373,3080,-9635,8924,3954,1541,-9363,-12227,-9176,-6579,11538,-14817,-6904,-9142,3593,-339,2701,6294,10283,-1685,-6117,-8112,1454,-11986,-4299,-8279,-9527,-7273,-6475,9356,6531,-12820,-5470,6573,-8405,116,-9778,7745,10762,-4843,-6896,8565,7806,-10533,-10093,3586,6884,-4338,75,1152,-11467,4752,9354,
        -7002,-4836,-11008,-579,6979,4678,15793,5431,-910,-4431,-1365,-11029,-6415,9216,11330,-8832,-11425,-1622,11368,-2493,-2364,1551,13373,2037,-7771,-4708,-7725,3928,-1728,7564,-19996,-6152,11151,654,6632,1095,4509,6858,-8546,-9380,5832,-2267,12323,-1703,9575,5178,2939,-7217,10617,-6046,5979,8799,1557,-1585,14656,6070,-1700,1938,5534,-9658,-5553,9102,-11351,-3395,2976,2815,-679,4474,-5001,3225,7806,9205,8918,-1403,7148,9459,-2967,10986,-1827,9311,-6487,3394,3082,3725,-2448,-1182,-5842,6664,-11937,8944,-7852,-12174,-1231,2736,789,1790,-2926,3256,6720,-11497,-11283,3190,-6685,351,2199,-8027,978,-2534,-3233,-5795,-6186,9927,-3537,-10114,3781,9240,7653,-12241,-4750,5975,-544,836,-6887,3003,-4464,5609,-13317,8327,2471,11048,-9613,11134,9160,-2288,5441,2126,1617,5688,-7813,4859,3559,8910,6850,8727,-5234,-13656,5268,-7444,-3104,2988,5002,-3075,4779,7321,-9020,-2365,-2119,-13433,-5886,6613,-3723,1173,12833,5172,2508,-8401,4341,6305,-979,-8942,768,2593,10964,-6233,5130,11717,-9354,3330,5385,9395,1290,-6172,-6830,8174,5211,12087,-7020,-3795,7184,10601,11130,-660,5783,-5076,-3818,-7399,10722,9042,-5249,-6892,-5747,805,4962,11463,2453,3616,2747,-4772,3292,-9800,1880,4088,-1098,-2794,4219,6694,-5965,1830,-8959,-14899,1573,5823,740,-13670,6382,-6604,-868,6801,-2814,5537,-4543,-5678,-7073,3200,12687,-4861,-171,-1315,7998,-1549,7905,2686,1781,-7535,8560,-2788,-6609,2686,-3321,3716,-6165,1273,-11692,1602,-8440,-3818,-11585,3930,-467,-5826,-6516,-4571,-122,-6930,10478,1458,-7592,-6116,-1992,-9074,-8408,-7598,-2427,5472,-3418,-3903,-705,-509,1891,-4438,-951,1014,4628,7165,-3579,-5645,-9061,-7648,-8922,-9484,-5724,7624,-10807,8130,2560,-11782,11083,-4397,8519,1784,11460,-11571,-2521,1938,-2800,6748,-8674,-382,-5373,6757,259,10145,-1706,1600,-10542,6388,2600,9148,-3648,-6753,-10522,-5659,10001,-1184,-4413,-4347,-5940,3537,3655,-4505,6631,-6893,-1485,8883,9147,2353,-8697,3385,-10306,6428,12727,-7475,-1500,1162,2521,4375,954,104,6070,12302,-11682,8914,3362,-2274,8436,-5198,-10088,10816,-2507,7724,
        8930,-9676,6162,3039,-2289,-1611,-16661,-2447,-2438,2119,-810,9468,-3982,-3987,-94,-9556,-2142,12091,-21964,-8326,-7697,3247,3027,4291,15356,9500,7687,-2387,-6275,8424,33296,-791,9049,-1775,7106,951,9368,5082,295,-2725,7529,12928,-12714,12652,4869,6482,11211,-7118,-3702,-5034,-8612,5687,-9533,-6994,-21361,-9906,11940,10938,-8361,442,-1072,7301,11739,2297,7905,-3311,2641,-9122,-6374,-289,-3455,9383,13857,9096,-10642,-4390,-6833,4466,1053,-10290,8037,-12262,9960,228,5857,7270,-5162,2226,7737,-7186,10441,-7948,-1730,-9696,799,6093,5900,4712,-10378,2343,-2528,6029,10070,8505,10667,6194,244,2398,-1552,10659,6009,5872,-5908,-11221,-485,2618,8201,5197,4482,6087,3046,7793,11371,13366,-8749,-5202,6568,-398,-2001,-8429,2132,-7061,-9291,4278,-12162,-6945,149,-8070,-2964,680,-2219,-7488,31,-5434,12531,14240,5624,-8954,-1672,1886,-6076,-461,2778,-1073,1273,1943,2003,9181,12634,4495,-3440,-79,-16561,-24657,-7776,-8494,7810,-126,7140,-9432,5021,-14963,2348,8339,8204,-6912,-11835,6185,-3701,2225,4183,-3919,4459,10874,12486,-11178,3866,11010,3606,-4474,1708,903,-7512,4027,-1561,-7076,5362,9323,-904,2171,-7588,-7098,9779,-56,5095,6982,4499,5652,3298,8090,-10533,1931,12443,3591,11335,-399,2158,1671,7045,8378,-8038,-18527,829,4908,-1376,-6659,11191,8740,-4789,3690,-4738,2737,7416,-1302,-10884,-15653,-8213,-3058,-4831,2518,-10871,-26189,-17825,-12464,5651,-5022,6413,7948,7395,8423,-493,-1640,10193,-7112,-6601,8035,-3974,6071,5945,-500,2321,-9328,-9140,-10613,889,11605,891,-3756,909,5338,-5535,7109,-8224,11459,8414,-10027,-6583,8654,2108,1929,-4093,7074,-5416,1794,7185,437,-3726,2636,13724,12709,-5147,9594,10376,12893,4311,-5549,5033,-7744,11882,11847,11793,-4808,2360,8442,-1867,11463,-5813,125,-2729,-10438,-2220,-10744,3344,-10004,-8502,-11313,-10429,1610,11527,-493,-9780,3032,-6226,3905,-6618,-2839,-5123,-5577,-8800,2990,7008,12822,-3063,6696,-8940,-7461,-10076,6634,-4008,-10275,-10823,-3828,10379,6643,8950,1822,12830,1824,-5234,-9763,-2893,7578,957,-6295,-10181,-2697,4734,-1319,-10383,-6956,
        -4961,-7009,5298,6069,4925,-11575,7704,-3487,-4208,-7320,-7260,2655,-3850,-9348,-8949,-9492,-5744,1073,21274,19525,-6113,-7277,13342,7505,-15545,-7309,10185,-6149,288,12250,-22789,-7611,1151,409,-7398,-270,-5923,-869,-6657,-11184,11394,-9562,-2590,-10126,-1950,568,5662,-10959,12082,346,-8800,10790,1022,1726,12461,7397,2255,-13456,11169,-11054,-8247,-2185,-6427,7510,5568,7244,-16711,-11910,9857,-8184,3389,-7747,-4524,-12921,-13516,30,-11257,-343,-10295,4025,6355,3191,-3984,-7771,-1438,-7124,9606,1036,-9889,-5375,-9884,1749,5404,6716,2903,-7491,989,-6358,-8022,-4694,8318,-8924,10960,-1963,-1336,-6056,8439,4895,-7822,-5101,-5655,9790,3503,-3011,5013,1055,-1969,4815,-10860,-3576,-5511,-3385,8225,-11117,-15735,-874,-13445,-3437,8251,15268,-5016,-9581,3101,-4778,9169,6761,5452,1768,10442,-1265,7389,12563,8495,-1650,-3921,4755,2999,1703,1160,-17237,-14018,-6126,-840,4119,2894,5183,132,-6699,-7142,3385,636,10888,16001,19727,-7215,2618,8428,-597,3329,-9747,13626,3752,9770,6418,-2500,7994,-9610,6615,-1895,-778,-6544,1181,1294,9134,-3129,6093,1336,-11418,-9257,4885,10104,-6468,-176,11389,-11207,-10900,465,-5055,12326,2176,-11754,-11382,-3064,5969,-8654,5320,2344,7748,-517,-10898,-11713,-5568,3745,-4877,10194,473,563,-13521,950,-17954,2756,11250,-277,-5007,-6303,-13082,-3400,-3961,1116,-94,7418,9259,-7545,-1337,15400,673,3147,-6709,-7873,-3060,5350,19894,-839,11848,-5733,7350,-15837,-6610,250,3593,6691,7006,4200,-11507,1542,4511,-4999,-4602,5371,-6777,-3000,-11702,9487,4076,-473,-5609,10100,-11126,5073,-1070,438,-8866,9304,11450,9528,-8692,1269,-11042,-8818,8859,-4048,374,-8907,-7109,1635,5028,-2269,-4909,7296,-10846,-1913,11851,7687,2437,-6040,-10456,3047,-8128,5894,-6208,886,-8304,3278,-490,4658,6982,-2178,-3500,-11280,5995,8438,1450,-7569,-5391,-2533,-211,-3110,-2505,6738,-4667,3634,-5608,-9049,-11092,7750,8457,-5426,-11374,9703,-11231,12113,-1479,7397,3990,-11452,244,8695,2292,2960,-1933,1917,-2020,-8116,-4699,7903,-9016,899,8046,-11543,-9855,-4301,1949,-371,2359,11265,9159,4645,-1994,9995,11897,
        8430,1259,3833,-4147,3288,-8720,5207,5608,6157,1720,-9876,2239,-10833,-7476,-578,-11716,6235,-5640,-1072,6758,-2764,-778,2076,9579,-13103,4118,1411,102,-14183,5640,7910,8223,-8235,-2267,-7976,-5142,-9265,2132,-4802,4749,-13767,-10858,-4275,-1215,3903,4247,-7708,-3319,77,-13472,8154,4330,-13161,3743,-7286,7825,-5400,-4363,475,-6756,4182,-13065,-10685,1583,-5323,-9908,-9188,2089,8024,-4902,6148,-5752,-6394,11111,-5863,-6530,-470,8116,-6920,1389,7303,5114,8165,1076,1308,4881,-6018,6695,9504,-5215,-9783,10692,8195,10565,-12079,-7743,12617,-3932,10400,12239,10013,8678,-377,9716,262,1608,11972,11585,2139,-10829,-1938,-9682,2317,-4538,814,-7769,10132,-6997,-2484,-344,4267,-5818,368,-6689,-8825,6660,495,-14253,-8159,1040,-5452,-1924,-5896,1424,11079,287,-12324,5770,-12284,-2800,11311,-2020,-855,11519,6087,5031,7636,-6656,-905,2555,-1514,-5319,16,-7692,-5842,7293,-11381,9390,9260,-11275,-3444,-8757,-2220,-4095,3514,5860,-13296,8012,10793,-552,4764,5469,-8,3792,8359,8035,4703,-1784,-8039,7596,-2584,-1805,1489,-9555,-11030,4480,1413,8226,-13437,-12807,-11661,7874,670,3705,7358,-13704,-5723,9408,3763,-8882,-8420,8150,6412,-8929,3014,-4308,-13959,-4599,-3450,8577,9744,-5763,-8923,-1170,8146,-9366,-2398,-2479,-5263,-3522,5486,14507,6530,-8025,6905,6916,-11537,2100,-11438,-5856,1407,-5177,-8207,-6127,-1923,13377,-6598,-8055,9815,-8046,1690,3772,4501,12646,-3795,-7355,-2850,9152,-9785,-877,-10276,3707,2069,-11714,-8397,9151,2255,4747,-9030,7076,4055,-4282,-515,-2463,9259,5942,5226,5173,-13612,-13060,-3037,-11497,-9154,-7923,-12814,-6452,-13856,9276,543,-12093,9894,4803,4265,-2936,4021,-155,-2876,1997,-5531,-8681,-9221,6252,-4031,-6779,-3936,4714,-16,-11452,-7799,9249,5965,-13938,-6911,9794,-1931,-13245,-7884,10992,-511,-7478,-5854,-8628,-9360,-5709,10321,1497,-9449,1918,-11901,4890,-377,6957,-2093,2840,-3607,7666,-13035,48,-9933,7234,7337,-1369,-7325,254,7658,-11659,8269,2323,4898,-4056,6827,-2354,-3075,-12125,8428,-1277,-3454,8831,1876,-12275,538,-6321,-5352,-13772,582,-5712,-1902,6021,7577,-4255,
        1415,-5141,7385,6226,8401,3348,3896,3675,-9413,992,5688,-6396,12766,3216,-8355,4221,-6702,2805,2259,19490,-6689,10056,-4710,3272,-19882,-4781,8542,5036,-3047,413,-3507,1564,1615,10634,-3755,7808,-10431,-1803,9290,-79,-2743,10329,6931,805,403,-4859,-7710,-1477,10473,-7342,-6912,4210,-1831,-4607,-2685,-5173,-1453,3347,-3009,554,-818,92,-365,-8965,-8270,-4939,5331,8264,5305,-8973,-382,2497,913,8955,1036,3753,-1036,4047,1267,1451,-10502,-8600,2710,6205,-2739,10526,-12348,11267,-6014,-7371,4793,3633,8828,-9872,-1908,5739,7168,11306,-3956,-1115,8894,6649,-9443,-10288,216,-1010,5433,-3984,10118,-6860,-5519,8853,7725,-5894,2668,-4013,-7963,-470,-1052,11578,3262,223,-7430,8508,-12633,-7140,-237,-5148,11083,9463,10006,-9553,-4399,5456,-1663,-7571,7269,10252,-10241,-4351,5751,887,5578,6527,-11650,5505,3524,7624,-14124,-2671,7676,-3337,11742,10078,2185,297,4173,4331,-16284,-306,-11107,2670,12702,4341,9523,9682,8676,-3760,-6537,-11405,-639,-1038,6544,2360,7708,2558,9874,8916,-10415,-10869,11432,-11504,8695,7763,-3204,-1288,-5461,-4672,1948,10483,1695,4290,3235,7912,-2746,1217,11228,6473,822,5260,-5765,-11407,10845,-7595,-10663,-1786,-5045,-2398,9098,9890,6023,-2919,-1404,-6849,-11988,-6855,-13271,8176,-9595,8152,2894,9051,349,-14624,-10982,1312,-2974,7246,3886,9193,1652,-743,-11555,-11777,-3911,11970,-1276,-1194,7899,3216,-5206,18400,-1288,-5607,-7810,3985,-6951,3309,10054,-7412,9787,3009,2971,1131,8344,4655,1910,176,1514,-5638,4084,6514,2779,-2137,5955,8888,-2878,7973,11025,-1521,-8150,-12034,-11245,-258,10969,12124,-9416,10019,-4119,-5197,-9131,5145,-1171,10893,-5911,-11334,-8585,-8390,5173,6936,10103,9318,-8537,-5738,4753,-9492,-4415,8792,9695,-1509,-1702,-7069,4148,8515,-9686,2852,-3853,1950,-10252,11010,5110,-6384,-10950,-1196,-7587,-10191,-1953,11749,-8526,10574,3309,-1249,-5435,-7831,11201,-5477,-3303,262,5433,-6638,3303,5408,-2830,-807,4577,-10015,-12138,-4177,5021,711,11034,-4555,-3687,-3198,-1787,-7934,-6627,-5019,7455,1456,8767,1077,9960,8635,11705,-3049,-1595,5265,4800,3214,
        -3932,-906,9687,12453,-4967,8286,-17690,9772,-1228,-2492,-2005,10158,-7078,-5712,-4514,-2290,12019,10146,-26215,-15545,9286,-5706,-17235,3367,24556,4464,-8,-13309,-6455,448,25011,12093,4067,-4983,10675,-7659,1811,7059,-4049,5171,-6077,-3552,-13080,-876,7736,2631,9750,-4600,-2565,-432,-4588,-6890,-6323,551,-13164,2465,751,-95,2285,4909,13756,8129,-5830,7381,-1393,-11639,-485,4576,2930,10591,-3089,-11976,11144,-6038,12348,10052,7850,-3131,11962,925,8775,5945,-4444,9120,-4636,-552,4873,-9947,-4651,-2895,10388,-258,-1382,-8271,-5774,-2926,5982,10094,-5214,8916,-5517,6891,-1456,-1602,-4861,10387,-7945,11497,74,12574,-4541,-2142,-5360,10218,5310,-6198,12649,10286,-6266,5249,12967,-8853,7541,16397,2158,-15756,6119,1530,-9186,-5485,-7961,-2422,3612,6020,5239,-2132,-3995,-13803,-15085,2263,-3134,5976,4627,12512,11280,7584,-9471,11801,7242,2288,2648,-3777,-1405,-1206,-9873,-1941,1197,5402,6142,2923,485,1306,-7481,-14277,-3756,-1160,-6006,10031,3287,1916,-592,3794,2039,9745,2216,-7625,-162,-2534,-5535,-6278,-2183,-11094,11303,-6351,5652,-1003,12217,3207,-6963,11288,5209,2137,12283,-6290,-7927,7636,-4252,-3128,9616,-3575,5852,-9155,-11431,-1362,-6117,7939,-795,-7637,-7931,9576,-10725,8131,-2216,-11530,12118,-5068,707,11999,4071,12816,-11848,-4262,-1379,2049,-3015,-2875,11592,9555,-7069,-7183,-4047,1744,3366,-1393,-15285,-17635,4428,7695,5062,1930,-2124,-19813,-7474,-2479,-2874,-4807,-23,2894,10848,7849,-2211,7432,9473,-1714,7184,11948,-8509,-5589,2782,12233,-7609,11131,-10629,-1726,6121,7438,-10759,5137,-1062,1408,6701,-10948,-8110,530,-1785,-682,-9702,-1056,-6441,12507,428,-3937,-1616,-27,-5784,8529,7649,-7903,3165,5273,-3916,-1201,9465,12643,4570,4192,12758,12699,11832,8634,586,11625,-1051,-9544,-5874,-3046,-7952,-4352,-1199,4219,-7259,-8291,2065,-1102,-7079,10811,3362,-5228,11014,3230,-8061,-4125,7339,-1799,4140,6091,11858,-4601,-3524,11955,-6990,-6906,-3495,-2766,4771,8754,9780,-5107,2681,11550,-1080,2714,10691,11250,147,5431,6452,12361,-1614,10068,5919,10393,-2815,3335,-10944,11053,-11342,-6907,4440,12524,

};


#endif //DR_C11_MAP_H
