/**************************************************************
* Created by jdwang on 2016-09-16.
* DESCRIPTION :
****************************************************************/

#ifndef DR_Binary0DQ_FC1_MAP_H
#define DR_Binary0DQ_FC1_MAP_H
// 1'st layer - convolution layer weight 400*1925
static int Binary0DQ_FC1_Map_Weight[]={
        11926,5097,6586,-8467,11717,6611,-2616,-749,3301,-5241,-3302,-3569,-442,5632,6364,-10559,7397,10216,-11653,-2114,10009,-5696,-5069,5951,1547,-3431,1932,-9966,-3790,-10070,-9100,-4853,1493,-8582,-11913,-486,1733,7488,749,10300,-3123,-1177,9611,-11272,6432,-2710,1807,-568,11580,-8123,7325,6488,-9697,-4885,344,-4969,-4161,-6137,11314,-8640,2603,3960,4359,-11870,6630,-5195,-2775,193,3380,-3900,-253,11853,-7196,3709,3136,12257,-5179,-6553,9716,-5112,7570,-9971,11322,5778,-2907,-1329,-3347,9212,-3342,-7781,4310,11992,-5599,-11128,6532,11728,-9595,-10790,-2515,950,2767,10505,-7492,-6857,10114,-460,11189,-3008,8852,870,3040,-1899,-5444,-747,-1078,-2418,584,-2474,1640,7585,-2247,6261,8741,-5590,-1672,10319,-2881,540,-6975,-8259,-8138,-1677,9084,-1252,-6446,-3337,1804,-12202,12287,-4751,-5891,-796,-7157,7246,-2670,-2990,-9464,-9279,7263,11385,10878,11562,-2565,-11015,6739,-11898,9749,-5383,-3402,6616,-12021,-5979,-10018,8802,-10292,-1581,11527,1457,5388,-9630,7663,303,2668,1094,7702,-11823,8142,4606,1643,-9222,-8094,3043,49,4502,-4958,3897,5462,-11986,-9349,8905,2051,-8907,2099,-2189,3050,-9369,5993,8745,-3134,3225,-4880,-1124,5379,-11955,-6054,-9789,-781,621,-384,-5896,-8021,8513,-2407,6649,-7289,-1623,-10152,1187,-7497,2632,7809,2241,-6215,8202,9760,10773,4802,6534,9977,6417,-7846,-7143,-5896,-5400,4208,4245,11421,3866,-3326,-4592,-10459,-8060,11439,-4901,-5793,7496,158,-11678,-4674,5514,-1212,-5255,11174,10577,-6636,1089,-883,3982,2212,10780,8776,-105,-11165,8541,3239,-7755,-7689,-10639,-5813,11923,8851,4400,-71,-764,11839,-7212,5190,8842,6279,-1262,-1460,4973,1107,9035,5446,7355,7221,1845,6261,-2037,-5394,7259,-2736,-11980,-3179,-6494,-5278,2411,-4963,-2570,6054,3963,8421,-1183,-11213,10229,4270,-4517,-11882,-2602,-10905,-3515,7949,-6370,9275,-2825,7358,-6080,-6738,-11585,-9352,833,-5795,-2354,1714,-541,11737,10157,11659,-8758,-2025,-8375,-2831,-7277,5126,-3886,-1251,-4389,2742,4309,6141,-235,12292,-1192,-3104,-4764,-3156,1647,972,-10396,-7026,2196,-1558,-5835,2382,11756,11630,12148,-10195,-12132,
        3009,6635,5560,1632,9755,10803,-10211,8412,9943,9011,6036,6144,3738,-9070,3332,-1288,-7256,-2271,-332,10637,-7506,10988,7636,7817,8272,12855,-2347,6292,-14518,-2166,-5816,-5731,-7682,-7963,-327,12511,-302,-4574,10173,8908,3799,-7427,5061,-1259,-1617,5038,10528,8456,-11358,6689,1905,12171,1927,-7747,-9599,-1264,-6891,8884,-9005,8222,-8766,4894,11571,2128,12456,4336,4234,-9605,-11604,12310,3413,10854,-7903,-559,-2998,4621,-3512,-7436,2875,-1619,576,-827,6379,-2929,-9148,10688,-5697,-10834,7382,-5630,-4399,-7153,7414,-3712,3687,-10588,-8427,-4273,-10777,-7576,3767,347,234,4707,5527,-4275,1003,-7982,8938,-8648,7404,10044,6616,11734,4685,3844,-9907,-3269,8202,-11661,-1466,-6463,806,-1339,4463,-7580,-7033,478,-3771,7948,11274,-6391,6009,12204,-9076,-6210,-9469,10047,5074,4891,-9220,-285,-11360,-4187,6406,-11056,-11985,-2284,6638,-6212,-1335,6982,1881,-9762,-3429,-3410,1866,10715,6910,-932,-3993,-11223,-3225,9669,754,-12045,1709,7034,8816,-11565,-4092,-6049,-5626,-4559,7409,-2970,1433,-5600,10603,1662,12356,-2736,-4820,-7403,-4192,-10395,8309,-2451,9171,-2645,9750,-456,-2286,-11120,11036,-452,-8150,-7835,-10606,8268,7182,-853,-3658,-7626,10726,10095,-3465,4457,-9674,9352,-12002,557,2802,1718,-10935,-7509,4491,-9221,-10487,-2532,5261,8713,11386,4910,-736,-1170,-8855,-10066,-912,-2305,-8742,1626,2140,-7839,-4529,-7678,-8295,-6118,2072,11602,-8272,-9339,-3274,9860,5701,7121,8236,-1487,-2752,-9019,-13020,8337,4135,12435,9059,-3000,2207,-11558,-7640,52,-9041,-9236,10401,8254,687,-8216,6221,279,-8235,-2342,-7716,3918,4670,2880,9112,-9704,5734,-4257,-5869,-7233,5835,-8326,1520,-5773,5866,-3648,-10735,-8923,3934,569,4016,6849,9465,-1467,-433,-2700,9443,1510,-746,-5567,-10158,-185,-4207,5838,12018,372,-5998,11128,11622,11238,7185,-10816,-11103,-9613,-12723,2381,12688,8695,6500,-11873,2263,5821,-7066,-12696,12180,-4204,-10854,7859,11052,-1845,-3436,1710,1651,8753,8061,4888,6769,377,-3864,1567,-1340,-7864,-10825,-8509,-8,6,9657,2114,-2740,8969,8404,2040,6815,-557,-8689,-12642,9543,-9896,-3274,699,
        -11133,-14454,6183,-9308,1233,9355,-3866,2930,9141,-10330,-1802,-6366,72,-6744,1042,9529,10312,5536,-4609,3097,2578,3949,-3074,397,4283,4690,4584,2371,9480,-640,-3737,1059,-1063,757,8092,-3497,6885,2259,-2376,-7129,-5433,-5199,3775,8056,-9737,5100,11416,-11136,370,1899,-9808,6717,1494,5210,-226,-11404,4575,9112,11928,11626,8855,-10473,4125,7005,-348,-3080,-10791,11426,4323,-1716,-5418,7230,4331,15123,10567,-12058,-3587,918,4927,-10262,10541,-6236,-238,11598,9957,7182,8821,-3642,-8269,-11522,5195,-9363,11546,-6062,4861,-2633,-3705,12412,-10412,8662,11755,3889,-4890,3654,-9552,8194,-4525,10369,-7252,-8951,2757,-12691,1828,8427,5901,1722,3023,-7626,3535,-9673,-6764,6422,11542,3148,-9411,278,9009,-15343,-10123,-7065,5777,11384,-1149,6014,9866,8349,5264,11138,-696,3870,-10005,6090,-5657,5800,-12381,980,11677,-1087,8925,-7430,-1898,-11213,12088,-5748,-3454,4170,8422,8274,9263,-8286,-8193,3442,-2957,-1242,-8396,-11934,7647,8337,5459,-4100,2636,8310,-3957,5387,431,6851,-3543,318,-6972,9158,-16776,-7398,8363,6589,9476,2910,-5139,-10718,-2820,12045,-11727,-10546,2517,2814,-5110,5849,-3671,-6976,1066,1667,-9519,-9994,3095,6141,2028,9,-6926,-11639,6196,6787,1129,2388,5015,10519,6893,1539,8627,5510,5081,5820,11452,3382,-2476,13647,-6631,-8777,11511,10155,4689,-1782,11432,10615,-1881,10425,-7310,-1168,-1046,475,-5479,-7052,-6491,10339,584,2093,-11056,-1199,17334,15128,-7027,11193,-13113,4850,-3861,2241,1699,8245,-11714,1703,4295,-10830,-4114,-4919,1664,2233,11949,-5652,-5135,5620,-11329,-1465,10943,-2160,5485,7054,6521,-11346,-6494,-11709,9335,8875,4657,2704,-7373,4112,-7018,-7478,-6050,1163,-9393,-13372,-8891,-9894,12561,6743,1580,3556,-13780,10962,-3506,6263,11194,1351,10873,8443,7724,-7783,-4198,7031,-9761,10283,11713,-11974,4955,-9915,-11142,-162,2587,6710,4556,8759,-2132,-1226,5145,-3681,11062,2950,7360,5919,579,2589,7889,-3789,-10819,10093,10004,-1275,-3377,-8489,3176,10662,5340,9288,8330,3886,1103,-4689,10793,6217,-1515,10876,7745,-10204,5077,3147,1378,4448,3738,6703,4181,-10633,
        -2307,12604,2396,9464,-3735,-476,5546,9340,2062,80,-8382,-2440,486,-155,8344,-10557,-7758,-8424,-9976,12868,4683,-11617,-774,10123,1867,4847,1316,15618,-2453,-11306,10515,5426,5314,-8853,-1726,710,9313,-5331,9873,14,1258,8226,-2738,-9405,5963,-12215,4504,-8343,10750,11354,-1229,-833,11588,-339,4315,-9143,-4272,-7175,9611,-2846,1397,4273,-7698,-3495,-10103,-1293,7999,-9441,3217,6769,6996,3259,-4084,6064,6685,12239,-241,6651,-2443,10116,-6311,11706,3968,10185,9237,173,1670,2417,-2083,11044,5245,9662,4570,6949,1923,-289,7722,-4448,11279,-7226,11140,519,-374,-12066,2525,6192,-8657,15205,-71,-11863,10345,-6014,6190,-6470,4906,8847,-6008,-6499,9697,-11657,8779,-2364,-7453,3126,-884,8018,-339,-1948,-3659,-9698,-743,244,-10600,-3749,-8168,3234,18929,11541,11501,6198,-9778,1189,-7165,-4057,-8290,-2710,6991,8158,-8466,-5571,-1811,-9947,9811,-6413,-6232,-3832,-317,10267,-1885,2890,-10413,5005,3807,3390,-6434,-479,11431,-3903,-4950,11587,-1925,-3408,2790,9333,2258,386,-10481,-5294,-237,10058,-1780,468,10353,-2797,801,3711,1264,2780,-10526,2391,7932,-7945,9369,-10550,8025,8448,-3998,6622,-394,7403,7273,3214,-8360,488,-3600,-2171,-2141,12579,-3893,4586,-10489,-7031,-11096,-9897,-4642,8062,-9010,-3940,-7103,-5551,-6854,-10707,7145,5243,3097,-9623,-11497,4204,6740,-986,-8745,7477,2853,-11858,11467,11307,11756,-1427,-5895,-8205,-770,4666,3134,10928,11861,-8717,-2386,5625,7278,1484,1612,7298,-6336,-6093,4684,10171,-375,-3595,5828,-12156,-7277,-1182,-510,-3663,2744,-2267,9145,6664,7667,-6126,2842,2926,11854,12308,2998,-2566,2398,-9185,-8127,-2618,-5461,192,17,1156,-9312,8449,16,-3225,-244,12740,-1753,-3079,7919,515,5928,497,7311,-3799,3734,-3398,-11410,-3860,-9163,3120,9716,11237,-8475,-11524,-6032,-11831,7859,10345,-3554,7876,-7533,-1644,3886,-9132,-11837,-9342,3648,1499,13893,-4956,9219,11453,-4909,-9562,2328,-4799,-5727,-6707,-10927,-10683,-7406,6729,1544,1523,-396,-802,6690,6133,-1472,6579,-4419,9111,3367,-9166,6554,-8339,1710,-10803,9915,-1507,1914,4146,-10878,-9144,11452,10910,
        11094,-5340,9782,8258,6700,-4612,4709,-3179,-2444,-2773,-4894,4411,-12305,4763,10657,-7605,8511,-10390,-5119,-1710,3127,-957,2081,234,1724,-1701,-9214,865,-864,-2935,4465,-11758,330,275,-10563,1777,7286,7402,8420,3880,2199,-11084,-7242,-6017,6649,-8128,-228,-322,11527,4505,5911,7118,-7081,9859,-7318,-8802,-4896,-5096,-1770,1719,12027,-6890,-8644,-3211,2872,-9683,-10996,9677,-11844,-7158,-2875,12260,6692,2822,2787,-7895,-4292,-1512,-179,-4819,8170,-1853,-11787,5023,5477,10837,564,7045,-11026,-9973,-203,-4755,-3153,1261,4153,7218,10344,-9637,-5923,8209,-8907,10470,-3592,-6030,-7402,-8749,-2834,-568,500,-2887,11922,-5289,-10827,-4251,-10623,9547,-4833,4253,-6467,657,7772,3713,7217,1937,11879,-8088,-4712,8619,6416,-3817,-4086,-3511,-7380,-1585,1885,5539,-2188,-10532,11567,3933,4380,12758,-2264,10387,-8819,-2258,9644,2369,-3998,6042,-11992,1011,8550,-4584,-10271,3466,2332,-821,8490,-6218,-7072,-11167,1166,-10356,5781,-1492,-9031,2073,-1400,-2518,-4316,-3091,-12482,-10583,-5209,8342,-6045,-7825,-4457,3316,-11164,-9461,8468,-1204,-8870,10927,-2511,11267,-1356,-9330,-8203,11167,-4986,-7274,-1404,11055,632,7648,-8309,11840,1641,4445,-2970,-3948,-10284,-334,543,8822,8334,2083,-3375,12483,691,-3258,-5226,-5781,11047,8448,9701,-1514,11503,1234,-4081,2303,1976,8514,10012,-69,-8373,9347,-7801,716,-8787,-2331,-2743,-5987,-9305,11204,7295,1663,3811,2548,2754,-3826,6855,238,-12687,989,-1277,-12117,-7709,-8910,-7486,6504,183,-7627,-11580,-11818,10836,-11260,11335,-11422,1342,-8750,-11949,3567,284,-11840,-2965,-1277,-4008,-1910,7339,11643,4649,-1633,454,-3555,-9150,-985,-7904,6790,-6075,9472,7273,6642,12373,-5458,-8177,3503,6737,911,-8718,5557,5485,222,9474,-1536,-2352,-8263,2606,11113,-3283,7689,-9285,-3617,11391,3640,3389,2025,-8273,474,2781,-6145,8474,10125,5179,-609,10258,-10376,-5722,-9057,7646,9910,-11631,3189,5393,-2185,-9904,-901,-7308,9472,-4628,-1913,11631,-2523,9329,1686,-4224,-9008,40,420,-3881,-5229,-10032,-10136,8722,-8182,-10909,11207,7873,-3214,7471,4121,-6475,7077,192,8176,3743,-2716,
        17716,3480,-8946,11879,4057,-11484,9532,8398,-6719,-2354,-6164,-4185,-4324,3892,-1819,7441,-523,-8118,3018,-1207,-1649,6426,6458,-4837,-10927,4376,1794,4307,1144,-395,4481,351,960,8216,1793,-11364,3718,5638,1079,-3932,8800,-10390,2093,-4066,-5284,4737,365,9422,-8789,7234,3254,-408,1804,-8869,3867,6966,4540,-9920,4129,6043,-3892,-8628,3929,-11391,-9056,-8964,-3898,7103,121,-10787,3448,-9585,-11103,-12265,8857,-4615,10661,7755,10607,1972,469,-1886,-4242,-2355,-11688,1153,8134,4368,-2108,3772,10631,2697,7702,14548,-7536,-8183,7307,-8311,14911,10265,7485,11622,1136,-5796,3208,7736,-477,10425,-5359,12738,-2770,11482,6825,8264,1824,3560,6706,6233,-7480,4684,-2906,-3984,2633,541,9773,5541,1055,9015,-5648,7382,-1189,-9318,-7312,7737,-15570,-2119,8340,-10078,10226,2328,-9195,5129,-3578,-427,13166,1809,-2444,3039,8720,-2848,-9116,4301,-897,-9556,-5473,-4179,-3625,-10769,10140,-2756,-7760,8527,6184,4731,5388,-10630,1196,-1438,5200,3809,4853,-8460,2484,11261,5380,-598,-9817,6988,-9359,2374,13322,-3788,-2900,7815,-10438,2161,-2490,7857,-6333,5643,3919,5515,-9909,-5715,7997,-4188,4070,-9397,441,-6373,-2528,6277,9169,-6702,5928,-2325,7385,8562,12655,11124,-553,-3964,7961,108,-11018,-8415,8247,3379,4366,-12262,565,473,2910,7412,-13683,2331,9545,-2765,-11151,-3425,-11693,1101,-11379,-11056,-13016,-6745,6848,-445,6454,6393,-3269,-11369,7687,9191,9222,5018,-15951,-11524,-5995,2694,4615,-7692,10648,10661,-1793,-9075,-668,8463,9119,9287,8021,9740,-7473,6802,2517,-5901,-2100,-11394,7736,-11163,-8779,8793,6723,10107,-9227,-8034,-2596,2779,-8522,-11105,8806,-8240,8511,12627,4035,3560,9895,-3636,-6581,-9096,-214,-11399,-35,3836,1174,-4932,-6072,11945,-6634,5154,6328,-9337,-5885,-3828,-10578,-6201,6844,-2067,11480,-4176,-7189,10284,4214,7235,-4131,-5753,-523,506,11399,2296,6942,8332,3689,9081,4684,90,11208,-11547,-10222,-5059,1239,-7975,-3903,-7081,-4735,-9475,-13904,-3637,-1618,9775,6519,-11079,2940,2376,420,9941,-3658,1460,-10332,-1728,4786,-6894,11041,382,-2115,-10371,-6898,-6201,3025,-9653,
        -15427,7279,6371,-4843,577,-9821,5430,-3911,11502,-7511,1928,-11250,-5122,-2260,-6786,-10306,7910,-8048,13033,146,7536,2555,-3824,-4968,-4512,-5289,-5681,10018,12055,-6873,-43,-10896,-9167,-5416,10364,257,2866,5614,-358,12152,-3605,-2786,12500,-8983,11395,-7906,5848,-3127,2601,-9906,-2409,-10741,-4770,-9960,361,5989,-2232,-3200,297,-5357,-4418,-10485,1983,-8602,10554,-7690,-3041,-8147,-2170,-10266,-10552,11121,6053,-6602,6264,6741,1191,-9605,-4934,3679,4226,2970,-5534,-2010,-34,-1416,576,650,3536,370,5227,-9170,5757,4938,-7323,7913,-6539,12346,11165,-5524,7867,-4837,-1292,-245,-8943,2389,-5316,11725,-11824,-2694,-8729,-6543,-1152,-8941,-9387,5218,-4506,-5469,1550,-4180,9307,-10732,-9134,-3598,6147,9957,-312,1889,6901,3365,8795,6105,391,846,8523,11999,-2587,-4867,2139,-5502,9033,-6210,-6236,12174,-3361,3939,9850,7562,9319,-2524,11848,233,-12385,-7218,-2776,3170,10108,10165,4881,-25,-3747,7479,1434,-9380,56,3915,-4415,-9791,-6220,-7300,-4688,-3882,9564,12725,2625,-982,-8137,-9653,-2053,12453,3189,4229,-4241,9942,-408,8323,298,-1176,-10271,-1476,9004,-10772,-10111,177,-4128,-7345,10865,-7705,-10320,-6056,-6028,-10471,8567,3864,-12126,-7508,-11835,-4251,12880,2435,-3252,115,-918,-11044,3327,5566,9957,-8841,-10343,5084,11840,7253,8579,-7785,-4174,-6051,-10137,4850,-10057,1639,-7575,7014,-595,-438,-2851,20,10330,7386,-11702,-3035,12797,8332,-1177,11777,-6890,3153,7691,3580,11613,-12141,-4337,214,-8781,2063,-4972,4421,-1949,-11168,10290,10079,8602,-3606,-9871,-10122,8851,1191,3917,-7847,6548,36,-87,7240,9385,1482,-8054,7153,10994,-11516,12439,-1956,9962,28,-4887,-6584,12256,1519,5100,-2952,-4326,-12680,-5910,8821,2667,-11437,9882,-5513,-8534,9304,12323,-11306,8453,7310,8305,10551,5885,-11771,11921,6296,-5389,-12601,9465,2411,-2906,4054,10131,-1681,-10963,-6921,-4082,8667,-6562,-2870,-608,-712,8710,-11930,-12338,-8587,-5710,-12425,11391,8072,-9445,3543,5222,7763,9816,-12589,3862,-8994,-2505,10202,8308,-810,-418,1607,-8985,10326,1105,2224,-12280,11833,-8089,5661,-9851,5758,-155,3387,7798,-6268,
        -15283,-10016,-12115,3418,503,-1606,3108,13816,-2078,-1893,-10057,1397,11650,-1272,-6794,11607,9566,1186,336,-10854,-1111,7018,-8485,-3906,11761,-14518,-5012,3148,-5551,-7935,9039,6795,8099,-656,-1508,-7314,9437,-1771,-2102,6782,7026,-4999,-9393,-11101,2470,-1894,1703,-10057,2917,498,-3399,-6010,5887,-3572,-10903,2358,10832,-867,2388,-6621,10058,-7543,-6679,11273,-10430,10241,9405,-4184,-2087,80,9678,8674,9632,2376,976,-5728,-11133,-3542,3580,11986,-4763,-4750,5247,-2882,10495,-513,-3899,1692,1170,6840,-11396,10985,14486,5271,-109,3239,9955,3446,-2209,-478,4545,-816,-4971,10542,1310,9128,-2441,-10368,-13316,-9837,3207,8627,8969,7258,3140,-5274,2906,-7350,1114,567,11707,6293,-8811,4913,7151,3665,-7416,-10272,-2350,-3284,-10570,8218,4052,-504,2235,7268,1034,-2632,-8108,6723,9968,-482,4758,3056,1895,-3002,13089,-1622,-4465,1992,8921,4556,10792,6345,-371,-2792,-5901,-435,-8944,9936,9592,-2913,11264,-9462,9834,-69,11068,643,3080,-784,8369,5001,12454,-3927,-12873,2313,-3017,-7066,9139,-4149,-10019,-8128,-3406,-7196,1228,-9284,11030,-3922,4875,-5887,8805,-1399,3414,-1175,7936,-6162,8711,10958,-2734,-11892,-9383,10713,-892,-7412,-8712,2683,-8460,9734,10937,-847,66,5116,-3990,2570,4762,10540,-2230,-9799,-11127,2598,6871,9235,-5455,10788,13170,6713,-10863,-6373,-10148,7869,599,1947,620,11077,4046,3628,11343,-1334,1303,4478,1478,-11250,-7835,9008,1859,8878,46,-768,13795,-9436,-4792,2029,-2313,10595,-882,-9441,-3199,-12093,-469,7881,1570,-3879,-5809,5689,-758,-553,-5047,4272,-11206,11989,3280,-8913,11537,-2770,506,-4563,3206,-7006,-8318,-6828,7540,-6473,-1580,11354,7376,-8619,-1390,-2302,-6895,-2413,583,9781,11240,5002,2792,4585,-3198,-2650,10079,6092,-6007,-4473,-3849,1318,-8480,7926,9259,-10260,2334,1504,10205,-8777,-5274,7308,-11774,1522,2448,-3888,9300,11322,5684,-149,-6726,-1917,-10706,-11951,5085,-9027,-3758,10222,-1096,-9224,-5650,-10967,7469,101,300,12071,-10077,-2474,6228,-11025,12032,-2315,2193,-9840,-6677,1413,11165,-10594,5020,-3856,10354,-4350,-10119,7578,7614,-10377,-3101,-3686,
        12048,8949,11534,-4170,-10297,1838,2462,2944,-5669,1659,2813,8344,6090,5228,5204,10597,-3316,-11160,-4267,-3050,8543,8968,-3685,7111,123,12193,5326,-5852,3072,5624,8165,2143,10164,4055,-4591,-5221,2759,-3269,7630,11055,-8857,-7717,-6836,1073,-9457,9019,-622,-1323,10410,9952,4326,-6388,-5762,9685,-5609,5533,5045,9386,9173,-8277,-1406,-2141,9586,309,-6877,9455,8482,-1622,9203,-12010,9535,-3280,-4063,-13060,3671,-1777,-1499,5832,6135,1318,-10872,-5136,6870,7783,-10975,1242,-9520,-5338,-3689,7634,2203,7298,3921,8697,7132,-8001,-4849,-11925,10898,6691,-3916,-7224,1088,6834,3638,-6976,-2045,1077,5323,5776,2230,958,1670,367,179,4390,-6933,-6659,2500,-5058,-2857,-2166,-4186,-9375,-11200,1880,-13631,2851,5950,965,6121,6517,6278,-2429,-14377,-1357,-5392,1223,9537,-4311,-3491,-11635,7033,-8176,10973,-3348,7812,6419,-3757,6602,-4252,-2464,-7985,-32,11442,-770,8619,-982,-4714,8116,1990,-5374,60,-2516,-958,-3172,5158,10639,-3292,-2034,363,-7857,-32,11544,-10142,5436,5262,2020,9858,-9092,-6306,6952,-3163,4667,-10249,6027,-2991,2004,-7740,6473,7793,4777,4213,6715,-3200,12024,7342,401,1871,6738,3251,-6266,-9063,-7232,6005,1141,5955,10534,-5741,-3723,10651,-1926,8832,-12232,7243,1603,4881,3997,10362,-7058,-6526,9431,9858,3584,-7458,7457,-3575,5101,-1227,3499,8485,-10345,-3398,-1714,10530,9220,-8164,-1913,-9760,-10821,701,6676,1661,9932,-340,-12221,-7817,-12257,-7150,2899,10123,3153,5206,-1705,-9327,-600,5494,-6227,-8074,-7642,717,2623,-3584,3786,-8589,-4183,-2323,-10438,8736,-3946,9291,8549,2862,-11371,-9323,-885,6467,-4185,8083,12301,-8898,4482,-11410,-10225,2882,-6771,10376,6544,7,11326,2772,1041,-11235,9246,-2905,508,-9323,5688,12288,-912,5786,7059,17,4291,10846,-11657,-6615,3707,7235,10600,-4672,7050,8178,-6268,-10323,-4362,-14249,10505,-9527,-4435,8791,-9809,10446,-5580,2880,4532,804,-10861,-2401,-1546,4625,6513,-826,4742,1264,3573,6387,-8435,-5933,1673,9637,-7223,-9949,12048,-1539,-11700,-210,5020,-3431,4578,-9922,-11809,5709,-1340,9986,-7474,-10805,3644,678,-10503,
        10818,-898,6633,-2964,-4266,-10457,2918,-2050,-3064,7961,-1181,-5520,-484,-8572,-672,11700,-10702,199,-8437,9436,6325,-7285,-10843,-3600,-14446,5237,-1122,10562,6737,-9152,-1738,11062,-5752,4581,169,10881,9893,4077,-4621,2693,690,9655,-1640,6623,1399,-9124,3647,7371,-11765,-9067,4378,7738,10123,-9886,-750,-4826,-6944,-4386,-4421,12536,2469,2724,8121,-6289,2393,9347,-7321,12638,9841,-2881,2355,-4652,-7773,-14911,-3494,11230,2674,1228,7862,4526,7951,9085,11008,2613,10975,5120,9033,-10550,-4660,3771,1171,1268,6381,4237,-10744,9634,9448,-5779,1940,-1225,-8516,3653,7669,-2393,7197,963,1632,-5628,-4551,-4268,-4722,10753,11147,4502,-5190,4236,2218,-2870,-8727,6279,1194,-9232,-5433,8570,-6222,-7181,1694,7175,9219,-2394,9764,4228,-3406,7890,-11220,5333,15440,3388,10355,-1594,-10169,6440,-7263,-131,13698,-8314,-643,-2745,2344,-3962,5196,-6465,9638,-296,6706,4365,-258,11143,-8282,-7897,-4003,8175,1033,8380,-7181,-7201,10101,10938,2201,561,-4091,719,12193,12778,-10559,10255,7634,-8117,8725,12871,15200,-5578,11094,-12722,6924,-11897,4077,1349,-12580,5404,3182,6833,-6612,968,1668,-11237,5644,1031,-9098,6283,-242,10801,8561,-4059,-11516,-1103,-9139,-8336,-5522,5056,9903,-7825,7347,-16102,-11337,-3735,-9290,10032,2989,5647,-1846,7669,-6410,-3141,-12782,-8540,-1871,-898,-1248,-315,4622,8958,-6056,-1427,-10146,-6581,-11137,-30,-614,2031,8111,-9729,8109,-931,-3045,257,-15552,-2914,7023,5015,-2741,-12582,8373,3687,2501,2843,557,7736,9569,7498,1211,-1109,-1630,9508,-11546,9750,7155,-5041,-892,-834,8514,4903,11137,-9826,-2509,9379,-901,-3553,-2376,2392,-7762,10841,-8887,9370,-1391,-10387,10440,1835,-3445,2476,-8441,1997,6968,-2651,7057,-340,3207,-5781,-10738,8924,7932,-5126,5879,249,-8679,-3850,-7391,-12043,-5140,3561,4477,-10768,-2437,4562,-420,-4924,-5366,10188,-8495,-17161,-12950,1521,11682,11604,-4223,8178,-5794,8857,6357,-9175,-9689,10923,-3110,916,9289,2546,-4851,-1002,-9676,810,-3971,6444,6381,3466,-5652,3449,3689,-2567,2539,67,48,10595,2515,7125,-9045,-188,21,8670,14398,-1644,
        -6312,2770,-458,3933,1917,-10018,1892,10109,-14913,-4006,4185,-8530,5004,4890,6939,9710,-10603,11890,-1428,-5125,-1596,1719,-301,2618,-3560,13143,2702,-9487,-14955,-4989,-13402,2805,10858,4761,-14641,8758,1716,-3343,4639,-2180,8765,9738,-1126,-12311,10292,8663,7194,1257,-3328,242,5610,-764,-7363,-6146,8875,380,1788,11337,3186,-11726,7537,5601,9080,-11089,-7227,5355,11055,-3207,-5138,9046,-10705,-9369,-636,-15080,7965,-6779,-4700,-743,-1701,-2498,11998,-3610,-2022,9357,7489,8304,-11303,8999,-11172,3007,8894,-965,-11671,-2398,2207,8983,4362,-2983,6621,-7510,8095,-3861,4862,-7066,11047,-1989,1680,-6059,2442,-23,10339,-5906,-3938,-9808,-8092,-2458,1689,-4961,11108,3210,-3846,-392,10402,-8910,-9785,609,-7341,-493,-7417,-2863,-1971,-3202,2166,4049,-5887,-2463,-10307,-12563,3832,-7868,-7650,-4334,-9522,-9104,1759,-8891,-1511,4931,-5918,8723,-7892,7024,-2144,-3717,2035,9228,-8159,6171,-320,-8658,-11467,9972,1522,9714,6966,5029,11862,-821,8342,8208,2784,-2451,-9627,6034,4252,13772,-10107,-9462,-885,1908,175,6136,10652,4391,10220,11546,3147,-5456,9381,-10596,5566,-3766,-5837,-11747,7618,3403,1899,-1511,11251,-675,-306,-8997,-9527,-11166,10305,786,-967,29,-12649,-630,-9252,-8565,2765,12629,6081,1827,5756,-858,-11252,-10829,10265,1051,-651,3038,1311,-9310,11368,-3249,-6839,1648,-4799,-6797,-8238,5901,-9271,3232,4794,1304,635,8783,4511,5927,-7913,3930,408,-6113,-2459,6467,8396,-8061,-10277,-2006,-7722,-1546,-4078,2958,601,5101,-8994,-11020,4463,-5498,660,-2640,1360,7279,-9718,-10141,-7548,-4586,-810,-4664,-5529,3461,-5575,3536,-11010,11082,10487,-743,10531,-8034,1014,11634,-6447,1539,1764,11561,-6105,-5965,12708,-7025,2701,-8454,5927,8719,-10936,-3698,11677,-5891,9493,-2944,143,5095,-9653,7075,-7173,-6327,-6422,8219,8994,11083,3005,9220,4995,-3847,1188,6146,1749,-13836,-11303,2805,3700,-9934,1731,2302,10214,7528,5301,3878,8195,5700,8013,-6098,10868,-3407,-2361,-1503,3233,-8748,-11623,9339,9664,9673,8059,4072,-4456,-10596,-11103,4665,4375,-117,-13910,1098,7228,-5579,7933,2548,-10883,147,
        -6725,-3519,3210,586,-10157,-4457,-2257,5773,7175,11803,7640,1676,2866,9589,5577,8797,7595,2502,4327,9563,-10390,544,11580,10297,-8038,-10833,-1881,-9511,5856,-6291,7189,2105,-4934,-216,4077,-2439,11901,5326,2733,-11327,10377,-2150,7923,-5443,1625,8510,-3548,5403,2679,8181,2589,8202,8538,3056,-1098,3977,-6292,-6446,2603,-2456,-839,-11855,10870,6380,9607,6066,4439,2714,-4013,2426,8350,9966,7107,690,262,8533,-6286,2143,6342,-1945,6711,-8811,6730,2242,-7715,-850,5353,-11602,-2166,-11457,3892,-249,12362,11488,2380,-10901,-3123,-816,-1923,-3836,4601,12437,10200,-10840,6172,-12236,9976,-10971,7650,-3677,2717,10671,-4316,-11914,-4433,-7776,-7972,-3603,6862,-7335,1510,3088,10842,368,-6201,-11477,-9110,7385,-3536,-2350,10339,-10230,8634,11355,-9426,-2559,-6332,11574,-5080,-815,10612,9693,-233,4730,-7993,8372,-5542,8860,6440,-5395,-933,-1165,-3305,6183,-2665,9641,806,-9168,7771,-4840,-6178,4099,-12277,10045,-11601,-10638,-4578,-3420,-11395,-7383,7692,-5660,-9874,2150,10279,5662,6359,8647,3851,-1031,-6784,-10435,7758,-1718,-10815,5358,-4975,8650,-7614,-4835,-4184,7813,13,-5421,-540,-4717,-10373,-11841,2918,9741,9262,8913,9661,1714,5970,6409,11524,-10536,-278,-10949,4159,-1834,1197,629,1845,-8850,421,-12201,-10051,-3804,5651,336,5127,-3263,-5134,1938,7579,8970,-4755,5021,2385,6496,-3,-5018,11881,5017,-7449,1917,7675,-9141,-9774,2386,11819,-4525,9038,-1429,1870,-7089,-7001,5926,-9927,-2351,-10210,-3569,-4641,-11113,-10659,10572,-11953,-8249,-1980,7481,8424,-8178,-7429,-7386,-2018,-11456,-11708,1957,5887,10145,7755,-4500,9739,525,-6752,2797,-1408,-773,-4400,-4910,-4293,7159,11599,236,-3257,1367,-7697,-6356,7550,8426,-10651,-7700,9857,-988,11271,-9992,8340,8494,-1707,3218,4608,-869,-468,239,206,-10529,-1743,-2363,-10163,-9567,-1736,4484,9290,6902,-4573,-2421,8100,11922,786,-8934,-5359,6956,11675,-7322,10827,-5903,-9576,8838,9820,-5078,-9214,11575,-6260,-11149,-3228,11502,-10166,8874,-9236,-11234,-3945,10654,5018,-2042,-3490,7674,209,-9063,5942,9104,-852,-1307,1864,11823,8092,-10555,-6221,-1170,
        3410,-5795,7242,-10450,-946,7862,-8848,-1690,2441,10326,-9318,2155,-7246,1046,11270,970,9828,-1505,1422,-6444,-8110,-8371,-3902,-2678,4841,-7747,8308,549,12141,-6765,5581,-11549,-3912,-9991,-8359,-5374,-5474,10068,-940,5489,11137,5475,1375,11069,-834,-6058,1848,-10938,10263,315,-2682,-3624,6748,753,-10061,4720,-11286,4475,-9474,-11524,10408,5044,-4465,3418,8085,8867,10756,-9026,-1164,-5110,2293,3775,5744,10416,9532,3835,8355,-1085,-8846,3602,7820,7221,-2884,3981,10359,-10590,7909,-10450,5785,8413,-12703,5879,-10587,2968,3489,11468,-12159,5763,-6055,9180,-7001,-13188,-10709,1375,-1044,-9247,-7410,-1331,-7252,-13245,1231,5329,-606,9721,335,1992,-747,-9964,3819,-11211,10838,2574,7,-1791,-734,7802,301,7058,-3979,-6374,-8465,12258,-5635,9998,8576,7500,-2558,-9754,-1995,2941,-10524,-5163,-1845,11586,-7941,10629,-5626,10363,3117,-3662,-5223,6182,1064,-8236,675,-1416,-8211,-9584,-3126,6488,3412,1546,2456,-7534,-922,-6649,-1427,-2688,-3788,12380,1905,225,-1922,-1777,-6404,-11172,-8403,7025,-9132,-85,6510,7269,-5973,-10918,8110,12056,-8194,2367,-8753,-9742,1260,-294,9057,-2474,10615,-11054,-8744,-8368,5832,-8851,9507,2030,5231,-1762,-3114,5612,-2240,6600,-8345,-5217,10772,5131,6911,6445,10513,9660,-6912,-11785,5188,7732,-5299,11882,-7087,-4638,7552,10989,-5001,3461,8457,9861,-5498,-7145,11380,2799,-2810,-7697,-9693,5293,7803,-10488,1154,471,-453,11406,-1674,6450,9845,-1733,-7042,5159,-8955,-5389,-8450,-7280,10036,5328,8140,-627,-8063,-4836,7583,-10670,-9972,7602,-5193,209,5044,11497,-2354,-9462,-1546,-5870,4306,4959,-2860,-12413,6548,-3683,-9357,-372,-1963,-6866,-12395,3339,10982,6419,-12628,2551,-696,7320,10434,-4780,-8057,11051,-9186,1761,5606,5027,-8683,322,10829,-11495,-6039,-6589,-4353,6762,-4615,9652,5952,8155,7236,-8766,-776,1284,-528,-9255,-9097,7745,-9040,-4646,5623,5885,5554,-1503,-3248,-1272,1160,-6503,1477,-2654,11923,-11511,-533,-8424,-5694,-1159,2039,-7313,9722,12211,6754,-5349,-2911,3630,-10580,11105,-10773,-7194,251,-2568,8619,-10065,2712,6304,-6804,-5889,1999,1796,-8202,-9362,
        -12745,-7682,5194,-8950,2706,-3627,11602,10422,-4165,-9733,-7916,-12098,9962,8268,2665,2564,-6887,11344,10527,-7319,3953,3456,-9627,9302,10660,6377,5254,-9093,2111,-1849,-7250,9015,5136,-7330,3184,10751,-11116,7575,9634,-5766,-9459,-12242,-6977,-4646,8461,7698,-6870,-779,6455,5087,-3900,-7107,-10049,8071,8545,-9245,-9415,4385,5054,8591,-12121,-4029,9104,7321,10690,-8846,-3088,2627,5823,6888,7913,5318,-12117,12999,-4237,-9835,-10826,-11042,-10992,1086,6953,-8248,9040,-4478,1739,-3793,-8407,-9945,-2739,-7558,-7923,-2927,7448,6063,-8952,3747,4583,5678,-12788,2751,3288,-5071,-5547,3963,3375,10758,-5610,1956,7572,-3003,-87,8354,-3276,-11082,3665,4588,-8646,9823,11046,2169,-6527,-8571,-976,11499,-6080,7596,-5825,2959,-7699,1603,-6291,4259,3003,-10425,-3928,2747,-4258,-10223,-1772,9112,-10832,-8312,-173,6278,752,-8134,2779,1372,11426,9141,-10856,7694,7914,11611,12046,-6393,-11432,-9286,-8721,3307,12170,1579,9390,2682,-7056,2411,2010,-9641,-10994,-1025,-3821,1465,-5264,-7801,10947,-2216,1193,4531,-9506,-7649,438,2914,439,731,3956,-6202,-342,5554,3690,-846,-285,10697,-2586,12229,-4671,7769,12029,5931,-7762,-9766,-5322,-435,-7580,10499,-10882,-3833,-5767,-1547,1505,-2361,1035,-4499,-2899,13319,5022,2673,-8598,-667,-12606,727,-4650,3142,-1951,-8792,-7805,-7672,-5221,6269,4886,6397,-4614,-3159,6779,-7659,1200,-4178,-3059,5838,1778,11121,12844,2102,-10734,-10124,-2622,8531,-2232,4994,3520,-1153,-7128,9253,-3898,6427,4389,139,-4384,-11666,-11489,6564,-155,-4495,10708,-9742,5201,320,-8074,6376,-8522,7664,-3221,598,-1227,1743,-7188,5491,5345,2973,7702,1444,-8736,-3387,3597,5478,7826,6455,776,-3401,-14845,10017,-6886,-5102,4079,-1817,-5188,-11448,-1804,-3634,-10942,925,1788,-11572,-4897,-5798,8489,-9460,-6575,-6070,9979,-10301,7924,-4778,6236,9348,-330,-12886,10783,12363,8805,-5645,8258,-7249,-7688,6094,-3190,7163,5415,-8756,-171,11052,4185,-3916,-9143,-11265,-5803,-3289,2440,3149,-8360,-5679,11987,120,-771,3437,5056,1422,-6094,8568,-1283,9749,-11128,8519,-1367,-10210,3783,-7197,4024,-2321,-7473,3442,
        -871,7761,4088,10233,7713,-9130,8322,10652,583,-4895,4845,-12474,2310,11999,6823,8985,-5023,6040,10570,4322,-6183,5698,4687,-3495,6928,-3035,-9704,-16777,4441,4654,1030,80,-9712,9642,-1088,-8402,-6442,-11060,-8015,8247,-10310,-8693,-6936,7389,9248,7088,3822,4725,-10298,4037,10989,6580,11196,-4513,4671,10122,-3482,-10403,-27,616,2657,-6451,-11677,-10455,4787,-9176,-9698,6715,-1876,-9075,7095,-10896,-9731,-5928,8572,-6323,2849,-4495,3601,1803,11509,-3276,-679,2686,5622,-10869,3850,-4524,-6243,-11545,10549,144,-15079,-3402,-10169,-7005,-2026,-3709,3666,-6,-628,8389,943,-12144,11814,-10137,4273,6850,2895,3463,10160,-8723,-7943,2224,8783,10223,8339,8294,-11275,-2787,-9815,1148,-6149,3602,10090,-3635,0,-96,2126,4072,9755,-7410,5887,6128,-1576,-11280,1291,5575,-8239,9604,-10531,14026,-9744,-8695,-5500,-10958,7832,7132,4946,9240,-2275,-11221,2647,3962,5216,1482,5890,1567,5912,-8363,-5263,1013,-11326,3741,10848,-7500,8992,-10250,4341,-7404,6932,7523,-6999,-8408,8758,11155,-10617,-627,13212,-2765,7297,-7597,-10714,7236,1237,-6167,-9098,-174,-157,-9404,-2090,10997,1180,-11377,-11057,2586,8496,9364,9576,-4455,-11392,3200,-8511,-10826,6962,11514,-161,756,-5990,-218,10015,5800,-7217,-4561,-1907,-6113,-8140,-7990,-5825,4163,-7432,-6263,-772,-1850,1522,2765,6469,-9973,-7908,2999,-4223,-10041,-7121,12008,-3809,-5936,-8970,-11299,6777,9034,873,4713,558,-4376,-937,10282,-2124,-7686,4987,3359,7844,11000,-3331,9717,-9402,9756,-2630,10301,-1023,5187,6908,11327,4742,3923,-11377,9,-12787,7345,-3811,-5822,-12326,-4087,11381,-7902,4826,-8246,1074,-2117,5308,6185,6758,3234,5488,-42,10527,673,-12329,2629,791,1455,6367,-10731,11862,-36,5089,-6797,-7902,9928,517,-11260,7172,12504,7968,-1372,10853,7635,5676,12924,-4380,-6849,-11690,7714,-2052,-1146,-11696,-8258,10635,-2051,-4366,-7752,4858,-11135,-11370,-1879,-1735,9022,-9944,-1057,13718,3349,-6882,-5859,3564,11566,2336,376,-744,-11456,1888,-11666,6229,-4643,5817,4306,10593,1210,-5498,-4480,-6727,7053,3526,-2678,1615,-4895,9452,-3897,11475,6465,-8074,11180,
        -15926,-17269,-129,-9735,-2251,-4871,-8704,9616,-837,3451,-3693,2826,9867,-9425,-4582,2437,-10403,-3953,-5467,-6710,10256,8834,-8566,9679,-5142,-4525,-336,8657,-5894,191,-4900,-2336,8574,-2562,7673,-821,2579,-3162,-1937,1687,457,1702,5343,-2011,11169,8757,4011,7574,-2745,2484,-6677,10309,-6904,6256,915,10591,7128,-75,-5274,1280,-2777,1502,6548,-4638,-6593,12303,-7040,-4688,-11130,-11730,-3688,1605,-11907,4198,10053,-12248,-932,-1249,-6508,6475,-2161,-1139,1035,-108,-7006,10479,-9401,1097,-10317,7293,6028,6813,12535,15346,5529,-6696,-5750,-5495,12753,-9311,-1167,-2830,-468,11551,11860,-7071,-9286,6977,3350,5464,-1317,-6864,8937,2889,10643,-13106,7754,-3236,-1485,1774,3476,7156,-3557,9763,2515,3702,117,-8645,-5984,1301,10502,2804,-1145,10746,-8013,-3622,-5733,-5363,-12342,4464,4623,-169,-10129,13998,-7322,8251,5089,431,-1749,9769,1877,-8630,-8084,-937,2415,-5552,-7238,5749,10446,-8323,-933,-1109,-3403,-9981,222,11725,6543,-11701,-8163,-7857,9689,12218,1414,8378,-3736,-3309,-5883,-703,-8427,-8885,-5278,-7823,2056,4913,-5856,-9632,-3928,-8660,9959,10333,-11837,4160,-8783,-418,-10408,8251,11627,7869,-6207,-229,3610,-2734,7093,7104,-6903,2185,6420,11384,12665,6439,-10184,8050,5263,-1891,3133,11083,1795,2305,2044,-101,-10227,6804,991,1122,1338,-1698,-6345,9952,1012,2310,-9146,-1797,5753,5589,-8615,3578,-12081,-10810,6057,-5407,2785,9383,-4189,12,3584,-10278,11101,4193,6949,-6060,-3382,9599,8893,-10820,9038,8617,288,-573,7716,-8118,-9773,-1800,949,-917,8833,-10565,3377,-8729,4262,-9223,-2077,7591,9936,-3547,324,10816,-10199,10061,-9020,12593,-4916,1936,-616,-10793,2651,5714,10690,-7234,-13970,6924,6026,-9131,5415,2460,-4809,6891,-11716,-2983,8257,-9585,-10899,-8307,8435,9581,-2773,-9831,10080,-8241,6714,-8744,-2385,-11515,2946,-11219,1573,700,7479,7027,10412,16182,4082,14774,2042,7688,-4079,-11047,-2485,-10045,11159,2238,1640,-2515,-11676,2316,-6639,-960,8646,2910,8127,-9705,-5033,2216,-791,-12285,-7694,-6770,-8556,9452,1648,-10125,1851,3376,11918,10430,696,5969,8467,6128,-6892,-3797,
        -2266,-1639,1475,7184,7274,-3265,-2887,-7480,-8657,-6024,-10876,-2900,7124,-1426,10094,1642,-6325,-1421,-4971,-176,-2060,2647,4389,9757,7915,-2007,-4816,-13855,681,-912,-980,-9082,-6453,931,-10026,-2340,-2114,1164,6164,10768,7360,7794,3037,-3514,-11593,6056,-8977,-1216,84,7785,-4105,-1711,5945,-8614,5371,-8548,-783,-3718,620,-4470,768,6814,3392,-11736,6855,-9277,-2069,6482,11316,-11525,-979,11446,6573,-4999,-3392,-2843,12108,12330,-4697,2531,-8323,-7794,7236,5131,1355,-1118,6219,7335,4582,-7132,2397,4940,-7579,-8435,-3652,-4520,-6266,1528,-3546,-7653,-1111,2255,-6249,5701,-8540,876,-8577,-9794,-6396,-7864,9124,7122,-8759,-11070,-8476,1938,-9671,10856,-182,-8490,1161,-7765,-11398,-5251,3044,-486,-3666,6671,-1627,-2426,-4095,-5754,-3927,-1973,9440,373,-2038,-7349,80,15071,1530,6507,-4204,-1677,1464,-752,686,3442,5342,-5045,6003,11637,9410,4062,8034,10194,10897,11716,-11056,7079,1584,3268,-7557,11031,6426,-8928,-11451,3175,-7983,4234,-12361,2552,-20427,-1040,1099,10956,-6675,-1127,12424,-2179,12751,12362,9182,7614,9261,9012,11648,1750,783,8407,-978,-8809,-1354,6937,-9690,-4282,7045,331,-6715,-9416,10852,-3493,2024,-701,2946,3678,1130,-10905,-13025,-2752,-2068,13240,-818,-7825,-4896,-3335,64,6988,9212,653,-3479,8903,-7713,-7054,-6633,-3177,8035,-8858,-378,88,-11320,11413,-3855,-5325,9023,-3065,-2365,-10866,2051,415,-12305,6896,-1209,-4992,-12964,10521,995,4140,-1975,-384,-1009,12401,794,-5782,6975,-6752,5702,-8648,-1852,-363,-1836,-11731,4013,10806,5830,8735,-8424,6737,-3286,-1841,7533,9274,-2404,-4,2995,-97,9151,4122,1792,-1829,11447,11255,5096,5323,12309,8969,-5206,2314,10227,9737,-5320,-9122,-5453,8834,7646,-5730,-10225,-3831,-8944,1993,-9730,2223,7434,-2220,-1510,1428,698,-2160,-11012,11843,5999,7543,11331,2152,8131,-5917,2466,8690,-10491,6369,4621,-19197,-16399,-8542,2322,8050,10174,-10935,13062,-4032,3817,-6668,3919,6905,-1938,5622,-7712,19,8974,7742,-4330,4920,10312,227,-2208,-2035,10748,-7597,12209,930,1854,-6327,6480,8902,-6046,9295,-971,8094,-8904,8925,
        -1908,-2107,-11134,4392,-10511,-6786,-9814,-5995,11926,-2022,-8470,-6175,-3138,-1003,-4227,-386,-3612,6951,13684,-4993,342,-626,-6517,-1904,10005,2241,67,-8580,-698,-9583,505,9642,3331,5500,-9803,6518,-11554,8340,10629,-527,6324,-5964,8445,3577,4615,-6291,-3386,5072,-2705,10876,8661,-11310,-4661,-2756,10931,-5266,-2747,-1697,-12505,9185,2282,-11531,-4139,-11348,8647,-3213,-4704,9695,10964,-8805,10609,3544,1185,-673,6226,-11154,-8654,-10779,-7142,12183,-4651,3017,11237,8930,-8206,-7155,-9759,9871,2231,-6117,8627,-9577,-8105,-8847,8854,-10937,7590,-6584,-6774,3168,-7014,8937,8761,-5836,10763,-306,3529,-9405,-7646,-5052,-5785,4417,9188,-11652,3322,2924,9842,10092,12065,-686,2236,-1188,4660,1820,-6385,3136,-409,-1670,-9039,-6692,-9439,-1977,-7934,5161,-7010,5880,-9588,-10413,-4522,-6021,12330,6989,4402,-5184,-3674,-559,3037,-10250,3124,3006,-2650,-686,-879,6221,8983,3722,6904,-10488,8907,10348,953,9931,11075,-6948,-8135,-3169,-3480,12152,10388,-8583,851,411,-12713,-31,-6788,-3652,10719,-2303,-719,6494,-4465,-9812,11118,-9510,9011,11900,9146,5427,3734,9837,3147,6228,200,1108,-11195,-9206,-3495,-6833,713,8406,-4559,-8931,3586,-4361,796,-10824,11896,-10851,1561,4558,-4284,254,6969,8484,4224,-949,-762,-8935,-5666,4928,11899,-8455,-5672,6542,-6115,4150,3342,-4561,1081,6970,1969,3308,11511,3341,6395,-7679,11087,8312,5920,-1006,6877,1212,10711,-20,-4251,6938,4697,18702,3403,5791,-9510,7427,7767,10507,3665,4156,-2887,-11607,-5751,-10250,-3462,4751,-9113,6996,2644,8526,-7273,-10453,-6948,-6401,-3488,-792,-6138,11048,-103,-11175,-12114,3202,-9549,-8442,-3217,-4899,-12584,9875,-6591,4264,10002,-2975,-1597,-10882,402,11155,-2104,871,1213,-7807,3360,-8960,-5528,2686,-653,8100,-4637,12380,7426,-6038,1739,-3346,10449,3523,-9551,4324,-3849,-5017,11281,-12054,6129,-12188,3911,5626,8550,7237,-3509,-8741,1185,-5346,2935,-3105,5777,5449,-1624,-10065,-2856,-33,1911,-8475,75,-1888,-868,-3821,9779,-5684,3781,7077,-7446,-10338,3454,5413,3457,-6132,-11605,-5213,-5386,-2690,-4849,-5448,5883,12305,-1013,-2662,
        17415,18429,8602,1500,2808,-11089,891,-13912,-12968,3804,-10248,-358,-7820,-12012,-8900,-306,6574,-7069,4253,627,6089,6655,985,-7665,3038,1507,9462,-3216,802,-8205,-13484,2601,6335,-3952,-4783,7040,-2632,-1465,11770,5830,-5184,2042,6601,5739,-12256,-524,7144,8824,-12573,8732,-11879,-9969,11246,-10401,-4350,-11730,1388,5991,2234,9330,6394,6050,642,-5714,-3465,653,-7621,-2966,-9456,-10984,-2681,-11609,-5055,-17232,6137,12944,-4060,-8437,6310,-653,-321,-7188,-3878,10608,4752,9622,-2060,-337,2898,-7106,-5346,-11488,-2162,5294,1328,-7378,10201,-10671,4440,-207,-10665,-8113,6034,-5466,6933,-5375,2701,-3530,1862,6409,-19,3121,3329,10077,-11476,259,7727,1858,-9827,-3585,-2437,3795,11234,-10487,-5383,9819,1898,-1621,5939,4816,-3728,-8897,-378,-7779,2716,-2912,-11691,-10741,1204,-3700,-4612,-5599,6473,2332,-2780,7792,7074,-6668,-5543,-5138,8176,5997,-9949,4368,2221,7306,8360,4718,-8536,-6642,-5643,-10318,-11080,-3267,5866,5374,-8771,-3134,-1650,-11399,-10712,-9085,-7490,-12615,1146,-2100,9025,-11334,7263,-10477,3352,-4928,1964,-3136,2622,6645,3614,-2989,-4006,-8503,6357,5807,-11698,8125,12036,-6248,-822,-4898,-1162,10907,-3898,-8397,-474,4338,4190,8717,-4588,6283,8053,10253,1929,2130,1671,3604,2525,992,-4585,3999,11381,-8932,638,-1509,-2232,-12686,-13107,-5883,10010,7371,-5005,-6545,9659,8686,7282,6662,4285,-5989,-2907,5008,-3413,-11008,-6675,831,458,-177,5332,-11136,-12101,-9483,-226,7751,10319,-11006,4218,-11062,11018,-4801,-9199,-5457,8218,-5507,-4238,362,-3401,-547,-1373,8176,-4787,-5654,-4396,-10739,7203,7279,3021,-4786,3218,-7302,-10261,-8179,1037,8825,11664,10850,10491,-5533,4454,11752,1287,-5791,15208,7100,-7669,-1313,-816,-4439,4785,3753,-3315,8458,2349,3523,5447,3899,5581,-8644,-8240,3970,-2730,-5945,-2570,10556,-2125,-2980,2974,-2730,-7728,-4829,1129,-3503,-8261,-4633,5251,2375,-233,8859,2870,-6322,9858,9513,4997,3194,-12438,1032,-9748,-3704,-1344,-71,30,-8197,-5147,-7207,327,-4207,-3868,-7700,-10046,-8988,9911,-9933,-4828,-7320,1220,3840,-8314,11801,4624,4474,-1956,2755,7336,9107,
        -3605,1435,10948,-1244,4967,10442,-8078,-2119,9821,-4129,8233,-5775,11511,7309,6856,-11684,9452,4287,-2797,781,-7235,-941,10522,-11048,13665,-11807,-1628,1041,-7530,10905,6284,-10744,-1062,-8208,7122,-8940,-1008,6887,10578,-10574,-7202,3653,6258,-3284,8394,-10598,-2836,-4201,7665,6136,-1973,-6115,7780,-695,1098,-6703,-1245,7187,-2882,-10867,11228,8806,9543,-10861,-6949,-4645,5324,2841,10005,-822,7995,-349,-2773,3183,-928,-131,-147,-11241,-3084,4426,9694,-2747,-4612,2304,4897,8636,-971,-8636,8751,-1089,-3029,10390,6291,-3401,-8997,-3208,6103,4837,1378,3665,8283,-7620,-6126,-5439,7121,-5169,4445,3119,-8863,326,11338,-10314,11512,11257,-8983,10850,-5299,-8308,-3439,1528,-3356,-13099,11680,3473,-11390,1119,14584,-12296,-1326,-82,6328,-3769,700,6078,9452,5368,-1813,-10775,-11690,2552,6321,-1921,-271,7007,-8047,-7145,-5156,-6628,-8099,2756,8613,-11614,-2874,10223,-2706,9567,3802,-4714,-5507,-6948,-9338,3817,-1083,4587,-3976,7686,8007,-8172,-4800,-1938,-454,11106,-1201,10332,-3518,-2143,-3636,-7484,8278,2914,3204,-9585,-4917,-386,234,-10131,4922,1666,-2268,5288,-7906,278,1829,29,7764,-2492,-6656,5895,5948,11399,11084,3093,-11553,234,564,-10416,-396,2591,3490,4815,587,-12404,2865,4286,860,-542,7733,-3710,5852,-2994,8010,-9118,5007,6272,14340,-11472,11459,-8754,2561,11501,5288,3012,-7780,-9549,1528,9869,4924,-4734,-3287,-7232,1731,-10412,7801,9293,-223,-3949,220,-3035,9116,4878,101,7223,-7741,-12097,-4127,-4788,7307,-6429,9439,9110,6971,-7883,5204,-1392,-258,922,-6166,-5654,2075,-10082,-7312,-8642,6472,-11651,1595,531,2565,6862,4157,-524,11834,-7021,-2437,-37,-6504,6117,10684,-10926,-2224,1460,-335,7535,9819,-11081,-11444,2829,4137,4304,-5911,-4323,2906,-7558,5551,-10820,-2625,9818,-6960,-10514,-1955,-1211,-691,-3771,12144,12081,-788,-6497,-1553,-7372,9929,4045,3505,-11317,4606,-6432,2583,-307,3852,-1235,-8873,5227,12851,-10093,-9341,-683,-7785,7822,9807,-10404,5675,-6850,8943,-9364,-2636,6775,-1256,-6360,-3720,-2718,12721,-11380,-7450,-5753,12372,-10738,8522,15226,-1700,9532,10815,1627,
        -5933,5642,11015,-365,-7289,-3544,-5006,-6711,-80,-1668,10037,-3330,-9203,11471,6453,7802,2547,5168,-10032,12728,12125,-8592,186,-9820,-3732,-7856,-11322,-16417,-8596,-10778,6147,2847,4878,7490,5752,-2007,7190,6131,7272,2171,2610,11053,-6168,-3118,10247,-3084,-4280,-11692,6893,-3969,10171,-11165,-3386,5474,-10228,-672,-10980,-6943,-6042,8408,2859,-7795,6528,9219,-4928,3774,5232,7411,-7053,-2704,-5114,8637,832,-1693,-324,-2355,2355,-4194,2025,8029,-2770,1807,-6464,-1495,9803,5356,-9498,-5546,5402,-1865,-3530,11887,-2380,-12838,10328,-6710,6929,606,-3102,-6174,-306,7157,513,-2166,11192,-9674,-3764,-6799,8303,-8165,3069,9274,5501,2055,-3059,670,5066,-9467,-2218,7713,7465,-6329,-5806,-11013,-10895,-2632,-2466,6288,8305,-3246,-1557,-9216,-11638,5301,-7056,-11243,-3035,1390,14573,7353,4847,-23,8998,-2474,9971,-10568,-4956,-7517,-8052,-4131,4800,9394,-4292,-2141,-5188,8651,-864,-2960,-9651,-7317,-7748,10838,11624,-6328,2471,3280,402,9211,396,10168,4361,-12007,-3392,3896,-9293,-5637,-10743,2660,-7083,9309,11901,-880,-607,1125,2255,-11022,2605,2523,-11666,683,3675,8065,-3054,2950,2927,6033,-8611,-710,10452,-6355,-3236,11494,-5662,6946,7727,8779,5110,5691,-13999,-10096,2181,4933,2604,6675,8406,-4280,11425,15045,2322,10475,-11601,-9572,640,4937,3859,7381,7728,692,-1594,8171,-3731,7571,-9765,12229,-5025,11794,10793,-1080,-8064,4558,3047,-9278,-8983,5270,-7695,255,4864,-3509,1533,-6474,-384,2937,-1923,-1496,7755,892,11679,12089,11259,3682,-3807,-1090,-11022,-8389,-7965,9744,4627,10381,8128,-3020,784,9136,2521,-12197,-159,-3160,10820,6384,-1555,-7826,5817,-7845,114,-2289,-2229,-6532,1791,6703,5588,9915,-1583,2899,3569,-3489,-3738,11192,-9751,7855,8665,-9136,4427,7065,-10572,1211,-7134,-10618,-7654,12152,-5861,-4918,2687,-4083,-11378,-2127,-724,-12952,14253,3162,5803,2526,8152,317,-738,-12272,-476,3993,10463,-357,11945,-8862,-11556,-7693,12048,-1876,-3858,2926,1223,-11944,4397,1789,4136,-295,10710,8886,4462,-4977,9042,-1324,10960,-5754,1309,6153,9508,4159,9047,8000,-2760,-4170,-8315,8754,
        7394,11253,-7172,9374,-8878,-10438,-7922,-1760,-6986,-176,9585,-7288,-2698,-454,-7875,-10433,8558,848,6429,8918,-1482,1912,11784,-3277,-6159,-7866,6704,15818,-4230,-2812,-6186,6622,7767,-2485,-5283,-5921,-8827,690,4041,-7408,-3052,10179,475,-10829,-11386,10272,-11606,-5023,5859,-3600,-2697,1582,9976,5166,-6765,-5959,-7591,-73,2483,-10447,1465,9764,340,-7724,-10865,-7539,12080,-1721,11901,10064,-7669,-3116,1797,-10241,5610,-5517,-1542,5940,912,-7346,-5829,-10283,-7007,2747,-161,9336,-1500,-2403,6620,-4401,-1020,-4260,16332,-4114,8595,-9118,9597,-6860,8166,-567,6511,9339,-1192,7891,2495,-6944,-8792,-2991,6655,7786,-2087,10595,5150,1717,-10434,8705,2061,-2407,884,-703,5515,-5942,-6473,-12289,339,-9994,-1092,9282,-5250,3177,8672,-5323,-2166,8493,6585,17314,5174,7834,8300,6944,-1373,-12046,-7712,5601,2569,-4432,-5107,9779,-9989,-13303,-8483,2362,6084,2135,-132,2026,5708,-4678,-8774,5247,-11643,-3494,-3976,5870,-1518,-7182,1858,-4292,-11052,-1610,-1980,-5912,13724,10348,-5915,8305,-4750,8615,4874,-4768,4354,-2749,-3563,-4940,5571,-608,2413,-11739,-9521,-8289,-3402,422,-10112,6110,-3607,-8413,-725,-10235,9556,11214,576,-1676,3726,-10725,-2731,1657,-10265,4374,8502,7678,10665,-9173,9877,1065,420,-5232,-10456,-1346,1730,1906,-7021,-1118,2759,-1526,-6631,8350,7741,-6715,10926,-10583,4849,1004,9928,6138,-11445,2623,-11834,-1310,-3379,9801,3555,-11284,-458,13776,9581,1507,-13526,-14821,843,-1540,12251,3480,-8889,-11794,8773,-1770,-3776,-9909,1855,6041,10634,-6832,7839,-10191,-8974,-3672,11512,-489,5274,875,6212,-1930,11452,557,6006,-10094,8625,7332,8278,9864,-5994,7234,11431,10669,-10411,6228,646,-9985,-3740,-9222,-3716,10190,-11351,8651,-2327,-1425,6725,-7107,-3348,-4435,5512,3519,10474,-8971,-8599,3716,6641,-2877,6595,5862,-4289,-7143,-9372,2159,449,13502,-7935,-11687,-3981,2796,4827,10766,-4521,10690,-12475,9987,9259,297,1242,-7150,-9999,-8526,-11706,8254,5068,-5534,3541,-11040,3240,-10398,6372,-7691,2528,-5243,3472,9943,-9167,3951,2262,9012,3437,-4874,-3575,-3939,-256,-11955,3817,-6667,-996,-9765,
        4400,12409,4406,-8789,12440,-10857,-10047,1899,-5335,-11733,-8853,3870,-9923,2639,1705,1909,-5848,11635,-12343,-9504,10445,-865,-12776,-7128,-8287,-9836,-802,-9165,-8929,-10572,2057,-4326,8537,3574,-10627,396,-8480,4982,47,-4040,1604,-410,-10527,4458,-4775,12692,-785,4126,-11222,2695,10659,9641,-9728,6155,-11499,-689,10314,-3050,11108,12099,9280,2551,6504,3863,949,11315,12340,-10915,-2092,-10139,4423,-10847,6271,8363,-6458,7476,641,-832,9225,8720,6554,11611,-5218,-5879,4968,2334,-2788,9623,-7481,-4709,-1055,-254,-4079,-8138,8186,-1590,-6903,1834,9620,-11596,2173,9343,-10545,9588,-6171,-5173,11989,6638,8995,1420,-10451,7461,-2741,-8041,10467,-7677,-2021,-9812,-3252,6759,-5482,8258,-2125,869,9591,7905,8260,88,-1171,-8650,11377,-10911,-5704,-11739,-10672,-7003,6585,-6716,7593,4267,-3572,6375,-4577,-3539,6074,-7545,-2719,-2439,-4316,4263,-8107,8990,-10615,7479,10327,5573,7780,7501,9395,-5826,10785,11178,10344,6414,-7649,4684,-8225,-8229,-793,-7144,-2878,-12619,3206,6798,237,13630,3750,-8080,1918,9177,11743,6475,-2444,-7376,-4598,-4806,-8564,-5393,6890,-1867,969,637,6906,4960,-5982,-7582,-18,-3771,3809,-9855,3866,-8701,-10649,3593,3788,-11736,1018,8852,5443,2654,3203,-11127,-4942,-1265,-2622,3396,-10853,11314,-5778,-1690,6064,1373,1835,975,405,-120,11897,-1553,760,10326,8772,-816,-6066,1482,-5926,11659,10189,-8668,-6999,-6841,6047,11214,8715,-3174,8511,7942,6777,9715,2080,4151,-1237,4371,-2554,-8363,-3789,-5942,-4977,1898,-530,4995,-5527,1819,8885,7106,11592,-10776,6432,1763,-1381,-10713,-5619,-3152,-5433,-583,2400,9512,5688,5948,-6122,-1012,5005,1391,-11355,10129,-5145,-1274,-10135,10691,-4510,12219,-11565,1464,-7020,9424,-1119,3401,-10656,-3241,-411,-6830,10526,-191,1377,-10053,7856,9373,-1879,2695,9802,1712,-4608,-5236,9409,-906,10859,-7114,534,3177,184,1297,-3427,892,2518,-5442,1160,-4505,-109,-12256,-10289,-430,9230,10155,-6493,7227,7493,-8599,9684,-11290,-9987,-9508,4736,4604,4001,-6262,9696,-12230,3679,2711,6571,-11651,-1674,8383,-857,2241,2883,-7733,5273,9078,1471,-3529,
        -4948,-4064,12163,10590,1785,10669,7568,1757,4277,-12088,3836,1380,-1287,-114,-3537,-12345,10597,9727,5589,563,11988,-5760,-2282,-6925,-3717,5232,10131,8394,-3435,-7545,3240,11788,6977,-1326,3526,2816,-1108,1973,9396,6596,-6289,5830,9645,-2102,-6107,10253,6295,1238,8347,9811,2106,3972,6202,11816,2998,-4261,-5593,-9090,-5893,2964,-5374,3849,114,-8697,-6536,3032,7136,11817,-2097,9206,-9418,5125,-5232,-5772,-7179,9856,-5623,-9050,761,3579,3723,-3310,3097,11905,-8864,2480,6365,3561,2774,-8438,5938,-7769,613,-2636,11975,2414,-4818,8852,-5439,11979,-11500,10213,-1170,-5553,7843,1389,1012,-9586,-13252,7941,-6180,6259,8375,6490,1252,4098,-5261,-9440,-2984,9729,-8415,4630,6792,2937,-5264,4748,-5781,-2701,884,9496,4616,5788,-9995,-5090,-11423,11279,-4618,-204,533,-7535,6048,-9885,12560,-3104,-8175,-10141,3265,-11224,11104,-9836,5994,-1574,8736,-554,-6997,10452,12035,-978,-7991,11482,-11198,10038,-3816,-9913,10631,2372,11561,-8220,10793,-10530,6574,11382,8224,9088,-4078,2308,-8730,-8642,1610,11621,542,2901,-5363,9973,-9376,8263,7660,10982,-3457,-9626,-7087,-11802,-885,-11108,-5273,3141,-6841,-2362,-10664,1305,429,-10131,-232,5437,-2767,-8112,-10871,-927,-9706,-2369,-7122,11028,-1596,-8239,1765,-102,-2606,-11839,-3916,1476,6714,-7304,-10353,-7431,9736,-11188,-8658,9859,9619,11995,2947,-5958,11731,3326,-161,4169,-1821,7816,-7840,-1716,9240,5670,-6655,-9981,-1771,-9194,-4162,-3072,-2330,3224,518,9689,-11721,4500,8684,6861,-5610,385,7821,-3458,-4178,-7284,-11218,4290,-8926,-3488,-746,3797,7903,2201,5378,4606,-10038,-7621,5619,1042,-4036,9145,-11240,-7501,-3841,-7011,-1597,-477,-2985,-6371,-9881,10090,9678,8897,-1899,672,9820,9399,-2460,-11280,-5087,-10145,-2548,10863,11529,11160,-5175,-5109,-7042,11470,-370,-3698,982,-123,11641,-4426,-4552,9968,-613,7348,-3972,2256,12124,7238,-4551,9013,-6042,-10684,5753,6757,3205,-4194,-10849,-5996,-10139,4588,-6014,10229,-8467,6490,18,1837,928,-506,-123,-3806,6414,-11314,5315,-4684,7670,-4647,-4606,-7180,-7248,-6499,4727,7624,8797,-2695,-39,-5612,10403,-7183,
        770,16313,-9640,5248,12561,1496,-7312,3068,-2926,-1726,-1918,6000,-9904,9433,-803,1844,-634,1376,7248,-4942,-461,6540,-12540,-11538,-5055,-3728,-6532,-757,-3026,-4030,-5639,-3705,-13171,5474,1200,-790,-7523,7242,-10944,-1390,9981,2313,-5856,2364,-9417,-9118,-3856,3058,8979,-7250,10099,-2902,4812,-10420,10838,-5195,12647,7721,5053,4480,6986,10102,-1604,-10905,-10054,5087,4582,9910,-970,-6514,2194,4929,-1801,-16143,-3001,3803,1431,-8820,-9883,5935,-10850,-11608,-4353,-7965,7497,-662,-12154,10574,-5874,1278,-6433,-2470,7160,5418,1122,-2493,-7279,8413,-4895,4947,-5513,-1128,14471,6894,-1549,-380,2000,-8814,12896,-680,2053,12333,2984,8677,-8284,7526,-3658,11543,801,2792,-12929,4507,3561,-1699,-9446,-10056,-6109,-4488,6355,-11651,2030,482,589,-8616,-6252,-6869,11655,-6193,-659,6735,2497,4508,-8912,-4848,16372,-1951,3642,-9127,6672,6793,7157,-457,-7642,2480,5004,222,-11399,-10065,11270,1686,3358,-9775,9635,452,-5542,-12636,9898,-6699,-2458,8017,3091,2180,2886,814,3480,6830,-895,-8025,-2130,2686,2460,8338,-9017,-10111,-9922,1260,3104,4390,-7601,9176,8590,-10155,-3363,7520,1078,-3488,-5966,-1026,-114,11604,-7045,4601,-8375,6543,10017,-4897,6663,-4775,12462,-1440,-3295,4494,-4128,-14138,9430,475,-1476,-2104,-8045,6414,-10209,-5930,9337,-5456,7745,-6867,-4163,9905,3327,-4196,-6558,-984,5350,-12811,-1844,-807,-4540,-11519,-692,-8616,6971,1790,2728,4181,-9595,11339,-16343,-15565,5,-2666,13984,7529,-9540,2803,-4472,-4670,2050,-3144,-1951,7257,-6366,-8823,2342,-10381,3381,-10009,-1136,-181,1717,-4790,12184,-6301,-11541,-3973,-4037,8318,1669,-11026,10772,-6274,4081,-5195,12543,-9115,-2123,9760,-3855,9018,1412,-2314,-9857,188,-10130,9892,-7286,3019,1848,-9953,6903,-2114,12603,3297,-6722,-9167,-6913,391,-7522,-12138,-1988,7389,-5457,-7737,7147,-9398,6421,-4727,-9488,-5995,-9475,-2664,5143,6334,9913,-4485,4329,4060,5,-11909,4111,10457,-15188,-10876,-398,-12499,10699,6317,-1794,10110,-2091,-11182,-2887,-4397,10124,-2933,-8082,8150,-1244,-2895,-11126,5378,-8806,2541,-46,5571,-11854,-423,-10739,8068,2630,10104,
        -4896,14818,10955,2749,3861,-5115,-10633,5995,-4545,-7019,-3039,-1794,-11160,-486,-3630,6126,-7208,4198,3759,4278,4382,-8686,-1597,-11778,-13758,-566,12255,8474,3177,-6608,7940,6906,-8300,-1472,15816,2002,2599,4275,8977,12825,2226,-3017,9586,-4454,-2629,1436,10314,-4318,-2530,-8800,-5473,-3980,-7738,1271,842,-6257,-3009,-7458,5299,6696,-4136,-6856,-9173,-6295,-6108,-2243,7366,12291,10726,9934,-6277,11723,8855,8967,2971,-2712,-640,-3655,-3129,8668,1250,8764,-11617,-8946,-3730,-11399,-5951,-8912,-12721,-9523,-8981,3525,-3635,14445,-3601,9812,-6809,-11396,11911,14403,-8207,13760,-7915,-7564,-3547,5471,-9591,7669,10325,167,-9129,2946,8953,-9183,-2762,-5523,141,3294,7946,-3622,-3820,-996,-10167,2268,-4936,-2988,-2195,-1886,7456,-10821,-11950,-10500,4463,-1411,-2611,12149,2871,8370,9460,-3276,-3809,-14580,1028,8246,456,7120,10352,-3223,-1602,-10820,-6238,-2404,-1397,5483,-2327,-2600,-2972,-8940,7868,-3622,10792,-658,-10150,1896,-5787,6129,-12266,3782,4058,6979,6683,-4519,11948,4996,6165,9448,-8841,9586,-5474,-7250,-4240,-6132,-9073,-8731,10006,-9391,-904,-6251,4222,-4864,9439,8890,6311,-6947,6026,7738,1485,6994,-9870,-1684,-10248,1765,4277,-11167,2462,-717,11037,-6161,16350,-5615,1233,-148,-5265,-1762,4534,-9174,11450,3529,7280,-2775,5707,1682,9836,-10923,-4788,12423,-1479,3805,-3240,-8659,3668,1782,-7177,6264,11120,-500,-4132,3745,-9395,2303,-9406,-8947,6010,808,-5397,3842,-11600,-13481,-12978,2358,2602,3559,-9561,7616,-8125,3356,5614,5902,7362,-1500,-5961,-2213,-7110,8358,6647,4559,4831,-9950,-10055,4103,-6302,-10505,-9943,9257,-696,12069,-2715,11859,-1817,-9565,-10282,527,1247,-833,-589,3676,-10638,-294,1119,11854,2685,2999,-832,-8604,-7327,5222,-3227,7809,10352,-2889,5898,3280,3812,-6189,6027,929,-8675,-8013,8157,-11060,-9911,-2223,-3489,-12267,8522,-8030,-13041,-10525,-4064,-11702,-9217,15241,-3202,7107,-11513,4585,-9487,-1560,-4610,-1714,-14145,-6976,-11534,-7088,9429,-12831,2557,6857,-10902,-5974,-11,-8829,-8283,2933,-4903,-7414,-7746,8983,-864,-12698,-5524,4600,-170,8570,-6835,-4193,-5310,-268,9561,-10918,
        4546,4153,-3866,5112,9689,6597,1585,-8577,-209,7046,-8073,4840,4879,1568,-10880,-3115,-9997,1143,-4579,-1748,2396,-1465,10180,-9393,-13804,-8715,14319,15613,2504,-5447,-8812,952,-370,8081,936,-1068,-10348,7999,-148,602,9634,-11768,-12155,6004,-11628,4537,-9141,9691,7616,6131,7600,2164,12221,-3274,-2318,-369,6908,-2146,9072,-9486,8065,7003,2499,5938,7931,8490,6733,1412,-3170,-7094,6705,-11350,-791,-8893,-5273,-3020,1782,8404,-3548,2431,8522,861,-5539,2186,-3841,-5361,-5657,8270,8115,-1252,2089,-5090,13039,-2744,-5419,10098,647,8071,15283,-6588,6290,-1495,-5479,-6751,-6129,-4263,10943,-6609,-2473,-6552,-1756,-638,4252,-9836,10573,5702,10873,-7654,-5453,-6616,1352,1099,8881,-6148,-7625,-5482,8757,-752,2999,-10525,-5772,-2845,-7472,1200,-9872,4920,15821,-6823,-1293,5954,6317,-10271,2732,1262,-9187,0,10744,6114,1790,-11627,-1550,-8845,-2765,3753,6555,-11262,3802,7694,9685,4323,11748,9904,11371,-9248,-9459,-4837,-3404,-8169,-1677,-3842,-11100,-9498,2931,16104,6772,-7251,-7242,-7072,347,3200,-2795,11855,924,5554,-1763,-10277,-44,-4107,-8002,-426,-8439,-3646,11967,9067,7717,11805,6433,382,-8786,4530,-6405,-6551,6073,-4544,-7283,7315,7171,-7444,17082,14256,-7215,3670,-1447,-1006,9008,-10212,-2907,-2481,-8308,2427,-7845,-3700,8513,3117,-6529,-9725,-8927,7274,5653,3559,-12287,8945,-2882,-6026,8595,7783,3929,10967,276,6579,1385,-11047,8427,4076,-3913,10961,10082,2698,7757,10748,-4273,-5273,10130,-9615,-4768,7863,9388,-10123,10108,-7352,-5488,6329,2679,11688,2308,-10582,-2557,-4744,10850,8399,-7417,-5579,1604,10538,-8128,1458,7820,2380,-1302,4516,186,6788,9920,12316,-7645,3592,9245,-1184,-2657,-5213,-5206,-7566,-5287,4372,-10000,-7999,5808,7138,2037,-4778,9142,9640,670,5487,605,-9963,-6485,-5957,-2886,5875,6871,11758,4934,-6424,-1754,5192,-9799,-3477,1207,-8535,-3753,13579,12484,10059,-179,-6152,8772,-12684,60,-793,-14985,-4367,3008,3057,-1254,-1002,-2746,8809,-2145,2867,-9289,-9972,9391,-8836,-7313,-5024,-4665,-568,9360,5275,-6322,2768,1616,5965,-5073,-1990,8365,-267,8374,1903,
        8195,6423,10978,-2831,8004,-5540,-4384,-7335,6056,-5553,-1277,9286,7881,2092,-11309,-201,4058,12085,2081,-11598,-9793,7218,-8911,-2948,-243,9809,-10398,-11180,-9505,-7766,8573,5031,3920,10362,-10210,6118,-10987,-2413,4639,5400,7709,11156,-6850,8444,2377,620,7993,7534,22,-4805,7161,7658,731,-358,1982,-11161,3001,-4402,-7668,-29,-6931,2123,8277,4294,8966,2150,-2304,3641,-3862,-9059,-9025,-10536,943,2794,11846,-9017,1603,-827,6739,5402,5055,1098,-10330,12092,6471,-7430,-8759,-10748,200,11988,10173,10860,-4343,-812,-4225,4430,2990,-29,-4844,-11203,10072,-8419,-229,11470,-9147,-5969,2178,7820,5420,1982,-8968,4660,-345,-2686,-7058,-852,11210,-8970,-6716,5580,11094,6622,10099,-6806,-11793,11827,-11321,-4629,945,-8885,8437,944,-2029,11338,9193,4123,5304,8938,817,9016,2195,10531,-7411,-10356,10708,-11036,118,-10254,-1836,325,1055,-3285,2928,-7454,11896,-8983,3200,3987,295,2655,-10302,11481,5721,2309,8941,1020,-11689,37,-3494,8917,-6458,6866,-6908,8288,-8661,-4437,1829,6294,10697,6635,-1850,10509,8117,4569,1658,4038,6364,-4217,-3868,8682,-584,5147,-10849,1189,-2442,-6982,-1759,-8124,-6909,-9502,166,8404,12111,-7143,5797,2757,-2437,2362,7988,-7644,-6939,2102,-2144,9887,-5545,6408,-1639,-10151,7362,4903,-2445,10540,-10257,-1459,-2640,-8712,-2400,-9824,-12115,7619,8078,6103,7694,94,-3135,-7624,8276,-8496,-16,8694,-11326,-2494,-7409,3855,6809,-8622,9689,8636,-1896,10343,-714,7713,-4663,-6362,-5515,-7103,9296,-9572,2260,-9264,1454,-3105,10320,-1603,2740,8689,1883,-634,9547,708,-1642,3750,809,9073,-4661,8496,3678,1368,8958,8909,-1805,11804,8358,11765,3498,-10345,8352,10280,6230,-11154,109,-9811,4549,-676,-1641,-4318,9232,6927,4792,9765,-3551,-8401,-4799,2133,-8581,9373,-9395,-3689,3165,9169,1221,9188,-3414,14,-3570,-1281,-6278,6508,6456,-915,-5982,3086,-6903,7495,8592,-2781,1395,6418,-7549,-11944,11761,-8570,5883,-12136,1875,-4898,3818,11600,10640,4298,-3869,-417,9346,3996,-3553,-3708,-6477,-9679,-8852,7209,3484,-5554,3275,-1911,1005,-827,-4438,-1641,2681,-7879,
        -11115,1478,9994,4678,11389,6605,7579,-4512,6580,-12054,5239,-5021,-10696,-7171,-3010,11643,12100,-721,3762,8927,-8561,4312,3799,-5722,2390,-2982,9712,-12531,8228,-8537,5228,10432,-8275,4780,7523,3375,5079,-5392,5199,-7298,6591,-9203,9419,6826,-2804,-1954,-7461,735,-7784,785,8390,-3635,-4339,8280,1606,10738,-5361,11326,-374,2358,-3220,-2815,2435,-11912,-5009,-11938,-5804,-1877,2922,-337,10287,-11500,-436,-12361,-10290,1805,-1029,-10643,1142,-5688,6804,4983,-5611,10487,-8797,-9981,-6110,4317,2646,2868,-4947,-4802,-8586,7537,6242,6325,6490,4169,-6157,-7913,-10313,-8604,3890,8402,-7347,-832,7897,180,10488,5986,3424,-5241,4638,4466,6302,-6018,-4076,-2593,6871,10679,-8804,4730,4092,8206,-5894,10449,6750,-8404,-3698,4872,11669,9122,-6814,2659,9158,9536,-13299,6212,-5017,-6452,5994,4995,-3737,-4003,-6244,4490,1782,-7078,6340,-7633,7406,-4612,11070,1879,-10161,-7189,190,-507,-10718,-4511,-8078,11269,7344,-11560,11468,11437,-6457,-9803,-2052,-11850,3029,-12103,-7865,-6505,-4761,1435,7503,13167,-381,-4300,-11948,-9757,-9109,-10963,10591,2104,-5855,3683,-7820,3773,6233,5658,-11915,5640,6890,11320,7196,7041,2556,-3382,-7796,-11386,3562,-6475,6797,-1039,-9342,4776,-11606,-13269,11439,11674,-10162,-3927,5289,-5904,9233,10506,-2820,-3145,-7619,5922,7101,665,-11692,6183,9625,7559,-1700,-4169,361,-9193,4271,-683,12231,4274,12238,-6367,5857,4330,1654,3790,-2227,-3431,-6919,6496,3757,-4892,5781,-8580,-5956,-4044,241,-3646,6214,-7257,-5457,2897,-5665,-6070,-8507,-10785,-1415,5752,12096,3701,-5798,-9262,-9156,1599,3858,9213,7501,-5882,-11017,-5926,-7816,-5792,9306,6863,-727,-10924,2768,7459,-5974,-2501,-4621,3521,-5164,-4456,-4125,3228,2747,10394,-5237,-395,10179,8848,-398,-1112,-7849,-4025,-7941,-2629,-6146,-9678,7593,-6750,-1610,-9645,-8419,6356,-1088,-1699,1755,3974,5214,-1241,11096,-7533,-10345,-7996,-250,2735,-1446,603,-575,-11839,-5893,5779,-10582,5664,-10131,5499,-6015,-6934,13194,3374,-10577,-11000,-5879,-655,-7023,-7749,8204,-11765,9977,-5808,-11371,-9864,464,10091,2232,1327,1191,-4440,2564,4252,-8641,-196,
        -234,-2144,10101,-3168,10629,5148,4394,-5525,-4417,-8873,-2537,7590,5575,4746,-10657,11592,-9760,11028,1390,11521,-2231,-8362,-11311,11446,6006,-682,10858,5685,10666,-6710,11560,-4846,-500,-6,552,-1911,8061,-10832,5406,6569,5245,-4112,1260,11736,-11842,-7326,-11796,-8161,2210,2502,-2161,-9923,-6427,3988,10949,-1566,2296,-3233,2709,9706,-4038,-11974,8360,-8295,-9257,-296,-1462,9791,-5814,-9560,-12212,5946,9612,3189,8014,-243,-1546,11194,-3516,-5919,9930,3183,-7399,4303,5673,-8985,-2836,-6522,10410,-10412,8197,7791,7213,9891,-6602,-1957,-10452,-10188,-10528,-2631,-2333,-10711,-6454,-1110,-2156,8947,-10437,-2791,3721,1415,-9476,4306,7159,-11942,6577,-4236,-3163,-6328,6006,7279,-2009,5451,8431,-3219,-11042,3820,9828,-6452,263,7202,-9308,11677,692,-11082,-3565,-709,-823,8305,7240,-5285,-7168,3067,-2479,6107,-9390,-5274,-1327,11771,-3315,-6601,1107,-10786,10677,-2467,3709,-6048,8373,-10936,-716,-1135,-8104,-8832,-9822,-4608,2757,-9814,6152,-5291,-1609,792,-787,4861,-3618,189,-2842,-8152,8262,2553,5019,-3593,6710,-6549,-1332,-10837,-3664,8034,-10693,277,-11284,-11869,-3109,8567,-4989,-2412,6631,-9321,-3363,-7215,6945,-629,-12165,134,-9006,6323,7973,-9472,6613,-6813,4852,1186,2629,4454,9371,28,-6748,3067,1711,6771,-10528,2498,1950,291,252,-5671,1926,5595,-3474,9294,8916,3952,10486,-6450,6521,7767,8620,10626,12221,7239,3468,831,-5117,4121,9203,-7660,-6053,-9676,1119,-2052,879,-670,-11264,-12463,11894,-4187,2722,-10354,-88,-6011,10842,-1370,-202,-9230,-5954,9146,10239,-6763,-3307,1577,7913,7924,4565,-297,-6428,4827,11825,245,-5783,8713,8472,5171,11637,9726,5714,5849,-3183,-5335,-599,-5996,-10213,-11807,2590,3316,-9493,-2929,-4407,4928,-6706,5319,-8812,2582,5201,-5586,4175,-3145,4701,6180,-10742,-8915,-8038,-10612,7615,5490,-11693,8964,-9059,4824,-2198,-7710,11750,-6137,-215,-6913,11814,1897,-7081,3049,776,11063,1588,-11900,853,10219,334,-10089,-2235,-1651,9723,-8725,6155,3376,10290,-9095,-154,-970,-4017,9879,-5417,5044,2160,-3683,6381,1666,-212,-8860,11070,3869,181,3691,4515,6987,
        -331,-5623,9493,-8932,-6188,7611,5485,9125,5507,7369,-7617,-7970,2526,-2426,4228,9271,-4680,5968,6209,-8148,9013,-1148,9567,-7532,-3639,13263,-11600,-10250,4562,-859,-14821,-6019,-8490,-2517,-8794,5579,-1303,4307,-4685,-11336,-7271,-10233,-10777,-2324,-152,-7894,-6117,-1974,3132,2772,-10003,-1338,8133,1376,707,9909,11178,1774,-5767,-6258,-10623,4152,-2789,-6072,10987,-11385,5853,-4430,8845,-10183,-3541,-9693,1008,-4160,-1755,-4527,-2249,-9388,-1342,9167,-4145,-4566,1468,-7770,3106,5374,11542,8816,-10521,2386,1262,829,-1883,916,5306,8147,-8490,9170,-3068,-7608,3011,-5101,-9230,9608,-4678,-2524,-3212,4377,6657,15607,8646,10639,-5661,-1529,4186,5493,-8623,10608,-5519,-4815,-387,-8132,-7803,4962,-7730,3717,5251,-3369,12945,-7289,-10639,665,-2549,3231,-5744,1913,-10217,6263,-3296,-10515,-1743,9048,-988,-4272,1646,347,-2825,3208,-9358,2743,11792,-1366,5028,-9950,-7122,11266,-4444,-6617,296,12272,-218,11066,-5036,11789,-7034,-1296,-8146,10414,-11164,6694,-11610,-8303,-1709,-6456,11194,11693,2615,2463,-907,-12895,-9063,-2051,-11314,-2861,6802,-7035,-189,-11971,-11308,-3356,-2471,-776,12325,5105,-5559,5236,-11319,9672,-10379,7929,-10447,12316,-1281,-267,-3695,-1287,7421,-2610,-18113,84,9627,-2254,5475,-3393,-8399,-1229,-8468,11543,9905,9982,-8838,-3862,-10737,-9037,3789,301,-10175,10169,57,8588,11033,-375,-2710,-10660,-6202,9745,-11192,-3432,-5641,-1784,-13972,-2155,2659,6874,6715,-7760,529,3479,4027,-7287,-7428,1609,-5009,3152,11045,428,-7284,11065,4894,6819,5026,1780,5228,10541,-1513,7790,10764,7763,-1590,10873,-5055,-9373,-9977,6312,1192,8207,-2673,10228,1949,-4225,-9950,-8008,-3107,-11034,8236,1191,11131,2587,1767,9960,-2135,-6904,11282,-8366,-11597,6157,-10842,2281,5510,-3455,-3357,1487,-9476,-10270,-11295,-8868,2110,6665,-5530,73,2337,-7818,-6632,-9009,2592,-974,14109,12793,9244,-12314,-10355,-8090,-9933,-14507,-3326,-2389,-9052,4586,-4149,-10496,10737,-10968,-11219,11020,10054,5952,-6265,-10653,3845,-3648,2187,-2417,643,-1034,-8783,7203,7601,12923,-662,-5420,10614,-7357,-6223,-6853,-6802,1161,9067,-3742,-8107,10731,
        -849,-4721,-11863,-10734,2359,-2492,1680,90,11627,1081,3086,5114,1396,7446,-116,-4703,4829,2715,-2578,-5387,6100,-2688,6320,4267,-2915,6977,9989,-8244,509,-4377,5967,6023,10003,-10824,-7457,604,-5174,1671,5051,-206,-11515,5629,5493,-1045,-1427,-7694,4610,-506,1329,-1241,11189,6119,371,4928,5649,-1259,10994,3174,7312,12177,-4677,-10948,-5303,-9565,8581,10352,1669,10569,-4608,-10420,6450,655,-132,7427,8145,4909,11252,-5884,3514,482,-4658,11544,-3971,355,356,6432,-6392,-10888,-1594,8152,-10636,7945,-4760,11514,4080,-6546,6594,-7861,-265,1887,-9822,4563,-12905,-1481,-4740,-1236,-4141,4570,-12517,-5315,11647,-6166,3082,6831,11168,-7229,6497,535,-1623,4003,-3119,-4628,-6734,-7304,-7487,8945,6528,-8446,-2698,7238,11145,7470,5996,-3871,-7690,7594,12569,-1130,-13423,-5139,7764,1903,-8272,6346,7719,11655,-5169,-5604,-6409,6946,8596,-8115,9825,3250,8852,5316,9007,-11012,-8470,-12538,94,-8987,1597,7444,-336,-3586,-213,9052,6416,-2713,-4950,-9661,5391,11625,-10744,2885,-7458,-9906,-5690,9043,-12131,-11596,9567,7885,1,-6497,6163,-12513,11207,11588,-4040,7253,335,10047,-1498,-3893,7966,-12409,7233,-1657,5610,-7265,485,11592,11640,-4557,-8686,-10828,5007,629,11183,-5456,-9461,-7873,6789,10526,-6195,-13233,10284,-7965,8048,-1903,4894,8602,10192,9462,-462,11045,-11466,10124,-4740,1030,-4893,-10688,7825,-7423,1855,-10806,-7437,-11913,10535,-11436,3,7278,2706,6236,13349,1429,-3885,7327,-11474,-10731,-6393,4495,8842,9046,-1666,10248,2219,4330,-6523,1838,4730,-7345,5228,-6941,-5125,5136,4633,-8373,-10238,-4039,-7416,2651,-6561,12583,2183,-7091,4249,-570,-7416,1716,-10611,1543,-4595,-1962,3272,-11466,-698,4709,-2272,-1377,7783,-10939,3727,-6306,-4725,-7924,-3721,-7440,-11044,-5592,-9216,-6750,-1070,-5333,1430,7192,4356,-3845,-9414,-10726,-4107,-11289,10793,3873,-4300,-2268,1133,-5208,-370,-1527,7644,-8902,9069,-2802,-4541,-209,1013,-10065,4050,-3483,-12043,-1210,991,6201,3136,-3362,-9926,-9308,-10270,5675,-5321,1546,766,-6026,10637,11118,1391,4510,2980,417,4155,-5887,-9384,8071,1552,-8655,-7538,1618,
        -8590,-89,10440,11356,4707,-5600,-3557,4995,12085,4759,5062,-6823,-1684,6656,7684,3840,-3000,-46,10873,6320,7408,8204,3336,2593,-4509,1909,-10387,-9756,-12723,-141,-10425,-10695,12555,6115,-11153,9520,-7132,-12644,-3895,3941,1740,-4392,-1318,5138,7656,2642,8569,-9519,-6497,5670,3451,-938,-9610,615,10182,-1598,-4760,-1245,4177,-12479,9119,9260,-12393,6681,-1237,-12118,-44,-13117,5217,-6895,8239,8682,-2280,5288,-8175,-2219,-551,-6548,-6516,-4215,1431,12442,-5373,-263,6893,3890,-7347,-10113,11193,6158,402,-4490,3376,-16459,8814,47,2264,-9208,-9600,-4101,-4437,-10118,-211,10895,9631,-9538,8128,4782,4888,-4283,-1213,9743,5344,5338,3683,1005,-927,-3572,2768,7112,11904,-7131,-3552,6436,-309,-9621,2000,1555,-2503,-5103,5016,9376,3059,-1283,14175,4603,-18583,-5008,-429,1676,11745,16858,-7492,3708,-5839,-3957,11036,-9854,-5532,-978,-9844,6586,359,-8624,-2145,9890,-1127,7753,9465,12584,2228,-9086,-8304,-134,10042,-7187,5470,-3257,3731,5577,-1790,-7995,-15642,4465,-5840,-3186,-1561,-5705,8463,6584,2527,6632,-3918,3220,10867,6111,-10189,7625,-3784,106,-1439,-6497,12772,4847,-1226,6965,-3470,714,6277,1391,-10540,-11107,8594,-10527,3476,-9984,2274,1256,-15082,-6527,-8339,-2026,-1601,-3098,4002,5829,-1114,7186,-12166,-10991,8584,-593,-6182,5827,3409,6049,8812,-2415,-2290,-1536,6785,-7342,-6039,-2781,-2021,-7691,1994,11335,3166,9115,11516,5185,-3603,-12142,-2520,-1032,7537,-3787,1381,1110,6760,-6767,4934,-9166,9584,7652,324,-11487,-8640,9776,-5821,-11155,-11048,5640,7647,-1250,11324,-9673,1965,10487,-6665,-11439,3640,-3126,587,9997,-6274,2407,2709,-1252,2166,-4513,-4721,-2710,418,7549,-5144,11273,5799,-3542,-8610,3465,329,9973,-11205,12567,-11351,-2070,9718,9739,-12190,5976,2457,-9952,-6679,4118,-8142,11624,-2425,-942,5587,-9871,2621,12216,4393,-6475,9806,-4750,9956,5832,-1094,-4204,-2452,4131,4257,-6655,3365,-7465,1623,-5409,1935,-1145,9895,6904,-10577,-4220,12702,1659,1003,4235,5311,4652,8888,9886,497,4360,6667,-6109,2009,-9714,8111,7839,-2348,-2262,7594,-5266,11264,6002,1848,861,
        -2982,-2252,11940,-1623,-11806,-8939,-10778,-2746,-10006,-8414,9731,-9818,-9497,8191,4581,2103,9318,-9721,8285,-9255,-1529,7914,-9514,2054,8583,10513,11424,-4661,-6623,3989,-4682,-4578,-10686,12344,2711,-10215,-4993,-542,-2150,5922,-7129,-6922,11555,-3933,7415,-740,7006,4621,11070,-6999,7890,-12220,-6898,5319,-11912,-2344,6727,-601,-8790,-1195,-11249,3771,-5719,1564,-5621,-843,8196,921,3643,8721,-7183,6495,-4683,8120,-6884,-4503,-2525,-1636,-2640,585,4414,7458,-10875,4835,-11828,-10325,-3110,11175,-4617,-8953,4329,2834,-338,9923,1689,11711,-3618,809,-8555,-4287,-9904,-7800,5654,11440,-4993,2903,11163,6710,-307,6793,8712,-8344,11514,11476,5543,413,-5867,9255,4813,-6626,-1021,-6204,5135,5833,3228,10337,-7723,3087,-11354,7395,10300,-8234,5559,7591,-194,10961,-1923,-6888,-3830,-5727,10906,-2004,-10885,-1689,6411,-11268,7629,1298,-1964,-1007,1175,-6148,2369,-6947,-10533,4742,3730,-6258,9406,3737,-8252,3455,2528,10233,11326,6924,3999,-5726,-3521,-12132,-1472,3879,1534,12278,12189,-9776,7738,-4060,-12358,4033,5730,9929,570,807,-882,-5995,-4317,-6369,8086,-6103,-5071,1171,2068,-1970,11891,-2564,-3333,8774,3833,6863,-3358,2607,7602,4559,2235,8807,-11463,-1755,-5024,4846,4440,-9315,3384,6767,-10716,4709,3952,-6557,-10400,-3950,-5909,1126,-9114,5521,-3362,5855,6793,-1847,5512,-1388,6819,414,-7033,-8273,-11883,3997,-4208,8178,6419,11555,-10588,-1183,-5302,-11807,7853,-1554,-1476,-1880,-565,-5358,-9560,6786,-222,7564,-3622,-12180,-4562,5014,-5015,-9665,-3168,6256,-4927,11628,282,2594,-10112,7342,11804,8038,-6062,-10890,9262,-11126,1512,-7687,-10573,-9426,6522,2185,-8275,-3867,6716,8833,-891,-10082,9068,-8432,3929,8949,-2096,9067,2884,-6289,5414,7160,-9547,5805,-10316,5628,12090,-4351,-3959,-950,2155,1860,8020,-5956,-9626,-7121,1324,-4494,-3830,-5243,4549,10215,10369,6265,2560,-5246,9999,858,-7138,-8733,-1626,-5068,7234,9709,8135,8058,-1359,6821,600,11844,7782,-5327,1819,4280,-2995,2722,-1304,1337,-1387,7441,-926,-6285,-3532,-6926,5538,3920,6776,-12077,-7473,9463,-9069,3442,-11711,-4242,-7256,126,
        15063,-5121,-2351,7373,-7053,8201,6110,7679,-7790,2723,-5429,11647,-2083,2927,-9579,1587,-1859,-8405,7139,6835,6205,5591,-3530,-1377,-16972,7504,4654,-2881,834,-8656,-10099,-9693,-7403,8933,-1809,6829,10697,-1847,1676,2483,9234,10822,-10980,-1820,12638,-11130,12682,5414,-6130,-1454,9504,78,9931,-9317,8974,9602,-6916,3373,12938,-1933,-4777,-1419,-10358,6196,2622,-7560,9516,2273,872,11498,-5173,-5108,-9920,-13284,6979,3299,-532,-2143,-2306,10267,-5761,5152,-8157,-9066,1673,5242,-9958,7266,-10768,11628,-10217,-9320,6122,9274,-10220,-5927,-4367,-12428,-3163,9896,-1447,15814,1757,11804,-5599,399,11833,2943,3097,-6877,1766,8110,-1059,-5718,-1201,-9575,6445,-64,2388,6667,-14146,8569,-3216,-2943,10018,6844,-6080,8249,1027,3012,-5434,-1749,3516,1399,-6340,-415,-286,9523,-2872,-8973,-4528,-6262,-2092,11969,1658,-4662,4953,-3640,-1278,-9106,-2774,-13443,11141,9649,-608,-8542,-7988,-8056,-1474,-12111,7415,10867,1452,5100,7020,10510,4170,-4587,-7719,568,5231,-9471,6476,2258,3099,-1150,-4662,0,-8234,5572,14857,11408,-9514,4296,-7147,6511,-3235,8645,3799,10980,-2218,-4787,-10536,7085,-10134,4165,-9358,1427,-12094,2177,-5140,-7885,-1991,1573,3441,8616,-4646,4645,378,11593,-7053,-3680,-4423,-15596,-7727,9850,-3051,14494,-8236,-5034,-10080,-6829,8153,-1126,7251,-8432,-7487,-3131,-1571,-2235,-2489,3350,10977,-6934,-1980,9947,9613,3981,-4613,-10958,166,2128,3333,11200,-6568,5261,355,-11994,5529,9562,5625,5781,-6206,12143,3736,-2944,2094,8190,-8711,-2446,58,156,-5565,9563,3058,-6187,3190,-8986,6255,-10595,8942,9360,-6815,6831,10309,9572,-5187,-5416,938,-1226,12591,4931,-1405,-9461,340,-5905,2324,6345,15693,611,9644,7180,-7168,-6374,13201,-1384,1437,11973,-10440,10410,498,9372,-12267,-10076,-8568,-7041,-10076,1995,4824,-465,-2910,-6160,-9403,-7363,-2060,-9169,2831,-7862,4087,-1184,-6639,-58,-635,13370,3533,3619,-2181,5740,-13596,-11386,-3206,-6173,4679,-3066,-3747,-6855,-11410,-8352,-2305,4257,4709,-6893,-11162,-9318,3810,-11335,-4858,6744,-10582,-1752,-4871,-7721,1402,-5817,-11640,1446,3950,4855,11684,7447,
        7950,-2950,10211,2842,9240,6934,1873,-11405,-5949,-6915,-4875,-7691,10349,-11236,-7275,-4555,11543,12061,-6255,-8242,-8502,-3947,-8394,1218,2118,10956,-1623,-969,-10228,-376,-7945,10475,-3059,-8913,-10788,5891,-381,6035,-2049,1817,6367,10820,-10989,-11285,10696,5019,-4263,-6602,-520,-11387,410,-600,-6349,4097,-4297,-7592,-5287,2753,-5523,3809,12058,1745,7478,7252,4087,-4206,-436,-10840,3573,6348,5370,-9885,-10848,8537,-6369,12375,-2519,6810,7471,-1507,-857,-5652,3577,4905,-3374,-4328,10975,8670,-6162,-3381,4575,3501,-1527,-5621,6372,4894,-398,-5751,-12180,353,-4951,12217,6187,4230,10011,-9860,2374,9973,11684,-6166,5326,3960,-7235,11441,7062,-822,6202,6658,-11399,9746,5075,9423,153,8784,-11033,-9868,7848,-9501,838,-8264,8506,9761,-6734,4452,4540,-5414,-14766,2790,4471,5518,-2954,1354,4540,-1904,253,9491,4654,-11067,-3424,-2139,5446,1566,-8477,3040,-1626,-5526,8801,-7842,-11896,-12047,2878,2989,9382,1394,-27,10765,-6946,-3365,1890,4773,9522,7430,7505,3741,-803,-4826,8089,6715,1790,5841,5709,9068,-10627,9181,-3178,5915,-3810,3309,-8361,-4452,7671,8316,7125,4635,6232,9610,-1847,11228,2271,517,-3537,7565,-9531,-6434,-7348,-10835,1749,1945,-4729,3027,-9252,-8084,9655,-4671,-10269,-10752,3319,-7787,-5256,11562,9827,11156,5950,9760,-12009,1042,-8937,9883,2712,1089,-7902,-8932,-1493,8720,-11206,6298,-7819,11831,-2928,3237,-11186,-2305,12072,9135,9885,-9752,-514,3022,-5836,22,-8868,-6785,2132,12238,8599,11525,-7698,-8919,-11531,-5605,2752,-8791,9305,-10999,3498,919,5875,5581,-11747,4859,-1705,-1266,3356,4273,-2397,8884,-8317,-8683,-8196,-5580,-6698,-10148,9066,-1525,-6959,11295,-1695,-9586,-2698,-1500,8713,-10122,10389,-3001,-9739,9288,-9598,-334,-3752,1510,3695,-142,-10916,4075,-2034,11759,-7453,2481,3868,5038,-10521,9422,4677,4749,-6347,1790,2924,12395,-10076,9245,-245,9697,-6036,-12629,-9446,5706,-7783,11569,-4313,6757,2015,-11055,503,821,-2821,9363,-9869,11123,2037,-4445,-2501,-7011,10581,3981,10767,7566,618,-9952,-2640,-11982,-7871,3924,-825,-9813,-9680,-6924,3221,-2701,6193,-618,
        -7674,-16370,-3048,-11641,-7528,-6957,6266,12736,431,-5428,-1122,-8791,2457,-11071,9313,3568,7034,1095,-6477,8634,-5845,-2498,11549,-9785,4799,5898,2957,-3175,7698,3410,77,-11119,5481,6310,1773,-1887,11916,-6229,-10017,7786,-4898,6774,2459,10390,6089,10889,3412,-8056,-11640,5521,6463,10952,-8791,-1764,3305,3058,9819,3555,-1432,-11893,-1933,5106,1886,7987,11746,6662,-2078,-900,-4148,-9033,38,11438,-3520,16051,-8806,-3717,6332,-11891,11190,-264,682,-11693,12496,-881,626,511,-5527,1891,-287,6594,7491,-9870,3039,953,7347,-10407,-9828,-4494,-8105,3408,-7859,-4025,-5301,11256,-3276,-2657,540,1190,-30,-10625,2812,2254,-2993,-3205,296,-1045,4511,-8115,-7250,-8247,3138,-10340,-6719,78,10078,-4502,12173,9048,4717,11527,-6451,-6513,1635,8755,3502,10977,-8943,-685,4764,-1990,-5992,1019,7947,6203,-14032,5530,10683,-6985,6869,-1977,-3661,7647,-2521,-1518,10211,6468,9792,-2355,131,-10623,-724,-10181,-2183,10646,-5105,8769,-7829,-11723,-4890,-4865,8228,10108,1943,12010,11105,-5994,-3781,-3827,3333,-5785,-4835,-6545,-3499,2595,-8128,4971,3175,-3066,-7658,-4134,4384,5898,3723,12120,-11360,-10380,-2044,-5061,-4945,-2979,-4057,-11738,-5234,1006,-9100,1234,-11844,1622,14147,8233,9163,-12990,-4712,11606,7876,-8203,1420,1421,-5611,1768,1668,11534,-5985,-100,-3996,9639,3511,-6813,10520,4185,-4901,-10487,-8794,-1913,2581,1027,3616,-5675,-1088,-5518,6885,-2216,-10534,6449,-6834,-2232,14062,7508,-731,6441,7066,4864,1090,2710,-4169,-2126,-2556,8264,10439,7780,-2811,9445,-444,7535,-5695,2425,4924,-688,2110,-8565,-9524,-2840,2604,11545,5916,-1781,-7634,-8065,-11029,-5571,1217,-8068,-8130,2432,5429,-7780,-1370,3544,-11534,4191,-6489,-7617,13611,-693,-2965,-5131,-8274,-756,-10800,1193,2748,-5931,-6339,11044,4410,-6876,5570,-6893,-425,-7479,6963,8786,-10440,8804,-10150,8243,-12635,-4812,-11822,4010,-821,10799,-7430,4179,-10185,-5959,9863,963,8417,8747,11509,3341,-12200,-1416,-7845,-10012,-3317,-2767,3302,3948,-3551,9190,-11930,1353,-986,-10069,12067,786,-3309,1611,5714,6042,12950,11237,-6106,5323,5842,-1798,1027,11081,
        20387,-2794,322,7056,-11680,-5677,2958,7795,-4305,49,-3129,-9921,-11511,-3263,-6411,-7231,-1550,-13457,3331,11272,8288,9976,10896,-589,-9061,4974,9646,-2367,9805,-623,-14177,-12605,-10141,-1547,3222,11063,-9235,10653,-2563,4114,1341,-9317,-9716,-5916,-1285,11157,5680,-435,-7273,-6638,9341,7736,-10204,-7886,8891,7458,2078,5718,935,6119,-10233,-154,-3995,-7356,3779,-4430,-6249,8873,-3558,8999,-4518,1042,8589,-7201,-1130,-5009,-2685,2517,-1797,-12366,-4026,-412,-5109,10300,8096,-10576,-9117,8965,249,229,-3399,9719,7868,-1687,-7747,8619,5773,-12339,2715,-6625,-1642,-3877,-6684,1674,-11413,8395,658,4411,4331,6088,-9019,9542,-8081,-5066,-3824,-5840,1520,-8796,-8988,7313,6987,-313,7631,-7914,-4197,4310,-5224,8999,3567,2343,-5642,3300,1626,9809,6718,11508,9473,1054,-545,-6284,-8854,9504,-3477,-11679,13874,-4543,-2721,-244,6464,4117,9757,9722,-6620,6065,-563,-1755,9617,9373,-6078,2544,9467,6912,-8394,-10496,-10631,-7612,-9908,-5793,10835,-1597,-11556,-8998,9216,7358,-2940,-4023,-9845,-6203,9567,7291,10866,11955,-3132,5148,-9407,6026,5343,2213,6866,-4289,5302,9413,3789,-11544,9785,8395,3256,10113,8906,-8446,9148,5639,-4307,-758,8914,-9348,51,-10632,-1415,1449,9341,4849,-3434,792,-2192,3125,-9044,3344,-10090,3343,9569,-4761,-7506,-8894,-2989,5734,-7751,11137,5387,-10023,1480,8036,-9083,-7551,-229,9115,-7742,-6224,223,2171,-10458,3839,-7960,748,1720,-3885,-987,-18367,-8500,7377,-4031,865,-11772,11392,-5897,4433,-2064,6879,-4935,10796,-11585,179,6890,9693,5402,138,-10983,-2243,4312,-10827,942,-1906,-9406,364,6775,-9343,-8775,10431,4330,10079,9068,10330,-7545,6308,6288,1022,6760,-6784,2726,1931,9859,-9252,206,-349,-7270,3066,11823,2794,-5455,2139,-5198,2253,-2971,-2333,1500,1944,8870,-1222,-11463,-2083,465,6804,8225,4624,2419,-1467,-11663,-5781,-3633,-8468,-8411,-8696,11696,6531,-3284,-529,4485,439,-6562,-11619,-9271,-3354,7681,3769,8724,9920,-947,-3021,-10602,-9477,-8903,3848,-6610,4673,-7089,1779,5493,-5270,3388,-7951,-7389,6080,11449,-807,-8792,6039,2835,-11703,-7254,-10140,
        8460,9336,-11489,-6144,-1088,9487,10544,9047,-3758,9960,4280,984,5026,6585,-4302,-1677,-2763,-11418,10638,-6644,703,1734,5149,-12570,-9218,1690,8764,-6054,752,6383,4298,7067,-2918,-3301,-5676,-4222,9063,7279,-4130,-6450,-2017,-11572,10908,3128,158,6913,-6020,-9347,-407,11217,6950,8876,6718,6436,4190,-10739,4281,451,-9710,6193,-4197,-3758,12373,-10690,-10539,10390,-10828,2197,-9537,6757,-11207,1193,4680,1286,5841,-9922,3659,-11238,2632,-2920,11506,-1656,-122,4072,5552,-691,6004,-3786,-2160,2182,-8817,-9520,-3316,11213,5970,-6324,-2263,-11561,2872,-5285,1747,575,-3757,5681,-4873,-10351,-2257,-2793,12109,-24,-3638,1320,1469,-1768,-517,1361,-9509,-1390,-8496,11345,-8055,4552,5670,6852,7934,-10578,-8201,7726,8072,2832,-9646,-11496,10189,-2410,8663,8322,-1764,1588,409,-8660,-8778,-3844,4945,-5572,2733,8639,9645,5271,-8511,10823,11275,-2330,9950,-3137,-9588,-93,8,-11357,-5449,-394,4763,8975,10728,1363,8376,7175,767,5273,-707,6833,3897,-2161,-3103,2967,9294,1972,-3267,9328,12081,10645,4660,10564,-7902,10076,-9681,-7459,-11623,-6869,-6557,-2092,9819,-4429,-2424,499,2277,8013,-4004,1811,3675,8376,-7380,-9583,-2060,-8224,-6292,8285,-545,6792,8544,-7142,-8379,4378,-6732,-592,4254,-9108,-534,12663,-3733,4293,-2576,-6905,7840,-6435,-1099,-4925,12540,-541,5773,-1181,2655,9400,7130,1984,4073,5454,1078,1160,-6335,-7474,7000,11253,7255,10398,-7241,8549,-12730,-8490,6219,8078,448,-4162,11157,8831,-1170,-9126,-10872,-4107,-2928,-740,4466,3364,-1473,2813,11092,11530,10079,3043,5555,4211,-252,-1875,211,9876,-8955,12612,-2868,-6627,-8630,1902,4093,-9083,4240,7892,2577,-3452,-7080,-10276,-7449,-7902,-4659,883,10791,3828,4362,9197,3503,542,10186,6342,1526,-3327,3807,9084,-10385,11792,1176,-10763,-11031,4538,1746,8277,-2708,-11420,1785,-4650,-539,8282,8777,3599,-8474,1038,3630,-1172,5647,-9585,4280,2987,5702,448,-2986,-9884,11260,466,8559,-8104,3476,-9882,10283,11726,-7472,-2535,-4521,6115,-11086,6844,10511,2977,-10412,-2780,2813,-8351,6609,-5052,10346,6047,11020,11370,-3739,11047,
        1307,889,4232,10119,9456,-6450,11883,3156,7427,-3920,1089,8490,10210,8160,6558,4436,-7429,-7318,2620,2006,-1720,9892,-9507,-8855,-1768,4647,2661,542,6824,-8459,-6944,-816,-7894,2554,-2123,-1721,-4698,-8709,-6503,-180,3713,10296,-4065,-11110,-11317,10153,-2071,-1688,-8539,11165,-12102,324,-1371,4160,832,8658,-4522,-8678,6,5717,-10534,-2183,1048,7015,1912,6304,-6526,-2698,-8118,-11035,7687,1174,-2108,4939,-5332,5135,-9349,527,10474,-6476,5098,3975,-4623,3944,-9819,11914,-7815,-643,3327,9960,-92,-2165,-8332,-4949,-9569,-777,2287,390,3528,7870,-978,-10952,-11196,274,-11361,8966,1301,-11330,-5914,12699,-3076,-5018,-9079,7179,7394,-7607,3181,1159,5766,-2244,793,-10919,-9067,-7510,1866,2226,-10448,12104,8078,-9020,8566,-10649,2513,7049,6569,-6258,537,-9826,-7364,8748,360,-677,-7155,-3092,-78,3437,-7390,-7718,9520,10532,2036,2672,-7141,9994,4239,9900,-6233,-10209,3562,-1739,1097,-3071,-1963,11062,2772,-8272,3724,-6038,7047,-12260,7135,-6248,-10731,3429,8992,12343,8871,8125,11059,-5714,7803,-1573,-2281,10120,-5832,-2046,6646,-1665,-3439,5137,-9177,4500,-511,4994,10805,3296,3357,3264,-8281,-1689,3442,5207,-7713,6607,-9232,2565,1715,-5066,2206,-7004,-707,4732,3705,5385,9784,984,-4821,-4397,7080,-7249,4615,6035,-3417,-8288,-5975,-11280,-642,-8862,1653,5810,9295,-4288,7743,-6541,-7083,8741,-7594,9547,2470,-6948,-5958,-2722,6276,5320,-10671,11061,-10162,-13421,-5668,-1663,4788,5857,9030,-11700,10065,-7866,9506,1775,9268,-31,4203,-6590,1353,-5330,-7394,1322,10558,-4455,-205,-961,-1019,-2794,-3321,-4646,-1931,3183,350,-4774,-7735,8439,-7053,-4257,11018,6036,9586,-11947,-6417,-9548,5501,3758,-158,114,4979,6781,6742,-12129,12476,2581,11226,10744,-8839,9316,5969,-5442,-10458,-184,-7019,-4792,-156,11965,934,11653,-10943,-7038,-11286,-9541,8711,-3584,1568,-10728,7079,-706,8248,2916,846,-5075,10418,4557,-8476,4577,3579,3095,-4949,-7276,-6550,10923,179,-12201,-6142,4386,4685,859,-770,-5073,-10693,9632,-2262,-1416,-7399,-410,5225,8266,-9310,-8819,10622,-10789,6420,-4800,-11462,-802,

};


#endif //DR_C11_MAP_H
