/**************************************************************
* Created by jdwang on 2016-09-16.
* DESCRIPTION :
****************************************************************/

#ifndef DR_C31_MAP_H
#define DR_C31_MAP_H
// 1'st layer - convolution layer weight 25*1*7*7
static int C31_Map_Weight[]={
        56534,1210,58394,4230,27076,25308,-46006,33385,16164,-9462,56681,11099,14217,37175,-72487,-43129,-63500,-63720,-33868,-62693,25501,9115,-63235,21902,-11588,-13071,-5515,26421,24256,72770,65876,-15539,-66425,19373,42773,55133,-36475,-44397,11022,-53530,-21952,15601,80675,46560,-11671,-22286,59074,65293,-12795,
        -68213,-37528,32768,5488,46982,38105,2274,22204,18580,28153,-19625,-72513,-26441,-109091,48526,37704,-20171,46645,63399,-64542,-52046,-55004,-25083,-19575,40943,-5676,51947,-70780,-33062,2056,-20357,55858,-66104,-47025,-12571,-5415,-23908,-4489,-47754,-35345,-43004,16700,-35290,-19245,53581,29257,48068,51102,59595,
        -41306,-54578,-6467,-77241,-56326,26088,-66842,2794,-8786,-15532,-32956,-7455,-1568,45609,22813,-9297,-31287,7449,-49372,-7787,61856,84793,6739,302,51075,41069,42881,-42474,91669,38536,39658,35495,-5142,-90134,-77172,60539,65049,20601,-51531,-7083,-97035,-41895,565,-1919,-48792,-71333,11071,-6448,-14785,
        56872,32383,78454,-11766,-5946,-68764,-37477,-63067,24013,-36525,-18636,-568,43874,-61419,-62388,6365,-33718,44091,39234,65457,-43226,-50346,-8110,36328,-60077,28630,-19006,67541,-28401,-1324,-40606,19299,-64866,47880,-9780,-30432,-78260,-47594,-4689,80693,65390,59616,7231,-18609,-33234,23400,69476,63754,8406,
        -60756,-25563,-79827,44250,-48560,26872,-75849,-72680,10177,-36823,-1103,55779,-66593,7347,21677,6449,-52178,-24815,27381,66465,-43844,23860,-38623,-41578,-54099,11340,30202,-27822,16317,-17368,28924,69410,54311,21485,46654,32427,18172,53225,40702,-37464,49646,-59179,38680,17607,31397,49097,16146,38870,37656,
        35120,20114,-42449,27305,42691,-35922,30874,-27983,-21724,-30171,70712,59037,-39330,-31321,14154,-15221,28793,-17814,20645,-16122,4951,66678,-9262,-23932,33706,10008,22805,55405,76892,-3557,-38345,18826,16058,-68615,44075,44164,-55348,-26892,-65777,-12257,64710,49645,54224,-35773,-50779,-2199,-19105,8527,19497,
        -53898,-34493,33467,-64967,9921,-7037,67369,62083,-54606,54516,36878,-16579,-80,55432,3690,8823,-46852,38968,69495,5438,-38532,15157,48062,38554,44939,6426,72304,65956,-52525,-13247,7922,-30489,-28362,26879,-39498,-82926,-12747,-39780,-14518,47285,28098,-3275,-8503,-22286,-68288,25855,76757,-42430,-45193,
        25125,-54184,-27607,38087,4186,-17420,-11226,10013,33711,51523,14068,27648,17981,-47807,-31541,-32870,47449,71170,-13929,77568,-3479,-68045,28833,-18737,31590,33810,67270,-2220,-12568,-48440,25027,-8334,-24218,25961,-2844,-54467,2478,15414,-18493,-3208,64616,30156,-94699,25470,7041,-14175,65499,10519,-65246,
        10889,30581,17420,52171,42783,22874,9456,45380,30896,-25357,78595,21813,-84019,4803,-36230,-42769,21699,53022,34853,54678,-56899,40676,35970,6218,62326,13083,-4636,-19417,-73531,-64531,51732,59620,-24627,67356,-41481,-29348,5599,47441,4022,47491,-3717,-5988,-34603,-72264,-15346,-40653,-50121,-14733,-27812,
        31756,68535,65409,-14443,46172,-51068,45411,65434,-3539,-27235,-12694,49926,60909,47227,43243,-42739,2756,26776,62260,50214,-6918,37070,8290,66007,-23429,-36187,-34906,11994,46391,61721,-17225,54394,53236,-24688,-17016,60399,-7566,-42872,-16772,41393,54961,-36206,-7010,358,62449,40801,19218,2002,15598,
        21285,-62274,26793,17938,40586,67206,-46102,3301,-9471,67211,19051,-49598,66884,-24801,1902,-11324,-29788,13595,-51888,21925,33621,63581,19951,-48543,-12141,30658,-620,-32028,-8485,-29876,-39837,27904,-48164,63776,-2003,-24393,35015,40227,52869,9969,11627,-6100,37843,812,-22965,49396,-17516,-36705,49326,
        58566,20422,-63363,38413,-50570,-57961,-34569,18990,29559,-54541,-56853,2254,34966,11128,50805,-40059,41588,57258,64993,18884,-25854,14022,18491,-36449,-39836,65156,4531,42699,20092,9071,-33810,5639,45208,59622,24823,50801,55642,-11895,9991,9953,33469,34112,-33611,36476,53360,605,19775,49388,24737,
        -42581,33782,41004,63912,-4004,34763,-6507,-43069,54044,-53879,-2238,1364,23318,-42451,-44316,-34782,-16288,-57458,-35325,14177,98303,46063,-37981,27627,19123,43698,15696,79923,-53626,-68911,-25851,-76819,-40835,74398,65201,20222,12466,-57551,43453,-6034,-383,-6597,-35218,-4060,-49941,-23176,20660,47501,-62264,
        -63837,-34973,58416,-20786,25385,30878,-81006,27584,-25760,29285,14721,23156,31007,-28610,69040,-24929,81343,10470,-24282,-49758,-67578,29901,976,69502,-51751,24459,-62923,-38798,12393,-30414,56721,-41795,-63280,-31479,-22285,18454,-38251,-60217,-44187,-21455,51196,-22320,-74070,40,53625,38462,93367,15533,-14657,
        -37432,-26939,13769,-43132,19439,-33544,-5448,-3797,-32590,-39814,-69345,-67293,6315,19583,19539,700,-64597,-49685,-49421,28803,4710,-20506,56913,20992,-25532,49552,-46502,-44709,-14130,-23617,-28156,-62781,16309,22785,41984,-8049,33903,-11045,-135,16827,23283,-49489,-58612,-46180,-27234,-59524,58320,-61661,42465,
        25706,-3115,15004,48639,-31335,-57664,56455,-27390,58559,4698,48043,-41209,42671,23950,46862,-8741,-29125,11020,-39924,-40721,-8808,-28556,-25077,57931,36331,-10783,23334,-7148,20927,34608,-62190,-14129,15140,-47310,4771,9878,44941,58179,52328,24532,30946,15266,23718,59931,-44659,-58653,-45598,23433,-34753,
        58174,-24914,-22841,-20525,63447,-52021,27581,2090,-14539,-727,36514,51723,30163,67100,33522,-15784,-32791,39468,-50139,-284,52501,41611,-66403,-83975,-93284,52809,42141,39748,2683,-36698,-34755,40505,-22973,-7907,83424,-17213,-24667,700,-58434,-3210,-59250,76750,-11339,-26856,1804,-56184,-11633,1543,-26800,
        -82000,-62999,-32910,-1394,-58084,70983,61747,-3235,-77707,41410,40635,48945,30403,38830,19809,30894,-39358,-31494,10439,9539,-8480,2751,-24079,-35563,-32321,84217,17881,54154,24336,-27112,-72056,57669,-5986,52279,3225,-52163,-45353,-62785,46282,5403,53255,-65811,-39637,-48633,12260,-75150,-38383,-50855,46039,
        -42282,-77223,4291,36899,-41918,17092,-45087,99,13544,-15866,-25538,-26563,46492,-62883,-67318,57177,-22109,-62396,-22041,-71599,56830,-51665,36639,32881,-35720,-60471,-10567,-8984,30750,-22986,5023,2100,-42236,47512,-51085,14368,-21472,10077,-66416,-26559,13894,10238,19053,-17103,-45844,-19446,-43525,39523,-6209,
        -41865,46095,33791,-54049,-12,30792,-76650,30305,4665,53024,47038,34755,-47064,-19319,28494,-37937,-39197,-1888,44570,28155,-62791,19259,-58284,-47659,-64459,69205,-1567,62342,-19227,-29024,-57238,46871,21392,-41990,69310,-26598,-36360,42217,61919,-72244,42985,-54111,-62559,44355,-76262,-42488,4698,-21796,-32320,
        -50295,41505,-35532,20174,52515,45962,32389,48804,-37178,18421,11251,-3430,55615,20779,-39518,54585,-8583,-12669,58075,31096,-5911,-47735,81912,57160,33630,-52520,57271,30140,40209,-12874,22791,19622,-36798,65317,-1762,40759,-60610,-30077,41950,-39464,45188,-24181,6110,-56697,68357,-18103,27660,57455,-43931,
        40959,-3694,43536,20030,60058,-30760,35891,54386,-29866,11829,-34410,-43342,61451,36400,-20416,24563,14352,-27860,23336,57045,-12970,-29348,-15254,59730,14195,-48249,-49269,43061,26844,-55816,-5100,-37516,60392,50144,-13732,-2329,-51804,45900,59418,5548,38773,-13986,32770,46780,-61615,-18780,-5647,-34131,25041,
        -44360,35580,21457,40430,-77113,-38587,-39307,58083,-37493,-31507,37857,67641,43328,18125,-63952,23941,24855,26338,41296,-301,38678,-78250,-47156,-27698,-31843,68993,-16583,-14031,48572,8313,46703,-62213,62328,41327,-29898,-75899,29086,-23738,-78470,17725,30597,13389,26976,-84384,-79690,-75845,-36093,-7664,-60543,
        42008,-53821,-81608,-68652,15354,28100,-42155,-39051,2382,-55251,20497,34410,-19986,16778,-44515,-189,-57422,-21361,-29331,-61561,-82278,-47404,-56034,-12296,-73497,-47950,-64099,45147,-70966,20054,-19965,-20665,11029,45522,-9403,2837,-82972,-30135,-41615,28231,-83241,42500,19137,-20503,28027,23996,17163,-16737,-16688,
        -58757,-30345,-43044,52926,-46403,-46776,1092,-56277,21835,36533,50174,-53104,-22273,-56022,28620,62494,-45636,-39820,-37226,-15200,-87508,-24114,30640,-20744,-222,-35454,11777,-36327,78112,-13248,53595,35017,-55469,-40752,7977,21779,-23079,15828,15495,10644,-41291,-93977,82602,78142,-3615,-16678,-68391,4113,-2965,

};


#endif //DR_C11_MAP_H
