/**************************************************************
* Created by jdwang on 2016-09-16.
* DESCRIPTION :
****************************************************************/

#ifndef DR_C21_MAP_H
#define DR_C21_MAP_H
// 1'st layer - convolution layer weight 25*1*5*5
static int C21_Map_Weight[]={
        120885,71164,-2603,79408,28706,12713,96591,54256,20964,-21355,-15970,17803,-61441,-29061,75165,83370,31900,39877,58401,-49745,-51041,-64453,47183,-37493,7327,
        -89040,-105131,725,39856,-96059,-93405,-111303,46750,-55768,10794,-59636,48547,56579,16587,-10769,38868,53064,86417,46456,6381,62817,-47148,87872,28870,-98073,
        -4481,30325,-103015,-114290,-4174,-49619,-32853,-89378,-93500,-42188,-40767,37773,16184,18616,-55808,54033,61896,31971,1451,34577,99769,105298,-27553,59419,36763,
        -1127,61353,-86920,51763,-23829,18627,-69357,1295,6839,-52015,-33638,31379,-74805,14494,-66469,-41461,28559,-18649,-40722,130529,67916,96404,449,-45655,120115,
        110808,-59798,23753,24068,38103,40648,-52893,-76342,-26862,-69534,-64739,90086,-82496,-52983,24683,24975,53835,-23538,16418,9215,101397,3622,-76061,-87154,5663,
        98284,100430,27268,86185,93369,-35991,-13678,53012,-23480,-62939,81166,-36142,-61962,446,-393,39631,-31718,104576,54322,-46504,-22241,-14025,29821,-75802,40858,
        -6133,-70341,-34450,-97198,42093,52743,40358,-51944,57381,-110264,-79873,48941,-10237,-62606,-35869,-49829,-86246,-73770,-101714,-5486,-80991,28768,24672,-36658,36260,
        65395,79004,95665,-73549,-36931,-77302,-18081,10902,-41792,87640,81072,31650,39460,-46271,-48022,91297,14280,41533,-36989,-25871,36107,65710,-17985,86671,20929,
        12545,-48042,74064,-32892,-24311,8227,99536,-21144,-63764,-65224,66971,-72345,-38249,31224,18462,89664,90684,-83755,37431,-74616,108877,-46264,42183,32438,110940,
        -4613,79156,-41564,56358,-52813,59756,96733,45700,-52496,-46315,11126,-16178,17742,23853,-60845,-49081,44680,79454,70241,64026,-43956,101065,56311,-84539,84156,
        -96595,-42109,47035,19439,56181,40722,46801,-70706,49594,-28765,39102,23286,-8301,-134006,17227,-22838,105302,-48526,-9980,-53776,12509,-74056,31479,-66696,-15537,
        6762,-43993,14599,88015,42467,-58530,21383,-85781,-25998,90145,-57714,-87623,-27312,-35981,35012,-51423,-38162,-23610,94550,-17022,36863,76513,-15697,36094,100880,
        34525,-42029,-101079,-52321,-40833,15401,50595,54691,-100396,56292,865,-55727,22740,-42718,-75255,18122,5179,14401,7719,92778,47640,30677,-101878,-103140,10002,
        -7095,34872,78756,115304,31768,51611,-67012,10064,49483,96637,-93409,-26197,62523,-30686,73708,-65706,2627,-30120,-46930,78302,-66108,-93074,-80812,80547,-111602,
        -4227,33282,80770,18226,-17651,-58865,-42264,-79717,-11648,-86712,-67304,39399,60575,-47426,-80971,-64502,-17628,-29273,-9745,11049,-13989,-104332,37104,-108314,81328,
        26704,-52395,10399,-77194,-4371,-32290,-71944,17891,-33553,63098,-120893,-30201,15509,71035,115093,-639,109543,-54832,-30795,37781,-93202,-43226,71239,19142,27271,
        -35502,31942,-58985,-104941,-71747,75914,-60657,16771,-14426,7239,92869,-23619,-11448,-72807,45855,79183,53584,4222,80323,24238,48558,-85850,90591,-38094,1755,
        59872,64979,80039,103917,-24089,38389,-73955,12961,-86814,6851,52993,29930,-72140,-65423,-76039,78968,-37785,-104733,-77056,-87798,-13250,-91962,21056,85444,-90082,
        -24461,-13414,-35513,70002,-51499,-11603,-73372,-89200,-84890,88638,-53978,-64769,10099,-66300,-355,73665,73122,-70026,-66073,65333,-63355,10566,-72522,-17240,18161,
        -130508,-42874,-75684,-49600,-68277,-7831,21090,23204,-69315,-67759,49224,12904,-74895,76469,24649,-60190,5931,15669,-57289,62693,57199,31007,-51037,87794,36162,
        91065,78183,57990,78370,64948,57786,-100700,-17143,53649,40618,-48369,4400,-50020,-53720,71148,53131,7074,50775,-31747,-1249,-12607,35262,-79397,-88520,-119783,
        94116,6366,-60302,19850,95319,92927,-53435,66029,-46814,-25119,-93713,33911,22332,-6227,52012,45550,-36258,-28094,81588,52999,-46746,65752,-10058,88470,72552,
        -82725,-70828,-31179,14535,42133,-80253,-67578,35411,-71505,76541,-19423,-78330,19365,59187,47581,87564,53819,4972,70983,-20750,-93221,64556,66436,-76234,-73571,
        -37280,-66935,23532,55707,-133893,-4707,75169,-49987,-68342,-61060,-2801,-69017,-29731,-87267,-108433,55099,-2132,-56627,-27721,28228,-61627,30715,-142955,-117401,-68172,
        -69604,-69271,-72257,22285,-15899,41917,40116,-2982,-67590,-76378,62321,-41488,59806,-48049,-106246,-53720,63846,-34983,53081,-30054,19993,25796,32205,-18595,50567,

};


#endif //DR_C11_MAP_H
