//(40, 10)
#ifndef DR_Digit_FC2_Map_Weight_H
#define DR_Digit_FC2_Map_Weight_H
static int Digit_FC2_Map_Weight[]={
39342,42000,-35454,19842,16806,-31081,24611,57109,-37962,-34887,-17763,21611,-21714,35814,52883,57735,13339,40219,20857,-43658,-17216,-46063,-16646,-31754,-26390,-31005,24343,32169,21945,-36963,-32976,13776,-9341,-44243,-22473,40320,20622,-54677,26472,-27326,
-6652,48790,-21054,-44352,5775,30821,32408,-35036,49889,-39935,22294,30148,-34809,37627,50909,-33988,9259,-49307,-35473,-39537,31208,34241,-25338,-987,27923,53227,-43760,-43105,-55346,-34089,-52580,-43287,-32591,-43656,-39820,19364,-28451,36496,42975,-13738,
-32453,-34527,55517,30165,-49318,-16719,41489,-32100,-53874,26454,-19237,36603,30445,29305,-29117,41474,-59751,22063,39468,-41424,-34857,-41848,-838,6139,46958,37330,-46430,27058,-55801,10202,45039,37269,14498,-31931,58183,51083,22398,33073,-35540,-30721,
-39161,51517,-25516,44375,-5439,39659,40276,57144,-12056,53767,-14014,-24809,-33548,42408,-44651,22831,-58895,21096,34462,15286,-45280,38847,43700,-13287,43871,32641,-53783,-50740,-15389,33060,52331,-52021,-32861,36187,-43285,-38684,-42096,9096,18933,-37498,
44893,6568,-13763,-36853,20552,44680,37732,179,33114,34475,-22271,33259,58425,-28581,-42733,-33656,2579,-38524,-31875,-27325,48397,-40222,-40723,-33076,37365,-18991,31059,-46015,10338,-33706,48022,-27047,49841,16081,41482,-32256,31787,-40219,30575,32602,
32342,53138,-31113,-55161,-43526,-4744,-47744,-35824,-47365,-35947,-15072,-25434,-33572,38992,-28945,-39281,13376,2939,35175,36453,50711,26624,56820,-29988,-47140,-32771,-60236,-24573,-48931,-29616,46275,26381,47259,-2328,-20726,-37970,23825,38410,31707,51122,
40269,-47968,-26009,-53695,-36172,-54950,17879,51377,40843,49864,-14617,-40650,-28869,-37680,50898,-35481,-67009,39893,16802,39856,55875,-38347,6998,36688,-36351,-45896,35456,-16539,18049,22557,-31482,19513,44629,28310,18222,39575,-37474,51890,26502,43240,
39633,-30959,42360,33161,44815,-32247,-43127,-25650,25005,3938,58250,-44730,26690,19292,-39424,-38326,11577,-58082,46775,32014,-40421,23436,-13619,-19874,25955,36255,20948,34176,-51117,-30893,49366,-28694,-39092,-24387,-35618,40539,94,31815,-37801,-36817,
-55539,-45581,45278,31799,-35714,27881,-5708,-14120,29865,33776,-12499,29,-30837,-29288,-12562,43678,21075,-39482,25869,38028,-33281,39976,-31983,38679,-43363,27401,27594,-51203,17185,48610,-29864,483,43676,29179,54717,-39526,-34595,-51127,-35717,46993,
-46823,-27280,-36299,13980,-41071,39772,-12083,62419,-52666,-45573,-15537,-29665,32578,-14745,47731,-53510,-20364,26293,-59461,28104,-40824,-42827,41372,38351,-26689,39254,-48692,47259,18399,-4547,39430,31737,-29099,47055,-18828,14176,42857,34957,-55649,43133,
};
#endif
