//(360, 40)
#ifndef DR_Digit_FC1_Map_Weight_H
#define DR_Digit_FC1_Map_Weight_H
static int Digit_FC1_Map_Weight[]={
-5220,285,1520,1180,-5211,7487,8978,10962,6825,7609,8179,-5103,-4887,8561,-2621,-8305,793,6452,-11590,-2377,9324,-10144,-4870,5853,9786,1933,-9244,7705,-8256,-9770,-9010,7822,8683,-2901,-12105,10884,-6777,-11757,-2610,10843,-11912,-4363,-3249,3386,-14036,-1266,-2916,-7830,22203,-130,-10756,-15161,-14159,-11736,-8229,-1485,4019,-1216,-3185,1867,-19356,12317,2452,10640,-2183,-9400,-7363,-1712,-4434,-1593,-1481,-457,8231,-9605,8001,-4961,-6831,11539,-10159,-8211,-2485,16920,-2541,-5751,4594,-3608,1844,-5687,-10353,-8228,3987,-10145,2955,15465,-1430,9532,-1052,-4081,-897,-2520,-3002,-9650,9650,3976,1510,5290,5685,-4735,17549,591,5926,-1800,6496,22528,-14793,-11389,-5364,-4910,5267,14032,11558,6116,4848,2192,-2620,-31308,-4711,36,-15247,-2951,-43,-15635,7556,3671,4846,-12538,2605,899,6837,-1215,9039,3195,-3753,-11821,15126,10047,7823,8577,-4410,-5862,-13810,-2174,-2692,-1185,2786,5180,17697,-1564,-696,10109,22646,8048,15108,14766,4931,-2633,5270,8363,-4518,11127,-2343,14928,-1589,4623,4818,3359,-4068,-4621,-2414,-8784,14202,3145,-3920,-4019,5810,-6654,-2862,-4569,3044,7874,-2025,-587,-25395,-14660,4640,-296,11014,-14560,14344,4038,-17036,-3868,8694,-9061,13751,9718,-3544,3268,-12610,-10759,6542,5190,-489,-2749,-2517,-529,7,-7057,5677,-236,1925,-173,6374,8413,6792,-12076,2417,-8308,1439,7392,-5687,1705,11084,3909,-8197,-10487,8864,6421,3361,7991,6738,10320,5245,9964,-571,8852,7528,-10284,504,-7501,11773,-1117,3163,2435,-11610,3663,-6229,1649,806,4715,10251,8967,-8908,-4436,5889,40,5624,8935,11153,-4929,-3752,-5440,8731,4009,-4127,5355,4201,-479,-491,4275,2676,-177,8579,9390,5252,409,10043,-8556,930,3769,-2557,-6923,-11761,4211,-7083,733,-8084,-9760,-1782,5639,-10997,-8999,-9709,7976,-1963,9284,2334,1462,-9824,-11321,-1616,-2370,4944,5192,-4243,5634,6992,4361,-7838,-5892,-8713,-2092,6958,6003,-1558,-11333,-6264,-5224,5586,5353,9769,-2387,9618,-7348,10766,9930,-54,4314,10731,12125,-4579,-18255,5225,3686,2336,4972,-3795,1116,-1792,1787,4619,-3961,-7225,-2584,9994,-6538,-894,7658,9600,6475,
-10840,-626,-7980,6425,-5114,6613,6994,-4800,8049,8355,-5875,-3618,-5200,-2170,1742,306,-3432,-4878,-7338,9733,-9626,-683,-1918,10383,6437,5606,10020,7284,-7175,9549,-2628,-4660,-5555,5870,-8378,-7579,-8581,3026,-6781,10158,-2223,-7439,-5695,-9614,-6749,-7540,7510,-3834,5170,-10363,8058,-18962,-15754,3167,-4517,-12323,-597,-19560,-8870,4302,4848,9440,-4936,-9142,3922,2823,12065,4301,-9744,-16745,4663,6012,5147,-4988,-11939,-4768,9812,-9044,492,-644,10688,-10715,5505,-12510,-4295,5623,-10913,8883,4070,-1118,-11844,2108,10273,-9714,-3599,2180,-300,5303,-1713,-4358,4546,-4033,10593,1801,6999,-10948,1148,-7294,-1361,-12450,-7743,-6810,2868,-4510,-10891,-2958,1764,6113,-6669,-10596,5936,5757,10940,-904,-1449,-10772,-2742,-6700,-6634,-13399,-17760,-899,-9828,-19743,-20837,-3972,-13000,4054,-3765,5253,-13849,-13502,-1059,18769,-3035,2539,2733,6393,-4280,-13610,-8771,-13349,502,13658,3717,-8530,881,-18986,-11197,8510,3104,6298,-1131,-1716,-14284,-22133,-4267,2428,2531,7289,-2851,-20567,-5594,-479,11506,-3482,-2054,-10043,-10083,6130,-8960,-1407,-6400,-6367,5889,-9690,3443,1139,-14751,2822,3868,-1611,-2142,6702,-3240,16687,-8356,7100,7767,-2615,7960,4658,-13953,-7957,-7525,-12128,-20502,-1534,-171,841,-2474,-3838,-12078,-11039,5234,1722,-2610,1914,9367,-8614,-830,6661,5023,-10203,6198,-11579,-11673,11042,-7321,-2733,-10608,2580,-9965,4508,-1367,-1667,-7442,-9790,-3248,7113,-4430,10927,-167,3590,7913,-6636,5241,9785,-3391,6984,-11569,8511,12518,-12344,-1351,11316,11248,-2062,-848,-4754,10651,-10916,4145,7444,-3001,1324,-5343,-4935,5867,-1859,-5679,10684,10978,496,3199,1674,-6485,-8830,4363,-6792,-4326,10416,-1449,4611,-4059,-2032,-8297,11164,8363,6990,10171,-11730,9848,-1773,3143,8680,3895,8318,-7297,-9310,11373,4880,7254,-2485,-976,-11117,9803,-9708,-11087,-10719,-4028,-10703,11014,-3959,-7170,-7188,2166,-4988,-3165,12318,3793,12392,-9740,13320,-1722,-3536,7360,-4454,9653,-7515,-1768,-3976,6701,5401,-10215,-6917,-7579,3205,-11,5165,-2735,194,-16665,-20365,-7665,510,1991,-1469,4358,-17967,-6442,-1519,2710,-6,-9084,-2117,4588,-10407,407,4887,
-2495,9694,10748,8874,-330,3131,-1351,-26,2167,-11106,-9124,-8883,-4730,1157,5403,9853,-6822,11595,-8470,-5676,2318,-10494,4534,-10943,5106,-5254,8809,3661,8094,-3201,169,7540,9947,-5947,-2721,8364,3239,3929,-5808,-4916,-1288,10320,-9926,17565,-887,-9059,6774,11102,-22727,4291,-2662,783,9226,-10414,14701,4772,7755,5419,-10746,-1729,12469,-3763,-5820,6163,187,-14059,-3070,-3272,-2226,2247,6815,-50,11691,4812,4694,-11983,-5430,7718,-11826,1906,-4061,-5439,12356,2279,3690,-3660,-10613,10704,12056,5352,-4472,-1964,-5307,-933,6068,7853,-2382,-5577,-5513,-10013,755,-3600,3907,-2294,10466,-6004,-9594,-473,-38,7920,2749,1192,-12840,-12259,-2077,8519,7162,-7957,-9553,6466,1605,-12247,8680,10124,-893,4507,-8878,-13766,-12298,9089,11735,9536,-649,17893,6051,315,7441,-3319,5887,911,8132,-115,1003,-6582,-2262,-6071,-153,10248,9668,4821,3717,8233,7675,5922,-194,5985,-12389,4737,-2370,-220,10048,13113,8386,9572,6372,5663,14569,9336,-2816,-10404,7194,13298,19493,3124,6360,-1830,-6453,6092,-1609,-8957,1979,-397,1085,-6980,5719,-3498,11749,9423,-5787,-472,1736,8352,11094,1169,7091,-3300,13911,11138,-22869,4846,-20552,-8878,7851,-1930,-2062,15078,16036,-5857,224,-13235,4376,3132,8267,-1097,-7072,-18758,7047,-4778,-12496,3364,3418,-2148,9592,7187,4378,-4092,-10501,-6562,-10436,1379,-8861,3577,7049,-391,-4893,-4897,-1585,-10262,7368,-965,5537,-2703,-7115,11834,950,-2503,10270,-6607,4012,449,-5776,-9157,-5092,-6992,-10840,-3981,5201,10424,-4939,5464,6320,10246,352,9483,851,-5212,-8923,-12029,-809,8331,5018,6934,-10178,1223,9676,-7263,-6150,-7340,-7535,5368,-12531,4256,7425,11670,-8021,-4524,9330,-7759,-8294,-2220,9654,820,10657,-10499,7005,9780,7595,-6636,-8658,-8764,8035,3663,-10532,-8513,2218,3513,-1035,1315,11135,12302,-2890,-7815,-5284,-6085,-7421,3936,5289,10909,-5082,-8925,-4172,-5212,-10286,521,5557,7934,-9723,8181,-11888,-7685,3918,2087,-1059,10201,-676,10361,5336,6296,-11269,11985,16185,18814,432,20817,5111,-2994,3992,10866,-2911,12751,5552,163,-1443,-10536,378,11549,-9754,10498,-2840,-20825,
-3132,7806,-9894,11638,-10124,-181,-4828,-3695,-5744,-8122,-6735,-10912,-1989,4622,-1897,-4652,11529,-7759,11695,3937,-10430,3412,7965,-9048,8852,-11143,-10777,-7928,-7676,-10081,-326,-6541,6973,-1752,-5245,-4122,-9508,14434,12514,-6086,-10348,7829,4018,-12779,-5855,-9511,-2697,12120,-9530,-5417,6598,-8751,-529,414,13329,13617,665,4838,-8241,-4486,8819,14156,3795,4652,3521,-3485,7414,2898,10235,13445,5346,6256,-5797,5266,532,-8106,2822,-4902,-10201,1760,-2055,11732,-6163,8375,-1606,9301,4153,6191,10944,-8525,-11611,6525,-8835,-9387,4457,-4485,8002,-1753,-10388,891,9108,11411,4699,7107,1501,-992,6561,-1903,6501,9797,5017,241,-1124,-27060,-10528,-8268,-1047,-3057,-15927,-1135,457,-4875,-3534,-17471,10047,33759,-7681,-2750,-2561,-3874,-1810,7616,-6310,-10034,8202,13056,16798,1735,7490,1478,-2079,3202,2220,-12044,-3494,9456,-612,-1836,3011,5877,-2,9762,2840,-2433,-14276,8912,5672,-1834,-10082,-15183,-11906,-2886,-639,-10207,-3811,608,-3882,-14587,-93,-3666,8877,-2435,8904,-11303,-524,17042,7053,12941,7375,-7449,8764,12766,12148,4297,1061,-5367,12542,-161,2683,-8648,6416,-4833,9967,5324,3982,-7389,-2691,7078,-7838,-12022,7097,754,-13597,-2097,10906,-4643,-852,3366,17927,18,8445,8434,1613,3295,-8437,-6579,10654,-1598,1006,-9885,6300,1914,-12025,-10659,-6779,185,11487,1597,7157,809,1649,2305,-7442,-1176,1433,-6908,4115,12183,-3367,3122,-1362,12013,-8221,8291,-11885,437,4876,6602,418,-8085,-11106,-292,-10156,718,10978,10198,-9598,5503,-682,-5910,9961,-494,1185,-2351,-359,-2878,-8329,11004,10606,4140,2781,-7415,-7611,9059,-62,-8137,-10874,-10845,-6671,1417,-2975,-1225,-5626,-4861,97,-5705,2165,5757,-7461,10188,9524,-7187,4983,-10652,-7674,-4691,-10453,1641,8142,-10724,-1623,-726,-11517,8670,-9603,3103,-11410,1878,-9267,-5093,-5152,8822,-7004,5580,-4812,2298,-6709,-7457,9911,-832,-2443,-10729,4930,1383,5071,-10496,5657,-6007,-578,-1896,-7740,3740,2485,-10502,12892,-598,5359,5333,-11145,-2061,15198,21830,-4964,-16880,-2319,4885,-3960,-9306,-6517,-2823,8276,-9055,-3698,-4247,-6459,2765,10374,-9860,-5456,7440,
10272,-9454,-3768,-6111,1511,4196,-11192,11022,10451,-3550,-3789,-5094,-9986,7036,90,-9557,-136,10919,-3715,-3240,-917,9937,2791,-12170,-7229,-6481,-1537,-8717,-12103,-545,-11682,3700,10633,-8280,10968,-2121,4650,-7504,-7694,5489,10603,1690,-4284,-9905,-11630,-7405,2669,9288,4405,4038,-1227,-2709,-17131,-4317,3808,3221,-11931,2273,6953,8529,-7977,3951,2112,10127,-11283,3064,-10157,-20537,-5371,-12568,-13782,-4288,2647,-8810,-5737,-6924,6825,8507,11133,68,4714,-7569,-1392,10457,-5427,3425,5116,-9961,2603,1885,9830,6310,11993,8851,-3391,5135,-1625,2912,-6365,-7837,2266,7732,3282,10133,5606,8631,4139,181,8919,-4893,4558,-1592,-11035,5767,5317,5017,-6576,5669,3916,-2793,-6438,370,-5831,1480,-4700,12271,-4417,-7635,8177,-6967,-8741,-8212,1249,-4424,-4592,2311,482,75,792,-8705,176,-7607,9801,-9281,-6683,-5213,-4506,-7392,-1896,17435,-4009,-19043,3100,-7708,-6459,7384,-15942,-12355,-11763,-2130,-8428,3518,14222,13204,-10687,-7758,-1454,-1702,16384,1213,-2789,-5707,3537,954,-1290,2942,3285,-5724,-4457,3177,11363,-5046,8869,842,-4709,-5458,8240,4535,5376,-66,-10260,430,-5226,-12025,-4461,-13776,9343,7105,3335,-9150,-5493,-13117,-18954,-8235,7353,-683,-9261,-8049,-13030,4447,12952,-7105,2992,13587,8313,7698,9391,2706,1983,2146,4765,11143,6100,2026,11423,9466,5434,-6527,7096,-1907,2956,6305,10397,-11373,3739,7063,-7043,-7466,-10118,10798,-8619,5414,-6414,-6201,-5670,-121,8408,-3206,10977,-766,4407,-3555,10141,-5084,977,-7867,9440,-1536,-6849,-6069,-6399,-7647,-9052,4590,-5144,2606,-2494,-11026,6287,-7229,-5928,-5908,-1703,1505,863,-1474,2161,5208,8613,11517,8840,9280,9548,-12065,3323,-9517,3478,-8150,1145,9387,4088,4528,5201,9511,2134,2315,4372,-8061,5862,6982,631,11904,11799,-6138,-6010,10981,-3195,-8252,109,7414,-2008,5577,6930,-8760,960,6467,-2344,-10302,-11667,11360,10940,11933,-4692,402,-7894,-4659,4122,-9635,-5692,3198,-11512,-5019,-2929,-7038,11961,2048,-8037,10788,11457,-4278,10291,-6164,3980,-11494,-6988,-9110,-4723,-101,-3732,-104,7648,592,-4450,-7360,-7653,-4165,-9132,4446,-651,8711,
-11354,-10585,-9406,-8542,-9668,6727,-11298,1631,3704,-11329,-3644,-5974,-8719,735,-3449,11913,-2216,3448,-9820,10982,6007,-3315,-2592,-7030,-9350,-6436,2085,1066,-177,-2045,-2450,3565,6526,-11257,7952,8722,-6355,-10187,5000,10212,-3478,3545,-3318,40,1611,4059,8623,7907,-22356,-2992,18690,11565,9895,-4616,13385,-8990,-1647,-7773,151,10695,3671,4484,-8682,1862,-7602,3159,8776,-4833,-8939,-8518,-12136,-3807,-3953,5784,6498,-10145,-4649,-9983,-8717,3375,3207,8497,4458,9016,-11898,-9689,-7908,-3319,-372,-6538,3742,-11381,-10227,-7509,-15571,-4216,9981,9697,6340,6423,983,-8476,12599,8703,-6367,-8733,9071,-447,-15977,-5971,93,-12899,8641,-9883,-1165,-18045,-1657,5269,1141,-17145,-5971,-10755,3301,3744,-6148,30223,7845,-4274,1363,-594,881,11218,-5284,-13090,-6775,7945,-9399,9036,3490,5192,-2453,251,10606,649,1852,-6273,-15564,-13603,-3044,3239,-6827,1950,-320,13961,-6070,-7532,719,-1343,8462,-71,-14569,4692,-9377,5030,12354,5689,-5528,-14027,-11898,-4614,-14425,-15798,-8285,3229,592,-8388,3486,-13997,-2934,13723,-12591,4186,-8975,6,200,-8296,1946,-7174,176,-2479,3540,4273,10853,-3754,-3302,8595,-4331,4690,-13250,-33,17273,-2101,-1034,-6074,-5620,-9247,-4195,10989,6723,12511,-7919,-3173,-9391,-9761,4450,925,-300,5373,-327,10986,-11518,-9644,2022,11786,1081,-1620,-6284,3448,1164,11671,-6557,5234,6864,-8487,4468,-630,1609,2016,-747,-773,12054,-4383,7848,-6961,5497,-5596,-10716,-5710,-10853,-884,3141,-8536,4951,-6559,6847,5386,-10813,-10110,-10494,-4748,6105,8469,-3621,-10400,658,6783,9976,-8885,12478,2724,-7578,1295,6933,-5477,10389,-8024,10896,7986,-8679,6960,8603,-6318,-5925,3538,-5043,9075,-9892,10858,-3632,-2532,-555,-5006,-11822,907,6859,2496,-7371,-5585,-9894,2377,-4703,8178,6483,843,-9941,-6723,-10770,-5619,-5906,9961,9983,5045,8221,-371,6887,-3879,-9771,-9999,-12100,5185,-7035,-10401,-2105,3610,2265,-1819,7111,10906,-9074,3031,8341,437,-1620,-2189,-1406,-259,773,4716,11926,-3385,5550,17166,-2437,-12941,-7132,-9873,-17444,5775,-7688,-9763,759,-13561,6158,4079,-7606,4885,-12779,-10303,-596,10919,
-10625,-6176,-9359,-8232,-7775,4947,-11849,7218,593,-7540,8486,11763,10960,98,5549,-10859,8051,-5913,-8218,-968,2270,563,8645,3198,-1760,1675,-4183,-4018,4214,2653,-3154,-4616,9717,-6429,-3107,10158,-9198,1018,3522,-3718,-655,791,-6559,-17356,-5698,861,7734,-3332,11481,-11089,-3721,81,-1216,3302,1787,13578,-3255,-3748,1286,6336,-9835,4926,10093,-9369,6951,8703,-11008,10087,-3352,3590,-2274,6877,4922,9965,-7089,6702,-8828,-8429,-6959,-3934,-4365,2345,4455,1878,-272,-5447,8594,3375,-9280,-9103,1066,9468,15531,-5108,400,-4145,10016,5495,-6043,179,6816,-2510,11133,9024,-2001,-5427,-10578,-9669,-10431,599,3437,5610,16476,-9499,-3179,3487,-4698,6609,14940,2515,7580,2781,-5824,-9232,-10901,7026,-7837,-28492,4771,-10850,-10485,2770,11091,4188,7631,764,-6244,814,9442,6179,265,5698,-1462,-5531,-27294,-9678,-21989,-9927,8273,-428,12822,-2632,-6034,14182,8688,4581,-964,-19240,-8665,-131,-5500,-15036,11249,-8857,-5223,-6453,7211,10405,14738,2674,12180,-8081,-5660,-1913,6849,6307,8507,-668,7391,668,-17685,-4949,-1112,10008,-2958,6593,-922,-6787,-1657,-10862,10005,-10009,-4560,3435,2416,-9965,-372,-5999,-6630,-19209,-5247,1843,-11950,-1020,-7203,-8598,5315,1586,-4686,1216,-6791,6360,16858,-4379,-9059,732,2822,-451,-4884,7250,6668,1416,-9083,-10641,-11397,-4069,-271,-238,1170,4799,-8297,-1572,-322,-8782,-9800,7658,-7436,9589,6275,-3724,-11485,11234,2323,2172,1186,8153,8032,3421,-897,8055,6484,2401,-3388,-10086,-1669,-1627,2867,-2742,-8303,1258,3944,11634,-10254,1555,-11865,6216,13770,9919,-7417,-2451,7582,3211,-2322,10650,3822,5416,8495,-5583,5881,2873,2102,7235,3959,6225,-6797,7289,2434,3317,-4010,4504,-9269,-7485,3087,150,-6179,5341,7050,9953,7135,962,-9541,-8215,4507,6598,7656,-154,-1230,8146,-4078,-2170,4284,-1432,1914,-2989,-5958,9813,-1382,9328,4709,-4647,8730,6195,-1804,7381,-2276,-1522,-1727,-3722,9783,-14793,1481,-9757,-11492,9537,-4272,-20883,-3725,-1945,-4885,-5322,-477,-3104,-4408,7819,6303,-5934,1441,-6946,3792,9518,-5881,5998,6432,6747,-11650,-725,9100,-7544,6802,3973,
2032,6477,-11090,5700,7174,363,-5768,-2705,1322,-5617,-12147,4385,-10709,-12154,-6410,-4600,-6492,7082,2559,-3326,-299,-3783,7938,2884,-4760,-410,2547,-5963,6171,4718,-65,66,-7387,-11731,6283,10338,368,-2066,-3482,-3950,-5831,13204,-1377,-16164,-13602,-3863,-3998,-3763,20502,5256,15360,-483,-4005,-1736,-12249,806,1573,3222,17620,18188,-22246,5744,9232,11364,-3205,-5272,-10183,959,-811,-435,928,8163,6028,-4343,1287,-3117,-11879,10794,8416,-4823,9587,1394,189,-6599,-8997,10449,-7141,3554,-6598,-4260,-8086,10658,17306,148,-3899,4969,4394,10592,-8135,-10427,-4567,1320,10111,-9238,-9647,-2193,-4927,-313,-11763,2024,12158,12888,-286,-10790,10414,3037,-5140,-13157,-2807,-8271,-1850,-394,-10734,-17808,-10568,-2816,-577,1320,3693,-6462,-659,-2607,-4198,-1048,-16334,-1455,126,-3672,2190,6447,-1574,8178,132,22611,-20140,-12395,8822,-7719,6830,-3255,-2846,5499,-7383,-5117,-722,11427,12730,-22255,-10810,-10763,-13480,-12529,-5267,6254,11214,2267,-4997,-6973,1504,4247,-1393,-12711,-14002,4514,3196,-1084,11827,1472,-7362,-5994,-946,-9966,-1064,4967,13363,592,-12598,-10435,-7742,-5368,-10987,7891,1194,-3930,-14289,-4627,-10087,-10159,2484,4245,3699,4989,-13028,10011,-7508,12798,-12386,5528,8054,-2505,3902,17983,14771,-1086,-2008,15728,6923,6353,629,8566,-4736,2323,405,10068,11758,7599,-569,5406,-8279,-6279,-12404,382,3068,-7513,3203,5572,3582,5128,10450,-3009,-11344,-1036,5629,1265,617,3698,7504,8735,1378,11939,2564,2122,4989,-8774,-356,555,-627,3901,-1928,441,1689,-6873,3582,-13183,9769,-11145,-5576,-5688,846,-11562,-9351,3897,-5033,6174,-8214,-10637,7049,-2104,7156,-12240,-5931,-8986,800,-9859,-3183,-7884,11603,-1180,7064,-7780,8872,4735,11209,-4389,6705,1569,-484,10458,11103,10766,7256,7938,-11047,-3709,-11416,8920,9156,-3742,12922,-10920,-1779,10305,6048,10075,-6659,-6661,-10067,-6564,3525,1035,6193,-1696,2296,6837,6256,-2605,12278,6406,10295,-7944,5200,-14068,-7002,-6383,4617,-11017,8930,10817,-4050,-3666,1800,-11867,-1222,-11132,-8662,-5496,-11441,10811,3787,-3243,-13450,1831,-3470,-5088,10795,-10528,10604,4277,11178,11504,
2491,-2413,2668,-2407,8046,-4888,7501,-4870,9902,12228,-6457,8330,-8260,9213,6793,2853,12067,1999,-127,-9663,-1590,-11235,-5195,-10826,9629,-584,10256,-517,-1677,5426,-7275,-8042,-2742,-6902,-4756,10971,-8427,-1424,-736,-5324,-519,-6466,1578,11214,-2424,8558,-326,1328,3249,-5404,-7410,-4490,-5546,-6047,10501,12473,-1965,3600,6511,20014,-8442,-11346,4144,-4371,9320,4291,-23780,-10235,-11502,-8241,-14523,-5970,-1690,-8944,-2527,1098,-7785,-10584,11409,-5491,-4446,-1099,-4253,-3221,-7368,-5807,-5270,10609,4362,475,13103,15663,-5343,-2393,8300,2347,8070,-5116,-3221,2598,-5589,10803,10917,8346,5352,-10430,-6849,3007,5933,-3535,-8952,-756,1606,4222,3673,-4436,-6518,2640,6696,13976,-4508,-15297,-3733,9956,-490,-7767,-7782,-14493,8971,15438,6577,-9085,20083,4772,-6758,-10196,-4011,-5566,-4316,-1134,7940,-2737,3848,5612,-6138,-2880,-16873,373,9656,2020,-6223,-7068,-3996,-6265,11434,-3014,264,-2694,1852,4415,4242,134,1157,-7111,7931,-3270,157,5194,13649,2741,-1780,-4416,4766,6300,1424,-15921,-14701,-2278,-10904,4661,-2632,-9056,-6810,-5161,14229,6285,-5228,6057,9341,-4198,-4547,-8291,-6908,-13615,-4002,4666,-3465,-6751,-22510,2810,-1135,11114,3212,9447,19031,5980,-5929,2997,8680,13490,11233,7063,-2066,5529,5497,-9598,-5654,-5457,2232,4804,5948,-8407,8536,6271,11905,11709,-3756,-3219,-3728,-11728,1753,-2549,-11889,11868,-9842,-2210,-9927,-1556,-2667,6251,-5769,7967,8249,-2685,5138,-9137,12479,1219,-89,-10246,-961,3382,4987,-9659,5908,7894,-1389,-5476,306,6210,1841,5003,-3627,-10303,-11593,-9657,4018,5144,-5175,7293,-5985,-765,-6857,9307,-1636,1095,-10768,-3760,-2762,7592,-11730,3068,-5990,12333,-120,-4648,3816,-2089,-1414,11086,7670,-2937,-8819,-4127,4924,-10795,5370,-11048,-9797,-8724,-9720,-9366,-8169,-2559,8434,11467,-3033,-4083,-6223,7408,3847,-11650,-9459,-4573,-6868,-2920,-6648,-1691,3803,-2907,9391,-9706,-4087,3489,2554,-6001,874,1657,4698,-5340,-11307,-6552,-4820,2223,14052,14718,-3318,-9209,-8069,-6088,1416,4706,8995,33222,4741,3183,-9152,-10448,-3989,1376,761,6679,-1159,-7830,-1090,-3940,-558,-3904,-9377,1736,
-10747,-4622,6806,2830,6675,8110,-1129,-191,-11654,-11605,-3693,10599,-425,8508,9601,-1241,-6836,7623,-10648,1920,-10425,-4186,2682,-7131,-15,-8870,-5875,-2844,-10355,-2499,-11072,-520,-5207,-8168,8504,-1414,-7537,-51,5350,10545,6296,10764,6072,-6391,-8359,862,-36,3311,-2060,-7161,16402,8241,9928,4374,10680,9060,4210,3124,-222,10916,6780,6196,-627,4676,1814,2784,-9443,6047,1951,-7237,3337,-8297,-2140,-5614,5305,7477,-7497,-10866,-4332,-7288,6439,764,4367,8280,6666,3741,2939,-576,-6764,1677,-7282,-501,-4921,-6619,2470,14037,7928,6694,2338,8266,6054,10011,4293,-7716,8852,4220,10323,10399,-12710,1513,14922,8661,-13860,6183,12197,-9519,-6278,1978,8897,3156,-7581,-3414,7731,6500,-4613,8355,-21880,-13839,1141,16627,11389,2150,5596,13558,5381,-9669,9501,-7862,-3932,5310,14766,2849,2561,-1207,-6484,-8524,10683,-7859,1435,3228,-4661,601,996,3376,4994,4939,-982,-22428,-2432,5613,2075,13812,2043,-16377,-831,7151,19865,11699,6820,22891,9314,4807,5873,-8988,7836,12355,12253,-5901,-11903,-1276,-6040,-6255,11390,-1395,8201,-239,7050,2259,-8423,3265,5712,6289,-8603,-1707,-146,-1355,3868,-311,-21626,-6503,-2087,11036,-1710,-4081,6918,16216,2936,-1763,-5415,8772,12752,14767,6174,4108,-2266,2921,11827,10518,-6276,-3465,3253,10743,-493,-4359,4163,-9889,5676,-4122,-3439,-2943,-10726,5284,-7960,-4785,5846,11478,6845,-11089,3437,-6541,10286,2086,3479,-10151,10653,2359,-2305,756,8960,5485,7894,279,9771,3651,9106,-9263,9322,2512,6737,10701,-3768,-10229,-6389,4849,-96,-2481,-3952,-6291,-12299,4548,12182,1148,-11848,8223,-7628,11826,-485,-9348,-8879,-6473,9379,-11184,-668,5149,-9122,-9810,9515,-8139,5996,6292,7942,11491,-1636,-2690,-599,-10784,-8927,-12318,-4094,-2946,-11120,-7722,-359,3198,4702,11068,10219,8207,-10080,10705,-10167,9482,-9790,5321,4376,4016,3897,761,7655,-8648,-11459,4104,2999,9267,5974,-2309,5767,-160,5986,-419,-5049,-12671,-1492,-1217,8700,-2061,-1336,6256,382,1022,-2743,16169,12828,23411,5550,6393,5411,6995,13079,2261,6890,-5378,3106,-8970,6870,9482,2913,-37,-11001,5067,
-11638,-1664,-7712,8597,11009,-7978,1863,11455,-9634,-5598,-10186,-5913,9666,3998,3543,2735,-6998,-5799,2029,7718,2916,2503,-6874,-9140,8239,2066,-8400,-9040,-2190,1911,-4345,-11549,4745,10736,-6395,2825,8573,-7301,-6818,2782,-814,-8989,6872,-9396,6208,-8889,3995,-1632,-6645,-10329,-5942,-10251,2270,-13466,-8299,-9218,-8404,-9607,1809,10055,-8394,-17559,-3886,5636,5698,-13083,-16585,-11368,-10785,-4998,-3367,-11580,9430,8656,2946,-1714,8069,10027,9215,9273,-7893,4455,8493,-11724,-105,7831,-9709,-1325,-6378,2849,-9645,648,-3014,-6446,-7143,9425,5840,-6875,-12355,9729,10004,1706,9224,1387,-5345,-60,-9334,3525,3746,-6430,-9321,-62,56,-5671,403,11360,5884,-3620,-7088,-7520,-146,-147,-13075,12239,9538,-10388,-1289,8246,-5032,-2487,8471,5606,-13105,5855,7249,8444,-5154,-10720,-3555,946,3673,-2537,-115,-343,14910,-6739,-5401,1852,8884,-853,-8337,-11710,-4303,-1540,-6955,13564,-11601,7322,-12913,9291,9567,10654,-3486,-5837,-5200,-7773,7931,4233,5387,-4792,-4210,5751,3828,-2711,-2993,-6965,-2518,207,1295,-15208,12575,-842,5843,-2335,-12782,-2764,-3770,-7150,12731,-11860,3914,-7651,3479,4625,-6618,-11020,-180,11894,-2279,5208,-4748,4709,-12709,3540,-10151,-15327,-6332,-6052,7099,-12047,6579,-18490,-8703,-2544,9465,2510,-3571,8315,-1032,3291,11373,-12041,-234,11657,6251,9689,-3912,-4408,1940,-4225,-6524,10996,5035,1385,-1428,-375,-6111,-7771,8436,-9902,7812,6050,541,8166,10146,-5847,11,-8822,1052,-11620,-2920,4413,3233,-12120,-10295,-4499,-5326,-3153,7336,-11697,3885,7831,1476,-6872,-7425,7486,9578,197,-9561,6185,11996,-3694,1877,6481,-9684,6918,2604,9096,-561,-10096,5861,-4047,3834,7218,-9943,-11314,-5092,10887,4706,3078,-11397,11637,2343,11967,6513,-8322,7710,-9822,5528,2586,259,5450,6820,1682,-9076,10668,-2536,5818,-6989,899,11674,-4691,-8259,6513,-2112,-1561,6645,2464,-10228,2564,-5899,5729,5405,10184,2779,-11698,7676,-1388,10480,-1352,3687,-8679,-839,1015,-3655,7666,6199,702,2001,5739,14325,-9980,5621,-4555,10212,-6560,8046,-11438,-7399,-3373,10300,11046,11223,2570,6626,2720,-3915,-2011,-7901,4057,
2574,2405,-7266,-4302,7746,-9372,-10580,8258,-11697,-10076,-12303,10185,-6518,11445,4303,1263,2730,1256,-11185,-2004,5086,-9308,-3816,-11592,-5263,-153,-6232,9647,2850,-10217,-7569,3227,10463,-11400,-2298,11689,-14780,-6095,8137,-8066,-2738,-6706,9171,3974,-3837,9223,4138,115,-15145,2701,-12310,-3927,2220,3715,21288,18221,3565,2557,-10343,-3182,20235,2078,1775,-13603,-5023,9992,4602,-9274,-13793,-11801,6684,4042,10488,-7827,10700,6329,-705,-3271,3467,8160,2968,4255,11274,-1102,11515,2661,-7306,-518,7608,5528,-10030,4453,-6782,-10158,11272,-5273,-1351,-2979,12159,-1475,6586,-5632,11210,575,-6887,-14560,197,9146,-18444,-5486,-5622,6011,6089,-3752,-3868,-445,5832,-4027,-6487,2005,-4927,1204,-638,1235,9551,19808,-8125,4316,555,-19717,-17895,4792,2368,3787,15310,-4882,-6192,-15,-1631,1521,3706,-2527,-4216,-2305,1174,48,-17898,-8014,10320,-15566,10694,9441,5511,4626,591,-11686,-3745,-11865,-8716,4413,-8567,5356,-9571,-11731,1482,-6471,-4606,-9326,13523,5945,7232,15086,-2558,-1816,4641,4654,-9867,3634,8551,2672,-13137,-8051,-12350,6977,9893,-8790,3320,-15060,-6309,5717,8755,5753,6965,-5564,16626,1150,-7068,290,2319,1831,-10276,-19016,-15262,2404,5526,13669,2127,-6750,5822,-11734,-713,-447,-1545,8704,-263,-6624,-11088,-12013,-11735,6641,-1975,-5066,-384,7371,-6876,10129,6364,4358,4779,5645,2829,6252,835,6591,-11969,5951,3302,-8180,1263,-9799,5016,-1949,-674,-2647,3091,11410,5584,8911,-660,-12334,8667,4108,-1780,-2415,7196,-7126,8759,10909,-3646,954,4803,-7868,-943,8234,9361,-4299,7081,-1586,-5696,-8140,-1216,-45,-4241,3431,-3923,11965,7466,7920,-7249,8495,-3959,-1968,3286,12156,-1670,7695,827,4925,12263,-11155,-1566,-10951,9838,1333,-312,3388,7207,9783,5707,-6644,-4430,-6601,-3548,1262,-1276,-10874,-4525,8396,-5126,8375,-1130,-7689,-10119,3603,7205,475,-2942,-4079,-3543,-722,-7244,6558,9882,2543,10975,5155,6337,3598,-4909,-2867,2765,-4259,1889,-7922,-10099,-1304,1142,-7253,-6094,11282,-13640,3757,-6445,-6347,1380,6461,-7109,-5742,-5313,-7333,13759,4141,-11900,5300,4790,9706,10843,-4611,-5055,-9624,
10043,7970,4532,-3085,5236,-2960,8892,-9855,9539,5302,-10812,9796,-7503,-1864,4503,9842,-1999,3542,8594,11239,1240,-3643,4604,2991,6012,-6812,-6976,1063,11331,-5320,3163,4230,-6739,314,-4467,-1246,-3301,-5437,-8828,8034,10740,13630,14315,8811,5104,-3536,-1382,10048,7824,10442,-7443,5584,1079,-1965,-14420,8502,21347,4927,10217,-18154,-6388,-5570,10264,10242,11575,8467,7379,-8866,-12371,-1732,-1596,236,8583,-5610,8224,7962,10543,6952,4483,-9294,-1749,5865,-8342,8696,-7082,-601,-939,1797,5791,-6770,11923,9685,5230,298,769,-3802,-1702,7512,-3425,1261,-2163,5881,-6515,-1742,-11668,-254,-11613,-5510,-9,5496,4130,-787,-4129,-4348,2995,-9305,311,-1443,-4166,682,-6972,1,-6432,184,-3040,15890,7614,13630,5167,7232,687,21534,-7763,8758,10480,4065,9775,-66,174,8323,12293,7247,-10529,2341,10295,5003,-9976,-14367,-7315,8561,7840,4437,-15842,-942,-1425,13514,-244,-6143,-7243,-15507,-10381,147,-5770,2025,11332,3239,-6921,-9921,804,-15233,13652,3776,14285,-16687,-4513,3785,-7670,-7588,3322,6774,-2579,13625,-7717,785,-2117,7891,3296,-6903,-11271,-10208,10106,14134,1870,-13080,-11243,4851,-7888,-9576,-1569,13641,10369,563,4797,412,746,-11048,9612,6258,22204,7482,-13893,4688,16714,16478,6617,-12443,522,-5633,2067,-5455,6209,6707,-3377,1726,-7358,9688,5772,3226,3109,-2835,-10472,13306,-8843,6786,1087,12415,8959,-738,4431,-2925,-2161,2481,9972,-7620,-1828,-5905,5746,2984,-810,-8446,-5743,993,-7049,-5492,-2158,11986,-3790,-804,-10292,2509,-9608,8848,9669,-4857,-11141,-9332,-1958,-10081,1313,-7557,2088,7219,3400,10335,12409,-2899,-905,-9434,11774,6725,7221,-8916,-9552,-8398,-9767,-6017,-6306,-8239,4541,8859,-8516,-11652,241,-3644,-333,1705,-10706,2326,2625,11050,-9105,1624,-8716,-2553,-4879,-10730,-2074,7959,5696,-1918,7966,11078,6617,-560,554,-7361,-9490,3317,-7308,9548,5187,11388,-2964,10547,-4326,1423,3917,8774,3422,8443,-3049,9632,7356,-5071,9499,2440,-6788,-4569,9203,-648,13896,-3542,-8576,-4480,-3538,12798,-6362,-6470,-10871,-9827,3039,6146,7901,4703,5586,8841,-12214,7767,9228,-14515,
981,-3985,12135,4743,-1472,8253,9070,-3132,528,1080,-8499,-6027,4915,-5442,-5585,-10327,-1821,1714,-4546,-866,-4657,-2791,5965,-899,-3464,-6420,-8145,1277,-10728,4647,-580,-8648,-7699,-4538,-7291,-7807,6082,6146,5119,12676,1808,-773,-6008,6591,-8330,-11205,-3989,8054,-466,2214,-10320,3451,3082,-310,-9013,-9285,184,-15094,-10304,-11408,6325,4909,-1430,4936,-4843,-3175,12728,-4626,2992,-8564,3078,10573,-6794,-7002,9851,-8045,-5874,-8490,5473,-9894,-10667,-6578,10199,12915,10784,765,-5021,12953,-10653,-5475,-7731,4980,-9417,5512,-6941,-2370,-8399,10089,-405,-8566,-2637,-300,7277,-2555,-73,-2776,-6990,-470,5276,-7058,410,10457,-3991,9581,1709,432,-1294,13788,-11078,-782,4788,1665,2320,12394,-10278,-8142,8166,-18835,-4636,-6119,194,-8018,-9894,-17083,-734,-13072,-2885,7365,-7183,-4593,-14182,1990,-8012,-2249,5348,988,7535,10820,4676,-4796,179,8056,-4333,-7666,-11382,4146,-4583,-9692,3330,-11186,8861,-4447,5331,-18761,-25748,-7956,-1339,-7035,-851,-1595,-5806,-4828,9212,-3342,7282,6124,-2733,-5327,-1809,1660,-3443,-5978,4719,-11757,6198,-5565,9314,6998,10541,6670,8784,-11832,-4293,-7202,7243,-2348,4087,1994,-2901,-17465,-14107,-12596,-13574,-13778,-8368,-9306,-20403,-21118,4297,-7688,4861,-7670,1125,5615,4449,319,8998,-1693,5101,-3130,12344,4318,908,1040,12406,2407,7004,4842,-5704,11077,-3159,1886,11180,-2980,9822,-1324,-2383,4788,-7062,12455,9483,3882,46,-7463,-4194,-7446,12574,752,2659,-3522,-8209,10993,5687,-8433,-9021,13112,-9233,4145,-10720,12261,8097,5042,-1112,10412,6371,2425,861,8280,-7520,4259,-8403,10408,-6487,-9571,12637,7429,2239,3435,13305,-8683,-7587,-2024,12532,-2148,-8314,-6999,-7688,-3364,-1831,-8409,1120,-2250,-9649,-6839,5520,5280,-2924,9389,-7905,8824,9820,-4732,11491,11244,6269,-7164,10149,-2151,7656,-5465,-10058,4264,8379,-7702,10510,2391,9423,7138,8443,-9682,-8905,8632,-4065,-8659,-11078,8929,-11637,-9671,9473,8075,-12814,-9202,5499,-8420,-5912,5676,9790,-5782,-1635,-7666,-4777,5248,-15188,-24610,-2698,11990,-3903,6201,-9164,3326,-603,4579,3549,-2978,3598,-6489,9371,-12686,-1543,60,
-10171,2785,-1406,5219,-703,1281,-8276,-7657,1702,9597,8952,4533,11380,-8858,-10768,10579,10727,3542,-9227,-10697,1332,-7416,-2136,-1798,-8133,1377,-159,-6565,-207,2707,-5540,-11437,9643,6839,-207,2228,9936,4510,5549,8369,999,-12773,11677,-5794,-3535,3490,-7553,-10912,3554,-5306,-1885,-6065,-17139,-1404,4049,9955,4658,-528,-2667,-6275,-29706,-1267,-4590,5816,8329,6787,-11656,-1967,-4091,8615,-6093,-6351,365,-5713,4545,-4344,5093,382,3366,-685,-16278,-6785,7112,911,-5162,-2573,-11899,12927,-8865,7826,5607,3377,-22,3563,-6019,-8919,-3171,8077,767,9666,-7710,3960,-2847,-1345,11553,3867,-9607,-9059,-9315,-3573,-13664,3336,12235,-10693,-3840,-3301,2284,-12490,6303,5550,-2281,4636,-14481,-16300,931,-24055,11967,8978,-4754,-5461,-12633,-3587,-1098,-1162,6575,-12035,-10980,10529,-10015,3446,-6778,-1326,4745,6059,-19585,-2898,-7531,-8107,12418,65,16137,6918,3744,5276,-7552,504,21383,16148,2176,-6953,-9004,-18434,-1193,-1031,2802,11102,-7165,-11945,-2009,-6031,72,-7949,6249,-2353,-16342,-7997,-4820,1976,7880,-8584,-10876,-8652,7269,4348,6795,-1767,-6170,9172,10005,-1238,-2014,-8799,7339,8345,-7198,-8770,-1179,-4044,424,9203,-10138,212,-9166,-6612,4104,5011,8653,-4689,7294,-7964,-3859,-16208,-4773,-15501,7367,15525,3137,-4566,-1107,-2952,-5087,-2666,7783,11745,-11283,9248,8991,-6631,-836,9992,-3487,-189,4834,-6722,-11786,-5366,11422,-6668,5208,-1647,-6720,11688,-2753,-6902,-1469,8282,24,10253,979,12019,-1733,-9127,-10687,7233,-2513,-5565,3227,-8932,-12075,-1357,6735,-8844,-3556,-8514,10789,1564,-5600,3239,-9486,2335,9141,12026,-7663,4609,-5769,4380,-6029,6890,11784,-8375,7578,-10468,10377,5906,9153,-4948,67,4969,5031,5817,-2938,4408,11375,-9561,14,-4332,2109,-12095,-9863,-178,11183,1302,6034,2993,7043,3994,-8079,-4905,-4891,7685,8004,9214,709,10250,11659,6249,-2263,3921,-6095,-6390,-10482,10480,8746,95,2512,-1248,-1056,9370,10831,6877,-2804,-9693,-13243,179,-7116,-12421,-3800,-475,-17268,-7061,-8953,-15036,10424,6720,-5850,2685,-773,-6819,-4005,6960,-2075,-5706,-5432,3392,1797,-2668,-9890,-6627,7983,-1881,
3984,-7348,-2834,3423,11244,-1292,5223,11830,-5184,-2057,-2304,6732,-4734,5303,-10759,-8328,-6822,-9862,7789,-6633,-580,3183,1082,1405,2616,-6893,-8495,-5527,-2757,-11417,3141,-10139,-6815,-10513,-778,-9098,-12070,-8922,-3186,7583,1266,7633,-2873,38,4259,2359,3538,3681,-5936,-14913,-15837,-13321,2429,-8461,29916,8623,1258,3403,-2827,-7650,8937,10168,-136,-305,4052,-8028,2699,3230,16703,161,20969,551,-12076,7308,-5824,-552,-358,7947,1880,-4579,-4834,11506,3976,4377,-11959,-10835,-3993,-8758,-3839,5208,3002,-2483,1363,-7817,5743,11326,7450,2909,4176,7873,7826,-9521,5077,8819,-6752,-7782,-5313,4302,3138,-2701,3007,-3404,-12166,-23325,-6236,15940,-3215,106,-10918,-5117,10128,1970,3566,74,4083,29466,-15624,-599,-8962,3880,-329,5925,7518,16285,-2166,-9568,-103,5034,4270,2756,3562,-10320,97,5707,2264,2448,13057,3521,7251,10570,-979,12331,1547,-421,-7270,1364,-9782,1224,-15281,138,-10399,4368,-3240,-4080,-17841,-10756,-3181,-10144,9117,10373,13940,9004,-12731,-8993,16561,13580,842,3603,-4555,-9237,-15707,-733,16400,-3664,8944,-11306,10703,8545,3197,765,1986,3136,-2003,7782,12425,-9895,-6976,19609,-20195,-17895,-5484,105,4330,-17128,9301,13639,-5432,127,7631,-2465,-1056,21563,7999,-9314,-13822,2229,-5229,7528,5651,-3464,6186,6959,-4617,6666,7971,-995,2889,-7535,-2549,-10264,-6069,6812,5644,-11220,-8889,-4105,-7925,-4017,-9598,7315,-862,902,-6034,11043,-1139,3588,1042,2480,5151,-10431,9567,5350,-7107,-2865,-10724,-111,8414,8287,10215,4352,-11949,-4743,-8028,-6627,140,-8100,-4915,-933,-5119,251,-4017,-9420,-12357,2288,9698,-12487,-8616,-27,-201,3,8,-1605,-7650,-4187,5338,5819,-3615,-4918,8549,-9757,-7443,11811,5515,6286,10078,2264,899,6389,-6176,-6341,10530,11803,704,-11230,6686,-8356,-6336,-950,4706,6387,-5821,10626,9023,1588,502,-2131,-5159,-6677,-10698,7238,-6583,-36,-10421,6686,-1823,563,7017,-5791,-10797,-5519,-2387,5520,-8068,-11199,-11865,-6911,11361,-8496,-9522,5343,-4883,16458,-5688,1616,3471,-6470,549,10801,-8171,-4239,-1746,5785,-11620,1586,11780,-6595,-1664,2514,-4168,-1080,
-3793,-9411,-10142,3056,3588,-5919,-8071,2434,6872,8664,1932,1449,5652,9201,10483,6473,9785,12407,3249,-5381,-11348,-6094,1329,-7420,7789,9209,11540,10185,11814,-7076,-11352,7067,2888,9259,9885,-5931,-3729,5499,-1977,-4863,7024,-8786,-3549,2973,12884,718,10635,6842,-16329,2056,-16053,-11440,-11439,-10166,8362,2173,-8405,-6570,-15799,-13138,-1039,-14461,-3893,315,-4677,-688,1574,-12155,4150,4878,-11046,251,8341,-8932,-3919,-816,-6048,3593,-1498,3145,4922,-4351,-3262,45,9329,11264,-7313,207,10771,11653,-443,-3254,-10184,-4938,3332,-4090,1566,4214,1005,-3870,-9217,10652,-10754,355,7699,1229,-11660,-8448,-102,9821,-2494,1624,-1219,-6271,-18476,5256,-1403,5564,-1739,-6630,4967,-4413,10366,12095,-6011,18463,8488,20548,-5707,-18936,-15928,2829,937,-9960,-13455,2657,3643,2642,4324,-12390,-16532,8111,4485,8777,9805,-876,-6134,1103,12417,-5165,2309,-10482,-3816,-5917,2424,1897,-2162,20609,20685,6456,1579,295,-1121,7284,13057,-7713,-14374,-859,-3618,-7107,-7810,6347,6341,-3674,5133,-14831,-1046,-4854,-10522,-8034,10330,6349,5448,-16170,-12561,-873,-1953,-2385,1995,10819,10632,-10683,-1956,4315,1737,2345,11438,17457,3373,15145,-474,-5758,550,2282,13719,141,-1380,8701,4983,-5866,-2606,-13449,-13794,-2778,6016,10957,10249,5693,1400,4607,1940,1845,-7015,-1511,-1727,5420,-3792,3676,-3309,-4031,-4882,4432,-12484,-6810,-1294,7658,11485,6736,554,3233,-9633,6303,5715,7880,-3268,6101,-2967,2527,-11246,765,11436,11945,11726,11597,812,3762,5736,5657,10704,1057,602,11565,-6597,3179,-889,4072,759,-642,8583,-4481,-4086,-11002,6410,-7915,6725,3534,-8952,5179,4460,8531,-10586,12649,-11635,9600,472,11736,5056,3716,11180,-5223,3746,-3696,-3085,4521,9536,3042,5888,1374,8309,4316,11210,-6243,-4648,11692,7551,-11280,-10736,4317,-2673,-12719,8546,10665,-8501,5919,3716,-6615,10783,-2806,-1351,5316,-5826,4568,-2872,10615,3623,-7122,2632,-3233,7584,13976,7331,4902,15094,-8654,2921,-358,5821,2451,2040,9858,8335,13297,-25725,-11747,5606,-5355,1474,-13437,4877,4101,3667,7721,-11358,1668,-1256,-3604,7132,2497,4307,6332,
5289,-9191,1914,4860,-10073,7098,-13230,-11534,7169,8042,7939,-11359,-10423,274,-12515,-6872,-8993,-11944,7649,-8189,7210,10651,-9492,2584,856,5157,8205,-3277,-9148,2813,328,-1971,3271,292,7689,-4667,-3478,13323,-3725,-5699,9541,-6505,4803,-13416,-15385,6156,-12694,1264,16315,4603,-5937,-4351,4014,-2763,-21308,2313,5078,12802,2250,-2644,-13980,10317,300,6399,645,11226,7607,13583,6522,13993,5463,11503,-11184,-11488,-12562,6894,10012,9144,7491,-2726,3309,10397,6394,-9434,-9317,404,-6923,-5663,-11810,-6084,-10066,3960,15008,-3947,-260,-10530,7420,4775,-5387,395,-4750,-10513,2551,10014,-7179,7010,-358,-8475,-9407,-2806,4371,2886,8466,2699,13151,2752,-4689,-10083,2923,-9498,8417,5185,-9282,-15799,-10630,-13947,5594,-4144,-6750,7020,3907,-7055,-14449,1878,195,-7459,-3180,5391,-138,5562,6784,-8953,-278,15401,-13966,5997,4245,13082,4780,3373,-4477,51,-1142,729,-1585,-4410,4935,-3502,-24435,-4465,-374,-6954,5249,-8544,-10293,-457,-8196,-4432,3182,664,21361,11822,-14320,-2930,-6796,2666,11923,1744,-69,12558,-6582,734,-890,16311,10493,-11172,-6286,1218,-72,-13258,3754,-5263,5519,6643,141,-10742,-15619,-18657,2084,5501,-3373,-909,5,2289,-2833,-5867,1863,8221,-6589,6736,-1493,10533,14804,-748,-8901,-5742,-12715,-10859,5733,10667,7039,-12116,-8189,-2893,5132,-2376,-10135,6485,-13570,3994,7576,3891,-1322,-4984,3979,-10839,4443,-4543,-5912,-5302,-662,-2360,2738,6954,474,-8031,-11083,5614,-10711,6296,-305,7675,160,-10703,-12005,543,-12607,8509,9107,-7953,10066,3722,-1856,-3410,10057,10271,-1911,1135,-1364,-12651,10348,-3510,-4904,3572,2101,-5719,1559,7000,10880,5853,105,-2780,-4461,3054,-4256,-9959,1866,504,10936,6286,-9867,-3720,-8421,6197,-2927,-7564,11371,9893,-10383,-4904,-5808,-59,9872,-10214,-2333,8578,-939,-8328,10090,-8890,-4848,4085,-1591,3318,-8820,-9316,-6921,585,-5230,-908,3256,9079,-7463,-3386,12707,-215,8394,4827,-9473,-572,13346,1406,-9152,-8618,-11519,-7638,-6281,7076,7346,-10539,6665,-10900,13676,-7946,-652,-6496,-7926,-3127,2874,-9524,4042,1814,-4603,5513,10284,581,7511,1311,5967,9904,
7515,1900,-392,6016,5391,7658,2390,-9074,7473,8562,9456,10692,4725,-10830,-7675,7892,-1810,-7937,4286,3745,5789,-6089,-6383,702,-3938,-3120,-1296,-11204,-6701,-4301,-605,-9565,7670,-8211,-5077,6284,582,6732,-7168,12297,8162,-6759,-4149,9402,-1940,-6084,-3035,-9165,-11060,-10181,-6055,6102,-6039,-4609,8018,4558,-9710,-2250,5783,9059,16659,-1611,8613,3342,-6182,-4891,3989,12590,25792,4813,12377,-3362,9228,9818,4182,-5918,-11640,-5960,-809,6999,1790,12591,-8277,6662,-8099,4982,-10310,-4095,-6440,5286,-957,8567,5970,8025,-5561,7390,3018,7804,8008,3963,-8280,-8753,3599,-5622,5708,14355,-5848,-11234,14361,6297,8991,9138,-9040,-1030,4222,3251,7071,-1940,6868,616,-7029,15117,16179,8667,6999,9895,-10221,-16369,-6875,13892,-9398,-5388,-10793,7530,2387,-6912,2849,-20154,3834,-3165,-1055,-923,-4837,-4781,12263,11934,15438,6644,-4483,-4243,-12317,13933,-8672,-18895,-14396,6329,-2673,538,-817,16472,16932,10037,18412,-2317,-21316,-14878,2939,-477,16460,6976,8745,-839,12148,-9517,2774,7957,11605,4268,2586,5322,10052,3036,7454,-207,-7744,-664,11884,4334,2149,-5494,7165,-7193,-12215,-3504,6025,-7900,1656,8345,-11282,-8370,-10048,-7892,2975,6850,-891,5831,5968,-14864,5514,4736,10199,13005,-6119,-3119,-9923,-10704,-5825,-3860,-3400,-9555,-2596,6711,138,2106,-10341,3640,-1808,4268,4116,10845,5796,-311,11346,5849,-10934,-10272,11529,7273,10880,-3567,-4954,-7858,8284,10139,-4133,8919,11447,-751,-4327,1225,8678,10432,3670,-622,1506,-3094,12417,3033,302,12026,-704,8376,-7157,-10228,-6830,1372,-1271,-5989,-10703,-5146,1276,-9410,6414,6081,3402,3266,-11275,9294,-8427,-6433,-7395,11689,-4317,10150,-6052,-1823,817,-1287,-2600,-11834,2657,-9346,10370,-9010,-12439,11345,-5790,7047,8738,5288,8875,-10377,6511,8477,11730,7485,8629,2285,-11458,6406,-2064,-8123,4562,2088,5658,-3843,-9735,10296,11105,9185,7394,-6943,2916,6318,2383,3257,1332,-5611,-2730,4998,2113,-4109,7193,-5735,14126,3041,5582,-6386,-4240,-10867,-145,5378,-9027,14279,1966,2783,482,-2836,11214,1216,143,-6136,938,3011,10702,-6684,11743,-1859,-8387,-1131,
-10039,-6876,-2748,5889,-4443,5695,5040,8199,1436,6363,9680,-10971,-3077,-12387,8929,-283,-8573,-3573,3205,7837,9120,-10579,-5078,-8165,-9879,-8831,-3692,-2660,-6715,9538,-1986,-8063,-7380,7852,10100,6645,7011,16047,8188,-7651,-3958,6105,8551,7694,7400,4738,2701,-1883,4119,11964,11308,18836,7660,-2111,-8752,-6227,-15847,4883,6594,13681,-15333,705,-9340,-2337,-8470,-15176,1648,6887,6880,17159,-4773,-2754,7144,-2135,7277,7154,-7190,8445,-1590,-7583,7763,2740,-7269,-11485,10862,1038,5579,9224,9376,-11709,5090,695,-2007,-10553,-12769,5255,10913,6317,-1289,-613,7659,-5205,9414,-6530,-6436,-6022,-7730,-4465,10295,12179,6289,1013,-4476,-1222,851,9319,-8699,-780,9342,3963,3051,-7890,6343,-5875,10229,530,5754,8099,17598,16739,8057,-3308,-10222,-8391,-12181,-3981,-11539,7717,-13454,1663,-12965,5890,1782,-2807,11092,-2072,-1777,-5991,6409,11117,-12039,-4252,-6812,-4905,-5498,854,-2022,7689,4694,2571,-867,-8290,5989,12736,5198,12180,9033,3707,187,1699,-1925,-10316,1562,-2789,175,-9221,8803,-1158,18,-17498,12095,15824,-4804,2784,1890,250,5859,14808,5489,8508,-13624,9195,-2144,-7584,-3735,-9818,11219,-3563,3964,11424,18043,11310,17989,15188,8208,7314,-10690,-10787,5926,9847,-10916,-1049,-1208,1528,2065,-1678,-6663,-3381,5307,-5900,-8609,-1905,6213,7975,3508,-9743,-7754,3045,-7828,-10456,-11147,4299,10676,9299,11556,2880,-2499,2876,-7156,-9760,-7096,1667,-8751,-9035,11123,7705,-7643,-9446,3868,-5104,-136,5862,-6353,5728,10290,-5010,5089,6159,-371,6187,-2402,-9991,-8561,-8832,-313,-13245,-1718,8181,-2658,5783,4468,8901,546,9618,-9997,-11517,4113,8375,-5848,-8756,3513,8136,-11796,7964,4342,238,11035,-1742,11700,7497,-9892,5065,-10005,9200,4692,6634,-11779,-6956,-9419,-5172,9277,-696,7079,2028,9878,-6704,-8449,4424,7751,2226,5772,10388,2704,-2582,-6352,-9460,11584,-9025,-6496,-2357,12351,-5289,-3826,-10902,-7077,-37,3665,7510,-11601,12298,-11058,-4144,6760,-1348,12667,4896,7422,-11227,-11692,-10137,9637,2972,9315,3236,3264,-3629,-8081,2949,2530,-3893,-3366,-4435,5919,-3724,6857,1702,901,-7166,-3936,8261,
-8659,-1340,-7263,5851,5986,-470,12194,-11097,10455,6537,9054,-3969,-3243,-11833,5094,5349,10975,-9142,12284,284,-11136,-8364,-3702,-9984,10736,-6864,12450,-644,7160,-9630,2794,8781,9865,10430,-10768,-3530,-1683,-8565,-12401,9216,-7830,-916,4084,-5535,-731,10388,9199,-18481,5695,7357,234,163,-10770,1957,-17139,-4262,6409,-4481,10913,6295,-12335,-4376,3797,-8320,-9192,-6191,1725,-15615,-17961,-9120,-12485,87,-4555,-2750,3016,-2586,9259,-10613,5425,8308,-7918,-416,8701,10808,-125,91,11994,3026,11013,-6480,4495,7935,-1734,-4999,13221,-8979,-9967,-4523,8876,-675,-2453,7050,-8801,-10456,-606,4090,-6628,9444,-3631,-9297,-18790,1107,-2275,25596,2058,3494,5419,7753,20408,12064,6922,7902,505,7946,1310,-18964,5613,6760,-665,-5467,-701,-974,813,5149,-301,-14011,-2185,10721,4931,-575,-9276,-13235,4562,16039,12807,-12304,-6159,2604,-3081,-8175,1896,-1242,-3576,5825,-234,-7110,-5303,382,2385,22093,22051,-10837,-2538,7842,-6862,-1367,-542,12440,1288,9681,-1096,-9945,10561,10353,-9132,-11934,-2371,-16764,-3974,85,2037,-10422,-5744,-4817,4789,15235,-3575,3031,3569,351,-1893,-14645,-5914,-11937,2561,8576,1131,-9338,10060,12654,-977,8623,1753,13624,-2209,1138,-3829,-15989,-18061,-9274,-468,7957,-1195,8677,4911,8108,11327,10058,8943,4349,10138,2380,646,877,373,-9547,-138,-10753,10120,10962,-11089,-6214,4221,-1279,-5855,382,-3314,5942,-2714,971,-4654,-3671,-1890,-6930,-3918,-7304,-9472,3748,6211,9378,9359,1138,-8036,-9205,8784,-3612,9954,1812,-5972,6516,7558,-4695,-10059,-10833,-33,-6529,11293,2169,-9024,7852,11905,-10559,-8125,8305,-9185,4078,5940,-11557,-469,10676,6623,990,-2835,-291,-4641,-3848,10160,-5276,10280,4798,717,-11063,1923,-12030,197,658,10752,1167,241,1071,-3647,973,11418,-3565,-8894,8200,-6267,6794,11615,911,3019,-11879,11827,5432,-8523,-4976,-1559,8594,-3880,-1664,-7560,-1045,11356,8349,8454,7728,-11405,-3837,7071,-5132,3632,8773,-3314,-9872,-628,-17160,2096,5764,-9614,-11765,-6674,-18272,7581,11618,7908,-9100,8617,-10087,10671,8774,5135,6056,-953,-5857,3151,-8533,6169,-1498,-10353,-3561,
-12052,3904,-6771,3143,-6402,-4998,-6736,3654,10156,7626,1341,4711,-12279,-4093,462,-4238,2425,2521,9728,-1423,-1856,2582,955,296,5848,-2576,7101,-10249,-2062,11696,4850,2831,-10381,8072,2907,3179,-2805,-5355,4922,-10355,-5965,2522,-660,-4099,7369,-3471,1779,11760,-15623,4135,2845,13611,-1412,-1320,9480,-13761,-20349,-5991,-13606,13305,19918,1847,-9486,-130,-4687,3058,3869,-7049,-4776,-4667,-11452,-6045,-9849,-7288,-3941,-8031,6907,9537,-8653,-10716,-3040,-6082,3803,5981,10265,-7348,10218,-1970,-8219,-3999,1602,375,-4291,-12128,-2130,-5201,4007,-8182,2982,-3506,6638,-113,377,-5487,145,-6648,7035,3324,-3300,8300,-993,-9003,-12488,-9434,-5062,1482,9940,8069,3472,-10669,-7571,-9867,-5077,16575,-3612,11235,-7891,-13308,3373,10889,10023,-13640,-9324,-10201,-19023,-11098,808,881,-8436,-9277,-11192,4014,519,6429,21683,7763,-1469,13702,-7933,-60,-11437,7836,-2698,1873,13302,-1072,-6210,-10489,9544,15495,12411,9307,-6186,-16186,-15053,-4849,-412,11211,-1451,-1474,-23602,-9285,1365,-8211,6984,-1538,-5588,-4497,-5953,-1649,16453,7912,-3216,7670,4265,-7187,10138,8249,4295,2220,-719,-11101,-6000,6080,12458,11123,3229,5753,-11363,2959,-945,5549,7834,7121,-4840,-811,-16184,4694,-8677,1570,-3646,-14395,-17854,-10443,-8695,6253,11190,-5251,8350,5489,6396,-933,-11282,-2226,-214,-2999,2852,-1810,1832,-3598,8546,1332,7950,10474,4566,11234,364,923,11373,865,-6278,9837,11321,-1640,7131,-6113,-8296,7055,-3223,-3089,-8006,-12237,-103,-2357,-12441,94,-7663,-6157,-7636,-7770,-8414,-2296,-8074,-10370,-1189,3879,-9197,-11413,-4053,6381,8685,5417,-2108,-10502,-10240,-13596,-9660,11221,6012,7148,7399,4757,-1999,5653,-5010,-9374,6885,-1310,-981,-10585,-8577,-1326,5833,4966,-4954,-3780,-1631,-11685,-1459,5785,1330,6592,-3810,1469,-6000,7491,-1668,5816,-8140,10737,-10201,7173,-10790,-10449,-10682,3377,8388,-7294,-6323,11538,1554,199,-637,-2917,6183,-9702,1878,-2348,12027,7806,-9554,-5904,9616,-6318,5458,13351,2578,11928,-12302,-6952,8179,12860,-8838,2903,12221,7586,-248,11913,5218,7871,-5227,1123,-4066,-2392,-4702,4328,-2399,-10782,-515,428,
4313,-385,2686,8414,3684,-7202,308,2983,-9453,-1349,-1373,8648,2480,-13230,-12054,8115,6773,-5371,-8459,2446,-3281,5358,8611,5090,8252,359,794,1947,-2492,-5682,-5762,5901,-10149,-676,-8805,-3748,-6179,-7096,10173,4692,-11668,-3380,-9794,-179,-14836,-5811,-3290,-5941,1235,-4264,4388,11522,14930,4500,-18452,-15655,-342,-1183,1820,1021,-4328,16585,-4660,-5059,-4944,-5479,16312,17328,11191,1306,868,-3720,-1204,10708,-4337,-9832,-3205,-7246,323,-2209,-6276,2442,-12495,-2167,-4802,-9031,-927,5720,11154,-9949,-2115,-13747,-5219,-7499,7089,-6870,9924,-2643,-928,463,-2525,3254,5701,-3450,-7445,-4716,2043,-13078,11657,3764,-5331,13806,-200,5968,4752,9805,1174,-6201,-4063,-5069,14970,-1293,-5554,0,-3599,-11329,3976,6910,13984,6731,11875,-5284,-6762,-23720,-674,-7953,4258,7500,8895,-981,-2443,-4475,2643,-3089,11404,10108,8744,6006,-7269,-1124,-6015,-3354,4485,-8500,-5665,-9479,9451,-9324,-237,1540,-5204,-565,5128,-16755,4890,-483,-6698,-5483,-19861,6645,-3535,-7410,-14458,3057,-6730,11868,851,-1525,-5258,7442,-8581,-7349,4874,7032,7871,4469,-7259,7704,841,6220,-7196,-711,5362,-381,6512,5267,-12153,-1772,7024,10082,7969,19389,2520,7391,-6507,-13957,-2925,3944,-8089,5375,-2021,-8138,-7602,-609,308,8649,2653,4694,3744,8218,6781,-4428,2563,9628,-1395,-9117,-3019,7339,1651,8912,6752,8004,-1797,5210,-2412,-8111,-1569,-7246,-11649,-1836,-12883,-2553,-450,11149,9895,2486,337,-11094,8867,1319,9699,9045,9150,390,4192,-1661,-5830,7354,-1578,123,4564,-1119,-12141,-3863,-9381,6481,1918,4014,-655,1916,-10443,9150,7909,-547,9899,-4847,-1601,3957,359,-5653,-10698,-9620,8125,923,8235,-11091,-13610,505,982,2580,7536,13424,-9767,935,-262,6282,2750,4843,-4242,2002,13479,9073,2659,-9544,12184,-7528,-3810,-2332,-9619,1811,11351,-8271,11923,-5182,14228,144,-4658,10023,-8815,1181,-5959,2325,5486,11547,495,-4845,-11039,-3965,7094,-11202,-7188,4498,7311,535,10209,-3593,13905,10473,10092,4631,-7377,-6796,3479,-11993,-13055,3916,-3409,3446,2208,-8438,3271,-1519,4352,-4837,11838,2781,-5443,10060,2985,3667,
8311,-5638,9493,1809,-4823,-11753,5780,-1255,-4981,-8808,-6538,6327,-5334,-12495,-4886,-7004,-10868,-8758,-10479,1374,-6589,-6126,11902,-12508,-1839,7051,3386,11149,-11166,10040,5418,-6805,-1178,2897,528,6528,-6514,-136,4424,-7520,-2943,-4708,7528,9700,9550,12669,-2640,-7129,1729,-9834,-3963,14516,13726,-1701,5624,12277,9113,-4138,4983,-8083,-8304,3823,2431,8061,9723,-8979,-8025,11182,-6524,3580,-4031,-10577,1589,8033,10116,6143,11386,-1439,10401,4016,7426,1853,3520,-9703,-9919,505,-5018,2193,1055,10713,-8951,1113,-2946,6299,-1411,8252,10673,-2035,-11548,82,-8918,10988,547,-923,5423,4772,4899,-573,-9969,-2802,-8072,-5751,-11234,-9213,-5829,-5495,8309,-16590,-8017,-8360,-4477,1070,-3620,-3592,-6556,1706,3455,14090,15268,14430,14109,1118,-5293,1157,2920,1525,10937,-2348,1360,675,-11002,10918,-5787,5296,-5840,-12131,-8824,269,-5616,-10843,13453,14469,10173,-4591,6448,10375,11048,7619,1769,-5774,-9285,-5857,-8931,11172,1572,18110,10114,9505,-3889,-7164,-6228,-571,-8223,-10243,-10094,2680,8063,11697,8997,-6345,-5487,2695,11765,7420,6937,-14278,6377,-2421,4787,6193,-1200,-17172,1246,6728,-16989,-85,-7000,-1523,-3538,9488,10286,13165,5581,11980,8877,6363,-1287,16620,8450,-6655,1260,-6034,-2388,-14123,4561,-6970,6488,-3777,2986,-4612,-9355,-3556,-10259,-8784,3753,9653,-5881,6977,7205,10595,-3441,-5739,-9601,-6892,2546,3648,11707,-5077,-10151,5648,-3708,-4949,-11952,6340,7722,-2395,-11104,-7809,2607,2204,1176,-3375,-6767,-1654,5469,-5028,10340,-4209,-3716,2670,2223,-11974,-11370,-12077,-1898,-8459,-10897,9315,5520,5170,-5746,-408,-6225,5775,933,-12656,9334,8572,10501,3133,-10316,10624,-11983,10221,-7255,3538,-457,-7172,5031,-11676,2722,-8710,-8012,-11841,5976,-9389,-11555,-5733,9268,8921,-9408,-6629,11491,-5979,6829,-5547,-1811,-9461,-1309,10449,8874,-5777,-5403,11749,-10097,11342,7626,-8577,-11015,-3475,-9730,-4658,4892,-4672,-1579,6049,7795,7879,8389,7593,3796,-1039,3671,8071,-10951,-3505,6342,-9392,601,-5911,-6705,-2241,14252,23384,10661,3459,-5393,-4833,16714,11755,-9906,-7976,-1497,-1623,-11460,9238,4167,-5337,-6064,-10318,
5379,8945,-1623,-3730,6809,2689,10976,-3106,1764,9363,-3260,-8865,-12065,-2192,-723,-4657,-11959,8381,-2054,2898,-11602,-1520,-2066,18,-186,1526,-6595,670,-504,114,9089,-9022,9175,-6742,11861,-9645,-6264,-4254,-6233,10120,-739,780,-10421,-14378,5946,-855,-9956,-1389,-11301,-21154,8722,-13143,29,-5105,-3780,8,-4400,14097,7734,-13729,10220,6256,6770,10603,3200,9191,-2901,-14380,-8158,-6391,-15363,5436,-7907,4091,6126,10079,6129,2141,-8508,8133,-8735,-1186,-9750,7505,-1637,9355,3003,-13290,-1334,-6376,-10611,-9699,2665,7946,116,907,11921,-7235,2782,-7179,-7744,-7915,11397,10803,-10892,-11760,-7740,3754,-12731,-2562,-3985,-7916,4576,1424,19456,6216,-5794,7251,2634,-6752,-1295,-12118,-7542,-7302,9631,15594,-22857,-23464,-12165,6423,420,606,-8141,-12199,4716,7185,16792,-8119,-1990,-495,6299,1775,5765,7544,2270,-12120,3503,-13620,3709,3419,3906,-4401,-165,9034,1546,-4837,-5714,-19926,-2110,-17601,521,1016,-4342,-16117,-1691,-9846,4533,10741,1056,-1843,4613,9113,19484,-3701,6231,-1811,2040,-12761,10340,1624,4560,-11306,-3457,-4542,-1995,-4145,10496,-14411,-9810,-629,-7077,-3874,6444,-5680,-11273,10827,-6505,13397,-2311,-17346,1676,-11895,5165,-1469,-12759,-6741,-2512,5603,-644,2960,8263,-7536,-3023,-3204,3607,5077,890,-3708,-677,10026,-6947,-12139,6158,-9120,7052,-811,8872,2566,10143,8934,-7825,1811,2132,6912,-11807,-339,-4853,638,10860,-8154,-3149,-1674,6729,-3917,-3136,5903,-10852,-10199,1567,11075,2255,2600,10604,5032,-7690,800,8415,1450,3938,-1971,4874,-3578,-4501,11366,-2359,-1737,-6680,-822,9946,3636,-2035,-7921,5091,-478,1244,-5268,-3487,-2289,10842,-723,-10861,2796,-11046,-1101,7377,5324,-11691,8816,-2411,-5078,-4964,-5214,268,-3293,-7824,-4666,11490,11857,5101,-11395,-489,-11522,4198,-10842,-12037,4042,-1671,2602,-11829,467,12045,10797,11815,10791,4733,6597,-11244,5745,535,-6125,-11540,-7136,3014,1617,-11545,-3769,6135,5430,-4228,-7237,5101,-8168,-11057,-9473,9017,12086,-4849,-9972,8567,1596,-5890,-1191,7141,2171,-4303,-6608,10214,-1667,9542,-7771,-6338,-6958,-9685,-5953,-10271,-9689,-6487,-10867,1171,-1433,
3075,-4985,-4261,8417,11331,-8690,3819,5062,3376,-4737,1312,3791,-2812,8159,-11946,-1026,-276,3787,-4522,-9010,-2384,3407,-1130,7278,-5204,5672,8220,3569,-7179,-11459,1227,10893,3380,7271,-2847,1126,-1124,3232,1427,5937,11991,-6826,5051,6682,-3642,877,-10623,14497,-9888,-13227,-3041,14088,4114,-10151,5720,-12285,3801,7108,-4062,-13898,7384,-6479,-12412,6305,8178,4365,10770,-2812,-3476,-5446,3804,-7853,-8029,2104,-2952,8949,-8173,537,1577,-11932,-12164,-6397,8458,5995,-3661,-938,-12484,-9885,10086,-253,6480,-8049,5761,-13210,-5522,-9801,10075,-2857,-6092,-141,-6155,5192,-4936,-7669,10286,-5104,-5183,1349,-4928,4446,1610,-8419,4552,-12389,14178,-10163,2142,-5592,-17209,-4028,-7901,-16819,-1644,-1144,11011,17607,-9991,-11063,-9670,7978,16001,7613,-5754,-3482,5018,19679,911,-12619,-6544,-3344,-1803,-1371,10476,-13768,-12565,10872,6834,-7015,-7992,-9292,3024,-4387,-3887,-10404,2375,2467,-7171,6099,-2005,-2078,-14534,-2922,-10656,-7368,2823,850,-1098,-2522,-1059,-15169,-14173,4391,-4671,3644,7068,-6725,-11493,863,-2443,-24,7082,-9321,3919,-2483,-6043,-1140,-3279,13415,10536,150,-1368,-6427,2935,7963,-11318,-9054,824,20122,-11193,-3101,1683,9611,2356,-1016,-15500,-9796,13582,3969,10354,2643,-9963,-10964,-8819,394,7427,-12887,12047,10369,3160,8610,-9481,10872,730,-9099,-10759,4960,-10019,1521,10317,8813,5472,2478,7848,-7919,2693,-1283,425,2743,7420,-11535,-4503,-3866,10966,5787,-930,-11893,3829,-1604,-10647,6291,4934,2311,-9909,3979,7090,3748,-3915,8223,-3513,10873,7913,-10241,3938,-9446,8360,-6874,11405,3653,-2777,12532,-5258,9291,9894,-7256,1388,11915,114,-2609,-11055,-10559,4712,10747,5143,11195,-5014,2920,-13254,5841,-6718,-2606,7141,7904,-11217,11176,7180,79,-9449,9928,-11791,-3880,1229,1285,2473,-1197,6628,-5827,8286,3414,-10733,-696,9737,8008,6467,-10297,7008,12525,-3597,-10005,-10698,-2073,1343,-9832,6458,-184,-10903,-4452,4018,5572,-2470,7057,-8189,4108,4551,7005,798,15176,-5931,-12069,598,-10103,3281,17601,-1922,3523,-199,-2503,-5813,-3407,2962,-4964,-4030,-8435,-11730,4967,-2457,1867,3374,8208,3874,-4080,
-3172,11496,-10467,-4924,-3275,-8156,1270,3671,-40,-5816,5770,2230,-9034,2771,2543,9458,4872,-2908,-7969,-2075,-6174,12734,-2552,-1421,9429,-3302,-8339,-4337,-6638,-162,12742,12255,12711,5314,10624,8006,462,-403,6836,2448,11389,4094,12379,7169,-2833,2643,-2623,8218,2185,5097,-3342,-13838,-3305,-9247,10436,16999,-5981,1504,2659,-3530,-12900,669,1687,16755,-5031,-12277,-29792,-4505,6865,3209,-7207,-8094,5775,-3700,7592,4854,-8561,-1574,6498,13664,-1316,1695,-5461,2075,-7446,7675,-2043,-9143,-9427,1838,-8646,9665,-1752,1402,-4116,-6847,-1121,848,5828,-586,-6813,-910,-9953,3581,8412,-705,-9685,-7411,13209,4349,-1897,6299,-7622,10432,-11626,-5484,10636,-2257,3348,8007,-9254,-463,-2551,-8513,2827,-1390,-11822,10089,-12717,-14344,79,-5687,11836,28500,7905,-14044,-3162,8527,1916,-4142,4570,6437,-1800,1441,8817,6312,3532,3978,-2237,11013,-12185,-6844,-4249,3197,6126,3471,10857,10547,2777,534,-5649,5978,7380,9002,1309,-1920,7932,74,14505,7396,9581,-6598,3895,-4813,2760,-12264,-6275,-4583,9869,-7569,-4932,4978,8584,-8674,1664,1523,3969,636,-5962,-5119,-828,9413,-4161,-8603,-5409,-3930,1017,-2175,-16183,18005,-7068,1701,-9105,-2991,29790,19842,-1075,7683,604,8789,18253,2647,3946,12206,12028,-11487,-8321,4878,6459,-37,-8811,-1396,2239,-1219,4185,11211,-9133,-1301,-1344,-964,8270,4091,-4793,3445,9839,7073,143,10734,637,-8128,-4407,-5644,-10002,12113,-11329,-1744,5038,3203,-4975,4579,9588,10198,-7084,8314,-9925,-7623,2371,-9323,-4808,8621,4245,10031,-270,8372,-4672,-12310,-4942,2100,559,-3860,5439,6398,496,-10665,-4917,-6584,10196,-3360,-2136,-9360,9094,6093,-3688,-3102,12439,-7453,-3815,10132,-2453,-6999,-4153,7989,-3786,-6738,8547,-5623,-12660,-12435,-946,3981,-7365,5139,5496,-4316,-10621,-710,7556,2555,-4092,9867,-11136,822,-7927,-1454,4780,2732,8664,-3588,-9040,-10642,2723,-11082,10725,3494,-11481,2412,8140,8587,-8422,14296,-7505,-9619,6959,-4099,14629,6111,3878,-11503,-5903,10546,7115,-1410,20136,20143,2768,-2558,14488,8260,-649,4444,7791,3398,-8670,1197,-11760,-5987,4668,-11182,-2118,-1408,
4019,-5411,-7860,-10444,8605,5814,-5937,-9488,7081,-5001,-9546,2532,2020,4549,-9560,-5797,-4617,-2282,3896,-6124,-6284,-7129,2662,-6887,-5386,3458,10358,-2135,1947,-4854,-5328,3738,9072,4917,-2669,-1806,8826,-204,-6852,2867,7831,17921,561,15052,-11218,-6348,-5590,-4184,7005,-1655,-1949,-8457,-13597,-12113,-11470,-1273,14470,10349,9752,-13110,-11370,6278,16538,10734,3053,316,5678,9404,9245,-5198,6261,-8689,3602,2677,8915,-7846,-9451,10630,1673,1242,-2276,-5306,5150,3180,-353,-2778,3515,-10662,4265,-12245,2260,6974,-11965,384,-5858,-3140,7809,-5808,-3917,10055,1376,10627,9018,3958,-5731,-10801,8091,10672,11299,18032,17304,10825,-5728,-11849,5449,13618,2760,2135,4960,-6091,8197,1200,-6898,-1475,6404,5758,9931,1672,-15591,-11609,-2554,9117,-12732,13376,13740,9581,14663,7932,-13971,-6968,13191,5200,1161,-5695,-7580,-1353,15394,4881,8290,229,4685,4978,2418,-18688,-6170,8279,21507,18317,-11228,-3361,-5191,-7101,-1639,12571,9545,5536,3028,-6540,2612,-4736,8332,8347,2550,-10950,-17857,-11150,6286,14238,4421,-1192,4058,-593,6224,3895,-9448,5744,-4354,4140,3945,-11389,-454,6059,1935,-3862,-13835,-4136,-5883,-5680,19324,977,-4440,-20097,-7173,-5662,-5730,1512,5685,-4210,9496,-9178,-1596,-1006,559,-2649,12825,-10530,9453,8319,2576,-7771,-10553,2343,-6330,-8450,-8275,241,1121,-9136,3034,-2839,-2571,7924,-1097,-5778,-11796,8469,-4408,791,7266,-10476,9894,9550,9189,-5551,-566,11365,-4575,-5693,1323,2982,-7240,10176,10719,-2235,-1830,-1291,-7281,-9387,8082,11755,-4656,-6302,-11547,-6621,169,11216,-793,8923,6624,-2117,-10435,941,-11346,10636,-9053,2984,5013,8783,6352,6381,1389,6913,7097,5637,2728,-8454,4962,8901,9013,-2144,-9964,11350,-1878,-740,961,-3232,-7861,28,-449,-41,11221,9508,153,-10789,8639,8745,-8606,-2587,10346,-4433,-1180,2640,-2988,-4204,3347,-6406,-10959,-8629,1126,4675,4304,5798,11355,-5451,-880,11147,-6241,5763,-4865,5232,-520,128,1781,-913,887,10703,8057,-1,1140,9635,-1078,-9881,-639,-13713,-9498,1153,-1657,-7406,-11717,8339,-5498,4600,11371,1598,9555,-5960,10255,-6601,2366,-5213,
501,9521,9089,-426,1534,3342,8949,9478,9920,4181,6862,-11602,-6018,-1416,-1386,-11733,-3976,-5692,7791,-1389,8647,6760,8219,-8327,-8581,9656,7543,-1592,4019,10140,3023,10307,-9272,285,437,4195,-12034,1722,-8553,6249,-8768,13295,1712,2209,4811,-9697,-6733,16642,4195,6582,4097,-4155,-9975,11308,14547,170,11879,3763,8028,12842,-10423,-217,1527,-7540,3170,-3457,-9606,-9009,-2286,11829,-4115,2139,10633,2511,-11661,4898,-11994,-765,10676,-6066,-4690,4138,-710,-4329,-2524,-9125,8240,-5140,-3922,-4226,-2285,3842,1076,3362,-13051,-5670,-6010,-4857,7384,-8711,853,4248,3656,-3384,-11053,6966,-994,7141,-2253,5285,7676,8964,461,-19048,-1461,2877,582,3475,-5832,-2642,10133,-7186,-4716,-18151,-8880,-683,4679,2130,5805,-5049,-5894,-1045,7793,11825,-332,-1202,5586,6310,10479,2988,-6066,-2064,7115,14538,-18488,-12203,6183,10640,8339,-10738,-13111,7409,629,7570,3291,-2698,-5957,13779,3160,600,-8892,-7003,2956,9170,19785,-5382,-12752,-10661,20468,18348,-4715,-9704,-3383,7739,3820,-6294,-4066,-376,-1451,3041,-13499,-7400,6885,15598,-5359,7457,-3966,4671,-9484,1078,-8786,293,-2264,-9151,-11120,-14133,4512,2650,-13653,3710,11268,9529,-5301,-7875,9534,18297,9589,12066,1815,-1858,722,11409,-501,5286,9675,5863,-10956,-2226,9634,-11947,-6885,11971,-8239,2868,-6617,-9539,8531,11594,7971,11345,10548,7637,3133,-1895,-2936,5768,-8269,933,-6879,2211,-726,-6189,-8298,4650,584,-6389,-5134,3019,-9280,9484,2339,-5723,3839,-8329,-9511,-3394,10715,1142,-9526,6837,-5914,3496,5122,-5282,-4179,965,2658,8935,2323,-100,11522,2478,-2665,8717,3975,-10266,843,-5469,-1965,-1700,-9802,-4254,-1275,-5744,-8487,344,2563,-11699,11508,10981,5101,-6281,-4444,2819,6618,1522,5614,4640,10265,3711,223,-11915,5075,4757,3350,11102,5005,734,-9158,-944,8810,-12150,6433,-6566,9705,5251,7198,-10161,-11703,-5119,-11733,-7575,-3233,9006,-9385,-889,9298,-7051,4169,1857,-3185,7185,3137,1472,-2950,-5293,-2768,-5626,8537,10976,4555,-7639,15014,4595,4196,-6174,-8117,-6923,-9816,-7775,5760,-10814,2724,11708,5639,11203,-1675,-3874,9616,-301,
7490,5708,-12463,-6650,7925,-4559,1185,9470,9980,8719,9343,6961,6510,-7770,-11962,-3321,7266,-7368,-5819,-6919,10818,-3671,-2637,9559,-4991,-7209,-4946,-4654,-1385,2105,1405,1853,-5661,11249,-5966,-1956,-5284,-9147,5526,-11889,10257,-2109,6043,-11289,8456,5118,-9814,828,-12627,-3364,3427,11401,15722,8351,17721,5919,-12129,-2776,11722,8733,7794,10971,6296,-6841,8108,2645,5869,-721,15290,5420,5872,8234,-2758,-8220,5613,6216,-12225,1872,-7796,-4527,-6595,-4459,-401,-9296,5344,-5442,-10397,4290,-1636,5089,-5488,-7764,-5667,3490,-9914,7681,10885,5875,6167,9045,-2634,-12759,9770,-3887,8816,4023,4971,-11131,272,2677,5661,5706,-9845,-4673,-4434,7426,7371,-8649,-13406,4062,-14091,-12240,-3105,-5214,-3718,15240,469,2319,6437,-402,12604,410,-325,8085,274,-4212,-451,-9496,-5516,-1425,11368,-4753,-10033,5355,-15978,-425,-7585,-3210,8217,6893,-8236,-1451,3940,-4090,6452,-4065,-184,-11654,-11969,-2053,3394,12019,466,-12069,11314,6389,-2027,4109,9085,-474,3871,-399,-11032,-3798,14043,2999,1887,12647,9124,7255,9380,-1406,14320,13260,-6707,-13984,-4315,-10414,5366,-8930,953,3964,9918,5466,-8018,2134,-8467,-5120,-15450,1985,-2152,11916,18008,8292,-6074,10308,5502,1182,-6409,-4560,8994,-5269,-6983,-5781,-192,-13041,-8781,3792,-1812,5616,-2689,-2810,-8423,2173,9448,-712,-8313,-2257,-6633,5889,-12933,-4489,3382,-3105,-9969,3501,-10621,-9205,921,-1632,3829,8069,-6715,2026,-12163,830,-11192,943,-2458,11382,8928,1676,-2135,6873,5050,7336,-3076,4698,4563,3173,10112,9496,-10760,8664,4781,9164,2741,-4767,-1931,8982,4173,-725,-10934,-4376,-11184,9548,2196,-7580,-5633,-5168,-3287,-467,-11322,-10247,-6170,-8239,-10516,2044,-7769,-7385,1341,12641,-5218,-6774,-6640,6020,-10960,10753,2185,235,5783,1214,7319,-5330,9091,7898,11386,7294,-4045,-7082,-930,3157,-10297,6116,3278,8424,-8641,-7884,2948,5077,-4828,9796,12765,-2540,362,11578,8163,776,8383,3741,-5308,-10587,-2447,-2834,-10145,-6076,9272,8898,-3274,-1624,5191,13971,10048,11080,-2849,-4782,-1856,-518,889,15498,12805,7860,-11533,1591,-47,-7671,-1734,-6239,-6350,3041,
-6496,5410,-8473,7061,2943,-5495,809,-4366,8441,-370,540,9938,4686,-7161,2048,9806,-259,5453,-7517,-6473,-10412,-10407,-11237,-10825,10709,11810,-2038,-2495,-4959,10974,3617,3230,-8304,-1435,8479,11094,-2961,6455,-10449,-7133,-10878,12148,665,-6660,-582,4719,-4148,5699,-3288,3833,15025,-913,3563,5224,-13545,389,16372,-1189,6850,-2968,19431,7904,15540,-2258,-3255,-3617,12666,8456,-1673,13203,8812,-9502,3632,11210,-490,-11964,-2795,2753,-1021,2829,-6838,15734,-12318,623,-12980,2376,10810,6587,2619,3739,-11246,2518,7948,983,-5479,1553,2779,-2421,2426,-974,-13633,391,-6450,-5239,-1294,-9180,2791,11723,1775,10841,7959,-14957,-8550,35,9488,208,1855,-941,6521,-2790,8372,13096,3615,1767,9399,4470,16645,4283,12908,14463,10300,15346,-6369,-17896,-95,17957,-1243,-2976,-2115,4657,3135,-6538,-7177,-3503,6407,9506,-1775,5308,205,9914,-8270,-9128,-13459,2975,-13615,7550,-5500,-11031,-3233,-11300,5240,16397,-17283,-696,6136,-5140,2456,6876,-11270,-3863,4486,9111,4787,-4411,8000,-2823,9111,-2552,-5823,4746,6143,-3336,-819,-13436,-6728,12723,6466,-10766,-14994,1078,7633,3549,-5704,-10544,-3089,11775,-10118,-9598,5840,3219,10553,9401,192,2744,-15115,-10751,-614,-1941,15058,8847,2115,-1847,14327,15205,369,-560,-9838,9315,-12357,-2300,11339,10314,-6318,2674,-4851,-7190,-10246,9411,-9629,3347,-6403,-5113,7078,-2306,4120,3043,2439,7707,2946,-9859,-3798,-4640,12439,-2372,-8925,30,11478,-10675,-5277,-10784,11521,11585,9442,2336,9151,7250,2992,-5496,3483,1751,-2329,10389,-4586,4760,-291,12623,-4305,-18,-334,235,-6105,-7439,3762,11066,1726,7499,4183,11753,2236,-7964,5832,-5618,1477,2679,-581,-8681,-10482,6944,6043,10992,4363,-4551,-11241,-9613,-2488,-2822,-1252,3002,11551,-3515,-9942,6802,8670,-5761,9867,6746,12673,-7933,4063,9637,291,-4966,-2097,5841,-9900,5605,-6278,8714,8461,-6105,9422,9571,3209,-7551,10672,-13156,-5090,1708,-11432,-828,-6633,-9115,-5637,8466,11997,10810,-5141,11149,9886,4523,-5528,-316,-17969,-19740,-19773,9279,13410,6685,-5938,-21533,-10658,-4721,12914,4706,-1505,5165,9027,-11388,2250,17906,
11349,-2533,7218,-12158,10780,-947,-12168,-153,-539,-4412,907,-7393,-8916,9506,7197,-12845,-2457,3835,-7941,4044,-11397,3754,9888,2644,362,6194,354,-6156,8686,8868,921,7399,-9304,-8769,-11980,7198,7870,8869,-7606,7434,-10597,-7471,11991,7629,-1040,-8719,-4562,-9726,6605,6965,-9397,-2739,3848,-3896,-1580,5813,6016,16448,-122,-10382,9245,12268,12032,-1813,6929,-6435,4248,326,6407,5230,14209,9776,-1503,10185,2613,8148,6232,-5249,-7916,-6423,1871,-3099,9821,-4152,-7077,7845,9818,11910,-215,4787,10973,991,9334,7276,-114,7579,-1815,5216,-5911,948,-11653,1064,10860,28,7086,-4476,-430,10215,-5940,2073,4030,12144,7028,3681,-8718,8927,8251,-6772,458,-8866,4229,11237,-4015,-9708,3045,-9739,15638,-1977,-115,-7677,-7537,-693,619,6940,21108,-2805,4141,-11980,-10685,11968,-2277,9625,1285,-13015,12316,12193,-7266,-9075,-1506,4283,10745,2585,9282,-9847,-14233,-1119,115,18958,9079,606,8841,-7532,9161,6743,943,-2067,-3621,-6251,-6114,-3206,9239,1108,-1769,3482,7131,1955,5550,2625,-285,12165,-6605,14539,-5223,4297,7466,-1130,-4993,10278,-221,-14959,-9281,2739,7972,-1762,7653,11814,-5711,1327,16795,17679,3918,4474,-7739,10049,672,640,19437,-426,6272,-4047,-2148,4748,9130,-3712,-5588,1838,1220,-4652,7415,-3495,9845,-1301,9940,-6707,-3481,-9446,-5696,8105,10749,-5531,9475,-312,-2474,-9672,1385,7522,597,10517,6802,263,-10909,-10840,1712,-4165,7654,8999,11352,-10987,9557,8280,-2957,6956,1893,3464,1696,-12073,-11925,-3426,3326,1801,-4566,576,-10426,2070,7030,-4820,-2955,4720,2298,-1130,9786,1153,2970,7246,-12069,-12580,5962,601,2956,-2461,190,2661,1891,-9555,8691,11237,-12480,7409,-7694,-10133,7710,-217,-4411,-1721,7071,12384,7167,4504,470,398,-2851,-8006,-7382,2839,-9421,-10155,5902,11830,7163,6440,-6969,7755,4072,6033,-8668,9832,5077,8801,11257,10853,3667,6874,-8611,-5768,-5145,-2682,3443,4045,-2257,-6365,10767,18381,7235,7893,-11777,7914,-1677,8394,-1872,-3264,-3030,-9287,-9065,304,10390,-4518,4858,9606,2581,-8201,-1742,-397,-11313,-6678,7344,-8679,9917,9201,5361,-12008,
582,7463,1782,-2356,7709,-6936,6744,7536,-3440,-3504,8869,-7643,-2038,4502,11556,3425,-2365,-3961,10891,6843,-2791,-6200,1333,-8743,-9151,-7976,-3151,-6335,-9545,-1582,-8287,3882,1978,4370,-1674,-3753,2622,-6483,-6045,-546,-174,4630,-331,-967,20013,4871,-3029,-9585,-6102,5041,-2682,9355,6932,-3469,-3338,5627,160,-3643,-445,7523,4521,20434,7624,-9735,-6517,7833,-6854,11317,-9315,-9216,-4957,2991,8052,5684,2009,11139,-922,6468,-3050,-8641,1506,6283,11807,9457,5642,3253,3249,10169,5064,11894,10585,3120,-10774,-3346,-4873,10980,13279,4365,4561,-6978,10186,10201,12113,1719,6694,2753,-11705,-874,-8283,6703,-6844,-10611,13787,11655,3624,1362,313,-3017,13738,8727,10199,2810,19402,2270,10537,-14896,-8849,13440,-4633,2525,7699,3606,8384,3592,18540,4692,5630,-5511,-4217,395,-4396,3442,-10569,-9217,6823,7934,-501,7151,-10005,-10556,9192,12643,-6080,7920,-829,-13344,-16110,11002,17310,8453,5822,16218,12927,12120,2069,-4625,-699,16139,2630,6891,12316,15234,4309,-8546,1372,10223,14535,-7675,4577,5475,-8275,1880,-6479,-914,-4701,-1614,4287,4363,-14253,4106,-2449,-6676,3469,903,2256,13585,679,8734,-2822,-971,2695,-5240,-1180,2203,20217,10870,17330,-9480,-2016,329,-3986,22905,1204,8360,438,-17803,-1390,-1445,-8742,6643,-2070,6679,6865,-10067,5764,-8326,944,859,-4803,-3722,3712,11048,7996,-6494,7013,-6441,859,-8067,-1427,-3616,-6053,5453,-3984,-7519,-8142,-11741,-7696,1241,6473,130,7035,-1922,-11157,-3941,3173,11771,6837,1589,-1869,-7692,119,4651,-380,-8400,3765,-3248,5558,-12020,-2640,7801,914,6338,7202,4250,3778,7139,-6849,9172,3836,2567,5127,-6087,9077,8666,4256,-9596,4176,-10337,-5518,2809,4522,360,-8556,-10650,5339,-4964,8144,4921,6653,2147,-467,320,7245,-6693,4207,11007,-12786,5593,5065,-7448,5706,-1454,-6869,2025,-703,9123,9252,-10332,5708,4199,-10216,-6105,-2580,-6659,12606,-2771,1330,5684,-147,-10862,3191,-3118,1796,4115,-1276,-11389,3196,4063,-327,3415,8758,15136,1136,21953,5930,-4739,5565,-9930,10998,-1131,-4456,-6911,9086,-3849,4631,13100,-1178,8736,-982,1372,
6658,-8846,-6547,-3239,-8158,-11621,-3916,8566,-2127,-3945,-3384,4754,4813,1866,724,1037,-11806,11367,9089,3925,6801,-5136,-7194,-4501,-1862,2226,3715,-4077,10524,2253,-9577,-4540,-6753,-3181,-1879,-9914,1933,10914,-9355,-10056,10031,6669,305,-2327,-3823,-8020,5671,7129,-11155,5274,20275,8037,13725,3823,-10390,-10278,-1114,7002,6109,15868,4116,-11204,8283,13166,3244,7798,6592,8524,3779,-4968,-4626,8733,-9113,5590,-7361,-297,-11534,923,-4930,4645,5994,-9125,-9436,2150,-408,-3810,-6201,-12738,4232,3587,3631,5303,-6364,-7192,577,9891,-9214,5158,7012,-11727,6634,220,7886,1695,9772,-624,-5685,-11093,5827,-1211,-3360,7109,-5655,-866,-2630,1501,-506,-1458,-6022,4792,-2165,-13689,-7296,3217,-12696,-4250,-2903,8161,7698,7253,19434,11310,6089,-2169,8642,-1715,-10151,-2942,-5073,4745,-6697,-9575,1235,9719,-18352,-2218,-6619,-553,-1998,-7687,-12482,-10652,4497,-7647,-12161,6021,4429,-982,575,1334,-2358,-11353,-8798,11930,8671,5040,-5240,-392,15785,-9101,-4695,-4815,-3509,-4969,-5216,-2933,-8292,1167,-2924,8826,-11041,3760,4846,6504,-1869,-685,-4924,-8229,8504,8839,-5231,-10252,-5939,-15380,-1362,6142,-1708,6053,179,11833,29223,5510,16501,18544,8332,12525,13371,-2729,9603,2458,10492,-4580,3671,-7576,-2947,7039,-11933,-1218,-5592,1610,-7625,123,-1903,3300,6165,5621,635,1829,7080,-12625,-5803,-1115,9048,-7276,-11630,-10768,-11261,-927,-2593,-12804,2797,6866,5660,1927,3044,7003,-486,9813,-10113,-8875,-1376,10742,7556,-3235,-10307,4665,-8378,-5254,-9998,5959,1932,10974,-10998,8337,1398,25,-10130,-220,10324,-8319,7609,-12926,-161,8427,1008,-2523,8328,-5616,-11164,5418,-9810,631,7908,-877,-11331,-9517,-792,-9355,-3803,2627,8878,-10799,758,-6660,-1367,-9540,-9994,2409,-1923,11597,-1648,2917,-11395,-8079,-2812,-4786,-10290,1002,11586,-7549,-6267,-2707,-8752,13105,-7345,-5880,-3792,-5330,-1251,5361,6143,11159,1463,-6856,-13311,-8903,-641,73,-3280,5413,-3880,-16456,-603,1563,9014,5371,-11552,1531,2077,8247,-7596,3577,-6325,2941,3856,-12392,7669,-2099,5553,-3273,-12727,8931,-356,12817,-8914,4094,-1459,-1738,7789,6008,
365,1301,7245,8058,3375,10774,6076,-603,-3867,-10787,-1154,5322,4883,-3330,7475,11122,-9038,5333,-10760,969,-7296,-12025,8333,8201,4068,-7547,6923,-5753,2279,519,-2991,4854,10749,-10448,4571,-9930,-1321,2322,-6328,-10938,-6180,-3378,179,16770,919,7927,4435,-725,-16833,3267,3490,4408,1939,-4193,2626,14013,8121,-10502,-845,-11686,10331,16852,6124,7690,10825,-282,10818,13411,-5041,-11680,10408,-1917,-2676,1985,8579,-2992,11887,2218,11480,1768,-7863,-6465,-5503,10285,-7202,-8907,-1854,850,-6625,1079,8057,2003,-10694,-8472,-3929,-4344,-9863,-8149,-8897,5619,9578,10585,11993,7351,8591,-9676,-5819,11699,648,-2001,3866,3683,11728,-3509,-10613,-595,-2234,1793,-6677,-5314,12495,7270,18712,-6288,-2101,10563,-6061,-1361,6108,-7023,12588,6585,12228,30336,21318,13457,6510,-10690,6652,9486,9924,7272,-1117,-10997,-13335,-1283,-3085,-3731,-5875,-2187,5184,10485,-6777,11027,1924,6009,-4219,5007,5669,-5747,10306,12637,-5984,9070,7751,2939,15821,10295,4277,8872,18110,4292,19262,5624,8329,2464,1594,4646,-8815,-3746,3455,7020,-5174,-7113,-6346,-135,-772,4042,-10008,-9931,-5101,-2737,13723,-3488,7124,8890,-7790,8140,-5344,-1656,-1999,914,2992,4442,6544,7669,18431,3174,3780,502,10037,5991,959,7998,-7134,-7374,-5985,5828,11351,-2047,5217,-8292,5428,-7197,-4533,-2983,4324,11012,12276,7466,11490,955,11861,12388,-5059,-10017,-3597,7095,10156,220,2639,882,-7232,5763,7164,3499,11970,-7098,6599,-1528,4458,2124,10523,8876,9473,9917,8164,-4927,-8051,-7492,10543,8109,-3820,-7543,11853,-4184,7006,4619,-7697,-3414,2999,-7907,9153,6957,-6354,-12369,9780,10812,-5502,10965,8814,-12787,-8439,-246,-5172,1289,120,-3277,11543,-811,214,-7511,4790,6134,7971,-8517,1466,846,4663,-4040,-515,-5299,-10702,-6711,10701,7974,5742,9212,-4842,5395,-3912,-12361,11512,8679,-6537,11463,10523,9848,-770,-12501,1845,8358,7446,3817,-8230,11275,3967,-9591,-9186,1934,-7265,-5120,-9376,-5091,-9316,-761,10628,6277,-3587,9636,-10375,4993,2409,16181,1998,-1251,7515,-37,844,14368,3567,6444,7270,5206,9104,7814,6861,3203,4765,-10482,
8074,-6508,-3489,7900,-12680,1312,-7804,-1891,4200,-2056,-9451,-2370,8347,-10216,-733,11375,3547,-1466,-10535,-2481,915,-2422,-8614,5202,-8558,151,-11977,6722,5993,3810,8819,1895,-646,5307,9204,-5250,14300,-3218,1689,4428,3225,8098,14224,5153,-10779,-9630,-8164,-4176,19055,213,-19175,-925,-9148,-6496,83,12350,16882,15688,2625,-18870,-13781,-7233,282,7517,-9133,5,-14917,1836,-1767,1422,8895,7097,-8774,4672,5833,-7008,2602,10156,-4351,6749,-6259,-11940,-9061,-2414,-1693,4678,7935,-2335,8188,-8343,-474,4357,6388,2234,9242,-2574,-3,-895,5018,271,-8113,9285,81,8388,961,5816,3259,-7597,-6786,2421,13933,8691,10841,4628,8616,10059,7843,-13887,-2245,12395,11518,3873,-3743,794,-11347,-12813,2813,-3921,-8085,-12704,4469,-1220,7316,10879,9539,-6422,10387,6984,-5460,7932,8531,-5981,4421,-16671,-10930,2428,-6498,-5131,-2177,8745,-2287,-4516,-4706,-5664,7867,11831,7428,2400,-3246,-4051,2202,-10734,13007,-1510,-2404,1573,10233,1207,-10557,-5741,8407,6570,-4122,-8807,-9084,-1634,2031,13552,5837,-1576,-3925,-3326,-1171,-799,-5373,7762,932,14566,13843,-12279,4960,-4021,-282,-1465,-15516,3519,2180,-18090,6106,-7003,-23914,-12446,-14117,-9533,537,2844,7463,2820,-5325,-15479,-2365,-710,3361,-4027,11152,3279,-10733,780,2997,3132,10500,-231,-3104,8355,-9997,-9682,-680,-12152,7314,-7592,9014,7876,10816,-8039,-5644,9180,-7043,-11686,-6446,-9005,-9952,2568,-11502,9898,-1182,5787,10071,7902,10804,11627,-3994,10914,2627,6728,-11197,1225,-2973,9878,-7005,7825,10880,-9547,-2434,3867,6468,-2044,4277,3750,-1530,10183,1376,3005,-5194,-10086,-11958,-10150,-10880,9759,-6580,-1647,-10891,4757,-7398,11320,9529,-7737,-4737,-10773,517,7465,-11084,-7216,10280,-6375,3624,-10377,-10608,6858,5799,-11349,-7158,3752,-2523,-7969,-921,10864,3229,12180,-7644,5560,-1564,-2982,4094,-4486,8152,2360,7231,-11661,-9054,-10809,-6605,-217,-5306,-1749,7860,-2510,10761,6774,-4079,301,-1225,-3177,831,-10398,-8419,-1242,-8438,-9688,3586,7917,106,-16605,3595,12855,6006,13122,7595,-10808,12077,-4413,-614,-755,-7616,-718,-4635,-6735,-7786,-3365,-1736,-16783,
-3872,-7936,-4017,12092,-4296,-6972,5677,7433,-2920,-1945,-21,10162,189,-1436,-9382,-8313,-456,9947,-1843,1141,10544,-3431,7817,6731,1571,832,10780,-1143,712,-8935,8126,5147,-7616,-2208,3555,4413,-575,-14110,-8121,6201,1603,12929,-1211,-6237,10444,-3264,6793,1313,5758,-752,3890,-17319,-8729,-8831,-2543,11913,12363,13519,-6485,-4776,355,-1208,4372,11099,-6500,6600,16991,11133,7154,-5516,-13557,7188,-10651,-2155,2017,3264,-7896,8650,8492,7286,1981,-3581,8316,9460,12630,3344,6180,9760,9249,-9369,-3028,-637,-3305,5918,-3184,-10631,-4966,8521,-6870,2601,12725,11802,-3696,1526,-3278,4160,4628,-3583,13351,8729,-10952,-2909,-4313,4870,-13093,-3618,-16824,-7054,5396,-13326,16409,853,-310,7216,1639,-6745,8841,13030,1131,-9723,4162,20925,4780,-7063,10592,-595,5208,2305,-3606,-3313,8364,5226,7051,-3481,15943,10335,-5910,3909,10215,6865,5363,5894,-5542,7146,2711,3691,9031,1971,14262,-12266,-13442,10040,-8153,3872,7451,-7076,2867,30,-18062,-14024,4240,7227,-1194,-9263,-3691,10513,10296,-1342,10933,13783,-159,-7531,-5036,-18062,8870,4426,-9225,-3204,-5889,7485,12556,-2858,11483,6706,-2080,7335,-4719,2355,19639,20159,-6465,-1956,-4707,-3649,2047,3601,-5561,2651,9227,-892,-3694,3075,9370,-3774,3411,-8974,-9805,-6638,2425,-7454,-1885,-7709,8961,-10101,894,-4744,-2739,3652,4913,-4554,7359,4553,-140,4301,1723,-9335,-8435,6782,12487,7411,-10788,-6895,-9213,5970,-7037,-1612,-2985,-2797,-2893,-10561,-8695,10888,-10060,28,9141,-4112,-10675,13077,-6724,-10235,5195,1369,12575,1191,2721,-1844,-3194,-3259,-7713,9281,7741,134,-5077,-7522,-10685,-6508,11153,-2936,3254,-7663,-9737,-12615,-8267,7238,6844,-5116,8064,9397,4489,10716,-8267,2032,-8903,-462,9530,5718,-6429,-3284,-319,-8172,-10720,-2217,3526,-3697,-5538,-12433,-7398,-11493,-2243,-5381,4441,-12729,3624,7179,1759,-1895,-4474,-7705,-5432,-3178,6785,-7254,-7549,2080,4331,12250,-11231,5623,-5446,9521,-3422,10970,3471,6251,4068,9457,943,2365,10724,245,-5975,-2437,-12498,-20455,-2603,4270,5706,-9214,-12430,-12745,8169,4796,-1972,10370,-9802,5760,4511,8492,69,-6843,
8224,-11215,195,5500,7379,-7788,12216,6653,-6757,-9537,-7711,-7623,-4668,-2890,11677,-10217,-11075,-8882,-164,-1793,4260,-11227,-274,37,4078,7047,-7458,-4986,-3436,-702,-3750,11471,-5802,-2262,-5769,5630,9524,9672,3209,-10893,8126,-10924,-542,-3220,-12575,-10704,5213,-24607,18097,-12189,-1037,17461,7288,20961,-16296,-6816,15040,-123,9368,-3516,-13641,-12961,-6625,-5259,5545,-7227,-1730,5724,2966,-6960,-9791,-1625,12717,6609,-8297,8982,-6322,11000,-10926,-2249,-3887,-4901,-6681,-6734,11083,-11336,-4442,-851,10642,-774,11839,9336,567,-3088,12638,-7970,-2291,9966,-8646,3905,-6634,7251,-1786,-2545,7516,14147,7799,-4069,12089,-2792,6762,-9270,5833,17354,2862,13009,-4926,9242,15527,15130,12189,3687,-9933,-85,-3282,-26893,-4564,-209,-3215,16537,18256,-9562,-16251,-16850,-995,6225,9681,-3834,-10351,8,10008,9246,-11377,2770,11994,-1820,-8704,8054,1555,758,5133,9871,-5570,8103,-2157,1248,9756,-6835,-5463,10522,20154,-2385,3843,-2809,-9480,1126,8593,6413,-10934,-8590,-11413,-5505,-6010,5087,-10132,4443,5264,7663,3581,5124,4978,6301,2681,-12188,-5725,3923,-3989,-3418,-696,-3088,578,-6392,5888,2001,-2308,-4024,9077,-22720,4463,-6857,-3852,5750,5061,20293,-6239,-6409,-4595,4828,1519,-630,-18362,-6382,173,-5671,6024,-10137,-2837,-3553,5541,-5249,-8139,11323,218,-8630,4987,12665,9455,-5988,-1572,4289,6225,-7221,8474,4089,11797,1101,-6733,1852,7163,-5616,8344,-2237,-9092,-9837,-583,-9951,4885,-4636,-9514,5352,-5627,11597,-4601,-1648,4917,11976,1154,5120,9260,-10606,-4176,-7613,5622,-2423,11483,839,7981,-7083,-1631,12078,6895,2592,1857,8984,-10340,12172,-11043,-4048,1157,7225,1738,3809,8070,2234,473,-3115,5504,-3730,-1015,10927,5418,-9222,6456,-3349,-272,-3412,8201,9239,2576,6905,-7441,8009,-7175,-10761,5180,-897,-3168,-192,-4618,9516,-12231,-10011,-6431,-2343,-2871,-12214,8376,-6534,-10761,3930,-5126,-10504,2225,-2614,4239,9431,4312,-9391,-5933,6193,-6302,3426,-11694,-6532,3347,6532,-11294,-1683,7981,9616,1983,-14392,3041,8609,-1316,7163,5412,11333,-2235,-8230,-2392,8054,-8844,-1021,8535,10543,3116,-6145,7093,-1784,
-1425,-8086,-1111,7028,-9677,-2140,11753,5958,9924,-6690,2829,191,-8023,-9344,11207,6644,-4361,6890,-7555,8860,-10629,4623,-11961,-10454,-2208,-8546,-9778,11316,-4212,-4188,1688,-7946,-11959,-1162,1053,-8785,7050,2181,-875,8413,7282,5903,-10218,-963,-7190,421,5860,-14603,15910,3116,-21,5679,2947,-9338,-7170,-9889,-3629,-8517,-8331,9035,2572,13511,4544,-1369,-1031,7131,5020,-12006,-6848,1577,-9005,9983,4803,11388,4233,-6505,1116,6284,5396,-11457,11517,8847,-7742,-7325,-10583,-2427,4992,-10088,3677,570,5133,4904,1758,-3715,1660,-6476,-1776,-11653,-7799,4108,3064,11675,8802,-10918,9520,-11711,-12222,-1347,1149,-11241,1503,-4631,7453,9169,11109,3877,-2974,8140,11627,6299,-1731,3693,13433,-547,-855,-16620,-11170,-3485,-5008,115,-781,-13200,5861,-14938,-4566,-17589,-14516,-503,7649,2170,-9588,-12605,-6530,-1565,-7568,1537,-13250,-1784,-5317,-13628,-7049,196,-9727,11941,13290,-6545,6778,-21062,-9177,5044,4070,-3246,17075,-1754,-9641,-10814,-6475,10377,-7585,17608,-5490,-11051,3251,-863,-5329,10842,-9298,-4489,-16699,673,4478,-12641,-7546,-9635,2507,-2256,-7886,2633,-7233,1765,-3011,-13782,-6048,-4047,7864,-2977,4695,-15420,3129,-13828,2001,-6190,-17664,-15564,9576,3333,-6754,-18347,-10059,11510,12767,9994,-2927,-5721,-1957,13381,3271,-11935,-2013,11834,3789,2495,1231,8271,4874,-10877,1056,11899,8470,5458,3327,-8479,485,-6902,-3863,392,-4648,-5381,8097,-2847,-4083,-6171,-7169,-7015,7643,-783,4814,76,210,-1528,1375,3794,-11329,-964,-8854,6742,-3885,10404,-2153,-6235,-7876,-8200,4559,1085,2856,4796,6437,4620,11492,-8497,-7269,-9576,11815,-10616,11770,-2551,-5946,1354,2789,-11179,9934,-12840,11646,9220,-4677,-8230,7890,-6544,-9643,9801,-6663,-3679,1862,-2332,5868,-11530,4773,7609,-4702,-11237,-4283,3181,11639,10511,1710,-5395,-10607,-8890,-2973,-11717,-5630,-11892,-8109,-3202,-6271,-7888,3962,-4607,8972,-7457,-11575,11679,-10776,-5206,-1673,9808,-8852,4336,8164,-7445,-6565,-11215,-1629,105,-14477,-5942,5455,826,-8637,-10369,-9796,-11212,-7565,4024,-11842,6029,4739,-9420,5574,9558,4121,-12442,-8114,-1515,2832,4167,7714,5125,-2207,6084,
-11513,-3304,-4612,7426,-7333,7410,3486,-7693,-7600,709,10901,-2880,5318,4374,6180,-4637,-7291,4624,402,-9493,2500,-7231,-6820,7953,11771,9480,-1609,7138,740,6624,12010,4237,1559,-8178,-8147,5513,-8430,-7356,11062,-4395,9103,-13737,17312,16854,6375,708,6832,-2682,-321,10446,6448,3796,14029,5564,1957,-10362,-4678,-5739,3045,14977,-2428,7239,-6289,4473,10374,-254,-4361,8129,1515,-9625,8465,-10896,1502,5219,10576,-10165,-5567,8379,-2159,-10090,-7514,605,-8627,-3676,2185,7636,6586,3168,4020,12687,-3742,-12530,9370,892,-10852,1436,-2284,2407,-4895,6688,-1606,-10083,-5318,2751,-5818,-6090,-5961,1455,-6841,-10832,-4160,-3913,-762,7533,-13211,170,-104,-2113,-5078,2903,-1183,-5581,5926,13201,-5197,-8011,11914,23927,15554,11594,6091,-4931,-9845,11391,11689,11809,6915,-5771,3182,1899,-9474,-3256,8969,526,6630,4728,7653,10215,2999,-64,-5558,3718,-4446,8502,-870,3613,8341,12689,17751,10633,9541,-5422,1244,18101,9003,4928,4318,-1756,-2473,2957,-1306,-7264,-2197,11207,-982,-9485,-1349,-6868,-4575,-98,-7841,6053,-10148,-11405,6414,-6642,5714,8769,-12509,-4909,2879,1436,-3023,12017,-5871,14743,-2168,-16623,9411,10387,19673,8210,15104,16151,6015,8156,3202,14522,-2546,-838,-10268,-1568,3708,-5810,1675,-7093,2093,-4796,4936,-9251,1490,10412,9875,4450,-7240,-444,-2631,-4045,9763,-4878,-4212,-3083,3490,3873,7532,11781,-1078,-327,7321,10674,776,8189,12353,1789,-861,160,-10369,-7252,437,3509,-9050,-3758,-4226,-3571,1553,-6106,-7762,-2345,1933,12103,-3369,2494,-7699,-4890,11656,-4734,-3909,2182,-4780,6325,8014,5822,-8567,2354,-5854,-4218,10218,-9496,7210,-4239,-11144,8707,8087,3413,-5581,-10054,-6220,-2618,6338,-1938,6011,-5672,1382,-2615,-4566,1383,2051,-6628,6818,-8151,-2458,-9696,10733,2864,-8356,10404,11227,-10556,-10030,3877,5505,-826,6860,4946,-927,-2156,4437,-9171,5406,2368,-1089,9631,1951,4798,-9834,13381,-7578,3036,6878,-12320,10743,372,-10412,9271,-95,-9797,-5330,888,7911,1954,-6671,-10094,-7252,11085,12607,3673,5448,-2590,6664,12854,-4592,-6256,-10000,-9065,-7463,9490,-2469,-503,6404,-7989,
};
#endif
