/**************************************************************
* Created by jdwang on 2016-09-16.
* DESCRIPTION :
****************************************************************/

#ifndef DR_FC1_MAP_H
#define DR_FC1_MAP_H
// 1'st layer - convolution layer weight 400*1925
static int FC1_Map_Weight[]={
        -10010,-10556,-19866,9699,23880,10695,-27421,-10298,-10452,-3067,11849,8741,667,4724,-8236,-6207,-17977,-8790,26455,-10943,-9377,-8377,-18219,1341,2764,-2597,15425,800,2023,-5009,-4187,962,16887,19920,-19394,-4473,-11581,8025,-11992,8291,-5873,8816,-5440,6052,3224,6084,9852,-3485,-3941,-10712,1139,-11311,-10844,-1635,-12424,-7982,4830,1473,8085,-1007,-5619,-2586,7209,-7907,8018,-11511,7028,-5455,9392,-1580,-9884,11975,5478,1881,-7488,-14326,10333,-4475,2342,5797,-9076,-4642,10651,4172,-5838,-2710,-5244,-9172,5245,1417,1277,-3033,3215,-3723,7187,6756,-16391,-24967,-14001,-3748,-2438,-7459,-18665,-1739,4002,-3511,13829,-18979,3673,10802,1811,3906,3780,-3779,7821,-2408,-7553,-7378,999,-8249,3145,5411,7580,10062,-2912,-4860,-7310,-7326,4254,-11302,-4697,-4661,436,-1058,3124,-10342,6999,-6479,-9054,-9236,3513,9769,4027,6469,-7306,5369,-12330,-5731,-9550,8722,-4398,-11260,-4159,-8165,-10387,-8545,10785,-4839,1180,11051,8225,6130,4529,4979,-8468,615,-6433,10315,-2349,9654,-4173,5075,-6683,424,8285,1332,6229,-5655,6540,-10647,-3136,-2494,129,-2245,-10802,-7395,5597,10353,-3570,4710,-3643,-6792,7924,11853,4964,-5565,-1238,6288,-8925,12470,-10398,-4490,408,-4371,-7681,9310,-1123,-8107,-532,2455,11384,-2064,-9042,10247,-8912,11359,23270,4110,-4063,-6499,-13226,2327,5982,4584,6238,-5113,347,-3158,3825,-19152,-1198,5394,11637,17183,7889,3800,-11415,-7607,2535,14385,-11854,-4294,-7405,161,-24523,-1303,-6028,3863,4258,734,9801,-3873,9659,-4316,-9647,-15040,5197,25407,-10036,-5551,10098,3629,-11137,-10436,9158,7689,4479,-9036,-1064,-15820,-1944,-8626,-977,-10921,-6504,-21110,7311,-7435,-8889,52264,17895,-17126,3187,1682,-5978,-10800,-17131,5978,7467,296,-10361,-13726,3301,21328,10691,-816,-3976,5507,4162,16103,-1264,-14155,12350,-8526,6853,-13776,11137,8480,-1979,-10557,5151,2195,9643,5746,2077,-7723,-18878,-9632,-11169,-5794,-6516,-12526,-11924,-7926,8446,12108,-1772,-1175,4913,29257,5549,-8602,2497,13016,16123,4887,-16176,-20315,-3622,20192,-10319,-24671,5278,-14172,-6752,-15063,-5568,-10401,10749,-10520,-23146,265,-12531,11947,-6957,-1872,-9917,-2173,-20076,-22241,
        -7649,-19290,-25888,-19385,2969,-9354,-18732,-12834,-14159,-27812,-11644,19623,-314,-3969,154,-5276,-11054,-14694,9833,14361,15463,3891,-6066,8774,1598,16171,12166,-4072,-5338,7427,-5416,21375,4740,-10144,22814,18215,4132,-6174,7589,-3247,-2040,9933,-12120,3130,-7711,9035,4635,6979,-675,6022,-4674,10655,-11110,-4459,9346,-1293,2702,30,-404,5462,1777,-191,5291,6995,1527,-2220,-2694,10287,-5505,8618,-279,9457,5019,-4465,-3607,13482,-7549,-7901,-8866,-14957,4451,18382,-4561,9669,-2249,-1570,4905,30515,5445,-5541,3122,8985,2182,15782,-21127,-13242,-3360,8774,1935,22569,15379,2200,-1386,6805,3884,9578,11794,15264,-533,1084,4838,4850,10897,5386,346,11458,12291,2593,5059,-5250,8736,-1568,-6099,-6620,-4807,-1928,9861,3880,9581,6852,-10322,-10538,8315,-3524,-8066,-132,10706,10404,-3568,-3685,6255,3568,6422,-1240,803,-8019,-8321,8247,-8565,6144,10085,1230,9696,-3804,-1218,5554,4200,652,9622,-8390,-1676,-2996,6010,8874,-12549,-546,9314,-8740,-1278,-13021,6986,10678,2496,-3916,-10116,-8160,26,10976,10237,-1360,-739,6494,8874,11417,11268,3628,11265,-8270,-4685,5390,3807,-1598,-4165,-7631,-9701,-2465,-4537,-4032,-5923,13265,-3377,2996,-3726,6633,1921,-6143,1037,10497,-8301,10562,8230,1255,10058,-4359,3148,-8411,6526,-4345,7523,-12185,-7748,-6407,15069,11634,17001,-516,652,-2443,16224,28974,17619,1036,-6351,387,1400,11325,7672,-1413,-6400,9531,-13989,5811,21131,1327,17919,9830,-6559,-17028,-6838,7860,-9332,-5278,8325,6879,18896,7912,-1409,18016,-3146,13699,984,3235,-529,-2532,-5723,14127,7762,7278,-14721,6658,3642,-71,-8051,-1609,1559,29413,-9388,-9441,-14396,-1953,-12377,-22970,9479,8655,13080,13054,2096,-25150,19971,10860,2382,237,10323,-8243,-8032,9793,-9702,-4609,-6682,4869,11304,10439,6883,-4057,-1037,-1070,5495,16048,-5230,-7250,1967,-14397,-2062,5243,4054,7996,-3394,7131,-11641,-10095,3384,-2042,8542,423,16229,8229,1545,-7814,-5813,1432,-4006,-3941,-11319,-1702,7166,25440,-11257,-9828,-12309,2732,-7011,11217,15298,-6895,-8698,-6005,4669,-25362,6986,13635,12773,594,504,13304,-9454,10679,4343,2282,8312,24879,
        11006,7559,1855,-9521,750,-2749,279,-12386,3729,3785,-9887,-2665,-106,-1523,-2415,-2293,-17685,-16357,-18851,-16452,10023,13901,-2034,-1384,11371,-2463,-2120,16007,-1157,-15789,7983,-2787,-2905,-719,-14876,2151,6168,7114,6428,-7939,197,-8225,3183,7755,1922,-10382,-11168,-5665,2414,10249,-3982,-621,4066,-6246,-11201,2639,1483,-10732,4021,-3015,5875,-10484,-9914,-10540,-12271,1102,-8637,11504,10258,-2391,-5910,-7869,6074,1612,1555,2354,-2411,2305,14212,-10568,-4364,2842,1411,-5884,-1963,-9370,7438,-895,-9883,-2862,-21354,-29635,-12365,511,-9900,-5551,-23594,5456,-8842,7404,9656,6275,12558,6851,969,28,-12904,18503,-10197,-5314,-5104,45,11071,440,-8089,-2283,-7605,11997,3292,-6157,4920,-3178,-8429,54,10622,-2540,-6648,11368,-5462,-4476,-5829,5736,-4351,1830,5456,5695,-9512,-4516,10341,-10191,-11051,-7002,8485,-6190,8121,-6219,7020,2454,7225,6910,2984,-12288,-9039,-8724,-9424,2249,-4124,-2262,3564,-12104,2052,267,11627,-4737,9864,10497,7100,-2137,9459,2151,7178,5321,-4978,4432,-7188,5671,-10522,-11766,11183,-9170,666,5954,-7875,-8611,-3175,-5940,-5163,-1607,-10348,6005,-1499,2420,3573,11486,8285,-11208,4287,11511,6582,-4903,-10474,12586,-4597,-9835,579,-1145,-2953,2438,6458,212,-7387,-9214,-9436,-9040,12540,4778,-5610,-12711,7942,936,5272,-5311,-7999,-13178,-7900,-6952,-6186,-3384,-11610,-570,2132,-268,-5100,-7204,-6952,8514,798,10842,-405,132,6253,3876,-12818,-127,26319,27775,6682,-6639,-3204,6454,7055,-9916,-4865,-19268,-13392,-12520,-5948,-11574,-6784,-11218,1821,-10758,-8881,-1543,-17211,-11046,-5319,705,1532,-4032,-72,-5474,-6945,15796,29913,27334,22301,21571,5734,-546,1374,-7501,16019,3987,5746,14932,13485,1626,-27371,-4587,-1555,39,-10847,-6710,16488,3731,-13182,-15923,-8555,-18089,16599,10365,5535,4751,2055,4405,-11811,-22577,3455,-15758,5285,2233,-4403,-18652,1153,9220,22851,6682,7844,7799,23864,21121,583,8687,-10683,3798,-19500,-16536,-2256,-16346,-6137,-9804,-20064,-3219,-20740,-5519,6672,899,7008,-3930,2181,8154,-4566,-3342,-7054,-6912,-1445,-7174,-12153,3462,-974,19672,25629,-5179,7586,8345,17137,-59,3387,8527,
        -3958,-9867,-29098,-24910,1303,6032,-20658,-7241,-4016,4206,14537,11820,2756,-4150,10124,6591,13816,18016,2450,-4964,1330,23683,6153,5864,3783,19140,10702,6670,7458,6173,-1656,14247,-480,-13152,-10599,-3950,-25,11180,904,10999,-9267,-9797,8618,11387,8471,-2282,4870,-4168,-9780,-8170,-3206,10473,-2230,5863,-10485,-3748,7343,768,-2037,-9250,-7901,-6123,-7718,10163,3485,-2690,-6101,-4461,4675,9636,-7125,-9670,11541,27659,7813,-2751,-6412,-6280,9754,21613,1520,10343,-4744,7026,10028,12599,2995,2597,6926,3882,-2025,18450,3743,-6393,-3188,-8397,-6942,20657,11466,21923,12046,9041,14799,20589,22964,-4611,1762,-7719,-8265,8165,-11957,4577,8080,0,-11813,-1375,-6676,-3839,4110,-10854,-4644,-7820,5464,4903,244,4549,10413,11647,2367,-9965,-3121,-6337,12201,-12146,4661,6663,9573,10871,-9220,-9201,3325,5585,6222,-1872,1855,-2997,6774,-629,-9426,11471,6738,-9447,3497,6964,-9207,-4213,8366,-7318,-3938,-4425,8115,909,-2315,7701,3661,-8000,107,-2350,-11745,1288,-9054,8364,-6349,11356,12276,1246,1163,-3699,8310,2547,7663,11812,-7258,-11937,-8874,8551,7365,676,4761,-6700,361,-9462,-8085,-1252,11314,11733,-7314,5212,-7683,-2295,-5047,-354,-9429,9897,11292,3554,3146,-7571,5576,4167,163,-5115,149,-2159,-6263,1327,8945,-99,-685,-9135,-13745,-741,11071,-7394,-2136,-419,6202,6311,589,-9126,-3290,-6997,1027,13120,11834,-7428,-2639,-16885,-12107,4584,3443,6131,1484,-3064,-12348,-9294,-9276,-7827,867,-14399,-18736,-2223,34027,1574,-11097,-6886,-8679,17917,2116,-1094,2531,-4363,2391,1794,2405,-15855,-18723,-3334,4350,-2100,88,1892,5893,1473,3946,-24453,-5549,-11885,-6961,-15128,5320,5834,-5804,-22787,-31498,-33265,-11820,-24088,7316,15896,-8417,10396,-8827,4344,9515,-1655,-8300,-10244,10758,13067,1904,-1673,5878,-9415,-3272,-2352,-2297,-6926,-16446,-4523,-19566,-311,-9090,4443,-1511,8587,-3495,-25293,-15005,-4654,9959,-12524,2153,-2530,9010,2610,2140,-5970,-6933,5367,-3367,-15365,-10033,-3417,3066,-1330,-7002,-14625,-5996,-2891,4733,7422,1117,-6129,-4401,-13232,-397,3669,-8444,11799,5133,2504,837,2329,-8668,7415,4539,-4710,7572,-17040,
        5471,3807,10401,13158,18245,13469,10883,4948,14785,23966,12674,4806,-2938,11159,9792,7001,17633,-7382,-3862,9434,3650,7699,3528,-24497,370,9036,15367,7800,-5640,-6298,-122,13327,5280,2816,9533,-14503,-9194,10500,10773,-11998,6951,-11645,10230,-7833,-1762,-12206,7722,-10061,-12785,635,-8446,-7794,5681,5644,-8587,-3359,-3969,2603,2138,10963,-9692,7665,-6831,9268,-13013,5637,-11953,5107,-5970,7412,-2563,-3463,-9525,3847,78,1329,-5444,3924,6433,-14608,3779,-7663,-646,-3111,-8963,4182,7440,-10329,15087,2637,1202,16045,-10642,-16617,13044,-4787,5712,12111,-3953,11133,15873,19230,12185,19255,12058,10212,-1947,-4115,-9378,11480,2848,5114,8018,2795,8767,-6472,-9964,5099,7567,-6192,4332,4900,-6027,-2306,-2417,-482,-8091,-1147,1330,10949,12372,6566,-9667,-10224,1025,2712,11175,12466,-7465,2885,5961,-5513,-8376,-7740,-8604,4251,-10868,-12099,-10712,-2578,5110,3316,7121,-2450,-4332,-1072,1714,789,-7667,-7706,8878,-2488,11140,-9448,8621,3541,8196,11000,2670,-4001,-9040,2467,4343,-3735,-4197,10796,-10848,-8239,6011,-12153,3502,10408,8308,-10503,3451,-4779,2431,13276,6050,-10566,6021,6421,9368,-9084,12206,-1003,-10515,-9894,12693,2266,-9581,-472,-3344,5784,6259,-10823,13113,6885,12492,-1311,3948,2253,8729,-1574,3785,-7729,-8122,7488,167,81,-9167,1573,-2752,810,5829,3052,1345,2654,-6356,-14013,-2243,15900,-3899,15724,-10701,-10372,-3318,-10859,-6696,1102,6409,1448,5543,278,9245,3622,2643,-5852,-9720,5938,21245,20411,3756,-552,-3457,12745,20304,6410,-6760,9362,8424,-10931,4489,19392,-8442,-19576,-18204,-14722,-6596,-2170,-5280,-17977,-3823,8266,-5878,-8826,-9948,-5549,12421,3671,-13471,5580,-8703,-8183,-4327,-14301,-2933,13817,1338,1698,2742,10064,10364,1841,-16981,-12739,9488,8742,12637,12259,-6712,-8391,-4812,5973,8331,20299,-8492,-64,-23143,-28729,-11688,10143,-6930,-5650,12491,1186,10362,-16803,-8960,-5089,2798,23015,11965,11531,8661,12445,7327,10428,13819,-11366,-10544,12400,17086,11988,16784,9997,-9073,11106,1505,5057,8907,-231,-8355,-7246,-36844,-13551,-19034,-7791,-3944,6486,-5500,18715,4017,-6478,1246,6077,17159,9323,-369,-10570,
        6587,-15593,-154,-13466,-12708,8474,6858,-11362,-3174,-11053,-8745,248,7311,12583,5748,5989,12837,8455,-2719,-9746,15029,7755,-261,-989,760,9930,16928,8659,-252,-4030,13310,7614,-7324,4019,-4141,-21659,-1873,-5887,2061,-3491,2609,556,9293,-10908,-12832,-6041,7171,-8307,-2182,-1748,7837,10591,9503,9025,-3967,7244,3839,-1848,7505,-9986,-10564,-5180,6401,-10570,7637,-9948,-8727,-11401,1162,-733,-12629,1443,5660,7811,-11173,4433,1638,-4002,16881,-7472,-80,1113,-4982,-2318,4044,-15281,-2147,13632,7150,11349,-17889,-11781,-16536,16684,-3315,-5976,-22243,-18576,-842,14295,12504,6197,-4712,4464,-3930,19996,2955,-5612,2717,-2675,-9382,-7106,8894,7259,-2351,4994,-7985,4994,-3698,-7781,-11218,8998,-7669,12209,7695,-9159,5541,12406,-9145,-2267,1249,-9899,6303,-8770,-6445,1319,-976,8720,4089,12436,5899,-2085,10457,7997,-4813,-6764,4186,4223,-11384,-4487,1717,11190,7399,-6135,-5106,-7472,7453,-1996,-6344,247,-11285,-4023,6093,-10055,3799,2122,8368,-6401,-4815,5694,3567,-6788,-8176,701,-10048,10365,-5502,-2962,5188,2957,-5027,-5430,10855,-10957,10417,-1988,7020,-4499,3549,-7262,-7645,-482,7273,-5519,6972,5204,-4500,4725,-5363,-11101,-7347,4659,6722,9172,5277,-8820,-6104,1522,-9393,-6048,-9630,8625,-8513,-469,-2051,-5795,3201,1865,1684,186,11562,-4164,10032,139,6334,-4990,-3809,3937,-7186,7717,9603,6936,-3448,-3909,-5090,713,11164,-6236,-4943,10570,-4029,-12872,-11414,-8232,8983,4300,-13753,-3709,9772,8733,4680,12358,14980,5577,-6491,-13680,-26556,-15938,480,-11932,-9642,-6439,-1730,-8791,-11890,-20523,-3817,2044,16511,-9560,2940,6511,-6107,6273,-7784,9949,7516,-4726,7866,-3832,3134,-13481,-2192,649,-7302,-12898,1893,8792,-6535,-9467,-8662,-12964,-814,-9365,15957,9206,-6994,-12321,-25634,-6814,18649,-1571,-2107,-3299,-855,1120,-5699,-13233,-777,3063,99,3968,-15473,-4972,-2652,-1690,9730,5500,-17489,-11310,-4794,8217,-5912,-3757,-2802,-2887,-3006,-13096,-10210,2590,3737,-7869,-10388,-7007,-24546,-12589,-4410,9030,-6142,-6498,3022,-3154,-16290,-13109,-12256,5020,6221,-5484,-15914,-9547,14891,1293,8852,3163,2605,-3046,8756,4988,-613,1025,
        4110,10624,-7557,-5741,7630,17247,7532,7090,4450,21943,19693,13283,7199,-2858,-395,2289,1953,-88,-20024,-11883,-32,11320,-3226,5496,-16601,5620,10399,-3833,-2950,1529,-11583,-10859,-14905,-21415,-9913,-10147,107,-12533,10818,4499,-636,11635,5514,-10484,-9896,-2248,9796,-8281,10826,-8065,5377,4717,9758,758,-6348,4722,-8652,-1516,-1467,-904,-3589,11349,-7295,8449,-957,-1535,5404,9622,-12490,-2869,-11424,4033,-10259,2135,11230,-6210,-16123,-10879,-3112,4430,5960,-9250,-2106,6907,9563,4480,-9720,-20110,15527,1913,12541,7665,3971,-11005,16999,12043,6864,23396,9112,16061,16018,4628,-2898,11107,10094,2636,2884,-10687,10615,-5685,571,-11137,9571,228,12246,-6206,4992,-4467,-9975,-7701,256,-3672,5706,12171,9712,-6199,-7154,-11058,-5694,-7493,6205,3760,-9188,7344,7608,2972,9922,-10683,-985,-500,-2456,-10541,-3829,-2309,2474,-2003,2067,8738,10348,-11245,8102,5919,3744,-3484,10772,11478,-2005,438,-7665,-2679,-4221,7407,-8924,7945,-3402,7120,1259,10721,279,5950,9534,-872,-5023,-502,-8296,-3024,4570,-342,2559,8749,-8253,9939,-8295,-2437,-8426,8124,7109,1812,2646,10167,4796,-3582,11180,12508,-1433,9742,12316,9279,-4505,119,1339,2546,-11020,-8321,-5425,1277,-3389,7121,1929,9632,8943,-90,3955,5398,-2504,-11452,-3817,-1908,-2801,13587,-9285,-6861,-3399,1095,-4205,10576,-6937,-6335,6394,15911,-5449,-5351,-2408,2127,11457,9814,-6459,-16962,-13818,2631,2566,-3690,1082,6951,13834,-2053,-11563,-4383,2875,-5889,-10992,-12067,-957,5492,4329,5362,23219,5743,-4069,2361,6508,11716,684,14745,8503,15876,-6261,-1137,-13042,-5975,-8418,6814,-3686,16769,18323,-12680,-10693,6657,1170,-7522,-9999,-36899,-7098,-2636,-2022,7422,11041,10380,16792,17410,-1688,259,-525,1437,-11095,4666,-11521,-11215,16271,17517,-21431,1261,-1078,-6684,11170,6925,17170,24280,-14718,7631,-5879,7076,-3867,-21662,823,20394,6423,1825,-9004,-3284,6992,-7315,5575,2900,2722,6488,3323,13380,7060,5284,-7549,15432,8328,-7636,19764,1867,9221,14622,-12751,-1118,7597,13400,22761,-7209,-4686,18884,1928,26284,-28517,-4317,-5215,13247,11023,9837,898,6088,-3343,-721,10449,-24963,
        6509,9134,4373,1342,-430,17537,2142,-2917,4322,2210,6802,-3954,5512,6184,509,13501,-24840,-41803,17072,451,-2328,7657,1823,-17294,11409,-11319,4037,2572,-9293,-4783,4023,-7226,-8875,-5059,8257,16007,-2996,6011,4323,5795,6310,1057,7813,1687,-11806,9149,-2936,-3484,-11592,-1312,7740,-1508,-8630,-5833,5450,-10673,882,-11747,9159,1491,-2492,-236,-5399,5089,-3576,-11,-1093,-6943,-9690,5206,-3306,10907,743,-14694,10344,-7980,10687,15600,-4818,1838,12533,-8878,6269,261,-14377,-6047,-1924,-17606,-17058,1397,6844,14829,-9539,-11353,3003,1790,-6894,-8750,-9395,-15288,13543,-7285,5374,-6535,-10766,-8669,-9640,17279,-5355,-202,-781,10445,6977,151,2479,-4297,3503,9670,-9235,7101,-8552,2559,6708,-7537,5093,7418,-11624,-9183,-8403,8665,-6238,-9646,11033,4399,7718,-7831,10185,2687,10600,2579,-4155,2714,-3241,-3283,-2818,4738,-6317,8792,-5115,8359,-7263,4170,-7448,8265,10405,-5702,1870,-11388,-5586,-5263,7044,-8528,3122,-1142,-11009,9971,6088,9881,7190,714,-8123,-7425,-9421,5297,-7462,-1531,-7228,10303,-4128,-9905,1058,-5126,-2618,-10347,-11349,1676,-2451,-380,3719,2708,-9856,-445,-1680,-521,10613,-762,8687,9886,9963,8279,-9282,-11515,-1664,8034,-9113,2989,-7100,5977,-1965,6191,-4832,-6196,-2582,-7372,-3468,-1786,-5847,3381,-11821,924,-4185,-7100,6409,-4885,-7877,4562,-13903,-22542,-2717,5783,-6343,6481,-9775,-12903,-13198,-3538,6385,5693,-743,-14023,-5558,-3259,4474,9199,13985,6147,7255,15052,4080,10720,2037,1637,-8098,195,7725,6756,5758,-17647,1458,18716,14525,-7118,-1328,-11605,-17396,-19852,18624,9233,-1005,15179,-1663,-24889,-9077,2199,5155,39494,14160,-8945,-4904,-10685,7617,32324,-18469,-47210,-33536,-18919,-15626,-11117,-2647,-8392,291,-3034,2883,738,-1918,-8727,12186,662,47,1320,8542,20219,5982,829,3518,16925,-2942,1156,2437,-9264,4987,4854,-249,2489,-6399,-1675,12767,11275,9731,2549,-4189,7049,7800,11065,-1313,-8469,12603,4544,-413,23908,2589,16751,11315,-5713,6738,18728,-3421,1019,-2072,2831,13468,11941,-10298,9823,-3958,2518,10068,-10049,10913,-10625,1612,17323,8584,-13986,2962,-13947,-3455,3731,-292,4364,
        272,-9518,6367,1141,1473,-17021,8566,-3101,6666,-3700,-21662,-13451,-7109,-3976,-8624,-12317,-26274,-14729,45,4442,14959,-6126,-1056,5137,4357,6516,8947,-6950,-8355,-31447,4605,2071,-740,-12171,-20825,-11563,6074,7186,13423,2710,-8364,9961,-2237,-9308,-6356,-8876,-2598,-9386,-9901,-906,12475,9935,2015,-9168,8220,11504,402,5750,2182,562,955,-7933,5277,7098,-3527,4995,-6887,-10180,7430,8068,7754,7852,7936,-3167,-10962,2615,4839,10808,16543,10122,-7815,-7524,6229,3639,8322,925,-11213,-759,-12545,731,2479,-14755,-2078,3435,-1751,-15025,-6052,12228,-5765,-8711,-12418,758,2823,-4606,-2442,14903,-1648,-17912,2255,-10202,6901,-2,3046,-5552,-12959,-8416,3751,-8751,-6356,7424,-10184,-11621,8146,421,-6837,-3522,3891,-4147,6682,-5989,-1031,-3606,-3502,2394,8447,-10027,-7243,1636,2915,1820,2903,10722,6185,384,-9760,-7510,12847,-9929,-10437,6731,10299,4717,-6107,-8764,5624,-5353,-5674,8457,-4889,-5161,6524,-7197,-8623,7779,8817,-3783,8869,2532,4501,5622,-9578,271,12349,5051,-6051,6191,-5367,10341,5873,-7278,7314,-9791,7411,10003,1712,-2786,-11465,6883,3834,8102,-5115,-12111,-4043,9807,5371,-5682,-4313,6676,837,-1855,807,5578,-10083,3442,434,4334,-3558,10666,-9089,-2603,-1284,9754,7248,-4572,-1174,-4782,7623,10514,3678,-9558,12093,16336,-2906,16432,18746,4676,-7373,-4591,7817,-19334,-3643,5195,-8183,-11915,2310,-11472,-18728,1506,-12321,-35714,9738,-6446,-13808,-8764,-2848,-9989,545,1147,-655,1086,-6810,7368,17,-12486,-8674,5026,-15362,-15762,11344,-15512,-13536,-9954,-7785,-23024,-4475,-16479,-24517,-9954,13908,22254,-10058,7369,7823,7442,-400,8308,821,11474,6649,-12651,-2272,2838,-7515,-12813,4642,18286,11413,-1079,-15205,-8614,-7412,1000,1695,1184,-7320,-1515,11775,-4397,-25319,-4602,-11806,-17139,8222,7647,2545,2228,3354,-15981,-33697,-13116,11965,11627,-273,-4225,-3031,4241,4719,4640,-5030,6676,5435,-508,-19729,-2729,-5599,-2542,-15169,-10931,4628,18932,-5036,-11370,741,-11935,-25233,33580,706,-10787,2389,-8730,3233,20007,-7467,-19686,-17536,7325,16821,17326,-10053,-3563,6222,-279,3645,-3928,359,5463,-6033,-5039,-8919,-15467,
        -2258,-2229,-14797,-12776,5028,-18650,3302,5331,-18066,-10876,-7111,-11189,-6377,9773,-2032,-22430,-33516,-29173,-8682,-11572,-3768,-1939,-7877,-3595,6142,9268,5697,6829,20919,6561,1183,12933,-11498,5856,1171,10595,-1955,-1756,11244,360,8082,6711,-515,-9032,10697,-5907,5437,4925,-6304,4637,715,-10229,-7994,-9494,5852,-1142,-4488,-1076,-1337,-9455,-8049,4396,-5427,-621,10163,-1025,-4016,-6310,8556,-11844,4577,1229,-4755,-3093,-5968,7136,2258,7238,-8607,-1914,-5961,9469,-1979,10959,13897,17915,10585,-1428,-5944,-10697,180,12698,10376,3471,-5754,-6709,-10763,11413,10498,14030,1373,3589,438,5942,-492,-4268,2648,2497,10335,-107,-1484,73,-10404,-3718,6188,-9856,11036,2866,-6132,-2946,4208,-10047,416,9567,-2219,-10726,-4123,10414,-9934,116,3004,5906,-383,-9249,-10072,-8572,11797,2785,11419,-10966,5507,-2711,-2550,-8537,-5406,-1670,10776,9837,-9965,-7771,-12100,-3281,-11181,6051,-9128,-8377,-8283,10892,1844,-5803,3025,11672,5878,5831,-9305,-10484,-9867,-10579,4271,12092,-1849,-7932,8477,3700,7351,-5498,7508,-1239,5503,11513,-1819,-528,-3498,-462,-3384,9738,9940,-5253,-10769,2525,3636,1690,4491,11875,-3720,-7859,7035,-8042,2656,-2294,6267,-11716,11791,-3573,2662,-2771,5489,10844,-11033,-4461,-9549,4731,-6868,-8259,4548,-7041,-4,5213,4397,-7639,-765,8423,6112,3567,4946,-8114,-16298,-1734,-5584,-4430,-136,-588,2254,-3519,15796,13911,-5466,-8733,503,-5773,1721,-169,-5942,-10547,-21101,-9648,-3621,-25894,10559,8229,-13630,334,1384,16122,16915,8754,4161,3484,-314,-18057,-6720,-8105,440,4780,12962,1746,-14428,-8773,2596,15564,-9663,10057,10581,4514,-7162,2261,3452,17973,21021,17677,-6488,-8709,6649,24226,32146,41119,27222,21740,-786,14305,2049,-573,2781,5423,-10003,12537,-747,1050,6760,9256,-16882,-16291,515,2418,-208,-4081,20101,-4961,-21330,-13407,12773,-6814,1467,2931,7052,-3569,-2453,-12134,-13134,6530,16301,4030,-13678,4019,13711,12161,-5134,-7166,7611,8635,-1657,5805,-6242,13160,4378,8927,2174,-2158,8281,-2107,-11261,-24187,15577,9651,-3387,-6290,5425,-1196,-13438,-3814,1444,-11495,-1090,-4724,-6412,3069,1158,-832,5205,7814,
        -14189,7692,-7082,-10209,-4455,-16409,3895,4981,-15681,-13348,-3378,-257,9004,2967,16349,-5379,14473,-1574,8439,-3346,9070,17683,9566,16060,-15740,14942,-2334,-13155,-1306,15310,-1971,-3391,-4995,8352,-10208,-15284,-6762,8255,5389,-2502,-11229,-12411,10300,2095,8851,-1192,-1372,230,11552,-3181,-10846,6103,11017,-128,8310,-707,8344,1494,3199,-12393,7771,8697,1408,2329,-9880,-6488,-10039,701,-8431,-10750,-2888,-218,1287,5505,2439,4093,-5389,-6908,3864,20156,2884,7797,-2065,-1774,-313,4845,4782,447,-2011,-702,7137,277,9020,5318,1880,10710,-1424,21865,7410,5469,-7254,11745,-2515,11511,6497,-6591,-6406,-129,5551,-1901,7085,4782,1598,12144,10453,11436,-1725,12527,-11203,2488,8598,10756,5716,12205,-10652,-4696,1054,6149,-5943,6390,7248,-11557,4301,-3265,3732,-631,-10020,-4148,7231,9475,-9320,-4101,7991,11818,-6428,-3900,7894,7075,1554,11518,4251,8384,3340,4671,-3809,1196,367,10258,-1535,-6328,-749,-10955,-8222,-9363,12182,10675,-5081,-3958,3595,9134,9935,-1319,-12057,3414,5233,-7060,-447,7376,1866,7625,-1212,-10781,-3777,-355,-3148,2781,-7462,8518,-1564,5334,11214,-1249,8171,4364,-4224,5469,7989,-6345,-6237,-10686,-3503,5445,2829,7164,-6490,4618,-11369,6816,6217,3607,12414,2810,2705,-3983,5208,-5217,-1690,3445,4426,7468,12117,17899,-7141,-6782,1711,-530,-697,12610,541,-2865,-8744,-2518,16606,12868,-856,-21857,7038,2377,1227,29027,-2585,-1823,-14181,7525,-5714,9628,7019,-667,-10930,-10256,20954,3623,4568,6551,7702,914,3278,14721,5587,8776,-12418,4850,-5011,18544,326,19955,18480,20685,1781,-2224,10425,18318,4321,-5068,538,-18887,6327,-6478,-10540,1975,-548,-23187,1308,-20,9983,4695,2090,1187,1355,8503,-2657,-10300,-1815,7233,-49,3442,9513,4627,4763,-1085,1965,1053,1686,-20607,-3448,-16220,8040,5128,-817,8254,6469,10112,4157,9503,4376,314,3352,-8580,-1591,-5757,-1262,2690,6397,-5480,1680,2116,18856,13475,-6826,11784,-12063,-2233,1913,3909,-7157,-24548,6666,6158,9969,-532,-18778,-30737,8667,-433,23541,13786,12030,6514,5773,15702,9925,650,1067,7529,-2380,7001,-14676,-5999,4316,3359,
        5901,1121,26871,8488,2632,-15806,25800,11529,7500,9678,-8291,-18992,4855,-4214,10553,-10899,-19724,-7491,-13218,5674,-2445,-2145,6029,11524,-13690,-6047,-1275,-2767,4905,4377,-4481,-6329,-1576,5886,-14179,-9295,3675,10873,2312,2763,-2074,448,-8784,6996,-9956,6720,-3748,-9257,-3044,729,-6714,9463,-12087,1496,-1770,9085,8450,7376,-4568,4334,726,3862,-1427,-716,621,1814,-4418,6008,-5963,-6525,-12026,-5166,-19503,-19017,4229,11904,618,721,9388,-8281,2642,-16785,-6928,-811,9420,7432,-16993,-11728,-14546,-10830,-19648,-5431,-1442,4572,-8531,-17962,3278,2611,6412,-14410,-12509,222,-1048,-2926,-34,-4531,-2149,9487,-7290,7689,-6239,9686,4793,2131,2569,-8657,9187,-2950,-10421,-8130,-11043,10688,4221,-371,5837,-10574,4130,2962,-11363,-1407,-2394,8448,6999,-6082,-10224,-6516,7618,-7240,-6699,-6458,7952,6038,-1735,-9324,-8958,6524,-8749,-1368,-8542,3896,918,-882,-3489,-2107,1232,9146,-535,-6972,-232,7310,-4221,-13456,-12303,-12626,-12253,2865,-9631,-1602,-12549,8547,-10100,5575,-6761,-1481,7741,9228,794,-6314,7169,-10166,-2075,-8515,-6577,8382,-5077,10799,3894,8443,10250,-8568,-3851,-3418,-10945,-4254,-5977,-4764,1163,6092,-4714,-6596,-1611,9851,-3758,1921,6205,1337,-2108,-2545,3947,5698,5651,-11600,-7688,-10054,4371,-2460,-15865,-248,8060,9647,1268,3383,-16814,-9334,-5583,-5559,14325,206,3537,3044,-1124,6965,-1690,-9311,3426,5090,-5989,4128,99,-8570,-5553,1904,-11190,8106,9021,3573,1048,187,3565,19959,19247,5765,-16785,-19168,3742,4278,-20680,-16374,-2802,-12943,2521,2526,-4833,-11794,19178,20047,-12557,-7760,9830,10144,11557,6127,6577,11834,30531,7503,-5063,-8590,11744,21928,17120,-3233,-32225,-24996,-41674,-41595,-26928,-10906,-16990,5181,-1568,14881,4404,-6848,-18236,-9395,-759,-4740,1831,2734,7464,-11808,6713,-1060,6656,1066,14204,11285,914,13261,-1635,9397,-10398,-12197,-11360,3222,7696,13020,853,-806,-9810,-916,15982,-5555,-10204,-10530,3533,-4218,-4201,-21371,-2038,10596,3362,167,-2583,-1096,-6104,-5020,10961,-545,-7940,-8021,17242,10659,3375,60,-14321,10004,-9162,242,-5678,13050,2689,2474,3534,-922,-12067,-3008,-2642,7323,
        4152,-6492,-5752,1376,3161,-8758,1560,-12589,-8132,3200,-2882,-1703,3632,3857,10404,2384,29739,33865,-710,-5822,-8541,-1438,6921,8755,-1881,-8515,-4107,-9510,8609,9547,-8576,-9969,-6004,-3555,-3546,-5608,-8807,1486,1928,-4880,-7966,-6251,-10488,-8372,5560,11471,11285,-1091,2595,1830,11982,-7434,-8193,-9313,-11494,-3956,-3022,1118,-6307,6115,12338,4051,-5220,200,-685,-6728,-2167,-5622,2238,6213,5649,-766,10758,8370,-4540,3530,-9981,-11532,-1072,-11515,-2771,-8186,-8174,-10096,255,14363,9398,13906,570,9111,-8399,11365,7559,-10201,9648,-8202,4345,-9433,-844,6240,1009,16302,2277,-4474,10624,-12928,-10499,3388,7174,5384,-7616,-7725,715,-7442,-8635,7242,-5682,3008,10761,8501,4972,2379,6470,-2019,-8179,-6816,-7667,-12450,2950,10525,2945,687,-9098,5727,5762,7281,7170,-1032,-1500,5992,-9894,-11578,3639,-3282,-1639,11270,3027,10322,6717,-10841,-10772,-11376,339,-3983,7938,-1532,8644,-10774,-12130,7679,-2227,109,-5958,6347,-6359,-8296,3680,442,-11642,2338,-7864,6031,7398,11068,-5621,-5842,-1799,1576,-3011,8421,-4754,-2850,5640,5232,-3577,4240,5440,-1310,4517,5659,7047,1297,-12254,10651,-4316,2460,7315,603,-5669,2195,6933,4959,895,7125,1926,2219,11153,2623,-11115,-8107,9542,11262,10494,5398,7855,-12288,4584,-1917,-3533,-1389,9697,-7109,2739,-3493,2528,-5111,1153,19707,4826,6208,5211,-2755,1322,10409,13678,26059,1544,-10981,-3965,-5893,-785,-1491,1251,9967,10212,6463,2767,-26,10194,-6944,17767,9346,-7739,-12063,-33576,-14509,-16051,-9424,-9469,2400,-7522,-6468,7552,-2951,8847,-1060,12734,7180,6150,-14379,-3381,-3594,9005,9463,1200,-19054,-5646,-12033,1837,6831,10852,-6828,2353,-5304,-27119,-2211,-7718,5423,4230,-11489,-559,4515,-4185,-15083,-7313,4190,-9483,-19405,-7828,2498,-9824,-16242,12837,-926,-5549,4494,21422,2233,-2865,-5872,9254,15018,5437,776,-3379,16265,11600,-5792,-9044,13935,6862,14650,9176,7310,461,-7240,-22349,-21923,-5006,-15016,599,-21378,-24001,-1262,10025,-8211,-7157,-14688,-2792,6859,-3317,411,9042,6136,7903,10766,-1723,22974,-7691,11892,-3932,-6458,3301,1507,8556,9192,7303,511,15766,-5414,
        1359,-269,2491,6860,25207,4556,4124,-3658,9176,8483,4690,-4787,-207,20078,-1486,13627,21253,17259,-7681,-2300,208,18629,15261,-1211,-2856,-16301,-10160,3719,455,-17042,6559,-2419,-19529,-9353,-3897,14758,9373,-2348,9923,2236,3212,-7613,-6635,3700,-10387,-8336,-3114,2131,8497,4272,-2883,-7598,1442,7812,-3457,1187,-1980,-6038,6045,-3775,-2307,-2594,2691,-10623,-10688,-1660,-6190,-6142,1972,-11378,-4883,451,-12299,-4508,4604,-10127,-190,3370,5790,-15652,-207,-9154,-4081,-15363,1072,-9143,7414,1115,-788,8399,-11079,-21467,-16267,-1603,14062,-2787,-13397,-20340,-8585,4284,18322,-5336,4975,1309,-7175,6718,4600,-3861,7373,5961,1051,6995,10805,-11991,2427,5329,-4140,-10499,-2160,-2973,11890,9233,2968,-2891,-10471,613,-12191,3439,7211,-6201,7652,337,6538,-10167,-8453,-5507,4317,11530,11590,-7785,-10375,-7459,-7793,1481,7390,-7277,7540,9846,7405,1096,-233,2750,-644,7085,-6608,-7624,-6173,-2495,-9952,-11688,-1730,-15,5995,12017,9149,11363,-175,-11478,-6439,695,4492,-2830,5571,-2150,1343,5188,-8712,3420,9610,-10890,2521,-45,-1324,-7654,-5531,7591,-2294,-1585,-5724,4479,1467,6305,584,4694,-11520,9203,-12206,5544,-10050,11423,4039,-10506,5844,-1902,-12106,-2128,1179,4227,3371,4085,-376,1449,-1805,6334,10525,1926,4373,-6735,1913,593,7060,3304,-976,-8130,6711,5317,7555,9835,-18230,-20289,-13838,11944,3557,1155,4511,-9993,-10696,-3122,-11136,-8849,943,-2696,14897,-10984,3114,-9671,-355,18014,5165,-7742,-22905,-36401,-13189,-12051,-11405,-9331,-4805,3705,-1049,5053,33,-16306,-5937,-11587,4507,-19779,-16054,-22979,-13212,5437,746,-661,7932,-519,-3192,-4237,13333,5899,18089,-29946,-36409,-18619,2881,-4050,-12577,9606,-9208,-29542,4164,-10224,-756,2661,6379,-1806,14706,633,2584,-224,712,-4374,-6703,-2985,-2565,13424,1441,15928,-606,-3386,-7155,-8820,-2899,9687,8381,-5530,2449,1583,-10089,-805,9927,4365,21175,-7916,-15319,13489,7062,4966,-7826,4326,2084,-13509,5532,-1202,-233,7187,10298,-5376,-2505,3800,-9640,-4230,17266,15729,-9658,-2116,-20227,73,9508,13575,-5564,3228,9341,12066,-9075,583,8440,310,45,-3980,-2156,-10141,
        5083,13423,4771,11868,10498,-3401,-3389,-4711,15182,11343,-4898,6889,-10493,-4285,6154,5569,-13972,-8295,3919,-25095,-30253,-14563,3958,-6530,-2067,-34615,-29039,-19288,-3719,-19435,-11488,-19429,13564,13096,-25946,-19218,2928,-1653,4822,-10622,-1493,-9571,8214,-11391,-1148,-11327,-4917,-4045,7977,11863,-11638,-3740,-116,1175,-11801,-3471,-2967,1913,-9439,-1280,20,-10015,-9664,9398,11566,7238,8060,-8915,10573,-2610,6317,4885,-3164,-450,-12846,15278,9280,-3796,8434,576,-10572,3429,2011,-1308,4017,-5377,8582,-11845,3374,1549,-10160,-16964,-5164,-13038,-1428,559,-27600,-47581,-18900,-19239,4590,6715,-5057,-16218,-10065,-1208,5583,976,-9396,7396,12027,2735,8805,-9335,772,-5215,7492,-8338,-8464,5037,-11929,-5244,6735,-7049,7291,6279,-2620,-6208,11112,11476,1857,-7705,950,9999,10630,-2569,5558,-9959,7942,-3814,4617,-5364,-9318,-4381,-3492,4217,5405,1010,-11573,10591,-10119,8764,7294,-8692,5446,5471,6287,-11306,6968,-3290,-9917,-8147,-1744,-5462,-12457,9836,2193,8087,36,2157,8283,-7346,7382,-11967,7685,1261,-9912,8318,-4838,-2490,-5444,-8123,-988,11973,6466,-2865,-4597,-7371,1519,6372,679,12270,-7857,10925,11630,-5475,1829,9927,-10287,9930,1109,-11653,2397,-10959,1251,8886,-11198,3837,11054,2952,-10269,-11526,4654,9370,-8621,-9318,-4383,-20027,6054,-14685,-13426,-3893,504,4369,610,-10124,-18026,7955,6001,1914,812,4699,-132,-13926,7437,31186,836,2781,-6495,-7442,-4847,-442,1807,15375,717,7128,486,74,5769,11136,23230,14652,963,-18691,-1533,28436,-738,-19152,-7893,-7537,-6667,9865,7340,18286,-8846,10128,-17009,-17842,-4736,-5331,2441,5259,-7608,-3212,12843,9282,15078,-670,3496,35536,9371,-24167,9897,16718,14706,2154,4776,44970,4613,-5238,2467,5270,4316,7592,1300,-1658,-1996,-10937,5869,-1392,5103,-12389,-14065,14003,-8777,2401,4600,-6493,7412,9869,-5845,-5577,3304,1965,-8126,13723,19042,17986,5564,10493,-10337,10350,8326,-14474,3276,-1325,-14702,-3474,5181,10130,8465,-12448,2927,3207,10792,-2864,10721,-6966,10008,4910,-2867,-10045,-7551,13980,17834,1122,1200,8954,-4665,-18112,-20310,6767,15933,5617,-331,-6065,-3902,315,-4089,-7262,
        -2394,-1834,12849,13115,-2064,-16528,6533,8009,-204,1675,-15621,-10638,1899,-1018,-2120,-7890,-8112,-14797,1719,15965,111,-1580,-4973,-3611,-7947,-3918,-16428,-3323,-1111,3041,3486,-21719,-17658,-6761,3098,2024,-9061,4837,-8203,-3262,7502,-5589,-6000,-6936,3654,8720,447,-4041,1833,-367,2725,7682,-3346,3153,9660,1382,-9874,9040,11411,893,4454,5116,4334,2766,10637,-3289,11308,9063,-10670,11885,2075,-7187,-7261,3640,-9486,3816,5656,-4033,7625,-6390,-16120,1534,-9753,10358,727,14290,-1703,6730,-6727,-22718,13975,16385,1514,-10978,-9811,-11728,11531,23134,-295,-17633,-6430,10900,-5274,8692,3601,-10919,-1413,14434,-11686,4122,-11240,-3003,8090,-313,9516,-2757,2118,-1234,5944,7190,9306,10224,-9150,-2778,9748,5067,-10353,5699,4643,5014,11138,4119,-7422,10427,-12832,-6280,-2618,-3333,-4107,-12492,4606,-4915,70,-10651,7098,-5480,-4419,-8001,-5040,5043,8889,7257,-9354,-3666,6292,-2071,2968,10288,-7503,3996,11343,7685,-1084,-5663,1901,-9465,12473,-4240,-3625,-9722,-9509,-10400,1765,8566,-3134,-7771,3114,-216,-2319,85,-6701,-9955,-1835,-9121,-9848,6169,10689,-10243,-10391,-8312,9826,-5800,6128,5778,-5066,-11512,6093,-1497,-8214,10957,2600,6597,-2627,6320,6370,502,-9358,11073,-10556,-11000,-3790,8411,-3077,6111,6881,-4502,-5189,-979,-4334,-5642,3124,-1684,-1240,3380,-1709,-9620,5424,11201,-4979,-17247,-1876,8825,8573,-287,-5713,-8688,-5518,92,4849,2549,9465,-10208,2336,11942,8115,3678,2079,7130,15911,2714,28256,8275,-2267,-12984,-14862,3087,-5847,12477,198,-5597,-9773,-7659,-10077,-9894,8825,-3190,-19859,-17162,-8846,-2981,3266,1363,-3401,-2158,12750,3870,-14122,1759,1517,-1470,14870,20405,-34990,-23446,-27736,-28294,-17160,13053,4217,-709,12208,-573,-3526,176,-1741,-2419,6482,468,-4205,-4838,-20192,-16493,-5224,9168,-5289,3746,-14996,-12998,-4963,-5779,-2238,-1500,9098,-7467,-15593,10589,-2683,3896,14045,-1889,-1907,-5404,20187,5508,-4917,5605,-4136,-960,4935,-2449,-5501,-5575,-10421,8237,-4787,-6155,-14403,-10910,-5080,-1575,-19258,-24380,-131,-1419,-3857,-6338,-13907,-16429,12557,-4472,-1640,-172,-6060,1865,5396,-127,-10137,-13626,9090,7762,
        -1719,-8093,-4739,-1666,8214,7384,27715,9080,-915,1992,10479,2833,-7175,-2183,7314,-10729,-21986,-27989,3905,14259,21898,-7297,-22733,-2177,-24006,-459,10032,17482,-563,2201,8436,-3781,2191,12738,782,10177,1089,11806,-8772,-2013,-5981,7676,-11459,-7098,9643,11297,-9446,8532,8661,5430,-2342,11669,11028,11198,10464,7052,-4555,-4614,-3305,10543,-11609,-7568,6685,11393,-303,1613,6335,-4206,-2550,-4041,-2626,5135,-7446,-5175,-15289,422,12499,3134,-2286,-3594,-14974,1118,-390,10720,-515,-9559,-13355,16563,14621,-17197,5404,871,-6116,4607,-2687,4262,19086,10585,16102,21296,10543,19788,-8639,2312,5680,-4434,365,15635,6877,12422,3943,10979,-5384,-6605,-3700,3688,2519,3723,5323,11478,-5028,10582,-1433,-652,10464,10379,-7928,3052,8204,7075,-5542,7978,-8313,6936,7487,6474,2117,-1627,-9601,1978,4052,-1938,9761,-11030,-12514,4148,7147,7124,4064,-1088,10,8740,-4228,-6814,-11709,10753,-8753,2584,6845,4004,10710,11451,-5465,12664,-3984,-3357,-113,-3459,1365,-9993,-8416,-3938,-6823,6194,-6630,1632,1734,6643,-9905,-7455,7194,8896,6752,12024,-3932,7404,-8554,-3236,2101,-11178,-3287,-3365,6628,-6939,-944,-6284,-1169,7518,-2946,3570,-9539,12339,-7197,801,10924,6514,-4871,2963,-8288,-11462,-2430,826,-7671,-9561,-5996,-2730,1427,5291,-11769,-5712,-8461,20718,3108,4415,-10047,-14866,-12772,-6731,-18558,-14546,21786,-15569,3752,12875,-2261,-12304,7132,476,-81,10358,1413,4593,7259,19722,21162,25898,18257,25106,-3110,5568,11540,-1784,3035,2822,-6593,-15534,17213,28386,8446,6775,10475,6476,-4541,2781,866,3030,-3882,-5881,-5958,-740,11197,4154,-5559,-3522,25164,6190,-8693,1695,-14418,12151,4318,-28628,-2763,-4138,-210,-20250,-9134,-3611,2875,-11753,-4832,9239,-4662,18210,-2342,15872,4169,-2164,-4749,4687,-25638,-12654,-7136,-17122,1238,-13516,-5411,2588,11065,965,-15043,-8576,15598,4810,2606,12467,8134,3606,48101,10715,-2489,8074,1497,-6574,-5710,-1280,5103,-7466,2112,17613,1338,-4933,-13472,424,17225,685,1644,5480,-692,-6128,-18030,-26164,-6580,-17404,-25314,-16907,-11472,-10549,14389,6248,-5179,22429,2843,8030,16193,4667,-1694,-4997,-8991,12888,
        -10993,-17245,-18050,-6328,-14059,11096,-11936,-6747,-8018,-19102,12003,10061,10214,-7468,-14080,670,3266,3467,-11922,-25188,-12245,8193,3689,13937,-11177,-1861,-11570,-4587,2932,9007,-12539,-3784,564,-1223,6001,5262,-1189,5773,4109,-4446,6666,-2058,5818,-5493,3713,-8562,-9869,-9716,9039,-5348,-5202,-8961,6102,2404,9300,7873,5666,-791,7751,8507,11166,1673,-4422,-7549,-1854,11346,-9664,-8088,-3396,11338,-9425,-7364,3404,15133,10327,-6844,-6802,-9870,-6061,-4416,23738,7273,-6459,-3320,-35,10408,-3705,6677,-9635,7159,18989,10338,2167,-16689,-6706,-17407,-22005,-5995,-2719,4617,-3220,1852,-4575,5429,2057,-8719,1350,3532,11989,11716,-2975,-2703,3252,-4891,632,-5300,10909,4502,-4135,-9435,-632,-4076,6103,9573,3195,-8843,1038,5553,-5750,7408,-3498,-11133,22,-9810,11615,-7816,-11361,-11349,-4127,-5048,-11866,598,-7117,-11883,-11363,7911,3787,6056,935,-611,10403,10891,-2842,-12145,3146,6476,-2521,-1154,-9766,5666,-3794,8888,4865,-6381,2257,-8729,-485,7308,-2548,6108,724,-4405,-3877,1499,-11455,5490,-7874,4280,11740,-3559,-4421,-10336,-11155,-4659,2635,-11602,3822,-9256,8994,-9222,-4418,2990,6400,-8565,9192,-12082,11391,4703,-8055,6634,511,9753,11664,11210,5548,8736,-939,-8066,-2002,3005,-11903,-7597,3865,-2506,-10068,4351,11252,3821,-3277,7635,-7602,-5353,10129,-3837,308,4799,10678,8642,5702,13993,821,-12966,9719,3314,11040,29125,9705,-4304,-2945,14815,-1149,4065,11447,-3085,-6483,-10006,-8285,-18868,-9160,-3339,19104,6005,14328,11860,1227,-10474,-5933,3407,-4334,2889,-1646,-4376,1816,-666,-1095,6847,3198,6994,-25270,6905,-6283,4563,3522,-5220,-18715,-23065,1123,-2965,2617,12644,5839,14967,10475,19066,28331,27926,22083,39011,15209,3031,-5911,-6542,1774,-4079,-9215,1135,-8651,-4522,-2592,12633,-20271,6916,-5707,-4464,4519,2203,20601,24756,-2709,4204,-13374,-17419,0,-2176,10711,13726,-9930,-7643,-19696,-5319,3577,-764,19276,14824,16586,3681,2176,-245,3603,-575,-2607,9592,-6329,394,8144,-2341,7290,14156,-8042,-2963,-2999,1359,23466,3113,10112,-13934,-736,-16554,-23108,-3346,4814,-5670,-11688,2094,-6575,2614,-8206,9790,12862,18457,
        5535,1737,-2710,6684,-515,-15403,-10363,-3718,-11044,-19267,-3830,-12408,3356,-2420,-4760,-8626,-5934,15192,203,-22314,-17058,-12325,316,11110,-452,-17412,-9629,-7718,84,15039,245,-8844,-299,-6959,2590,-814,11056,-629,-10108,10051,-1708,10498,-5924,7341,3200,-1955,4401,275,-3976,3427,12241,4158,8510,-4560,-9994,7615,-8102,-9073,-7012,8683,-615,4176,-5046,12181,-7331,8476,-7140,4294,-4517,-9285,-4039,10803,1180,-5977,-2663,7825,-12163,-3751,3003,5131,-3145,-19,-3080,-5027,457,-12719,1050,10925,-3749,-3401,-16128,-14106,-4558,-7628,7301,-15703,-36405,-51463,-15260,-9054,2924,-8241,-8170,-25983,-7323,-4283,-8925,-84,6203,-5257,-2451,-2769,-3134,-59,-8773,-4413,3676,5708,-8799,4497,-6586,-1402,1668,-8620,-10697,-144,-13001,-9552,-5108,3207,6312,-5699,-6386,-6921,3390,-1132,-6347,-11955,3887,-4436,7438,-12702,7755,8379,-7708,6258,9223,-1073,-10127,8584,-1668,-10013,5460,5232,-2633,-4189,-8704,-341,10811,9168,-10355,-4487,2340,-6305,3879,3518,-573,10622,-5556,6511,1082,4852,-2125,-5442,6501,4009,-8012,-5150,-1022,3536,2396,6658,-1553,-2575,3518,-2438,6629,-8544,-12929,6736,8684,10437,-12534,-1690,-312,3320,-4563,9028,2254,1251,-11051,-3109,-9473,1370,-4349,-10387,8309,-6802,-11570,6820,-847,10245,-3766,-10680,2527,-10450,5548,-4516,3040,-8738,-4931,2136,-4266,5599,7472,11766,9747,17084,6275,-1199,412,7443,11204,-8248,10912,22599,12375,1924,6500,-6307,-20776,14250,7391,3265,4068,-20060,-12203,4219,14905,711,3644,-8289,-10108,8044,13935,6889,5462,2565,2016,-5053,5904,-5927,3646,-1400,-12313,-2353,12075,1548,-5501,-2192,-6256,-7365,4279,-129,4069,-12754,6814,-8087,-12540,-8432,882,449,-731,-22019,-38867,-20636,-23920,-25863,5351,10895,3728,8342,4317,6419,10552,7128,11656,2897,5221,16400,6531,14678,6104,-377,-5565,10812,15993,-1889,1007,644,-6675,-7071,2361,9949,9900,-5586,-3803,-9171,-12467,-4888,-18064,-671,6737,-284,5857,41,18290,13346,1656,-12376,7210,8427,4551,6434,-1674,-6859,12781,-4408,10037,-2083,-5574,-8196,-1862,11022,16176,-7569,986,-3524,194,-17287,-3325,-6235,-4960,9912,4843,-9346,-22015,-606,10055,-10483,
        13354,13191,24181,28308,18671,-7652,22614,9844,11429,6342,-540,7987,13254,-5581,-12461,-4096,10854,26263,13897,7279,-240,1159,12376,-5301,13455,2339,-2042,4105,-12606,-18143,-5928,-15788,-16655,4268,-43804,-24307,-12241,10529,-9963,-12452,10669,-1151,-7262,1214,-681,-7560,4333,-2268,-10847,-3998,-8559,-1903,7066,0,-3384,5283,10174,4070,5815,-3534,-5858,10627,8616,5795,-8076,-9652,6645,10745,7598,8628,-3870,4758,-10755,-1249,9676,-13385,-7927,12545,3921,-6104,-11599,-18056,-13434,-12422,-2359,3835,-2252,-29411,4454,-2003,-12496,-4509,-1419,-19484,-4569,-14863,1400,1810,171,7779,21300,9689,-3566,-6023,4000,-21115,-3212,-11225,-11483,-5096,1190,7014,54,9061,-3462,-7920,-2714,-7072,-9404,-1353,6926,-2576,8514,8629,-6978,2969,4662,8489,-7947,9859,9227,-994,8164,-56,-288,-2505,-8582,5498,12604,3244,4836,6824,-3613,3666,-6639,-1990,9730,-9988,6854,8596,4038,4917,-10319,-4963,-8904,9202,9948,-4833,3667,-3791,1554,3738,-10136,1651,-9651,2237,8197,2679,7096,-3378,911,-7318,2333,-993,-6654,-9901,-2952,5329,-6574,-5897,11451,5657,12214,-3064,589,-9840,1073,-952,-5616,12288,-6857,-1953,-312,-4314,-6001,-8584,-10037,4618,-3236,-9470,4665,90,-102,-4254,-203,3478,9503,11443,2487,-4102,-7278,12180,10324,-5771,2966,-1854,-17259,-5306,-4373,14958,-2385,-5640,-9070,10981,-3273,5998,5941,-6108,18650,4441,-4233,8969,5893,1522,-4790,9919,2832,4479,2833,13583,-6415,-1409,1469,2660,18452,5473,16078,5614,-914,-3023,24129,21434,-7200,-8614,-8968,73,-8833,-23828,-4069,-1404,-1598,-20202,-7884,-2604,-2406,33734,-846,-25109,-16029,971,1573,-7006,3537,-4048,-24529,-26603,16093,1603,10590,-17342,-19229,-6886,1263,-692,-5721,13085,-7651,20382,-13739,979,476,-1525,2043,-8303,-18471,-9462,5516,13695,11431,-27271,35188,-1298,3519,-11046,2436,2651,14573,8689,-12926,-14713,-12104,2760,4820,14483,-163,6538,1540,685,9820,-6654,4527,513,6993,-32,-6768,5254,3753,17833,-2002,-23703,-11158,16540,3199,-4328,-5239,-11417,17817,11526,5341,-18901,-1237,-20404,9166,5489,-8266,3717,7006,10582,3144,4971,978,-5184,-720,-2277,5261,7012,2104,6568,365,-7838,
        -15317,-21262,-16182,1989,5282,4829,-27265,-15994,-4720,-15124,-7781,15342,10923,-18839,-9888,-15847,632,-11350,-16785,-19648,-18886,-12479,-5448,-837,-7303,-19512,270,-12404,-7651,-6224,-13114,-18703,1374,-3129,-11577,-6815,-503,4612,-2392,4430,-3543,-9604,-11068,-3711,-4952,-10476,-3082,9820,2259,9489,-5832,-3267,4218,3696,5883,-376,-3134,-9410,6377,5409,819,-5830,-6648,-198,9818,13394,-8594,5915,-8830,-9791,3493,10952,22041,21681,-5036,-4284,4135,-5937,10416,1116,-6779,8541,-3352,-785,-5449,11922,-2255,8315,-1679,10309,9555,-7823,2113,558,-2739,2076,-2173,-4976,-9798,-14941,4503,-8798,-1963,-322,5905,10147,663,-15286,-3771,7559,-7184,-10587,-7046,5069,-11077,-2807,-12810,7451,1296,-3331,-12231,-13314,-2406,-10809,-2541,-12014,6435,-6453,7184,-3886,-1761,4688,-11109,3109,6702,7389,-3983,-1916,3005,-201,-12969,10316,9811,10148,-8153,-5453,4857,9471,188,10038,-1261,10962,-6780,-4819,-10611,-10935,-10304,-10744,12741,8560,9772,-3476,-9956,-6049,1095,-10413,2593,10642,1316,-10375,9005,-8366,2254,-9300,3181,61,9034,824,11009,10098,-8849,7470,1981,-3339,-3594,-9948,805,-6935,-5085,-618,-4985,4152,7282,3254,-10863,-5229,1806,5843,7329,-492,-2742,-4148,-6799,9685,6569,-2005,-6220,11165,3919,-6579,7932,-6903,-8070,-5582,-12070,7454,17203,699,-3985,-4577,-2028,4659,9197,5032,10341,4471,-1003,9432,25441,3385,5024,11301,-9564,-7955,3952,14398,14879,1560,1298,2271,6910,831,8060,715,11106,2548,-6606,-8002,-11070,8063,9625,-3028,18223,-1056,-17027,-16516,-20319,7819,-1530,5126,2357,-7950,3328,-25441,12694,23924,20602,18171,3002,-8306,-14542,-10021,-11599,-9628,6350,10140,-296,-9056,-1074,2986,-14562,-9707,-11841,-9797,-15621,-23199,-19844,-13810,1667,-1141,-11735,-13762,-6638,80,-3525,-1331,2856,-8214,-13826,-2911,3180,7440,-5943,-5496,-1538,-1783,24659,14365,16493,6959,-5034,-8252,-4821,-18315,-11407,-4677,-5893,16655,-13125,-11780,-12683,-1495,-1099,-7329,8967,-2166,-3203,-11340,-6883,7521,-5743,-12722,-6940,-9597,-1646,9433,10083,10483,-7447,-2038,7889,5784,14413,5502,6314,405,-1612,540,-9264,-14951,-2032,4076,-5981,-11296,-13575,-2930,881,-1362,-360,-9325,
        181,-2596,33468,17444,-4165,12202,6218,1405,9545,8539,-9896,1210,-243,7126,107,6262,11982,11722,24407,4798,-4780,-7839,8087,1598,12986,633,-17932,-283,-2440,-14300,17254,-3727,-10386,6371,5674,-7356,-765,-2896,-8081,-7486,-4394,-2569,-3421,-9130,10818,-8923,-5060,-4008,7075,6480,-9775,-5493,5172,10301,4238,-4569,-830,10091,-5970,-5791,2096,151,9631,10295,-6393,8534,-4892,-10997,6226,-433,10783,-7881,-8304,-8787,6773,-7137,8217,12614,-11983,-7067,-2872,-11180,5509,-9197,22,-5505,8002,-3562,-3666,-15083,-4543,-11278,-9396,-6755,-870,-4450,-15846,-26738,-4710,-5598,8113,18752,-20785,-23000,-18081,187,-3883,17452,-8018,9206,8092,12233,4369,737,8938,-11648,5917,9240,3504,8541,6531,480,11927,-7892,-2611,-151,-3939,4373,4926,11300,-9006,-1534,-9962,9012,3005,5736,-9112,6562,9938,-5453,9802,-5762,-1272,-5277,7494,-9634,-5265,5100,3151,1323,8024,2245,-877,-1370,-2429,5929,2667,9769,11917,3507,-1492,-1374,-11489,-8091,-7417,-3507,-10219,-2395,-9711,12098,8454,-9005,-6512,-10055,2313,-7328,-1092,-7143,3008,-10962,3965,11229,10341,10843,10946,-1848,2918,-5438,-10784,-6468,-11167,-3490,830,8941,-11034,3521,11786,4203,-4958,-6363,2279,268,-3214,1377,2497,7947,11566,663,-9130,4957,-30,-4035,8704,-3067,11176,11994,-1178,-3224,-8455,5431,7190,-6335,3593,13414,-13193,-4351,706,-15588,-1571,8490,-2130,-1797,-4686,2864,970,13648,3646,582,11398,7843,-22370,2282,7923,6800,27929,19726,1502,15032,3853,7552,27657,18691,-21562,-8335,-18611,-9239,-5969,-3432,-4703,10598,11025,-1454,-1821,-4720,12548,-4793,24740,-523,4537,19911,3354,-17445,5162,2969,2691,4401,4376,-3385,-5792,-18973,-3263,16660,-1779,-9475,-15704,-19220,-11911,24917,-4753,-10331,-4474,-2907,-5184,4577,3603,-5840,5172,3996,-20299,-6280,10301,2913,3315,10332,-1237,1033,8450,10992,25635,-618,1494,20443,3018,8862,11206,5053,6770,2305,5450,-2204,-5730,-107,3388,11469,-10172,-20901,3057,8458,2826,352,4965,-1248,16188,-4896,-6271,5376,5754,-3260,-6993,13639,9100,-10787,-593,19877,7765,3144,4698,-2606,6352,-2111,3053,-7597,-827,-10413,6588,-9600,-425,5156,6638,11875,
        -5302,-4389,7415,-4705,-4649,-46,-3677,-12062,10245,-9795,-2169,-1089,-317,-12966,-3825,4063,5707,6932,-6376,1940,15300,3908,-11067,-10348,10444,22396,9387,-2112,-5991,11235,14306,31748,10482,13283,30522,13895,4102,-3253,-211,10508,-2880,-1397,11128,1190,123,-1089,7853,-955,-866,10359,-10776,6222,-11105,3797,-12250,-10529,3805,552,4808,-6968,8822,-5492,-4179,6873,-652,-11563,9133,-4245,5493,8127,8085,3766,3963,-4744,-3000,20070,8493,-10532,-246,-3832,-6134,-456,4446,-31,-8965,-24692,-10231,2551,6789,4277,-17997,-21157,8018,6938,-10653,4498,-13828,-23289,-516,3760,-2479,7658,-3409,-3908,9071,-2926,10468,16794,-3721,-3234,-980,-4240,10872,10199,716,8124,-3812,6694,-9264,2898,2935,2265,2987,632,-931,8848,11907,-9056,9587,-8593,3496,10853,8133,4061,-11595,-11556,-9153,-6808,-11354,-6835,-3841,4328,-11031,8186,-7635,7000,-8067,1779,6867,-7516,-5497,-8088,-3881,10442,-9248,-5721,7532,-759,-5059,-11769,-10502,-8931,-5674,-8945,9755,8828,-762,11262,-12431,-1545,-8551,-1832,-1027,-11657,-10110,-1438,-10832,4941,-2372,-10972,7086,-5470,-244,6662,8950,9868,2189,2382,-9899,838,2633,6749,11481,-5597,8731,-9211,-3251,-2949,6276,192,-5725,4301,-6604,-9596,9152,-2662,-5800,-4706,-1776,8207,10522,10165,-2750,8703,-10872,-733,-3366,-1523,-7381,8650,3929,-4711,502,21222,-2375,-2460,564,-7323,706,9690,6764,791,3353,6428,1784,4718,-7515,-3633,22223,33351,-15280,-23344,-4781,10931,25983,29911,-9071,-19729,-17458,-161,4468,-316,-343,1932,7993,20737,-7262,11453,447,-13103,-8508,10761,-3673,3381,-2864,-4895,-15072,100,4893,-2443,-8461,2770,-10159,-2253,26250,18536,5475,5640,-10744,10403,-3763,-28425,21036,33828,19961,21668,14364,-5036,4392,6628,-11670,6368,-3698,-10634,-4819,-3183,13984,-5780,-121,-6105,15611,5464,178,8282,-13242,-7948,2852,-14030,-14477,-5514,7761,-2697,-7642,6565,1119,9189,13107,16320,-5996,4565,5417,21456,11456,-8218,-5330,-7009,1431,-3560,-11940,-4103,4233,-1206,18885,-12519,-14406,-10156,2938,-3734,8428,15122,-10625,-20174,163,-10655,-9704,-3548,5997,-5330,-14821,6894,6981,-4358,-3334,8431,1394,7308,14022,-687,8490,11737,
        15326,7615,11991,-13377,5912,10428,16006,4651,-1464,8187,7678,3388,2577,4929,-5395,10789,-2821,-22957,1200,-9566,-18680,-5150,-5267,-2078,2000,-25179,-12467,-19497,-12350,2124,-874,-30252,6448,2303,10692,2551,991,7946,7860,-8486,-4037,249,-8953,-9965,-3979,-8520,-2835,12843,-9718,11723,-9874,4545,37,-2412,-1833,5272,8128,-6195,1295,-7777,8043,-2264,4323,-6521,-4000,-6491,11631,2602,8158,-3826,-2182,-9567,-3038,7128,8484,-11097,-10599,-162,-3350,-270,-5092,7383,-11456,2810,-1705,-6037,3336,-1417,5332,8444,6080,11217,-13332,-8687,4384,4228,14386,18198,-12553,-11892,-9664,-14282,-13501,-14531,-13709,8773,5808,-20185,8168,8889,-2176,8754,-5064,-4358,-12955,1863,9761,-8146,-5812,-4592,2675,-2603,4802,-14081,9387,-4648,2760,4289,-6741,-10768,9164,588,1470,4413,4220,-5061,-12684,2487,-2630,5915,-1877,-8997,-4941,-13524,208,279,-6094,8618,-10146,-9380,6390,1113,75,8133,-9096,1845,696,-372,5389,-6707,-5982,2605,-4078,630,7735,4925,12657,7355,4336,-2565,-5519,-2375,9669,-7479,66,-3052,-1816,6905,7049,-8555,6715,-340,-8657,-13576,-5782,-3609,4391,5658,-145,-12652,-736,-10641,-7221,-3893,-5196,3232,-8129,3491,-9883,-14128,-2657,7824,-922,6555,4605,-11186,1743,-3543,-2509,-516,-14491,2774,-5090,-13717,3607,-10343,-11976,-9418,3086,2766,3445,-4460,-3088,-14619,-8039,-14754,-9072,-5558,11652,12779,6180,-4534,-975,302,-8115,5569,19343,-185,-1790,-10070,-6637,-364,6998,3567,1271,-5965,24327,15229,9749,229,-2324,3352,3651,-7398,-23386,-13329,-6338,-4534,1722,22112,7862,993,-5017,14941,-27990,-14463,3786,-5430,-16392,-24017,-2296,-19733,-15,5633,10297,15821,4328,3755,3352,2125,15206,9671,-12459,14019,14851,8550,-8784,10435,-18527,-21184,10927,729,-7491,-5629,-5700,-3072,-6055,-10645,5446,-2417,24332,14470,-7727,-4873,-6078,6523,-9098,5203,-2384,9839,-7047,-15158,7668,3088,-6689,13930,8727,10885,27456,10539,-2385,-7830,3636,-12843,-6926,-13858,-3927,-2558,-814,1215,-13843,-7300,-8886,-1157,-1050,430,7406,7248,-2295,-11960,7030,18186,-11492,4455,-12697,4029,-10262,-6381,1209,-16371,-17737,2821,10212,-13980,10552,-10164,-25939,-5131,-12487,2685,
        -4943,1119,1059,-4475,3637,8777,10958,15046,16185,9097,-13095,-12593,6773,5369,12627,-5901,-32118,-28983,12436,17944,12184,-4720,-15260,-485,902,3021,-2358,-1539,2906,-238,19438,12559,-18245,1156,9175,18166,-343,-5005,4441,8038,6317,8054,-7593,-8804,6565,-7527,-9708,-3649,4765,5486,-9983,11975,-5011,-3237,9446,-11278,-4696,8500,-10624,-3962,12191,11184,5753,8201,4647,2471,-6077,8677,12118,-8279,-4885,-9132,2783,-1363,2647,-852,6568,14913,1170,13098,-9606,-5657,12490,7927,9507,16679,8281,-3294,2098,-5268,14576,21309,5115,-10145,-17697,8117,3095,15460,6713,-4831,-3485,2466,-553,8302,4749,-12396,-10075,2814,-10611,5957,-10094,3384,10390,5744,-2523,-12726,1838,-7847,-4151,5029,-3787,11181,-12471,-2587,851,-11237,-7970,-4071,7613,2418,3944,-11618,-902,-6533,-11354,-2225,-10938,-12512,576,-11242,4668,-4188,-3517,-10934,236,-5301,1426,-10029,-1450,7817,10151,5822,-6929,-6247,10433,-4287,11032,510,274,-8328,5080,-10171,229,8293,-2295,-9090,-650,10642,3792,12480,9652,-5608,-4697,-7078,998,-5922,-8779,2357,-114,-8668,5989,8421,5894,2787,6859,-11926,-6008,3577,-10053,-1664,-1629,-2091,-12409,-7670,6661,3548,-10830,2062,-1344,-12273,4735,-4952,-9181,9142,2831,1024,5093,9603,-9338,7190,4153,8007,-8762,3006,-1514,1311,-2749,8045,-2778,-9013,2699,3929,-2997,-1553,-1939,-6190,-16182,-16355,-3780,-18263,-3543,111,2719,3163,5780,-9266,-11719,-786,4959,17146,2984,4714,-3544,-4640,13982,12379,10066,6129,-5575,-11945,-11641,-9324,-10461,-9018,-19071,-13024,-13953,-2124,-151,-12159,3608,1513,-1045,-6005,2500,13117,-10762,8047,7055,22457,6857,16457,-4482,-16968,-12805,13786,9181,6639,3106,-19383,-25493,-20267,-5941,-32238,-27945,-12530,-20212,-39331,-14182,-13278,3008,-7028,-4257,12706,-1547,-3275,1563,661,-1607,6455,-22121,-24505,-7781,14045,-926,-10147,6133,2720,2250,2856,-3932,-6038,12915,4736,-423,-76,-3778,-2000,16350,-548,5661,-16685,-2646,10765,-14444,-13449,-5885,7245,4815,12472,-9300,-18313,5185,127,-2931,-3087,10001,276,7976,16506,-2568,-32780,5160,11522,12505,-13000,-9102,-3798,6719,8154,6297,-17534,1987,3766,15486,7239,-194,-13689,-11132,-4058,
        -8710,6865,3359,12604,19187,1356,12382,4689,-9689,-7861,-19478,-5338,3293,-14151,-1480,-16451,-30473,-28590,5117,-10356,-403,-14861,-7415,1282,-4137,-1835,4702,-18371,-1929,-1520,843,7720,1961,265,-7823,-20120,-2252,4260,2048,10242,11663,79,-2283,-5708,-6063,3356,9117,-4163,-1611,6660,1704,3771,-2672,-8349,-887,-6966,-9314,12276,-5680,-3012,8403,-9749,-9972,-10895,10282,-1288,7099,11757,5626,-3593,2302,12921,-15281,505,-6620,-3890,4310,16677,-1631,5917,14681,5634,-1434,2779,11730,8821,-5256,-8777,-5892,-23500,-11780,-11319,-7901,5312,-2914,-12580,-17159,-30733,-1745,6251,-3632,-2328,-21634,-4519,-4002,1491,1239,-8645,-3511,8013,10410,10687,3062,1463,10718,-11082,10814,8213,-9872,-4890,-2956,3887,-1904,3010,6543,-12078,6566,1422,3357,-8519,8348,-6800,10713,4907,-9355,8300,-12870,-494,8039,6442,-12907,7312,-1497,-9180,5,-8050,10670,9713,-7010,8304,8178,-5605,6955,-4955,-10305,10045,6908,7400,2387,3021,12776,10859,-8751,1164,7751,881,-10984,27,11211,-7961,-10017,4422,-7475,-11094,-8336,-10700,-7522,-9641,396,1671,6678,9302,-1742,-1781,-3053,8096,-5961,-1084,-1848,268,8272,10565,-4798,10259,-12579,-2031,-5223,-2970,8197,5851,-5248,-2198,-3399,9309,1937,-9009,-10872,567,6164,-11608,3767,3500,-4517,-12557,-4500,-12512,-4194,-2508,-139,-4414,-4234,-9409,2163,5030,-6544,-12348,-28352,-20875,11219,7662,8971,-6331,-5771,-23633,17407,8305,13044,7408,-7989,-16518,-24045,-11541,-60,11040,10484,-8354,-12342,-6855,-86,8286,-12747,-14199,1179,791,-8249,-24429,-7144,-20334,6082,8554,6217,11914,-1261,-14070,18622,21993,9162,8378,1248,26783,-4849,13201,-4001,8617,13785,-2242,-9296,-6790,-9702,-13227,4907,-7407,13324,7787,13080,2794,9782,14299,6488,-8513,-2697,4411,-4053,18958,5870,7119,5706,-8272,130,4420,1707,15963,8700,2570,-5688,-5822,21323,20764,14005,-6437,-5858,-546,-2335,3190,5480,-1672,3319,7042,-220,172,-1896,-1230,-1300,670,-6130,-2922,-920,-7479,12588,31034,12943,12865,-9733,-3417,12917,22782,14402,7264,-1242,-5868,-17178,-29564,21792,4635,3414,-13212,-17595,-4345,-7787,18,-10807,-1028,-7049,8955,-5851,4002,-7593,2735,12072,-9843,
        -9506,5187,6846,19457,14717,24075,-5949,-6710,13498,15188,913,14390,-14769,-12600,28421,12829,-8251,9034,-15173,-14861,-8360,-10409,-7184,-5658,-24422,-12090,-23702,-22412,-3587,16429,-484,-38099,-32419,-5275,32880,22690,6689,8113,11055,-7236,6860,6566,2716,11741,394,5196,-6666,-2883,5235,8319,12862,11252,8396,-9464,-8965,2839,-7742,-4322,-2030,-3615,3212,-8569,-4442,793,2446,-1542,13382,-8002,-5612,9763,-3514,9517,6538,9571,-14341,5729,10692,-129,2897,4040,3935,1462,15659,-9063,8671,6925,4753,3448,10276,914,12651,-9061,-4216,-4120,-5485,8978,-7987,-9831,-1874,-503,730,18189,-5723,-5755,3812,11157,19433,31171,-796,-183,-13254,9065,-12726,-9333,828,-4114,-3623,5327,3657,5906,10158,-12010,4972,-6035,9022,1818,-8026,-2092,5102,3018,-2572,8995,4953,-1318,2378,1646,-11329,-5105,-1230,-6220,928,6933,-9751,-6653,-8500,-1533,3577,2081,-8446,8194,11998,-297,4394,1198,-7435,10999,4233,-7451,7758,2041,1471,-7144,12706,-9755,10164,-6495,2520,-7136,-6914,8099,-3156,-5430,-1848,7290,-4696,1945,-4263,10457,12993,5384,-9741,-10381,8491,6074,7643,-13379,3220,10585,-12477,-2554,-7677,3996,-2430,3858,-5217,9134,3044,4872,7851,7067,-7781,10671,-5579,-1201,10387,8948,-7,-13179,-1083,-13370,-4620,5151,-12121,-3180,8477,6812,585,1093,-4702,-4044,-5878,-8930,-647,6913,-287,-15154,-19062,-9987,-10324,-10648,3208,-4087,3563,8467,5908,1648,-8403,1097,-1462,18901,1224,16880,4853,3511,26064,22245,-2147,-8241,15929,1414,-14631,-31721,13656,10255,-6027,-9058,-778,24528,-90,1782,21873,17456,11708,17171,7573,4055,-6706,7870,-9758,391,11674,16293,2597,-1012,3961,10642,-10084,-5016,-12389,-25052,-23759,-35539,-5132,-18437,-10781,28860,101,-22801,-160,6698,-7333,-3965,220,8884,15295,-2754,2241,6084,-5168,2241,-32309,-6980,2267,-2708,-2341,-8771,-5065,-5949,-3391,672,10224,-8618,867,-2822,3599,16472,10955,2899,-7568,-11300,-11963,-16625,-1159,4868,-3076,-8939,3236,-6361,154,9467,6114,-7866,4944,3741,8917,-1809,-3289,2435,923,8489,-12603,-1754,-5894,1145,-3472,-11178,-1575,3740,-2677,-554,-13929,-6115,629,13641,-13510,-8627,3599,-1610,-1341,18318,
        -8460,-20267,-6099,4636,-1066,465,-13247,-1366,-1662,-25247,-1829,10552,-6074,-8616,-11729,2534,-23113,-17698,9360,-14404,-1056,-3127,-11532,-17520,2895,5140,-12745,-10403,-7596,10172,11375,12831,-192,11317,-9855,-23049,10539,8407,-8579,-10435,-1836,11212,10102,-2590,-11956,5576,5165,-9791,-7823,8593,-10945,-856,1937,-9507,8204,11329,-321,10813,-12169,-856,11804,-3547,-8783,-7558,10829,5940,-3397,9811,11757,-10075,-9302,-5363,1010,7453,8024,-2418,-924,11684,-3864,9559,9381,924,5053,11540,4454,9992,15526,10016,-5237,-11354,28887,27,-11325,-5131,-5042,-5748,-14561,2029,-2766,-4121,-10787,10325,-4616,3511,-3007,-8188,-4447,-4302,11920,-2041,-5166,4920,4645,44,-8030,8834,-7204,-5611,4706,6387,9173,-9921,-6389,2721,-11742,12154,9454,1636,7130,-4789,9637,-112,-3122,-4936,-445,-9440,5205,6597,10834,10623,5966,-9592,-3093,8057,9976,-6373,11144,1568,-10796,6054,-12754,-5982,-938,8946,-11814,1843,9190,-1497,8704,643,9257,-2170,-1229,10767,-11951,-3085,3246,-9381,-11978,-5262,7278,-7206,388,10243,-4862,-2601,2029,9781,7780,-12765,-5695,7577,3724,-9872,-3004,8914,6664,4144,8074,-8845,3551,-5594,8698,-5796,653,4095,-7739,955,-1797,4480,-6863,-1216,-11733,-1031,8827,-9588,-885,-3025,-9042,-3379,1377,-9196,-6337,-10568,-4282,4922,19695,294,-6723,-17959,-3307,-7973,8320,5462,7227,2232,-14499,7555,6384,17177,2419,-3654,4943,10779,7462,9346,6898,-6934,6741,8345,-1903,-19724,2424,3790,-5762,-5745,-5213,-9927,-2281,-6654,15539,30054,13013,2855,-19052,-22483,-11301,-9211,-4183,7276,8503,-6034,1641,-18417,1831,-9176,718,-7425,-11979,2378,-3219,-10857,4802,-12776,-26701,-11213,6702,-789,-7921,-208,-7417,3607,12750,14343,34927,31763,18336,43766,311,-4710,-7549,-2484,-9845,13709,8332,6032,4101,1143,-28415,-4608,-15967,12951,-2189,1287,-7090,5602,4685,-3085,-17288,-3417,-1267,-12688,-1789,-3478,18202,-7345,-9336,-24377,-15370,-5327,2657,10993,2133,6090,-3957,-12045,-13642,-16315,9441,20739,-5693,1452,-339,1270,-11776,7357,1751,2049,-7035,3405,-10760,-20608,4747,-5155,-12547,-11123,-15047,-12362,969,-10016,-1774,-25701,-13296,-5212,-6245,-1431,-4743,5076,9716,-6658,
        -11495,-3216,-12106,-6374,-5446,-3218,-17505,-15790,-6680,5373,-6189,801,4909,11549,-6655,-3224,-838,-16299,10750,5847,-9561,3952,7366,3505,16724,-8404,-7643,13845,5076,18265,-18620,7697,26552,8858,-4267,7764,-904,955,-9638,8902,7184,-2388,4361,1525,-10485,1015,-7514,8149,4593,-7809,956,-4751,-5059,3064,9079,-8648,9678,-1467,-12809,-3590,6214,3260,5917,9498,8028,4288,-9449,-9661,-9525,8872,3518,-8742,6289,7026,-5080,3565,4368,-4989,-8316,7798,142,3106,3394,-5613,7232,457,13603,8184,-4698,-2359,-11255,16024,-11180,-4877,-4122,-5075,-3780,4731,160,9277,-3577,-2106,11804,11428,-797,11878,737,3896,10008,-2292,-2458,-6335,-10478,3113,10752,3807,-9524,-4906,1792,12402,-9361,-7707,-9349,-4685,-2366,560,-9762,-6900,8848,-5725,-50,-4795,7863,-10666,6942,-10061,9219,-9378,-8881,-8245,-5958,-333,-4543,9135,-3379,-1832,-12838,-6306,5547,4829,-8807,-11082,6989,-7091,2348,10733,637,8128,-7484,-8346,-12239,3251,7987,6321,2286,8968,5108,-10367,8318,7566,8322,8808,8056,1355,10565,-11788,-5361,-9093,-9998,278,-7153,1594,-6983,-2757,-6021,1470,8125,-5379,10454,7194,1342,7160,-5930,-6238,-2776,12986,-6625,-10437,-9046,1911,12535,-4780,5351,4736,-3607,-324,-7623,2796,-3826,1446,-10786,10315,11593,1803,-9758,9418,7602,-13174,5557,-6960,-5547,3197,-3328,-10376,-7249,-2878,10015,12692,-3639,-72,10774,5265,13615,23063,8274,4232,621,5458,-2720,10187,-543,687,9673,-8205,-8888,-343,-8869,-10962,-18166,5192,18618,22632,-8978,-1742,-7725,-2622,3728,-4302,-2968,14666,-3891,-9331,6208,9134,727,-701,-5504,-11333,-16710,-9754,-4178,-8356,5858,3397,-18408,-4088,-5620,-5226,-1199,34628,24337,7384,11954,24894,4113,-6845,-6347,-1244,-9592,8749,1307,-11356,-9338,2087,4792,-2183,-18988,-10689,-6909,-10879,-8442,-1975,5329,-11105,1832,-7560,-10831,6901,-7311,-17748,-7077,-12790,-12620,7624,-2639,1474,-15582,-5221,-21427,-2788,9948,31290,10280,3826,-3144,7047,-6079,-4869,-8604,-6403,4130,586,2208,-4045,-1180,-9254,-18646,-9111,-9714,-3291,-9227,-14573,2725,1154,-12506,-14729,-9105,-16966,7224,-7766,4278,8881,9679,-1598,-12254,-5767,11547,20499,5705,6471,
        -10427,-24405,-13048,5079,8840,3339,-16891,-10426,-10850,-11109,894,8743,3789,6283,-2528,-1114,6680,4206,14464,14051,-15017,-2690,-2763,-14340,10129,10332,-3689,12149,11869,-5350,2050,32567,25697,15947,-4415,-6403,-4722,-2803,-212,-2207,-2155,-10317,7374,976,-2276,-9821,-5504,-7357,1945,-1649,-9709,-10887,-11602,12282,6997,743,-9859,6957,-9652,-3313,6331,12383,9446,-10672,-1782,7742,431,1586,8737,2863,-6243,-1095,-2521,-12248,28,-7528,8714,-978,-12659,3974,-1968,8101,10778,6281,-18372,15225,14219,6599,5345,2192,22291,25132,16903,4232,15861,-968,20354,15781,9266,1787,6390,1184,9856,22669,15767,1627,-1803,-18809,-11236,-6422,7204,8491,-5879,2321,5360,11221,3340,173,7281,10312,9005,3234,9437,5168,-8601,6978,9004,-5297,-8765,1287,8701,10633,9470,527,11906,2721,-5457,-7671,9595,4880,3954,4863,-5453,-3163,-732,-4357,10647,6588,-7117,4957,3983,-6697,-3144,4818,5864,8868,8733,92,9460,-10707,-9948,-11221,6308,-6647,-5215,9935,-1201,-3853,482,3875,5923,12034,2022,9981,-10585,4168,6225,10715,-4426,-10578,-9222,-7047,4457,-10360,8108,-1603,-4768,11898,-2265,1922,-4314,-85,-2186,5717,9697,3485,-3466,-6903,-570,-8827,9314,-2047,-3098,9851,-3771,-372,-4367,8160,-8828,2256,-8284,3867,7396,1522,-5667,-11985,7042,4367,-4680,-10200,2362,5192,4826,3692,-988,7415,-1595,-10738,-3041,-15901,-2637,13644,4237,-7983,12769,-18301,-2481,11988,11521,17335,264,-14884,9836,-12234,2329,8744,-858,-12188,-19727,-16684,6695,9756,-10006,-3193,-8864,4964,14123,-10649,8819,-2301,-9498,-9183,-4205,-16143,8495,26604,9681,8584,-7826,15485,5159,-3141,-8315,-7742,-14264,8946,-15738,3293,5811,2306,-17970,9355,10025,25945,5978,-3613,-233,10471,4233,1547,-6596,2355,-1115,17431,-10875,-1453,3221,5267,-3579,6880,-23346,-3563,-9331,6227,12510,349,8337,13545,13366,68,22703,11554,-195,1476,-1365,-3484,-4814,4993,4799,-4664,13692,16213,-8150,-1639,-256,4066,1307,10555,14236,21607,-10302,5458,9155,8533,-615,8061,-23171,-11536,4936,1691,6505,-1919,13506,16893,9871,3920,9540,-5609,7192,12346,-11488,3954,-2880,-16855,3553,-3282,12649,17192,-8651,-13023,
        -5576,-16070,-18715,-19204,-11673,10371,-18533,-1618,-11094,8088,2456,-10273,-13536,-14610,-7920,-9511,-24017,-35513,-1603,-4510,-5110,7390,-4324,-20840,-5124,-14196,-119,1591,-9098,-14549,926,-7215,14556,-3408,11700,8368,-3433,-6299,11030,7362,-9194,5672,1460,9098,-3285,9412,4153,-10564,5808,3556,6374,-6739,6248,-1162,4304,2941,3879,-5356,2626,6300,6452,-6896,-8061,10439,3112,-2943,-8380,-18,2179,5950,9324,2840,11167,8606,-10308,-2798,-4045,-2521,-3435,8778,-6594,-2776,7205,22805,162,6759,-4747,-30009,-8225,-6356,1292,-6514,-4999,-16359,-5483,-19254,-1858,-9743,-3988,-15222,19052,8530,-347,10751,-1658,7645,14557,11861,-7629,3262,10586,8014,-8383,-1219,10714,-7344,-1370,6181,1183,6769,3100,-13585,3326,-5180,-7188,9916,3615,208,-1091,-1826,-3187,-5090,-2581,-13133,2502,6346,-5562,4654,-13281,8095,-13330,-12139,-7102,-13272,-4813,4289,2496,-3747,-3767,-578,5251,10076,-5401,-8684,5580,-349,-8539,10628,-7895,11046,8407,-5477,11166,-6334,-1574,5760,9547,13471,12156,-10707,11805,-10497,-2414,-4177,-1174,-10085,-10174,10906,-7938,2500,-12453,-1940,1337,3006,6714,-9399,4013,-361,7036,-1751,-10528,-2337,2125,9279,-468,-9880,-1748,676,-6264,-10226,2320,-2036,-8730,7592,-10682,7864,3402,6984,5332,4909,-6826,8756,-12276,77,3059,-2240,14510,6354,-3162,-9474,-4111,-517,4790,8342,-617,2258,-20831,-2986,1599,7205,-4883,-13801,-13200,-8580,-3052,5407,3103,-2602,-4762,-9707,-4224,-2107,3572,-9688,-1606,-2915,9132,4741,-1771,-8608,7436,8514,25732,3802,-17903,-10501,10827,17427,-578,-5525,1639,-5474,222,-15770,1408,471,4754,10825,6003,7685,1987,-4310,-5995,1237,6514,8893,-10236,1553,4770,2603,14102,27606,-593,26604,22607,-5557,7498,31171,18624,-5096,-12688,-2363,-1890,10683,1905,2179,-2047,-5946,-7280,23770,-23046,-9422,-4315,-14937,-208,7947,-1788,2505,-1647,10604,3046,-5233,5282,-13381,-11035,10539,7793,7811,-940,-5919,-4280,-7061,9040,2516,18629,7618,4528,6248,-1815,27275,-554,-1716,-3019,1621,11000,32974,-14811,-6774,-17865,6143,7574,-3264,217,-11907,-3952,1796,25445,-3269,4018,-7056,-20542,8306,5397,-11059,-5124,-3398,-8925,1891,743,-11745,
        8777,6485,-3054,-27392,-10637,11219,23023,23297,116,10888,15148,8977,-134,6606,21077,9146,16103,11338,16856,16358,24666,13570,19097,8500,9579,6919,10630,31586,106,1009,2550,-10089,1699,2285,3038,3530,1918,-4292,6533,3359,-13165,8459,-10418,-7160,9823,3029,5150,-7490,-9603,3930,-11704,5896,-10572,10157,-9903,60,-4937,5632,-5273,9957,-8573,10757,-7226,6292,8775,8809,7472,2082,-6547,8655,-13423,5909,-15638,-12447,17572,-2039,-6092,7025,-4154,-18233,20483,-4592,-15564,347,-1568,-5366,385,-6309,10390,4206,-9489,4040,2196,5136,1348,9284,13664,7887,4811,15374,17087,-3676,-9831,-10165,3841,12003,1730,2550,11279,-1864,-3566,5878,-10623,9861,-4085,-6819,3382,-4183,-10542,-2708,8637,-9358,-2206,-6474,1516,13475,7286,6692,-654,-7780,5447,-9757,6782,12535,12794,8739,9331,-9998,-9791,3589,7865,659,1662,6761,-4367,-12776,-9546,2256,-11081,-7869,-2483,-3209,583,-3328,-2603,8333,-10748,-749,7121,-981,5278,2927,-395,10609,5170,-8149,9345,-10735,-8056,-5927,-6226,3691,-7025,-2397,-13512,-7152,-12380,-428,-13102,-10455,7528,5058,11209,7222,-5354,9902,1,-10758,3121,-980,-6642,1789,3055,11076,677,-1120,-846,5631,-8382,12322,-8267,-3952,-5479,-1864,-7605,8630,-3518,4833,11082,-9470,11609,-8855,2664,1475,-6840,-2327,-19008,-6692,4047,8220,-4458,-8096,6980,-14854,-3327,-1316,3708,-9804,5408,4607,5806,-2163,-6356,13381,-6850,13322,2340,-8373,-6879,20058,-8468,9521,14134,2244,-2,-3349,5268,28809,6615,8169,-9560,-13331,-5562,-16024,7788,9066,2663,973,-2834,6975,11244,6993,1494,3454,4273,18540,-17609,3132,-5068,8297,16094,9771,1465,1548,-11143,-36683,-8197,-2412,-7362,-5206,-13084,-18381,564,-21010,-20134,4800,-8832,-18509,-6098,-2377,9090,1576,-934,-11501,-3957,18599,-15068,-3224,-4794,-3933,13934,12163,-4700,-7049,2484,-4372,-5892,-2562,8591,-13105,-16573,-6020,8315,20909,9886,-9602,1078,-9356,25461,640,-5697,-10546,-7294,-3180,-4078,-13795,6256,2008,351,-1552,6664,-2766,-14263,-11884,-1867,-12659,12488,8088,-3016,14013,-4026,-21635,1061,-5090,-2440,-4873,1736,12574,11391,18325,11112,9378,-1955,12702,-7238,-1836,12719,-9468,-110,15585,
        6051,13596,15734,-13666,-10777,-4102,28015,14737,4488,-9764,-6499,-14096,10720,8373,11507,-8889,-35123,-22697,-17882,-12965,-2626,-520,-10181,18922,-17573,3022,-1713,-11403,-4250,-439,-2425,25826,28120,5520,-21443,-22173,723,7466,-4659,795,2602,-2114,-8453,-4202,6551,-2749,9100,487,5224,11070,7613,-6758,-9357,-12476,3870,2466,6033,677,-12983,-8396,4137,-6144,-3045,2027,-4138,-5093,-11181,-10570,11057,3892,-10816,7274,-16437,-1537,2599,26219,2307,-2198,-1382,14715,9660,9626,2757,-1225,14538,8184,7366,10547,-10953,-14722,9255,5024,235,1966,-13654,-8915,-6324,-5809,2552,-2868,-11702,7148,-10558,-7448,2099,13008,-8323,-13401,-6652,10453,11962,-5475,-4927,-6071,1532,-3065,-5710,-3551,9042,-8319,-355,10107,-7796,2132,-8305,13046,-4863,-5823,2294,-6211,11988,6733,1382,-3685,3417,10521,-6819,-1286,-7718,-4409,10308,-3829,10654,12324,-1403,6605,-174,8691,-3424,8699,8724,-263,7536,-1475,7223,-34,-9316,8400,-3580,3501,2967,-3332,9482,10783,-5386,-11704,858,-12847,11326,-8139,-12256,4499,-7429,8255,6450,7007,2333,-6191,1576,-86,5823,-6611,-2101,-2255,1294,-9530,7354,-6428,-4804,-4248,2635,5640,-4870,4196,-8838,494,-3366,-1911,-4150,-7272,10020,7151,-5635,9279,4840,8411,-7939,5439,-5306,5683,11769,-7097,640,4280,4426,11370,-19096,-12401,13148,6884,-1662,-16563,-8117,-4628,1909,-9699,-14445,-8252,7966,5065,20501,656,-5587,-5212,18666,14624,4493,6254,-5078,-13431,4912,-1898,9587,14340,7401,-8032,-1707,-8350,-14900,-2170,10694,14024,-11226,-5101,5373,10589,-3891,-14457,4328,-5090,8953,5520,9318,2722,-5508,-1564,-11481,-4417,-1616,20993,-3810,9652,-11810,11028,11082,-4068,-4940,-2882,-10055,-2469,5116,-593,25871,42495,24533,9839,3661,31360,-16192,-6730,8709,6913,10402,-2268,-17721,-4398,-7043,-11455,-4778,19126,2961,-12851,-4124,-9007,-3349,2425,17255,-5029,-3185,8396,-3263,-6456,5291,5416,-4987,2233,5877,-5215,-1613,1762,3129,17099,6616,-3031,-6659,-8611,-4612,-1445,-5991,-312,-479,704,-7031,-5782,14347,13746,17173,10885,12262,700,-16065,-20943,8617,6231,-696,6513,-13191,-9284,-12976,-6102,-8553,1159,8763,2454,-469,6420,7966,15330,13174,3644,
        5147,-8439,11482,-1672,-5663,14917,9914,12068,8257,-3952,21188,14491,-1036,-9946,-11126,2612,55068,28046,1026,3105,-16695,-7210,-7125,-3115,2567,-6665,77,-15386,16348,16476,-438,-12392,-2402,7834,10159,3524,-1247,11032,10243,-8227,3905,820,5701,3076,5470,5964,-11992,-10388,3732,1982,-10352,-776,-12663,-5507,-2767,-1436,9192,-10086,-11759,-9162,7284,-10650,-5934,-11278,-6151,1191,4092,11007,-11099,-5020,-7815,5218,229,-7357,5648,4341,-15166,-5254,-7433,-8524,7985,-15478,-769,-4716,-6354,-11802,-4970,-490,13037,12698,-2525,-7253,-4734,-11628,-4026,-19281,-2540,-13581,513,10922,-943,9815,384,-6481,-3528,17725,8452,17992,-11067,-4907,10684,-10466,916,-3839,-2646,-8585,-9848,11203,11867,-3380,3184,4568,540,-8717,5814,12693,-4677,546,7215,-46,-3534,-1476,4813,-9334,-11484,573,1006,4761,-7079,4049,8337,11122,-2417,1418,-8610,-12170,-8389,3118,777,5974,10964,-9461,5350,7684,-1938,788,2739,-300,-9690,9244,8086,10956,-4605,-931,17,2849,-1616,7350,-1190,-2254,-8076,-12218,-11112,-1543,-6319,-12310,5419,-8013,-6954,-4122,1688,9930,-9375,2193,-1415,-3771,-6569,-10422,5040,4688,12146,1447,-2391,-6416,9246,-1937,-2422,-10042,-10540,10748,10151,6745,-9345,3226,10615,-2181,-8234,-9638,-2870,-10450,9364,6991,-2316,-8968,-9336,-9494,4377,3668,-5250,7061,3975,-12579,-755,10759,1543,2866,-1755,-8460,1827,8047,135,-7402,7523,1206,-1546,1809,8766,-1053,8364,43035,-6546,2099,5703,10838,12458,26229,-21690,-15183,2088,11366,17669,35066,-11121,-1446,10009,-5972,6295,-2201,719,3716,-8104,-7248,3928,18787,-249,-20336,4161,-10550,-5629,12861,-14296,-16066,-1150,8728,-8294,5056,-25733,-8036,-3585,32928,25283,17422,-13997,-24054,200,424,-10289,15192,6224,-238,335,-477,-5244,2188,2724,6336,-58,-6308,-5205,-12072,-3099,2739,1918,1031,168,-13448,-4152,-1565,4684,-8037,6854,-10728,-11793,-2449,6458,-3936,3235,11828,-15102,-10296,-12128,-5697,10096,397,7447,-5869,-2885,12029,-3619,-14872,2389,4355,6951,-5565,-12291,-28515,-6724,-5309,-13885,-2433,-9035,1588,-9061,-6828,6163,3778,1690,6297,383,-5851,-9176,2633,-11087,1575,-16807,-10669,-14602,5696,-3435,16510,
        2866,-5701,4717,16697,-185,18809,-17659,-6787,13663,4338,2920,2499,-10463,6696,-1728,9528,30994,32492,33176,-1686,-25028,-11842,-12132,-16502,13766,-193,-16112,6444,15471,258,-2135,-11693,-6760,9133,34107,18452,-4161,-8469,2168,5483,-2855,-8770,-2324,10447,-2990,6841,-5304,2929,-4654,-6566,1202,-9104,-7474,11086,9105,-7579,-1002,-8023,-10791,10969,-1874,9783,6419,5618,-3553,5011,-6552,9737,-1680,530,862,6820,803,12721,9225,-8533,5253,-2982,2087,-11605,-1398,-3938,11674,-12568,9060,9894,11824,-14454,-15007,321,7226,36672,6126,-7406,-4237,6862,4707,-11364,-2085,4573,-5059,4618,-9522,-7951,-4467,3210,2867,2098,-7699,-2009,6248,-1768,8855,1458,10926,5029,-3100,5902,-8588,-7539,3792,-8417,11048,-5345,4174,-6858,4567,-8957,3235,12133,3258,4973,-6379,-115,-9820,-5694,-3129,5636,9072,-11153,8621,1361,-9104,7311,4874,-2132,-4322,-1952,7624,-2925,-1701,-1492,10081,7209,7660,-4927,9509,-4068,-11281,-6408,-11435,-5731,2777,-8598,7932,3810,-3545,8255,130,-3573,3259,-9327,-11476,-8476,10915,-6311,-1991,6326,-4253,9054,3033,-6610,7052,4436,739,-721,-2645,3200,-49,-5196,4119,-21,11065,11824,1426,2803,-7337,3350,-10001,10716,-2830,-732,8992,-2435,7866,6002,759,8001,-2485,-10410,-3279,-6193,7043,5489,3675,12036,6197,-5566,-1467,3946,-4916,-12332,5458,10699,-2946,5028,13881,8897,10146,18338,-5152,10567,4377,4808,13093,1198,3136,4864,6700,10927,-7651,-6307,-12453,-17023,-9004,668,-310,-5573,5386,-1557,-8810,-1220,-11783,-22837,-7098,-16125,-11870,-12636,-11641,1752,699,3486,11235,5775,-7644,12388,-12008,-20773,-10222,-13826,4598,-11939,-1067,-15292,-36417,-12347,-1243,-5107,673,-5735,-18628,-6221,5821,3032,9152,-6487,-10407,-16552,-1941,1950,-17456,-2941,-3538,350,-4112,-4358,-9156,9729,-7872,-5287,6786,1158,9372,12309,5556,11277,9479,11725,-14203,6790,8305,-4844,2317,20662,8719,-20367,-23996,-13510,-10931,-6373,11317,-3170,-17960,4078,-7404,-6845,-18497,-3730,-9,-20394,-8393,-12990,11803,8543,1218,-9149,-299,11432,9053,15650,2330,19971,2655,3779,-4072,-19016,-11757,-602,2819,3037,-5583,-32856,-9315,-5944,-9844,-7691,7006,-6299,-3682,9222,
        -1993,9354,-9447,-3745,1826,-10273,-5029,-11166,-2120,-849,14447,2079,4771,9737,-12270,2235,26209,30367,-1629,-3295,-6313,-1780,-10038,-7662,849,4590,29801,13461,-5437,-17776,-13419,10029,42274,14488,-4859,-2087,-8373,-9961,-1128,-4311,18,1593,3687,-7418,1477,1389,-6905,10942,-2210,-2249,9173,10375,5069,-11875,6698,6282,8468,-6018,-9859,11054,9199,9922,-8795,2838,-10753,-10555,-9928,-9241,-2258,10529,-9978,-9129,7516,-1775,-8203,-3582,-4522,-13848,-12899,-10072,-1266,-7865,-12014,2724,-10286,-13800,-12233,3470,-4437,9384,-8282,-8333,-3116,3796,5257,1569,5441,8799,-4835,-7204,2215,-9188,-1007,-5314,15315,-16651,-4603,-2016,-673,3064,-6636,9592,-7155,-4087,446,5800,-12463,-7867,-4983,-4765,-5769,6548,10444,-11985,8879,10561,11688,-11877,9350,3587,9740,10032,10156,6861,1471,2413,4343,-5754,8457,5793,430,7253,-2797,1549,-4635,-5079,3320,8914,-5903,2459,3203,10,7068,-8840,-8816,-11255,-11406,-5760,-2629,11735,6492,871,-5443,-8556,1353,-2833,11470,-9874,3458,6966,10095,7316,-183,1418,11818,3903,-8864,7112,-9550,2667,-2435,6618,-2572,-3242,-6042,-6754,-10861,9824,-11339,-2087,8869,706,8951,-12176,-5253,7676,3685,205,-5509,1828,288,-1702,-9601,-6589,10762,-10342,-2067,6900,5998,-10039,-3078,-8348,-3866,-9135,4237,8763,2346,2851,-4728,2705,-5916,-2312,-5621,-8588,2080,3996,15142,18660,-1950,-2322,-236,-13914,-8079,-23942,-13118,1796,-636,-902,-9528,-9047,3487,-7512,-6595,4026,-19902,-13007,11300,8517,-10867,11736,8648,-16306,-6760,-748,2427,28586,9005,1417,2580,7452,4885,-7802,-1616,-93,-1589,9174,-4686,163,-5684,-28713,-8017,-12341,-11269,-8510,7306,24500,13179,3433,7778,44178,29188,24057,10153,21625,21067,-19122,-994,8461,2185,5012,3525,6832,-211,-11990,-4487,4783,-2659,1765,17187,5229,5549,2527,-4408,10846,11868,7292,3051,-6374,-6443,652,-1577,-4715,308,-8367,-12637,-5208,2212,23601,18020,6745,5631,11692,10193,-5404,8025,16074,13063,12061,2486,-14284,5631,4799,6937,3285,8773,13143,-3157,5650,-917,3280,20605,54501,-8148,-16075,6099,3416,13769,-5544,-849,-4371,-10546,21173,7147,-15428,677,2162,7239,1665,-4467,1653,
        12535,3834,3892,13320,3068,-4667,1277,559,-7993,-8379,-11588,-10985,12862,-56,-11789,-13350,-31772,-19887,-7947,19445,-4987,-21699,-18817,-4428,9849,9220,-26087,-15780,563,-14734,6657,-9572,-29339,-15576,20834,1489,-2358,4727,7863,-9388,5841,-4469,-2809,-7423,-6358,-339,-1166,-8316,1488,-2997,10669,1362,5413,-4610,-2063,2292,13339,8412,-2991,8082,-6324,12783,9476,7453,-4455,409,34,5523,352,-8204,5353,6834,-2119,4842,1287,1404,919,5895,-3776,-3830,5304,-5321,-5917,1111,4863,10410,-2136,-5443,-2978,-9829,483,-2569,-9256,14750,-13402,-13361,22208,28542,7257,-10739,-13073,-3230,14610,8564,-6855,9723,15831,3018,883,3604,-4668,-12601,-745,-3603,3238,-3512,-1880,-6823,5896,-8279,-3925,6219,2201,5094,-1633,9027,-6355,-1540,1796,-11219,-1359,-3648,-3688,-6108,-12417,4308,-7198,-63,-1634,-4295,8589,6164,-11852,-11434,1726,9530,8574,-2916,2270,8945,410,-1318,-3416,-5979,-431,12579,7284,12256,-4747,-3069,-6785,11390,7055,-859,-383,10550,-1001,-6522,-1816,10144,-5374,2662,-9851,6480,11544,-3820,3268,9835,936,-9960,-5294,-11931,3437,10128,-958,10713,-3283,6022,-13801,-7276,8084,958,-12016,-6069,5977,-12974,523,-11770,-8734,5786,4395,-11954,-2585,7193,9151,7806,994,6880,-3763,-6052,3787,9358,-10765,4696,-7150,5635,-7158,-4834,135,4349,-3919,-2507,394,5663,-1815,34,6459,-107,17991,23657,7992,-4917,-853,6104,-5900,-1205,5142,-3205,-6216,-3940,9251,-2088,-2794,2239,9146,-2673,-5767,4581,10846,-5450,-28327,-24169,-1107,10923,-504,-12227,-17703,-6741,3463,2651,2632,-11228,8680,-1904,1881,1547,10810,-1133,-8819,-182,10488,-3805,-9635,10077,13915,12509,-2558,-6228,-1013,-35619,-27688,-21906,-24522,-39766,-32912,-13798,-10863,-56201,5467,12530,1304,6388,-10876,-9430,-3233,-7822,-2469,-2515,-270,-9983,21586,19294,3376,-7132,-872,13240,-12739,-1692,-5752,10824,-2535,2028,1445,2280,-1823,-911,-6333,7706,13329,-6410,3017,-10328,-15016,-1480,-4499,2409,8194,-6817,-7712,-19937,-2705,3907,-4854,-8864,-1817,18437,3057,-658,-18611,-13198,59,11474,1298,2509,-14884,-12246,-14376,-5436,9975,9046,-3428,-18614,3488,5156,-3719,-8414,-10667,-1669,-4388,-6863,
        5036,10797,3528,1295,3673,1996,-1779,4843,4351,6294,-1313,1117,-11526,3321,14124,7804,9582,11144,16682,16764,11066,-4122,-2691,-8487,11831,9325,-2474,9553,-5045,-20345,5230,20814,-968,-7124,-32207,-28539,-2769,-5086,-5018,-11529,-9619,-5615,5085,1759,-761,-2488,-8949,2522,4906,5878,-11739,10229,8761,-4444,-10629,-12374,-4554,10293,-4677,2312,6715,8352,-3862,-10276,8071,-6755,10226,5597,3570,-9974,-10619,-9960,-2480,2250,-4760,8936,5866,-14145,-680,-2061,1187,5055,2526,-3805,12667,-332,5007,11515,-929,6589,2245,26864,5075,-1069,2642,4061,18680,30345,8703,-6234,-15139,-4220,-3829,3002,-1398,-137,-16038,-19824,810,-9600,3621,1724,-11598,-4697,-3393,1488,7246,9212,10186,-742,7380,-206,-7538,-11211,-5142,-7209,3045,495,-599,5991,-6993,10204,-9589,11096,1141,5382,-1836,-2513,3767,-9903,-2760,-4365,-419,-2756,-5251,-11555,-2590,-5657,-1078,7973,-5238,5590,1889,4853,2771,1838,-5164,-10382,4051,2790,4601,2169,3508,-7122,-3179,5627,7663,-5824,1231,-11694,6836,-2074,55,2839,-8715,7023,2377,-3941,10472,-4384,5679,-440,440,-5335,2574,-4427,4452,3491,5839,-737,9649,7248,-9781,-8803,-6731,-5739,-793,-1582,9653,12034,7610,3976,8316,2254,-1615,11521,136,-4646,3968,10413,885,-1327,1034,11012,4098,11363,-15191,-2239,1649,5641,-9978,315,-8705,-6268,-8128,-2886,7758,9924,10392,6143,3376,6538,-7935,-18788,-1295,-7313,-12544,3269,-8532,-35508,6628,3638,-8649,6505,-10714,-16817,-5049,3225,5341,14631,18126,-3694,-9746,9197,-3580,6765,-1242,-11094,5633,-8046,9636,12080,7547,4020,-10672,8300,-12748,-1084,14699,-11672,522,1174,-2247,-8878,29246,2111,-762,-2956,209,10351,24236,11289,-1164,17459,10176,18225,24506,55377,-5258,-3360,11133,1029,15914,-2649,-11945,-7496,-4961,-9901,5636,9988,6724,7503,8263,2216,-11027,8045,-9982,-8590,-2010,2712,-5576,4406,-2639,4609,-914,5960,13926,-8552,12527,15470,5800,108,26562,3290,-8215,-5864,1697,9458,2500,-19004,4702,5073,-2624,-5569,14206,11283,-13488,-14324,-3952,3240,17318,24142,-1544,-7713,-8602,-3533,-1001,-5997,7155,3477,-10482,-5268,2326,-673,-1651,6886,12421,-6002,14877,-19768,
        7068,-10197,7670,14789,-20,7576,19097,13316,19547,-446,20885,18044,6444,10220,22945,3252,-7431,-28395,14575,30377,24424,16847,-6897,-5394,544,3327,-1808,-2826,-67,-3524,17664,-16890,-24030,104,19283,8473,8878,-5064,-277,-8660,8906,7448,-4377,6966,10265,-9338,-1416,-5796,6639,944,-9178,5293,2515,-8997,5534,-5646,3901,4574,6055,-8972,-3083,-3004,1369,-12540,5408,-11554,6763,-4489,-11791,-11425,-8521,11081,-8300,-12382,-9102,7901,-4643,2865,-4968,-5810,-9749,-5213,-4897,12044,-2093,-21880,-10928,2889,23493,989,-16253,-8446,-4249,-6367,504,2405,22554,2604,2726,1771,4248,-6625,-12481,-13100,-5712,-3334,-8076,3141,-6440,1682,8533,-6296,6285,-9543,11319,-10493,6,-8687,7278,5397,12501,8622,-9229,-2428,-6426,-563,6068,5813,4413,9529,10094,-3933,-7183,-489,-11387,-582,8667,-5014,-2596,5741,932,-508,-944,3842,-7257,5590,-1891,9606,-10349,11819,-11859,6667,5747,1673,-9579,2057,1693,-6770,11783,-1369,3246,-8600,694,-489,-7197,-1223,-7125,2637,8179,-1471,1698,-7998,6399,3069,4410,-2951,-9894,4928,4859,5483,6986,-10773,-10550,-6476,2408,8844,-8237,1925,7665,6902,-328,2960,-9335,7683,-3498,8011,4004,5506,-3167,3029,11803,8935,174,1894,-940,-1854,5443,-1774,-3768,6407,9996,-4216,12212,5456,12265,-2526,-10479,17945,502,2467,5796,7427,-8753,10362,3686,6343,4977,-10608,9846,8526,-8022,8194,8551,4659,-12528,-8429,1075,14384,12341,4993,694,-2006,-13,-1622,-6575,-4725,15945,20547,23318,10397,8171,13740,-7091,-9582,2378,18269,-9978,6230,3986,35,-21060,-8346,-9579,-14380,961,22594,-8469,-3506,-11689,-5688,8764,226,2518,-11430,-18284,-13303,10977,7011,6489,-1756,1662,20691,-13654,-29115,-18165,-7130,-58,2362,-9629,-12112,5902,4156,-1008,-6169,-14914,-12826,12012,-1607,-9765,9029,11494,-10718,-4156,9892,22472,-2603,4782,14585,-10359,-5543,2729,-25118,4577,2117,-1116,-12823,-18087,-9195,37483,-4542,475,-9191,-2832,-6576,2051,-1915,-716,2374,-1353,-15663,-6712,3900,-1307,5282,1097,14854,4422,-5892,7832,-5518,-12934,-20071,7202,3220,-8492,10702,-16056,-26674,14426,14031,24179,-4059,-5733,-12044,4965,-45,-15694,-12919,-6140,8879,
        -3014,-20601,-6859,-12068,-17113,1844,-5125,2688,3484,-2036,2223,5223,-377,-8665,3410,-1287,5556,3256,7195,15474,15022,435,-15467,4878,6909,16227,-4262,-11807,-545,6797,11247,35256,-15252,-2603,31054,20304,4328,8322,5077,4764,8380,10270,309,3949,9427,3196,200,4860,-6171,-13177,6599,-8479,9165,-10590,-13324,9806,10728,-11353,2520,-4123,-5806,-7094,-3620,7712,-9799,852,-12993,1533,-10454,-2948,-4251,-482,-2611,11395,7603,4782,5689,-4737,-8072,9501,11774,3265,4975,13228,10084,6894,3962,-2760,6939,-273,15193,14407,-261,5404,-12794,-5625,23006,33620,17489,9234,-82,2289,-1659,5638,13505,18495,2076,10383,1012,9168,12007,841,-1898,-8176,-10179,-8954,12461,-483,-4837,145,8241,-2465,-7210,-3307,3498,5545,11101,7756,1125,1875,4821,-3798,5238,557,-41,5444,-6735,3930,-8273,5008,-109,-388,-10580,11797,-9866,-5118,9322,10025,-3911,2585,888,6629,-2408,6446,7704,-5222,8285,1136,-9442,-5029,5987,-571,8711,12070,-4073,1608,1740,8774,-2402,-2483,7655,9342,11108,-11062,3599,-8628,8888,-11629,7824,6954,3430,12430,-3702,6703,1,-8580,-2649,9900,179,-6339,7159,4740,6065,2278,9204,-4691,-3894,5270,10577,-9091,7809,-3966,2490,-314,-2075,-10195,10335,-606,-3406,12940,-1401,-8638,9000,-3459,4684,12220,13487,7976,-4465,-2810,5050,-2199,3985,9165,-2463,-4847,55,-6604,7750,33719,-1109,2097,-1861,1269,7447,782,-981,456,1706,5826,-1527,-10950,6653,-7661,3986,-7386,-9892,-18708,-11153,-10766,324,5162,16480,6176,-1621,-25383,-27857,-87,-3006,1827,3544,18106,1809,-9397,9683,-5073,-2740,4611,-7410,5969,924,7100,-5897,-14195,-24400,12676,-14978,4577,-12548,-30917,-7179,24189,-6046,8917,24434,31063,15311,1853,-5713,-4622,-7128,4164,-1387,-17725,2527,-2517,-8034,-6341,-18726,5586,-6969,12278,-2006,-7197,190,570,-5194,9442,-3789,7672,-2979,-14298,-1577,4363,11539,-12498,-18686,-10298,-9604,-5598,7381,5206,-409,11636,-5361,-5979,-19841,-14304,-13920,-6947,-3541,-11471,-4545,-16620,-11524,20078,-5741,4801,-5474,3693,-4538,17640,7228,5759,3328,12767,2566,-20951,3621,14172,8315,-18400,-7789,-5382,-5224,2998,7593,-336,8558,10860,

};


#endif //DR_C11_MAP_H
