/**************************************************************
* Created by jdwang on 2016-09-16.
* DESCRIPTION :
****************************************************************/

#ifndef DR_FC2_MAP_H
#define DR_FC2_MAP_H
// 1'st layer - convolution layer weight 34*400
static int FC2_Map_Weight[]={
        -58459,-59399,-36150,-53640,51714,-45493,16253,-49544,-46718,41731,41194,-33779,-46249,56468,-48426,37566,61909,33889,-22700,65766,-48605,-45656,30901,30819,72462,-36906,59322,39321,-39924,-44374,-67692,50724,45125,-4628,47304,-50998,50562,-51407,49036,6003,
        39008,-54553,-10977,-46104,39208,22377,-40912,32197,39602,-52592,-45923,61875,-36145,46744,51264,42033,-34773,-41665,55153,69527,37575,51034,14332,-40797,-34239,47197,44989,39073,-11015,-48751,-61186,-34100,-18172,52627,47698,-33261,40975,-42094,50415,-54457,
        -63228,-55837,65740,38993,36473,57863,36639,-53307,43174,42898,39131,-32782,-32957,43237,-41876,-48859,-34359,-56567,-35698,67151,-51136,-47016,38476,-46943,-30473,-30519,-49177,-52065,-11805,-50856,-64283,48486,-12351,-47418,-46045,46077,-42782,43427,-38587,-32611,
        -56043,-48002,63454,-55806,-50063,5923,-62276,42419,-45848,-61876,17274,-54719,-42433,50475,37454,-46675,-36270,-36896,47702,-41350,-56743,39896,41553,13663,-36501,-49521,28578,-48699,-19251,-52760,-9070,-40706,-49482,49665,-42761,50436,-46305,-47925,-54104,-51660,
        33557,-49591,45658,-20878,36452,-48929,-40640,46766,-43393,-11558,-30184,40069,52537,58155,43890,30797,61148,-41910,-45668,28365,-47528,42349,-62965,-40364,52748,-45608,-34040,-51503,39938,48903,-43371,60040,-54422,-52433,48196,46006,-47843,32940,51846,-47995,
        46257,50390,-35841,-52076,-45574,-34756,-57267,51620,-40621,46457,34405,-37712,-38964,-39441,50438,-52003,-21443,51629,56000,-45043,40322,50528,39061,-38053,76254,54038,52514,52958,-16065,52178,16409,-37540,42467,-53781,55509,-29176,-52136,-52386,-35070,9721,
        -57507,37658,-45736,-59366,-51222,-38053,-23183,38504,-44919,49519,35258,57710,-50263,-42077,-59077,21173,60182,-51402,-46511,-37096,-67731,33556,28764,-32449,67248,63514,36525,-50729,-23777,50892,39468,6231,40965,-52106,-53365,-36035,38174,-2877,60333,50859,
        39482,3950,-39905,40045,44121,47014,48132,53678,41270,-59432,-55200,-35119,-39248,39979,-39293,-44753,-39969,-44355,56193,-36572,34656,-50818,-50967,-41013,-22374,-58983,-35236,-66034,-19369,-23581,42795,53686,-38392,43227,-38930,59146,-39588,-49757,53822,-53959,
        -49770,49260,-43352,-56102,-39524,-44118,-27384,41605,-38186,-48810,35764,-35233,-43389,-46242,-53145,-55172,-41000,-61549,-41659,48021,-56004,44221,40124,44149,-24635,-50947,-38177,-47632,-22838,37951,-43957,63272,-55710,26151,42827,47754,46187,48877,53920,50540,
        -50245,9389,-40936,-43335,-40984,-39249,53278,-68754,-36638,53451,31060,57696,49173,13654,48246,-49619,-28010,56430,58339,63868,-37017,44385,46236,-50835,-39486,59793,27911,-52521,-18482,-36119,-68598,63599,31992,54131,-6305,-31554,-54611,-53057,-45775,-42697,
        -39772,-40294,46375,-54113,39715,52455,-30467,14177,40347,54567,-47062,45317,49711,-35991,40461,32337,-45207,-44665,-41254,-25110,-28289,41674,50202,-42943,35685,-31996,-49036,34281,23939,53563,-46842,-41542,49217,30647,41564,-14064,-53262,34005,41148,45391,
        -60733,46696,-37041,-47277,-43367,-41409,37951,-33867,-41314,42285,29926,-33610,-19436,-45918,-45482,-45901,-34932,56760,-36125,-49190,46463,-43366,33414,-42299,-27533,-43897,52073,-50445,-17450,55919,-8909,-43336,-56025,48415,44941,53417,-9012,-27331,-56431,43310,
        -56888,-52248,-43743,-34861,43312,-51383,-27451,19158,49894,40062,-67562,-25183,-36414,52199,-52782,32429,-48505,43047,-22348,-10548,-46809,-32674,-64512,50142,-27942,-33350,-50961,36697,-22766,-40193,31606,-36165,43712,-38533,46779,57751,30560,49253,46679,47322,
        34618,52841,-35592,53475,59620,-49799,-5223,-44103,-47603,37410,28412,-35296,-46500,12851,-42129,43169,-33854,50488,-2169,-44565,-51211,-46190,40011,-56628,-21940,-38755,55271,35094,76543,-45633,18646,-45029,-412,25589,48724,-41469,45143,-38597,-66712,28122,
        32805,-39585,-30131,-51651,-51448,-45232,34809,-53123,49813,42764,34971,-46849,-37487,-50625,35539,-52702,-31465,14397,-41304,-24014,32870,-43414,-63961,-28837,-36362,52004,-45904,47828,-16676,49657,35825,-30554,48681,-44311,-45697,-26520,-55425,55547,-47126,-29640,
        34628,-41000,-29297,52090,-49152,-44833,34448,61064,53475,37089,34471,44384,-43900,-47866,-35089,-12719,-30982,-55129,26473,-36824,34445,-47573,-56952,-34261,75488,51145,-48815,-39551,-12726,47277,28433,-23831,-35933,-52727,-45288,-43301,60821,-37051,-24852,-59921,
        -49943,-10940,57903,-50794,39757,-45084,54358,48552,42668,35493,-33636,35644,-31317,53021,43385,44382,58574,-32138,-45642,-29105,-47139,-39104,49407,37919,-12095,-20612,50127,-41708,-27735,-47258,33624,-47098,47292,-28132,-53567,45724,55765,44917,-36082,-50776,
        22130,-45857,-26720,39754,-53885,41582,-45711,-51567,43440,-46359,44999,52423,47143,-51606,-42001,41215,-36796,-26818,-39770,56943,37938,38080,-42441,-38838,56893,-31783,-32580,14139,-23736,54575,2286,-35586,-51440,44287,38235,-30545,42279,-52920,-30722,38912,
        44586,29846,45534,27675,-49853,34603,-42183,-45769,37017,-14077,-42907,55275,32751,47350,51744,37468,-27754,-46123,48819,-24739,33479,-36498,-40173,16140,-34436,44611,-19736,31966,31564,-43734,-57268,47336,33911,37503,34250,-28820,36943,-44022,43687,-45041,
        32825,44830,-27198,28856,38200,36786,-44988,-50091,30095,31446,-48657,-36377,-33984,34127,43134,-29497,54289,-39976,47839,-35495,33105,-43010,51792,-35835,-25211,46985,-43850,29245,58253,58841,39016,-38556,55644,-48992,-44966,57563,-54138,-42205,-62195,-45153,
        47279,-41061,-24512,41278,51644,-35327,48545,48177,-40894,-44852,28664,47186,48862,-49904,43313,39723,37155,-28718,-43106,-40476,42979,44467,-56474,58146,54319,51499,57276,26996,-7204,49594,52737,-37209,43680,-39595,-22111,-40334,-48592,41850,50246,-2602,
        27902,-51019,47610,42406,-36593,39824,-34100,-35933,41903,50124,-57413,-26718,33902,22722,47456,35113,-45228,43739,-41581,61601,38399,-45392,-55793,41594,20113,50721,-39542,23463,29303,-28167,48550,-39450,54104,-50994,41536,-31945,14675,52064,-61657,43436,
        -57678,34857,52115,42662,55875,44755,41236,33188,-36040,-36502,22982,-41769,47553,38926,-52998,-44505,-35935,29880,-49143,65309,41474,35261,-53481,39804,-40643,-59326,-17374,24753,38380,49789,-49483,49816,-42272,18644,32568,-40422,38506,-38666,-247,40376,
        -50930,21202,38416,33754,-49613,43553,-41797,47649,-44327,-36481,45180,59282,39956,-54034,-47369,48857,5118,45935,28883,-16541,36053,27216,-48302,57252,-41768,39712,-36609,41405,53871,-51866,-42333,-7336,37860,16557,-59286,-39913,32187,-11312,-34255,43250,
        37591,-48056,-33539,47134,-34058,-44606,38500,-56476,-29364,-35250,32236,17244,29407,-3112,-52629,-43929,-32818,-38428,62935,-16828,37048,-54630,-54975,-39390,-42549,-49658,-48279,-51397,-13898,44822,-64990,-28558,-43739,-50757,54716,61536,61748,43065,-31093,-53806,
        47526,-59320,-31291,-42835,44740,-43695,-39589,-51953,-52725,43734,38569,24760,-38874,-67197,55115,38739,55242,47351,-25404,14859,-45775,-45349,25007,47161,-47252,-38934,-40537,39274,62005,-47209,-8482,-4464,43234,64085,12527,58028,-70358,13760,44814,-39615,
        -51527,-44825,-31768,34912,30440,-32871,43865,44496,-39173,-49426,37563,30123,47424,-51687,24312,45107,-34552,38820,55465,57385,34611,39480,-54034,-43883,-32321,-47220,-48316,-40806,-17532,42205,38772,-32994,-32623,39791,-46770,54259,-53629,43188,-25676,-41816,
        -46435,42622,47627,-45085,-43827,-37323,24458,45870,-36831,40286,20952,58510,-45438,-39873,52981,-53422,-34533,43320,50709,44314,39553,27193,37534,52733,-34128,55391,-31922,-46826,-21590,-54750,41195,-24279,45715,-61054,-46622,50808,46579,-44588,50585,-25459,
        30217,43804,-38547,40788,36793,35167,-37284,-7849,33534,46697,-43147,-38557,-38127,33851,48686,51214,66895,-37257,46036,-43897,28876,-49087,-59876,-43805,-27787,49253,57321,27233,-19866,-41935,42985,-37148,-54935,6032,-56794,-42669,47296,-36870,48337,-48905,
        35944,-28387,62334,27666,-43441,18952,-36607,-35470,48989,40017,-2454,-35210,40894,52755,-50880,33648,68676,26042,-38113,-34384,35833,-38967,43131,49803,68698,-53400,53692,25911,45923,-40625,43459,-33893,-57921,-37587,46188,-34898,28996,-62894,11677,47519,
        -42893,36072,52132,42703,-45254,53708,-34301,-45989,36483,-52316,48137,54205,47366,-43674,46994,35088,56072,-53384,-44915,-41790,43208,-4192,47900,-54010,39209,-22445,51034,-23893,-8978,-47516,-46909,20778,35526,-52283,-36528,-31585,-8229,41836,30854,40663,
        14288,45986,64975,37296,46872,47909,50043,50182,-36113,-49296,-53967,-35212,47349,-9915,-36545,-40122,64019,9039,-37187,-41266,26130,42629,50214,-30121,-40991,55827,-45200,43672,-9282,-27208,39928,41017,-11928,24219,-55906,42847,-42671,61382,-8722,38394,
        43480,30640,-37277,39930,-58082,40674,46834,48395,-45285,-37576,-54758,-44899,26055,35299,34705,-55977,-35620,8576,57048,-40148,33984,45547,-53980,56738,-33050,46084,61071,27778,-29771,-39215,45161,44750,-40757,28748,43274,-15575,49211,-38728,-7286,45159,
        48532,47023,-33222,42349,36301,37970,42016,-48077,45682,41415,24753,-28055,-31212,43514,-49562,-44934,-28680,32017,-36849,-31750,-59042,-40670,41675,-35715,-23616,-40219,-44317,49331,-20083,66882,42071,-19500,-45260,-34855,-48780,48252,-48880,46483,46618,37994,

};


#endif //DR_C11_MAP_H
