//(360, 40)
#ifndef DR_Letter_FC1_Map_Weight_H
#define DR_Letter_FC1_Map_Weight_H
static int Letter_FC1_Map_Weight[]={
-4065,-6356,-14696,867,10004,60,7681,-4301,-6324,-2528,5808,4989,-327,3721,-818,-12178,3590,-9542,3503,15126,19049,699,-13928,-18925,-2831,2643,4675,-11574,6979,-26309,938,-4477,1274,-6725,7023,12697,2555,-7458,-11132,-10587,-7279,-3218,5257,16195,-8898,-6667,2293,-10159,-2341,5741,7087,-1978,12057,23612,-7238,-7647,-3559,-2247,-3200,-20965,10395,-469,8653,-21774,13383,32646,3103,-4262,-6368,-1682,-1866,8277,3451,-5958,11681,-1236,4949,3642,6676,4242,4998,-5338,-7231,3686,-409,15030,3366,-8265,5668,-4596,864,8752,7896,12741,-4054,363,-4635,-9128,-9024,15064,10674,-18222,13116,8656,2131,2899,4131,9713,-1315,-3109,7260,-18105,7531,8905,-7802,3452,1191,-1174,-4447,17512,-6554,10996,-4143,-1388,-5371,2280,8598,-21,1,-19575,8174,-6007,2037,-4039,-3814,2568,15469,11387,-2658,-10263,-6984,-1940,-469,-7952,-1614,-5573,-2516,-7849,6,2011,1582,5546,6157,1119,525,-7140,-466,4128,-876,-13751,7001,3527,3373,-13161,-4072,9117,-7233,4952,5496,9175,-12587,-6926,3693,9748,-1230,-10092,7424,1802,-10429,-9754,443,6847,-7587,-8975,9306,14512,15299,-40,-4121,-4775,-3701,-11786,2207,-7581,-9973,-6616,-5572,3314,-8558,-14832,-3943,-8088,-2103,-14137,-8761,-10769,-12620,251,-4342,-17655,-2817,-7792,-953,-4517,-16350,2329,1928,-3761,-3963,-3544,6686,6848,1262,10856,7031,6020,-1311,-1142,2835,7709,-7295,2401,-814,-24035,1136,36,-277,-10643,10157,-234,-3195,-1764,-5532,7163,-3780,-16044,1202,-9950,-11765,6755,2948,-9217,1159,1352,9,-9292,-27756,-6121,8194,-1048,3989,910,-2180,-13802,5542,11626,6220,-1398,-9421,-1497,3822,-8404,-953,16390,9955,6793,4395,1282,3068,-3376,-9112,4449,-4843,-4237,-625,3895,-136,-4339,5197,-9945,-20715,-15891,7953,-686,-7661,-7638,-11475,-4719,-4002,-26387,-5726,-6349,1230,-509,-16064,-22220,-9547,-19916,-6024,-174,-13877,-25114,-19687,-9022,-11874,-8121,9980,15711,4435,4704,4264,-8418,15069,18192,-4443,-1499,-3694,-9580,5489,-8274,-1409,11633,-8367,11177,11133,8252,-3169,-4552,-5481,12854,8857,-7628,-6001,9703,-3447,2186,-718,-10345,6163,-9612,8529,7798,-8659,5037,-99,-9442,-5753,5651,-10840,-7389,
75,4149,59,5056,1735,-6136,7346,-1872,8039,-3541,-14778,11421,-8692,3809,6153,5828,2028,654,207,-2027,-5852,-7181,1711,-20698,11049,8626,-88,-10090,-17358,-30273,-6724,5175,13647,20855,19493,1868,-5696,5789,9471,15233,2855,-15562,-1539,-910,2387,-3990,-5872,-11193,-5241,9797,2243,-676,-2661,3095,3534,4652,-4470,-7795,-368,-14607,-1858,-1403,-595,22726,33774,34405,-9866,1587,6327,667,14452,48058,-7031,8176,1386,-809,-1352,3756,-72,-3294,5130,-4864,-2586,814,-3084,-568,10587,4933,603,-12123,7517,4835,2969,9801,-757,-11313,-5021,-1569,9153,-8009,5724,-14255,324,5520,-9214,-10454,3736,22666,5762,3303,-9987,9670,1401,-4692,-283,12997,1818,6377,9529,-2957,8740,-1264,-7590,18177,8314,6621,-5865,12035,-3050,-2539,440,-6695,-4001,552,2060,-11606,3202,3404,-5204,-9446,-4130,2522,-14617,-10180,10802,3397,-4887,-9003,9188,23,-7075,13161,-5357,763,9203,5186,5599,9037,6951,9207,-848,-1027,2217,13059,2700,5737,280,12050,12074,99,7978,495,-2516,-1357,-4470,10358,7311,4196,10054,-6386,10574,-3231,-5364,2996,3758,8433,-415,2600,2359,-1722,-4316,-8850,-4642,3020,-4869,-9813,1576,3593,2961,4960,15087,-5710,-9606,-9430,8021,15314,-1601,-10920,8598,10049,-2289,-14352,-7386,-2852,2378,-8837,-5248,-2800,4473,5115,-6949,-7888,6983,-3369,1881,2787,1328,3076,-6844,3888,-5928,-8152,-6899,-6641,-3755,-5047,1898,-8656,-7169,8066,-4005,7264,6956,-4212,-4132,-4869,6686,2224,2773,-5250,-8306,-12989,1478,-3056,-6775,5399,-5837,-12258,-4220,-12194,4359,-8269,-90,-17648,2645,-10167,-5582,15527,8525,-12971,-1818,6108,3394,9067,8126,-8743,2116,-3343,-9289,26319,16816,7269,428,19566,-8060,5525,23426,25770,6107,7980,14387,669,-18855,-5835,7646,-17,8745,-6048,-2891,-2685,7919,-1936,9534,1981,-3952,-14752,6661,11418,11585,-5546,-7043,-24942,6983,-3495,16366,7877,1525,1637,-5126,-4797,978,18169,25500,28003,10260,-9307,8581,6656,-10744,-223,10516,-11966,3063,6786,10816,-6195,-3694,6603,2610,5582,4683,2955,3539,-10826,5677,6036,-1860,-5345,-10551,6095,10245,8608,6674,7375,8654,9290,1097,4988,-4477,-8911,
13863,15104,-13396,4187,-2526,14365,9348,6844,-7148,3486,14735,-766,3388,-17142,3301,-5545,11154,8291,1859,-14895,-9589,-3461,6912,15203,-2137,-9624,-6568,4658,8266,3743,23347,-4751,-28008,2690,3282,5683,15058,6940,-8359,-8028,1636,6575,-3481,-2205,3874,-6054,-8676,-4931,13179,7935,4144,-6229,-789,-8808,6917,10412,12839,-4824,-9950,5379,-5131,-6505,2606,-9788,4458,-3846,-2232,-747,-13904,-17611,-204,-18446,-2696,6871,-3209,-7158,-11551,-12279,6125,6803,-882,5294,-4549,-9829,4457,-5315,1176,-8005,-13780,-1481,-8419,-5309,-779,-6822,-6366,66,-4284,6278,4096,18250,3366,4251,-17881,-14798,-4344,-11833,-5609,13913,19339,8708,5924,-13638,-9669,-10720,-2422,7704,-4347,-429,-9506,-5353,-14942,-43,3702,11456,3881,1518,-430,909,-3332,12758,-8048,3993,4347,17836,11807,-6928,3709,-1008,5742,16246,3734,-230,2456,5609,-191,-7806,-3932,5743,-4473,6213,1042,-5567,-1592,905,-7454,5049,104,-9774,-3828,-2633,-10151,-1614,3272,5000,-11334,-6937,11472,-7054,7803,1733,-1954,-6131,-7942,-6086,-10800,-8101,3234,5942,-9009,-7657,11270,9459,527,-7423,-12180,6058,-31214,-12113,3454,9405,909,11055,-10889,3019,-11012,4584,16473,-2634,753,-8507,9334,11643,2300,1161,9750,16868,12069,-8642,4786,13526,-5585,19539,1538,8355,68,-501,5013,13575,-4661,-10957,-2373,7275,7809,2366,-10231,374,4978,14101,-7685,-4908,3008,-1764,4586,7791,538,12004,-4870,11414,-6508,1916,1406,12719,18171,-9106,-3804,863,3459,16981,-7943,-5191,-2892,22063,-2233,-831,8462,-5980,21016,7052,5687,5456,2868,3344,6746,15491,10050,-4224,-7572,8937,-2637,-10501,-2111,-9386,-13144,682,13240,10152,-17963,-6595,5389,-3136,10124,-8762,-13239,-2210,-11240,7290,13287,6924,17800,-13688,-7745,6256,-439,23498,4710,-9704,6050,5080,10754,11508,1678,3397,5396,9534,550,18272,-3292,706,8770,-12253,-9766,15318,19181,4255,6619,-9335,23424,11612,18516,-6352,-24001,-3854,-7034,396,11507,704,-7527,10315,3591,-12499,-8304,639,-1606,-1524,8569,9529,-4775,-10078,2513,999,10333,-4253,6275,-3494,-9771,2966,-6152,11430,-10791,5347,6125,9181,-12475,5437,-5760,-11713,10542,6755,-8679,-906,
12250,1748,184,7314,-7511,-19446,-7017,12571,-11104,4855,-9459,-20762,-10869,7462,-1345,-8798,-6800,-21283,871,-1746,11922,4868,-11092,-369,-6960,4916,-4047,-14196,-10717,11419,-6881,-13004,-4679,-7546,131,978,7696,1978,-4690,-7710,-14026,-8567,-3139,4758,-2391,4389,3322,11722,-4322,3972,6291,11558,-10734,-632,-6365,5567,-3744,4996,-18075,7506,986,2683,3829,1545,-3807,-15128,3389,3908,-18743,2375,-11850,-33079,-3432,10207,-12320,4754,-1014,3739,4705,5428,-5106,5482,-4575,-790,658,11036,3297,-9816,-5044,2535,-10976,-1739,1158,1963,4198,21695,3533,-1247,6084,-5422,-11934,-4969,923,-10170,-6986,2805,-13769,-19943,9144,15144,-388,-7534,-16616,-6630,-9243,-5009,-2838,-7023,-8300,3279,1499,-11941,-798,7627,-449,6444,522,-10379,-4233,18596,-8766,1979,1790,6790,3387,4622,-611,-12021,-1829,8983,8722,140,4731,987,8533,6221,3792,9705,10642,5884,7425,-5745,7507,9081,5941,5246,4870,-7328,2289,-6530,-7745,5934,-4769,3438,-6102,-3597,6657,5638,-2932,-3174,-4870,-4415,2154,11175,6098,-10541,-9740,-11292,10242,-3428,12052,-5351,-6423,-7603,-1084,-11203,-9500,5345,-18864,-1893,5285,15238,-4194,-2521,1776,-685,15960,14770,2177,5991,-2087,5772,-1162,-269,5839,9501,9752,4032,-1258,-11089,-2808,13652,12771,519,7861,-2498,3157,91,-5364,-1177,-15937,-2004,-212,-6191,-7985,3929,-4187,-141,-4738,5639,-10810,3981,10096,18892,-2347,8927,-10128,9182,-11235,-6821,-3450,4390,8548,9127,-7628,-11411,9146,1548,5885,3751,10976,-4257,483,7788,9294,8093,1248,6477,-2690,-914,10656,-7809,2268,6390,-6355,7644,-3018,-20253,-5570,3924,7313,-10858,-15279,-6711,-3820,27437,-5508,697,292,4047,-14757,3349,-14397,-10500,-15117,6018,-12208,-16858,4774,-4929,-16256,-4132,-13472,-6404,-8524,-5451,-16361,3468,8254,-6975,-19486,-8556,10429,7443,-6339,-5645,-15594,-219,10728,-4269,-15762,-2619,6215,-5982,10955,-6060,-15764,-3562,-4248,-2465,1488,-11105,-21129,-20466,5006,-9416,3336,-5665,160,-4317,10815,9594,-9296,7315,-7401,4862,-9446,11308,12511,-1770,2034,10144,-6164,-3102,-1473,10364,-6442,-6662,1573,3776,-8196,-6172,-433,-9237,8624,-2249,7286,-10823,-4069,6878,
9962,6785,1734,-6056,-6002,-17009,5587,3552,-4988,-11738,-4371,-12348,10728,-521,-7616,-2774,3128,1141,-1832,1093,-23397,-12946,-6057,-23929,-2068,-637,-2595,-7559,-18920,-6568,-8553,-7568,-5261,6750,-222,1775,5194,-3353,-10554,-19207,3365,697,-13076,4886,7503,16204,-5779,8935,4468,-15371,-12002,-12062,-11166,-3452,-11226,-4485,-7986,-9762,-21317,-7983,-12695,128,6913,32465,20433,25815,12043,28855,3213,-8423,6093,13736,-949,4101,3336,-7861,-8599,1091,3884,10222,7997,4212,199,2154,2339,-3487,5606,14485,7665,-11164,-2761,9592,9676,-13636,-6102,-5531,-3147,-5961,-6592,-8841,-14861,-15737,-18769,-9548,4084,1551,5936,611,12600,9767,-2162,-3448,2765,-9298,-3868,-6752,-12562,-9147,8503,6217,-7375,5163,1929,-17289,9791,5787,-10535,-6553,-264,-23975,-4678,-3378,4773,-107,-958,1038,-3807,1402,7254,9648,8150,5040,2863,-229,-5762,7126,-5461,-8618,-714,-1150,-6757,7633,-5834,3365,5404,-7207,-10311,2124,2433,10913,4226,-223,-11945,-1014,8027,2590,-2441,2766,11003,9173,-5789,4288,-2431,3378,6588,11119,11287,8773,-4369,4938,8690,-10017,-5844,-9731,-1859,-1586,-20166,-13495,-3336,20254,2864,-6774,-16156,-13848,1797,-4497,-9917,-12184,3835,-9964,-11718,1343,-15401,-25821,14313,-461,19827,6065,-1378,11070,-2350,24244,15936,12662,16064,3477,9934,4931,-5410,-167,-4863,4488,-7315,5896,-5917,-6596,-975,-9038,-9571,3409,2764,681,16867,4535,-6394,10373,-11804,-159,-2165,-14542,-3425,5457,2788,-4893,-2271,-19579,964,5262,16128,-918,3407,2402,6740,-5688,-10136,-7062,6283,6304,3867,3897,6158,5116,6173,17849,6918,-6268,-5963,2731,7460,-10247,-7966,-13514,10045,-2169,-778,-910,-11315,604,-3527,15455,-243,-2750,16381,7589,-10744,-3240,8570,26949,10834,-4317,-21317,-9902,-1624,7254,10346,1172,-970,15599,-3140,147,10307,14027,-6037,-10150,-4221,-12806,4715,-10072,-8072,-8364,751,-27173,-5883,90,19794,3345,364,18264,25043,2607,8829,3349,-4196,-3885,-9377,10597,2984,12772,8958,581,-8750,6891,10698,2825,5832,-7322,-5077,2203,12507,10721,-6010,11324,-7224,866,11927,9377,-10330,5225,-3956,12869,12398,1521,9572,-5276,12166,-10208,6683,-6895,-3471,-3986,
4801,11206,11850,4181,-6859,-4394,13785,2385,7700,4391,3497,-3097,-13779,13196,6756,8953,-4867,9392,1372,4287,581,1870,5999,-4319,-863,2735,-13394,-145,23653,5899,21177,-14639,-9974,-13433,-188,4423,-1459,1192,4245,17744,4441,7505,3259,-16879,-9372,9387,3224,8479,-1976,1597,-9256,-3452,-9818,365,6928,573,484,297,12417,491,5481,16670,-8526,-14434,-20546,-19349,14555,-3585,-10645,12577,-3935,-8339,6707,-7345,7516,-3105,4660,3061,1370,-3072,-1952,4162,-9995,13490,1424,16670,10450,-10489,34,12758,3776,4373,-3746,-12298,-2214,-2761,-8800,3246,-1150,4917,8688,-1320,-13845,-3295,7954,9542,-4562,-5695,9400,-9012,2482,-4080,2272,-8889,-6328,-9662,-2458,-74,-3461,-6293,3599,-21617,78,3077,8624,68,-3129,-24946,-4392,-5640,5878,2172,-13303,-8379,8851,-2703,15926,9411,16554,7096,9184,1430,3745,12908,-9324,4751,10711,10828,-9758,9518,2548,7275,838,5185,600,-1110,-40,-11382,9734,-10033,-9034,2714,11291,12747,-4596,-497,11931,5514,-3978,-4933,12396,-10744,11682,4175,-10918,7711,9702,-2637,9955,-5535,3108,-6921,21505,-4838,-1111,-15791,-7144,-12298,-94,-5013,10650,2935,8652,137,8099,-9244,-2807,9617,552,-8608,9608,-10713,-8912,2646,12264,17817,-839,12766,-4181,-7444,11294,26975,12311,-1483,-1364,6369,-4097,967,3627,3711,-7732,-9896,2782,-2033,-4,122,-8741,-1354,-13381,-3239,10445,12992,2935,1252,-3091,-9105,-10272,-1021,20496,6951,-7791,2878,-3141,-6549,-562,5057,14482,9022,19092,-7896,925,11021,-4358,-11596,8681,-324,30246,19491,728,1474,7573,6484,978,16437,2424,2819,2798,8032,-2209,20096,2570,-4769,-588,19540,7455,-10901,-1331,1030,-8739,-8121,-948,6844,40,-6686,-4546,-5161,-6673,-19631,-1832,748,21164,24498,3828,-3349,8595,6309,10743,4675,11532,20165,-15826,1827,7490,4469,2022,21452,-9656,13449,9688,9208,10729,13397,-471,18439,-21257,-6972,1801,-7350,25160,731,-11216,5847,5916,-1362,3538,2905,-12692,8813,2092,-1781,9313,-7839,11686,-10549,4216,-12493,-10590,5929,-10035,-1366,-6346,-6128,738,9776,-4828,4422,-5713,-9499,-1634,5037,-71,-2743,11438,-5810,4377,-7952,-9100,4422,8971,2467,
3508,-7414,-4318,5568,-254,-1194,13423,-7198,1353,-2617,4201,1099,16147,16488,1345,-1829,-15308,19402,5511,4624,17553,21350,-11351,-19021,-10255,3945,5294,11781,6499,-19325,-5780,8960,3154,-365,9188,-9036,5093,2405,5296,-15884,-110,2937,10,11176,-11281,-4352,-1493,3305,-1149,6021,20228,2595,7085,-3633,-2072,5337,-15202,13080,24620,34053,-4297,-15949,-2382,4336,-8513,-5813,-1546,11206,-5081,-4652,13757,1562,6088,-3968,3628,-9033,4381,-9063,-9055,9052,-8284,-3612,-9442,-1157,581,22468,-780,-14180,-8369,7545,7067,7017,-11327,-1404,-148,18484,-1310,-6042,2857,15967,13809,16362,-4819,1503,4670,5116,-6587,-632,1803,-1513,6194,-817,-1421,-10348,980,-3200,3011,1352,-11248,-16386,11672,102,1362,-3736,-8750,7824,-2562,-13880,-417,816,3481,-1692,3695,-11363,3972,424,-14865,-6010,948,-4980,-11981,10948,-5853,-225,3096,11723,-198,9580,5826,-2324,6048,1410,-9806,1592,-5112,-4726,-284,-1710,11945,3849,-6099,-7433,-9909,13124,-47,2468,12404,228,5921,7123,-475,10985,-10366,3803,-3722,-49,-6427,1461,12405,-2955,-3918,-8238,1371,-15292,-6826,-29453,-15039,-17493,-1778,-11692,-14837,21563,3939,-20096,8915,2959,23315,17558,-6561,-3137,-4300,-6879,11270,11314,-9805,3961,4901,3760,5465,-11721,73,2929,3836,529,-3812,-2457,2368,2237,-2040,-4786,-11858,-6925,5214,1976,397,-8564,-1441,-20093,-2521,6929,-12165,4352,-12298,12249,-13438,-313,4174,7390,4081,11416,-1346,-3994,-8329,-5510,7460,7729,-3857,3402,-1761,2724,-4093,-7676,3281,10461,-10505,-5951,14204,20352,10985,18102,-393,3817,-1781,11095,1680,-1561,14807,-7844,-12304,-7083,-1604,6442,6303,6165,-1312,31991,-3165,-1579,954,-5338,9031,-327,3049,2459,-11571,4343,3794,-26070,-4468,-3640,-987,-9076,-8049,-13149,19851,9083,-2985,732,8623,21335,5515,166,-3723,1188,-9026,-7419,4105,-4375,9372,12798,-8723,3249,4958,9069,7526,-2855,-2857,-171,664,503,5912,13409,14378,-5296,7128,-6680,1600,9547,8976,8216,2722,-250,1427,-10087,-9396,6211,-9093,-4664,1800,-9960,-3075,9711,5622,5948,4004,-10273,4619,4089,4529,3269,-5185,-6052,3455,-7600,6785,-13950,-3790,5253,-7197,-13838,
3298,-4923,1400,-6575,-5207,6646,11198,-1898,-1437,-10853,-16418,-1068,-3173,-11490,-3132,-78,12388,11718,6217,-5748,-2109,-14229,8657,41454,13468,2718,257,6477,-7055,16221,10062,-4900,-9970,16871,-4533,6420,6204,-13664,-11447,-4944,-2757,-3388,-13320,1650,-7148,-247,2426,-12948,-11980,-17887,-13850,-13400,-3203,-13660,-7497,155,2515,-7211,-14025,-8547,-18755,-6141,2806,24267,2576,-14373,-10695,-2028,-22439,-22693,-8681,-13251,-851,-4203,371,-12903,-13232,-7780,-11356,-443,6641,510,4980,-5661,568,-16639,-4743,10477,5760,1191,7874,-3713,-3255,-6261,3099,3921,-10387,1556,-8356,-14484,-11301,-16733,-13880,-5097,-1663,-8876,-1303,-3797,14611,10032,-6418,11332,7367,-8239,8595,4672,-7121,2489,2704,-4221,-2607,-3951,9429,11111,-1622,-15670,-1766,13513,2528,-206,-2414,1923,1571,10398,-2695,7129,-1943,-7395,-147,2757,2600,4640,-2098,-16507,-9599,-12675,-6672,-8048,10393,8679,2851,-3058,-11284,9783,2290,10270,-6443,4741,-8346,-6788,6387,4394,8398,-2619,-2903,-11623,1640,-9805,-8016,2673,-9456,5186,-9339,-4519,10987,6004,-4932,-8897,5383,-2393,14189,7815,-4400,3508,-607,-5784,-17555,-6370,-5241,-248,-10316,2461,4812,1641,4905,-17354,-16543,-10934,-3890,4284,-7095,5823,4256,-5490,-6720,-10210,11597,5326,2247,3628,2317,6289,10108,-2524,-14662,-6061,367,5587,-1125,4920,-1517,1694,3787,-5944,-12758,2425,7551,-2380,-6708,-3206,339,-184,1259,-3465,-7271,11388,7024,6317,-14436,-9832,8997,10378,1592,875,9040,4889,-1312,12387,-5902,3886,7959,-10604,4824,-14039,7981,6104,-16489,-9187,-7867,-13581,-7727,-1489,-11399,8852,-6440,-10130,-8545,4226,7834,-6879,6068,-7165,-5900,-10903,-4020,-9839,-13220,-5403,10803,22300,7643,-12363,-2468,-23154,-13882,2226,3860,19069,932,-15802,-5544,-9339,-3382,3451,-2469,-12760,14634,243,-8683,860,-6665,-3014,-829,-16568,3560,21283,4455,-68,121,-9858,4002,15575,2970,900,15306,15350,-2045,4124,131,-7595,-10233,-19526,-18782,-6043,5448,6453,-760,-2278,8304,-6151,10228,3721,-6732,-911,9153,-450,12051,5835,3954,-1311,8958,-8737,-9485,5914,9213,2996,-2235,11855,-8700,95,3177,-2164,-84,-7993,5358,6232,4285,-4237,-7245,12459,
131,5016,-2715,-2753,596,-5880,-13017,-2137,3376,-3840,-9893,1098,5094,-5640,1138,-4656,-7872,-2892,3923,6311,19101,20978,-17540,-36682,416,-11110,-5956,-1437,668,-24931,11149,-3156,-19261,-8835,-3773,658,-4147,-4982,6280,2909,-9802,-19264,-2552,-4876,5170,-7893,-10582,-1714,-7547,8889,8389,3890,13860,2615,-8800,-6680,-423,-371,16970,40513,-9741,-4884,3655,-329,20727,25355,4729,1180,-22090,-16689,8186,-13109,-3339,-7368,2358,-886,7118,-2227,-692,932,-5188,7805,3754,5339,5424,4809,-6542,200,6616,-2367,-6617,-1695,-3637,2034,20038,18935,6607,-1937,-3477,10226,5702,16250,-4389,-1914,10340,12826,-7498,-2413,856,3751,-9813,1950,7916,-9232,3776,-2966,2702,180,-6584,1136,6417,335,2056,11582,-8584,4745,-8000,-2258,1105,-8743,-15428,-3191,-1226,-5287,2652,-3293,-8480,4920,6124,2871,7903,-336,-10553,13497,-662,-6363,8462,5745,3128,-29,5111,-2453,8943,236,10551,4009,4276,-2167,3309,6732,-1145,996,-5009,1526,-11286,7004,-3013,-664,7543,7539,-4552,-3798,7877,6034,-211,-3531,1523,-5101,1866,-8293,-4117,-3854,3951,-1041,-8441,-17005,14283,5119,13950,2068,-11665,-4623,-3867,2852,-2125,-4910,-7914,2998,-9551,-8095,-2084,-13405,6582,621,-2742,-9942,-748,16615,1957,-2642,5127,10785,19582,8182,-14412,-3654,-8901,-4789,-3678,3164,-184,-7352,-680,4935,-10116,676,-179,-5853,5067,5367,292,5263,2638,233,2147,5747,-2797,-4563,-7843,5614,4831,-5504,3931,-12204,-1356,-10917,7013,15603,6002,11165,-9344,18285,-8359,-5122,-242,481,6920,11324,4317,7924,-6211,-7132,-8359,8903,5055,-990,-7465,10804,7084,-11457,1278,2940,-13624,3105,23102,12856,3557,-1617,-1366,2074,-5583,7804,1231,-26945,1427,4386,6594,8468,-4523,-6253,-4564,-9243,-4333,-10469,1751,-6168,14682,-1206,-7526,-15985,-4086,-460,16089,-3633,-19370,-30564,-9354,-1741,-19669,-3517,1018,-20301,6904,-6823,-3795,1088,5907,10206,38812,2150,-20226,-12828,-4172,-16936,-5017,5825,-10779,4245,-5627,165,10531,-8128,-10339,-7054,-10483,-12155,-13169,-233,404,-6313,-7653,4443,-2392,-9915,-4508,8690,1229,3674,-12813,-12381,778,4542,-11759,-8274,9298,-4749,-2228,-6244,9401,3159,
-2154,-4668,11652,8450,-9412,-23139,-12445,-3356,4000,3193,-766,-18497,-294,3112,-3618,5152,2394,-4765,4148,4214,-16404,-25943,9849,-8098,4778,7479,-96,-8364,-21611,-12795,2429,-1158,5831,11245,-4918,-7276,-19065,-13540,-291,10099,-3448,-13048,4165,685,12947,6346,-1957,8293,-12950,-7814,-4244,4928,-5356,-5411,-6501,-1718,18649,-9138,-32407,-16124,-8603,3870,-1709,5448,-3821,17859,-8447,-22950,-13402,-12433,-12915,1430,-7327,4144,-7616,8260,9416,-1066,-9,1685,-8980,4620,4228,8869,7149,-6026,-4086,15165,132,11706,9349,-2135,16317,4007,-8347,-6503,-4290,-4918,-4832,-8892,-16392,-17436,-11894,-10514,-5865,2966,-4025,21311,-10125,10011,11653,1284,-4956,-4570,487,4251,16398,-4479,124,-7941,9075,8507,5666,-6345,794,2447,1669,17556,-2632,-19012,-367,7018,10067,15294,5557,8653,-3626,4150,2356,-1430,4038,587,5440,-8612,-10969,8648,-2132,7389,6528,5513,-6743,-11015,-10957,-11650,2144,11288,-8998,-8683,9384,-6363,4962,7561,-7438,8908,-2560,-10244,1472,7323,-236,7442,-6765,-9114,11567,6528,-10098,-564,-3685,-4301,-3787,-4683,2882,-4579,1473,-1713,4715,-7847,-1533,8240,4447,3101,19536,1109,-1693,979,8373,2424,-8934,-13068,-1461,-3871,-8232,12261,-4610,-14844,6201,1086,-14485,-10603,9545,9934,-1481,-10285,-1011,11844,-7305,-15319,3340,1503,3312,11315,-14306,-5315,-3708,833,12829,-4742,4511,-2804,6941,1923,13697,-10515,5801,8608,2023,8832,-1671,-9567,10263,7029,1091,4046,217,13257,13949,-12648,-6338,2588,-12882,-4439,-4714,-12974,6522,4122,-17073,-3854,14155,6351,-6802,3631,-14324,-880,9122,23885,-2214,-8730,-945,20894,5002,5096,-3547,-8299,4304,1683,-5903,-23261,-123,-6165,8630,-16983,674,-5170,-10846,-21307,4907,-3983,-1248,12522,-3176,4213,6606,12653,-7826,-5877,17444,532,-14040,15378,-4221,-9987,114,-3693,-20955,-14416,1103,14176,18869,-285,-10391,-4848,-2765,-21837,-2944,-285,-4115,6843,-10070,-5835,-1830,-2593,-16293,-15272,-22732,-4027,4261,-1249,-12347,7268,1872,-6323,-8948,123,7829,-10074,-11217,4353,3651,11955,9965,-3112,-8065,-12239,10123,-10256,3119,1815,-3153,-1081,7888,-1477,-3129,2117,470,-9423,5380,3877,7941,1411,-6415,-12156,
-2638,2259,-251,306,-2224,-6560,9403,-15,11388,-11021,10609,-958,1368,-18989,3252,881,-13625,-3116,-335,-8338,-18885,-175,-7256,-9140,-2154,3224,-2560,-14285,-5745,-11729,-1079,11977,4182,-7733,-2157,-6730,1771,-15808,-10675,835,-7677,-17363,796,-14067,-7789,-2340,1504,-3883,-310,-10786,-3783,-2941,8349,5701,2489,22223,-8843,-7218,-9646,-15268,816,4508,-931,-1360,-11659,-8935,-13847,-35629,-23908,-4352,-10279,-6051,12017,-786,-754,1559,9177,951,4984,-6147,-3385,9683,-10891,-9563,-10693,1403,1050,-2028,-7756,1772,11132,8277,-5363,5994,-6929,-13309,1543,8387,-12449,-2930,608,-864,163,5883,-12449,4950,-8552,140,12196,6963,-8812,-433,-8011,-10221,14770,12479,-8077,-4137,-8667,-13711,6433,3434,-10189,-3445,-3099,-4498,4469,-17090,16016,-10430,4595,1994,-3480,10284,7587,8108,-4149,5301,-2311,-882,-9117,-3892,5551,-12254,3710,8770,-3521,-3626,-11448,-9613,1823,-7651,-917,-12290,1788,10267,-7299,6563,-9416,-12429,6616,-2268,7732,-9883,-1418,-6254,-5238,1322,1267,-5356,-3293,-3154,-9566,12006,9103,-7550,6556,-1500,-11019,11493,-1688,6511,-20,-2948,-3359,-18617,-10362,-8089,-8286,-10290,2731,13394,-9395,6493,14171,9421,13398,4327,-6760,1500,10099,10368,5485,3068,4704,9907,-2392,-15518,-5421,-6017,-1580,-21646,-14586,-1242,-9304,3298,-2482,2164,-1035,-5703,-5637,-2019,-2287,7805,-7386,-8334,1363,7996,8553,-2230,-6919,-4400,3581,3775,5336,-5119,13069,-5040,4990,18811,-8584,-2678,3612,-10670,1591,-2951,-499,9357,-4401,6104,4131,-4695,-4954,-2155,-4765,12,17991,14295,-5751,-16707,-9600,-1934,-1,4004,-3919,1930,-12232,1120,7591,-9722,2961,6764,1819,2051,-5268,-16048,-468,-26,7513,-13786,3480,-271,-14601,-19195,-2076,-765,3563,-16870,8161,-11481,2108,-7038,-18606,-11716,-12728,-6332,-13288,-7164,11062,13617,-12385,4468,10,9738,2256,17379,-11864,751,6281,-2734,-1808,-3064,-8154,9011,-1414,491,-9883,-22591,-27896,-13922,-684,-1627,-10885,-7596,868,-5121,2438,-8552,10746,3659,9468,11513,5066,8071,3600,9505,-5982,-10289,3381,9418,-5482,-2919,6727,-9527,-774,-7116,5213,9864,-11226,493,-640,-5455,2306,1160,-1916,7162,-1514,244,-9459,-4834,
1068,-11261,-15475,-781,3434,8245,484,2702,-17265,-7039,3027,10860,-1162,-3449,-10926,7946,-2875,-10749,6888,5817,9641,17051,16330,16130,-9018,10386,-7744,-7849,-14171,-9407,-11734,3395,5823,-14655,-8852,-1955,6737,-2636,-10521,-15960,2116,10599,4211,-1270,12437,5668,-5758,1570,14681,4548,15326,-1848,18576,9869,4172,-4631,5667,2146,1074,-7358,-14232,-10457,-298,3122,-14598,-8970,-3892,4073,-16414,-1173,-16528,8927,1452,574,7191,2193,-4696,7256,6350,-12868,-885,16,-4964,10866,9980,1205,-6216,-2517,-4162,-7224,-6133,-2643,13137,3123,-4344,4075,-4185,7122,-8037,-2680,-2423,2804,6019,-3426,10722,-11862,-9464,-9877,-13411,9621,-8059,-11165,-1699,7998,4321,3025,-4889,6292,20784,11301,4083,4131,-2318,3014,7434,-10928,-2685,15761,15930,14491,14023,10682,-8505,1653,-5932,9689,13443,-11599,-8793,90,-7901,4301,-5971,-5328,8944,-14199,-3387,6586,-12492,-13469,-3213,-10060,-2867,-8111,-3779,6532,-2798,8707,-5668,8445,-8857,-8142,-4361,-3617,9138,-4395,2562,4135,-4740,3374,-1426,-1513,-7367,-13643,3088,747,350,5751,153,5368,-7720,5903,-14388,8224,3969,11583,-2827,-2444,-517,3820,9049,-12114,5649,12964,-550,-4897,-3495,10929,4008,7373,-7271,-2641,-3766,-13951,-9810,-20587,-11743,11452,4286,-17774,5566,-12262,-7008,-11952,4346,-12977,11849,-3525,-8525,5304,6390,1615,-5789,1845,-6299,9788,5762,-6129,6683,-2695,2623,-4484,7546,-4171,10914,2005,-1398,2310,4334,-6085,-184,-2917,-2804,-3235,11764,-637,7031,-3581,-8465,13646,8997,-16120,2755,-10301,11985,5766,-19615,-13977,5110,5513,-7258,-12800,-927,-4670,-1592,13590,-7655,8252,-3402,4897,2879,-4112,-1267,-17521,-9594,-6860,2171,5968,-1169,-10616,-8667,-12723,3297,-7924,-1383,-6714,-4585,-7720,-12771,2404,-4887,-2485,-220,3691,-12546,-10562,11930,7634,1529,-10392,-10286,154,7269,-2974,-4115,804,-5409,-17621,2002,6377,-11600,-8518,-20106,-4743,-5318,-5844,-17436,4254,-1518,-5691,-2270,-14010,-21058,-416,5884,-8944,12926,-4457,10859,3699,-8885,6430,9264,-7905,-5776,448,8079,4419,-3554,8350,6064,11681,7588,5666,-8165,52,-5902,-579,-2349,2037,128,-4434,4848,9712,3277,-3936,-8899,13941,-2888,-2553,
132,1982,-17231,-8663,-522,713,9030,671,-4560,-11738,9931,8776,759,5128,7575,1248,10506,17094,8687,-5682,-15714,-17306,-1416,11670,10173,2903,9657,17585,845,233,674,1166,-4184,8741,2073,-256,5394,11914,-18116,1859,19840,16311,14358,-635,10934,-6860,-1935,243,-3193,-18188,-22008,-20226,-14094,-9299,-12847,-5648,3307,-1131,3805,-2788,-3139,-159,2220,-13355,6708,3552,2217,8202,-12544,-7943,-14257,-4705,9177,-4700,9552,13088,8143,6440,-3383,12257,786,87,1194,7278,-13842,-7752,1465,2111,-590,-711,-4363,5008,-3614,-1595,-4827,-3212,11315,-83,13097,-4846,-905,-6045,1419,12376,-4821,-5991,-9180,3966,3998,2541,-575,-14637,6791,9666,-8833,-3223,-2781,1262,-1142,11154,6658,7091,5845,-7739,12364,-12116,-3262,2563,-22104,-20412,6382,9034,10713,-1213,2320,5177,10970,-745,-12431,-3514,6819,11152,7909,3053,-4192,-8748,-4056,11365,-9285,3602,-1859,9382,-6603,2936,-12128,-8741,-4977,8487,-7548,1833,9223,-676,-11752,3949,-2525,709,6523,8705,9749,-746,10285,2374,-6383,355,-3598,-8568,-545,5590,3719,-8899,-9614,-3013,2378,-617,13215,7950,8245,-3572,-4792,4348,14105,-14390,-4803,4959,3570,-6284,-20123,-2505,-11628,-7175,-18627,381,-2575,5861,1637,845,-546,-7383,5155,11024,-5090,-15361,-10214,1745,913,9231,539,-1509,-3936,-7523,-234,3961,-3769,-2099,-5029,7814,23502,8746,11274,7255,1395,14255,17153,-12948,-1611,11735,-14181,5371,7081,2386,2975,-6786,-16520,1234,3230,-4475,-8540,-12227,-12759,-725,-8343,7557,9522,1458,1703,-1368,-2876,-13,-5011,16364,11897,1567,5563,2702,-17413,-5534,5932,11711,3162,10355,-10809,-9844,11111,2840,-4950,-9254,9436,5683,10176,-9258,1587,3418,4971,-2294,-5348,-4395,-11639,7740,10175,6402,-2682,-3476,30945,17988,14787,5974,7133,-2277,8489,5062,918,-7328,-6836,-5136,-16328,4079,10145,-3950,6668,-1549,-2537,19533,-11077,3195,14603,10174,6503,3325,-2947,-306,79,-16936,-12997,3207,1518,4375,-3825,7851,-8613,-10704,7682,10539,-2198,-10016,3474,-9093,8886,8653,2717,5511,-11504,-1374,4932,-3245,-9637,-11190,8473,11045,12203,-6510,-3692,12701,6075,-8213,4756,-1422,10684,-106,1923,12698,
-7145,-15692,-3096,5801,181,9582,8806,10106,-3137,-6700,-6437,5180,360,-3875,5035,18469,555,214,5460,-5094,-4776,5615,25445,9371,-6052,-856,-1496,-2646,-16898,650,-2950,10351,14647,12467,5327,-10433,-11318,-10752,6174,13623,-8283,6781,2885,3721,4473,3162,809,-11400,-1291,6224,-5315,2066,-2730,-9221,-2988,3961,13001,-8442,-20848,-12029,15000,2934,-4445,3035,-9029,-9539,1305,12515,17977,12784,3993,13702,2747,-7449,5160,2069,327,-2318,-9424,-4413,-11068,-4231,-380,13,1615,-2733,-7445,11970,-8414,2030,9844,14916,7206,13247,-7615,-27226,-3615,15737,-16507,-14292,-14795,-11715,19805,20180,-328,-813,5583,-2254,-5010,-8994,-2437,12070,2803,8927,-3576,-5794,-4609,4804,7740,-1226,5458,-10834,-5645,4238,18415,-11,-7582,-13143,2384,15344,4428,17350,-7618,-16908,-10067,-3494,11264,206,-8093,-11416,-7599,-5762,-2437,-12138,4977,-5032,6960,12582,7128,-9945,-10692,7131,10028,9552,-4432,-4705,-9323,5933,-9428,-8442,-9076,-6214,10999,7158,6368,522,1395,507,12427,-10255,-3917,3781,11636,5049,-8141,-8928,8751,8814,9857,-5740,-5025,-1857,-1713,10242,1868,8858,18191,6425,18632,7029,15253,-10610,4736,-6357,15534,-3571,-16966,-8276,2860,3470,-3856,-1381,-11817,-3370,-2916,-8231,-11800,10028,-8515,-3007,-3484,-25601,-12690,-6164,5642,2231,-7089,-8768,-5331,-10538,-578,-6099,6197,3058,-1617,-1096,8451,6602,6057,-4105,10459,363,7310,8683,-6564,-6828,21913,4470,2338,-2109,6851,-10398,435,5606,-2715,1612,-10860,-7945,-6365,4987,292,-3726,-10068,-7306,6687,7031,-19097,-9925,-3221,-18154,-2710,9351,2853,-14094,14308,2960,-2793,21977,6111,5803,11295,-6801,4096,-3702,1924,-19273,17150,3051,-5165,-7729,-4797,-11941,14459,9780,15886,-388,-1949,18318,6962,-3711,1650,-10009,8627,7897,-10235,-2176,24114,15626,3029,9731,-6697,11388,24468,-8963,4941,15601,421,5661,-4412,3675,17652,9996,-9661,6429,5043,6588,6863,-9806,-13527,5689,4455,22765,2998,13164,1336,-4479,-6728,495,-6725,2575,-1366,-13199,-1768,6658,-2363,-10821,9998,555,4651,-2705,9617,-3306,-6961,-8533,-9507,10010,8846,-10115,-6569,-3642,-6417,-7650,3211,3704,9601,-3138,-4338,5244,-12557,-1103,
-12230,1125,-7829,451,14268,17314,5356,1474,835,-1438,-3459,13243,-3257,12845,2910,-3121,13358,17832,14207,15415,10569,13169,14807,10997,-3197,-6000,7329,4324,-5357,1157,11426,-1868,-7768,-6358,-4503,-17995,-209,7966,-5239,-23833,-16153,11285,-12618,-11017,-7413,-222,10320,-13680,2514,1840,12542,9153,5652,1664,8161,-5825,829,3082,6357,-7921,15561,6953,9194,-3676,-15197,-5835,13374,4705,-16648,-25618,-25560,-30483,-234,-2328,-4156,-68,-10146,-7743,-1171,-1660,-8852,10483,-1115,-9802,8839,22942,-512,10498,9626,6094,-3129,19534,-4113,10479,4189,1,6365,8206,3441,10774,1987,-15687,7943,13743,9997,4101,8086,-7637,-3059,1269,-7126,1904,13517,-1002,464,2011,-2020,-9937,-16,2797,2358,1510,8417,-4519,-8351,944,-7578,4454,6308,18630,9167,-2230,-507,-10758,-9212,-1247,-5719,-2976,-4612,-9162,7485,6465,-6789,10179,-10069,-859,9619,-731,-8595,-4938,-3291,2479,8007,5030,-10202,-2758,7320,13300,-4755,-9633,-3173,5799,11272,-2092,-4079,9906,-326,-3775,-239,6902,11888,-5406,8143,13901,-10399,-7353,-4405,6309,6753,-7951,2967,-14137,6641,-2036,-2550,-6786,3194,-1275,10890,5193,-10365,-5802,8986,-10472,-8173,-5930,-7181,2175,4459,-4191,5531,-8001,-9899,-9690,14455,7283,12700,10976,-3611,3523,5869,23359,-4184,9893,-3696,-5173,-8233,-299,-8304,-15105,-8342,6874,6051,-11239,1100,187,-1424,-5864,-2181,-5130,-7603,-10634,-5430,-4056,-14255,-11872,-3794,-5260,1060,-3760,-8995,-5072,8423,936,11812,1464,16216,19980,13944,-7252,-2251,2724,5796,4629,-7411,9311,-3634,1788,7406,6979,3868,15541,-1056,-3307,2188,-809,12879,5562,-6695,3624,-8705,-3220,7968,9003,-14065,932,197,9576,11587,-1256,-18490,493,5300,-14436,4453,-10946,-1622,-14585,-8019,1924,-22650,-15376,5795,-4309,6430,10586,566,-1511,-9207,15264,9310,-1427,-681,-4873,4855,2120,-9894,1001,8926,-7743,1950,15534,9369,7185,-12052,-5408,-10744,-652,20068,8619,-19323,-9780,-13812,-22939,-13127,-10782,-5132,-8392,-8109,-9108,2190,-11445,-513,-7249,-13052,-13510,6515,-2126,2691,-1055,7190,-671,-11998,-8210,-10663,-11504,-10817,9493,1494,1442,9310,831,8156,698,6491,-13270,-13182,3268,7631,-10200,
11081,-5253,-6829,46,-4560,6407,-550,-7916,6468,-10761,-7038,16357,10067,4433,-8076,9930,760,15262,14882,5817,3184,-4378,-7359,-9063,15281,2359,-4583,-6123,-21559,-23147,5959,-5588,-14792,2154,2543,6818,16180,-14336,-5077,1353,-9207,1180,-13951,6987,-1095,-2708,-1565,-6221,8972,16164,3005,16042,1205,-6565,12137,15476,10445,-3609,-22651,6262,-10079,-97,2060,-14293,3266,26186,8854,5707,-1159,12885,8763,-7605,-6649,3191,-4048,979,-15,-13743,-9394,-2788,-1424,-3273,-1706,-3572,16949,10049,-10051,13246,3585,-359,3730,16518,8277,15418,4672,28239,-6809,10673,7656,-5543,-24080,-9748,-11211,-7327,-4073,-3929,-17867,-8174,20108,10362,-142,-7940,3029,-9808,7618,-800,-16321,6310,533,5756,-2158,17316,9148,-9657,-12581,4725,-2151,14304,9068,15002,-5831,-3931,-10801,-8227,-1781,12678,10763,-4316,10386,6830,-5189,9884,7752,18208,-7815,-1119,7808,-9312,6928,-8716,2388,2492,-9718,-6812,-10598,-2900,-2308,8957,-5033,-2339,-10236,2699,-7139,-9800,-1228,2580,-2132,9549,-10026,4112,-5755,-14612,-12613,-6059,-867,1609,-5494,-8787,8264,-11987,15515,5608,-19349,-6018,-2965,5561,-25483,-16414,5671,6987,592,6817,-8298,3517,642,-10975,-6464,5721,-2539,-6474,-11193,-9759,6498,-17605,776,215,-5009,4572,11851,4503,-7394,7089,13709,8210,18693,11317,11940,4274,-6752,-6291,-13931,-671,-8750,18500,1133,4611,-4353,-5111,-3955,-1250,4708,1494,-14647,-5495,-14202,9718,9859,5753,-6519,-11891,5931,10438,10817,9142,14917,9007,9344,624,-5005,-3334,15192,11332,4220,-5062,8825,-1622,-15095,-11115,-765,-3954,-7771,-11207,-7851,-3446,12114,13794,4895,9588,4680,3041,3364,-1321,9351,1957,10672,6788,-7401,-3375,-11387,-13223,-11731,-13876,13656,19887,-18807,-8565,-12117,-14372,16037,-252,-15528,-2521,-1346,1290,6587,-17250,8203,4661,-8203,7450,6356,6305,-2490,-11318,-17687,-34530,12365,-1224,-11924,-17436,-5448,-6679,20733,-17837,-10793,-13526,2526,19291,11964,-3940,-4192,7899,-3266,7105,12443,4101,5254,-9532,5056,-7384,3450,12527,-2201,13077,-1866,10202,-2516,-1697,-4702,1224,-5594,-3794,-3573,3804,-7202,-7658,-9174,-5349,2467,5908,-9652,-6425,4749,4659,9036,-2896,-9346,-6265,4264,-7347,
9616,11778,4728,-7927,-23141,-4510,11899,8579,2225,-866,-2255,-2418,-2809,8783,6154,-1956,-11027,-20733,-1764,19482,-3453,9376,718,1128,-7405,-7797,-8417,-8267,4704,445,7894,-13674,7053,-9648,-4015,5042,2526,8418,14996,-1927,10486,-11712,-5950,781,-6308,-1393,-7675,15511,15553,20989,5682,2426,14117,-11202,-8980,3312,-10946,-7599,3171,-3573,-1374,-5649,-5455,8704,-10796,-9708,14866,14449,9430,1538,13669,14256,5993,12198,-6427,-6655,-2748,892,12502,-9590,5563,-1854,1571,12415,327,13226,-6095,11053,3884,-2557,-10760,5464,13899,4448,3902,-13150,-8663,-12283,-4486,-10229,-3654,-11702,-24747,-19653,-15693,-6346,3288,661,23474,2456,-3832,385,4734,-1937,-3932,-4995,-7691,5266,11771,-3500,-11603,-6818,-5473,-1565,11142,-903,-18821,-7468,17763,12216,-870,1228,-6697,-19822,-4909,13145,-9462,1221,18197,3921,5055,6496,1677,1445,-4506,-4057,-3998,-435,-1306,-2506,5533,6006,-7638,-8388,8036,-4956,-2408,13468,7463,-3333,-4944,11052,-10380,-8678,11069,-10038,456,1304,4673,3352,2511,13355,9581,-5636,5907,-4772,12446,-5080,5628,2127,5867,-5031,8647,-2438,-179,-1630,-30388,-23638,-8210,11172,-6021,10755,-544,-8476,-1139,-3025,-3079,10729,-7920,7946,3753,-5117,-1821,-10733,-2039,15319,-1383,7622,-2231,-6056,3260,8331,19871,3562,-3296,-945,4654,13012,1149,4980,-1120,-13445,-790,5191,-4046,10750,-7588,-1042,-14952,-6885,3121,3166,8756,-3689,-1616,11040,301,-8217,-13691,-1440,-13189,8590,12397,-11427,-11484,67,2623,3496,9983,-2103,-1660,-7742,7200,-3234,8110,-1973,-1178,-5798,-11305,-13832,-2220,-522,-7087,-1302,17092,3404,-1833,-3736,-1630,3302,8811,5706,888,-8998,12735,-11260,-16725,-4198,1950,7683,-921,1237,13446,383,-10404,-4309,-10331,982,-6752,9469,14787,1642,2129,-1873,-7080,-16207,14193,4445,-9495,5103,3865,1424,19604,4211,-1319,-8546,-21565,13449,-6175,-7444,3305,-6394,2883,-1386,-3400,-1817,-447,-3958,-10400,-11954,22085,4898,-707,-14121,-13366,5096,-13093,10373,-4191,-4110,6771,6428,7234,-10045,-6765,-11073,7635,-11685,2952,3401,-13504,5755,-11382,-6525,-3701,-11887,-12346,-683,-9165,-2905,6727,-5593,4451,8841,-9031,-9154,-527,4728,8568,8051,
16090,-6727,4163,3336,-5562,4591,-649,-5434,1957,-1101,5245,2825,12734,6062,12820,-5058,-488,-20084,1544,129,23701,11491,-1040,-1135,-5320,5760,8854,-7714,-10950,-13718,-12589,-5513,-9540,-8597,-12261,-5708,1704,19190,14157,-114,19553,-2492,10861,5462,10343,7204,7711,17245,-1315,10530,681,11912,6737,-1239,4939,-8219,5840,-13036,-3152,4451,-22433,-17144,518,-7658,1379,666,-1770,4690,4872,-8239,-6811,-11619,-3829,5274,11501,9189,5587,15846,3522,-3056,-1030,11064,7489,10528,-16226,-4287,-331,566,-3495,-6077,-9548,-2028,5488,6687,-552,500,-1351,-4122,13363,-6688,8746,1851,-10387,-16156,-1707,-4943,-10858,11650,-9,-5944,-8880,1069,13189,9442,2163,15844,637,-3979,14773,9322,-6713,17135,11261,-1672,9046,8067,7108,454,18118,11276,14909,12743,-3506,-7940,342,-1607,6385,225,-6297,-6936,-6971,-4136,10456,7007,-7432,7188,-10272,6899,-2948,7695,-1311,3837,6579,-6256,7345,6402,5489,-10231,323,1273,4794,-4987,-16048,7899,-11641,6615,3954,4091,-6312,-5141,-6918,-10034,-977,-8568,-8049,-5746,-10379,-6972,-13157,-8454,4278,3701,12901,6527,10435,8922,-7174,7169,4973,15947,8423,3959,2229,8933,12203,-3603,13596,1279,2426,9479,-6194,1793,7833,11001,-11783,-7161,-9188,7487,2224,-2368,-13858,-10237,9044,-5641,-3906,-7100,4512,1844,-5877,-2137,3241,-7003,1872,5905,-6250,-2404,17706,2632,2641,-7666,5630,7783,3510,5356,-6315,23405,-1272,-10196,3072,-253,14212,9617,-11236,11393,-4066,-8898,-313,-11519,2520,5168,14688,-1634,6608,8211,490,-4247,-10288,-1302,-5607,-1597,-1903,-6604,5857,5871,14150,16566,-9537,8756,-1814,-8114,-235,-729,-932,-2384,-6401,-12396,681,7180,-1820,2428,-6657,10611,3761,4789,-17129,1558,-5890,10452,10149,10088,13158,7230,6853,7285,6133,5936,17056,-7469,-5641,-2074,-232,326,680,8445,6788,3944,-6321,-2889,4361,-4026,-13059,-5866,-3437,-7789,-5021,9013,-4214,-11769,-14061,4057,7423,1736,-9543,-10018,3980,4197,2083,-7706,-5894,-5606,15661,-3104,5658,-7954,-7530,8042,8466,-5674,560,-7612,-6234,11323,9756,14207,14982,-1027,13785,-2473,-4838,-2400,612,-2034,2,433,-8515,9782,2905,-5382,3328,-203,
5973,8455,8750,-6125,948,-4638,10278,-1073,15827,12038,5631,6055,-5755,-7266,-136,18402,-1061,6719,-13291,-6303,4476,-6718,4984,10623,-8505,5816,13070,-9045,-16531,-13166,-384,1408,706,-2671,-2994,2334,9012,-2966,11349,8094,-7446,-5608,8490,-7013,-2475,-3943,3725,23457,5867,15315,-9735,-1149,3279,-14618,18903,4466,-1563,-11472,-30454,-13078,-11535,-2232,-9990,-4925,10747,9863,-2314,-23641,-25062,-19928,-27360,-22305,8244,-5718,183,2868,11813,7079,-9312,4763,0,2898,12085,7486,-13538,-4415,-884,1746,-888,-10639,527,1073,-2394,4370,-1621,8191,7246,10022,-7258,1809,-16597,-5023,-16,-14316,-11708,-10436,4914,352,7012,-852,-2572,3403,-10158,-2041,-4349,1967,-363,7640,-9375,-12491,-9038,-1585,-5632,-3624,4541,-12398,8605,3938,4682,3375,-9495,-11171,-1182,1457,1748,13257,5229,1631,-8888,-4444,9270,-3470,1071,1466,-11759,-1986,-9130,2803,-11173,9028,5264,3468,5825,-2132,-2733,2383,-6261,2427,-12312,-1186,-4230,516,-5558,-6408,-2952,-11189,-1621,2237,-11868,-6460,2651,-11500,2140,-110,-9311,8830,9293,-1158,-4779,4910,8245,7750,5042,-1162,278,-10999,-2020,-1122,2501,2984,-14047,4719,-349,3048,13640,-1381,-1570,23160,10259,11562,-2630,-9342,-8742,-8338,5857,-14559,2286,-1662,-2854,15970,-9496,-4262,-2464,8047,-11106,5425,3456,2596,1125,-943,1452,-12315,-3487,-5430,3829,14222,-4958,-2503,-3522,6492,-2220,4943,-7566,15407,11739,-1011,4843,-2944,-7149,17310,-8536,5353,-6938,-5344,-4398,-5370,10221,2374,-498,10993,9966,21650,3677,-5477,14828,8981,14948,11599,-2589,-16076,-3297,-1666,-2453,17955,1017,-2916,-18944,-6095,2571,556,-1558,3554,-5431,87,7891,-1920,1540,-7099,-15885,-1200,-6501,-15585,1714,-21565,-13554,9004,-10172,-9061,5650,12583,22480,11403,-3401,-6709,5935,-8539,-990,6742,13621,14844,5530,1643,907,730,1284,21389,-1608,-7369,5808,-20944,-15174,-4690,-975,-1711,2591,2264,16046,11395,1820,2188,-12085,-14351,-9455,-8431,7296,-6281,-886,-1597,5282,10653,-2900,-7105,8229,6226,10248,-7670,11292,-6358,-3566,-6471,6607,3018,8368,8594,1341,-7123,-8161,9731,-8815,12110,-1431,-2170,-9805,5758,-9014,3078,-6608,2044,12822,-4197,
-7361,-2539,3180,5385,20428,1048,-5324,102,4405,14457,5894,7077,-6280,8352,4243,337,-4475,10644,-1415,-3357,2525,-4412,-9201,-9378,-14076,9682,9554,-24549,1804,-24865,-7813,2586,-1608,-24361,-4928,-5825,-6306,7658,-2481,5667,-8832,-807,-121,6823,-261,-3709,10590,397,-7269,8101,-2914,6269,-14289,6526,-7749,7419,-1651,-14559,-10335,-11458,18032,-327,-6836,-20402,-8699,9394,6288,-3700,10633,3414,-1297,-8495,-228,8765,7053,16442,2,-1618,3953,-1093,-7204,8919,-3835,6260,8696,6280,-9650,-6259,-4364,5081,-187,18296,1320,14991,-435,-7483,14380,9499,3898,8156,-15348,-21360,21859,10742,2914,-6139,-8576,-188,-14637,-15012,316,-5801,-6700,10139,2861,-5145,-3256,2854,-6415,4030,5138,-8325,938,17595,-749,6392,-9660,-11263,2751,4345,8892,-2203,-8001,-19223,-13170,5001,26,248,2678,-7891,-6424,7579,4734,8528,-4988,5609,4420,1589,421,-11362,-4292,-1777,-8915,-3521,6509,-921,-1433,5232,-5291,-2245,-10370,-8623,6867,-9159,11397,-4921,9691,-1178,7295,61,-7374,902,9074,10405,9405,2882,3340,-11635,-11194,1883,-9132,3565,-4069,7376,-1673,2596,23398,6897,-4136,-9342,9102,-8963,16511,-12524,376,-16480,-9142,-5856,-13354,-4731,-7528,-1643,-20437,-14339,3562,-8205,-555,-4603,-4032,-993,10774,-19299,-13006,3818,9895,3742,-10817,-897,1968,-1076,558,-5596,3700,705,6780,6648,-9164,-6314,7249,-1560,-5512,11861,-2402,5137,9509,-17993,426,3207,-13385,4403,-12217,-4016,5732,-511,11296,-13522,-394,-10429,-4151,11461,5148,7240,-6183,-4360,-1900,7290,14291,13728,4941,9833,3324,10115,7471,-1685,672,14030,10843,9852,7556,11369,10482,-2349,12531,1306,3729,-7373,11978,2862,-6464,-19823,-24075,-10832,273,-9296,17676,3722,-7866,-27971,-11459,3649,-3243,278,12883,-5918,-20054,14881,-5141,9808,5872,-4571,-10398,-5425,6489,6018,6350,-10571,-20058,7422,15227,-17924,-13759,-19323,-18103,13769,-10575,-17468,-6055,2138,-18473,5673,-235,3877,-206,-9552,-11606,3581,-4301,2361,719,5643,-2761,10332,-2889,5484,-5117,9256,-910,-4442,6399,6453,8205,-6914,3271,9559,-1926,5950,-9219,9970,267,3488,1445,-9786,5727,-11609,5818,-8408,6053,559,-12771,2549,
13023,323,226,-6124,2308,8879,1903,-4335,-1400,-17009,9433,5915,-8776,-15029,-3842,9693,-10446,10751,-10131,-4944,8634,-3779,10345,-8116,5988,8466,1912,9550,2964,2091,6298,260,-2931,-12315,4515,4123,8126,-11916,-22429,-10846,-6438,23692,2662,2745,5780,7799,-4204,13227,6021,15281,-4260,-6987,-673,-24015,-7369,4796,1110,-13306,-16092,-5408,-11670,4327,-8247,-14996,7137,750,16947,9358,-5863,3026,-6033,10196,9874,-1972,-7209,-9799,-12570,1322,3998,-7736,-690,-776,-805,-8785,-10188,2434,1034,6183,-10568,-10626,-8844,-14183,-8249,5308,-2033,-1304,-3490,5605,6616,4803,-4907,-728,8045,5842,9819,-11122,-14409,-5177,3189,19032,-3001,-822,-10513,-10011,-641,-3695,-20012,-8607,4688,-3271,576,-11968,2545,1091,3398,12086,3227,-4435,12813,3954,2827,2406,-2139,-1150,1982,4256,19486,-4929,-4367,-6866,13378,968,9344,12492,9233,7608,-6680,4230,-5403,9210,8948,-7964,-9768,-6338,2765,10861,-9640,-3070,-7055,-4230,726,9,-2375,-10408,-1539,8854,-11330,7881,7701,-665,7144,10663,8141,-5922,7962,3310,6111,4114,-7089,-11372,9683,-4425,-6816,-6087,7969,-2887,-20838,-24458,-2365,10064,14476,23269,5216,9660,1048,4033,13030,21739,8744,7620,-2422,6290,1344,-15711,-3316,-9333,23068,-1342,-12021,-17848,-965,17514,5050,2279,-5825,-1933,7210,754,-10144,-11408,-10501,-2873,-2016,7280,-2889,10465,1415,-1207,-10918,-12012,9364,13829,13489,28564,1309,5818,7246,2087,15173,1774,-3476,4129,-5057,-1629,-2474,3780,-107,616,22841,9936,-2391,9827,-6540,-5385,-7882,7371,20040,16795,-4914,-2917,530,6023,-4935,15153,5587,4574,-5320,-534,-7313,-3531,10686,-220,-10964,13242,-1805,-4119,-557,2930,177,5844,-6525,6335,6553,-9632,13878,4485,-8357,-9573,21440,-6061,-9875,-2974,1624,16048,12432,7173,19414,20799,18812,29195,5002,8510,7626,6954,6412,7061,-14143,7852,7632,3179,-13259,-2397,-2905,6142,251,-4113,13307,5429,26806,6004,-1801,771,3316,153,8510,-10371,-8227,-8202,-9364,3698,-10694,-1211,768,-9312,3801,-5104,675,1427,-9551,-1560,806,9974,-7463,6229,-8634,4990,11403,-8204,3852,953,11905,6336,-3317,1009,1872,9540,-10796,10731,8581,-5089,
4082,9051,6661,7557,-3061,-89,-5092,-7314,6568,-8471,-4575,5144,-10985,-23283,4859,1902,-2884,18965,-3960,-16727,-963,3096,-3643,-14369,8476,-8152,-15565,-9159,2997,-13180,-2860,-6613,902,-18535,-8533,-5682,1575,-20449,-2521,-5976,-24808,-284,-1963,-7369,-9160,-9142,-1114,-3165,-4973,-2703,196,3306,9273,-13375,13595,5947,-7182,-846,6715,6892,799,6591,5435,-31714,-23659,-23355,1230,17445,4755,18609,8720,-2977,-5252,-4161,-13637,1875,2459,-11640,1771,6656,-7061,3586,3706,4645,-10964,-20387,5083,4322,6283,8645,-7771,-11462,317,-9509,-2431,17989,4077,-5458,-3854,-3650,-6259,6315,-9404,1733,6764,63,-12052,-15934,3518,5555,-7764,5100,-6123,-8927,9738,-2892,-6876,-3280,-7085,-11680,2927,-4717,5159,-911,-4349,1894,-315,12604,1767,8422,5027,-1733,-1719,-680,13162,-5063,-1829,932,2887,2752,-2417,-4029,13143,-6110,4928,3773,-8942,6565,4004,-7984,4575,8705,9699,8208,1307,2852,-81,-6201,-7197,9873,-5134,-10126,1497,-8496,6082,-8318,-10678,10538,-7561,7011,-2133,4653,11397,-4311,-10984,-968,3790,-7753,4163,2404,-405,-4315,-18917,-1065,-6542,-1576,-3854,-15284,6049,6342,-1896,8907,-5353,1304,3860,5755,16094,17774,7260,10422,13118,1108,6533,15171,1998,-4003,4107,1877,2873,-10350,4877,4031,4285,3352,7574,8495,5912,5167,-9403,1422,-7257,-11665,-7603,-12376,-2334,7993,-10244,2533,9403,8655,-2383,10579,1698,19396,-2112,-2116,1488,10542,-9502,14081,6300,12378,16189,4331,4336,14115,8134,-6260,11731,13225,15971,2744,-1032,131,-2123,2267,11957,14884,-5088,-15473,-3434,-2187,-7439,1868,-10869,-13207,-10889,-14311,893,7103,14276,10783,-9466,-1741,4810,-60,3544,7944,-7201,-26162,-5144,-120,6348,20261,-2123,-14199,-19693,-38024,-10028,-2336,297,119,-21248,-9107,2308,-6362,1957,4640,17744,29870,-2930,-6065,10664,4202,-16733,5113,19686,8297,-4082,-4872,-11292,-1107,-9581,9418,-22975,-19203,3421,-9814,6022,-4435,12436,9914,9403,-6354,-4309,7099,5119,-7797,5379,-169,5146,-7293,-4338,-4344,9328,3258,-4361,-4895,7778,7675,4728,-10104,4778,12055,283,4841,-4673,-443,-6205,1920,10367,6174,-11226,-7755,10687,-2782,-9620,3687,8957,8360,
-3733,2905,-4213,2227,-367,-12896,-11071,578,-5854,1433,16316,-14291,-9937,4442,-4800,-4975,-12471,7324,-17695,-9056,13,8315,4087,-675,827,-2134,-344,31697,-14211,5298,-11516,-7526,10569,19036,5977,2234,9367,13089,7125,6942,15330,-5625,1333,10676,-4458,-13440,-5382,19854,-2929,-6877,10579,-18002,-4384,-18259,-14745,-11070,7187,3640,13254,6164,-4040,3798,9796,15446,1093,-8278,-3247,4882,1477,-7208,-2269,11552,-2344,91,11149,-568,-629,4963,-3978,8541,2084,-4103,-3563,17356,-25,12825,5384,3271,-6601,106,-4374,-3278,-11029,-2773,-2107,5098,-5500,-8881,3399,-5641,22753,1692,-6161,3606,6881,-110,1932,-2837,5455,4004,-939,-6541,-1402,-8313,-4579,-10052,8620,-1772,5105,-10238,4819,-6988,442,7847,12460,12427,4847,-3501,-16506,3888,15103,-9079,-7051,226,-9930,-7729,3406,15,-7679,702,-7417,-3751,-2558,-10793,12341,-4800,12911,-9032,5525,3378,1171,4661,-7456,6967,10829,3279,4579,4206,9510,-8137,2144,10433,4272,13229,5506,-2806,3566,-7563,2860,13652,-8004,4473,4717,1347,5286,10544,2885,-10336,8667,-6205,-2866,8220,-2182,-2572,2583,-5683,1639,5086,-1538,-2151,15445,12900,-2295,7669,-8699,5192,5049,-5577,-8048,-13243,-11711,12659,-3809,11733,-2563,2176,10051,8129,3744,-9900,3806,-624,-2304,585,-6098,-4890,-3775,-3420,-6608,9462,1852,-4723,-2828,1469,-4257,-5444,6084,-4877,-3165,-2737,3979,-5410,15872,8100,4517,-7298,-4538,11621,7428,6868,-2070,-1047,-977,-2557,-19163,-5354,-3911,520,-3580,-1235,-9193,-23047,-4596,-1323,3504,4417,33451,7965,-6555,2869,12184,-4226,1758,10728,-351,-8965,-3979,11165,-43,-5390,-8369,-8621,1189,11418,-6747,-7284,-3172,-11415,12846,21243,12192,13979,-15437,-14232,-2084,3030,7984,24012,-7218,2489,6460,5927,-1025,-8744,-14354,1564,530,9609,9317,16238,-17830,-4617,-11065,7284,-4987,7637,-261,-3470,7684,24397,-3351,986,-2102,-3809,24579,16046,-12888,-15741,-6187,1555,-9554,-13288,-10128,4846,6876,6222,-4503,190,1749,1109,6515,8071,5510,4925,-2089,10964,-10415,1371,1298,-5415,-5847,-887,-4960,5788,-12582,-11755,-10970,-3152,289,-12734,-7412,-13371,1150,-8050,7079,-12931,-6739,6741,-4331,1689,
-5303,-17946,12055,2547,-13731,-17207,2766,-3497,-6034,1408,-1954,1911,9296,-10627,942,6630,-2816,-6794,-4138,3330,-1872,-1682,3966,-12535,-15516,3042,-6893,5187,4049,-5545,-20579,18098,9438,1427,-6868,952,12152,-4058,-5325,-9677,-331,7332,-2765,1386,10859,3888,11232,15209,-4700,-6096,5611,8241,7840,-7299,6305,10264,-7986,-7544,-7000,16321,-6055,-1537,-9459,-11973,-1985,6137,-3698,13395,-5431,9788,4707,-12424,1085,-7610,-13291,-10498,-1262,-12870,-2124,-6881,-8086,2812,9054,-5453,11956,15673,-3040,-8429,-8959,3160,-6055,4082,-4254,3484,-8015,1811,8512,13463,-5577,-1693,-6513,13977,9268,-1809,1982,-599,-6525,-6386,-5791,-8874,9219,16131,2459,1300,1544,8393,8384,-8553,-15568,-4272,6323,-7701,-5447,3147,622,8494,-7022,3364,-5390,-4748,-18819,-9986,-12269,-10075,5717,7769,-2439,-4845,-4005,-11002,-18865,12303,10465,25032,-8131,-48,-896,3304,8078,1225,-5334,-10530,12100,5830,-1621,4794,-7204,13326,-642,2015,-4595,13370,-7764,7404,3371,-311,-3166,2665,-8352,5821,10327,998,-6029,-10948,2646,8545,414,-10134,8252,7197,-9290,1738,-544,-6901,-6253,-2705,-3987,-1941,-7463,370,1911,8495,-7114,-7787,-3487,12894,1896,13318,3449,-9554,8710,-8264,-9883,3210,768,-15785,-250,5264,2898,12193,-8520,-4972,-2655,6658,19019,4427,-5082,5934,10886,7985,899,-10359,1243,-9559,-6940,10736,-8520,-511,-1306,2458,-2529,1459,-522,9038,1462,-13942,-3308,-620,-7299,3574,8378,5809,834,-7932,416,-6556,-11158,-8527,-2490,-7436,-5450,10610,-3082,-5475,-15328,4525,5235,11731,4510,6535,-4244,-1152,-7796,9327,11945,-3268,2094,2736,9064,-3328,1516,8763,-2449,-4820,3892,1304,14716,-6701,1722,9646,8083,-6362,12560,11713,364,5467,-11410,-8413,-10992,-14144,2197,6866,-17062,-5632,13538,13069,5773,-4758,6176,14689,1890,6866,-5874,710,-5423,63,-13891,-4438,6753,-6175,5695,-1575,-19085,-4651,-788,7811,15316,16779,-5565,9631,12995,14152,1767,-13578,4739,7900,-7850,-5576,1648,10161,10630,8116,3124,-11728,10019,3566,11056,8248,410,6373,2633,5430,8635,-10924,851,9906,-2405,-12469,-10492,1957,8959,-5433,6893,1367,-10959,-2842,-5228,-2490,717,-12455,
-2531,-17533,6319,-2961,3604,2760,3956,-13166,3575,2578,-12667,1540,-13072,-20813,-838,-3331,-17072,-9648,-13193,-12851,-12982,-21626,-12183,-8863,17718,-2130,3165,11990,11991,-2915,10339,11742,-4405,2760,9974,-15687,9305,-8954,-4914,-10252,-7909,-1549,438,829,6537,-7527,-5154,-2674,1612,-5269,-23127,-9416,-2401,5564,10116,9681,-1656,1472,11847,-5526,20605,7488,-7459,-5226,1036,-1763,-19172,-14507,-4208,-10705,3965,17162,-3925,153,3012,-1068,7830,6085,8851,-3437,1196,-906,69,-2906,-15682,-7578,5,-765,4094,-4975,-4586,-7542,-14688,-803,-7399,-18842,21164,-1330,2402,10860,16929,1817,20932,9846,-11448,5194,7617,8858,-2275,4907,-759,-326,-5495,4346,1477,23,820,1795,-9749,1160,9564,-10331,-5123,13445,-8496,-6863,13534,-4194,-11707,-13623,1638,-10643,758,-552,-1017,5525,6439,4302,-14884,3606,2612,-6475,-5280,-1984,-9656,-5945,-4127,-8658,-1926,-5981,9573,-4055,2538,8655,-6345,-6219,8718,-2490,10352,8068,8894,7486,7569,3996,5397,-10162,-8686,3059,1431,7941,-11867,11661,-8210,-3281,-5778,6749,-8144,-4781,-6383,6903,-10037,8855,-5662,6094,7051,5638,14617,15117,4192,-2468,-26,5366,-910,-496,9638,10502,-3599,4262,-11915,-11593,6895,-5976,2834,288,-10658,-7467,-3375,-18842,-8853,-6802,-5354,-21256,-13658,-277,-613,-4716,-3733,121,-2960,-7123,1932,4480,10822,-32,6436,4900,6524,-1748,7653,4136,-16012,13364,4091,7781,12559,-12553,27,3968,2739,12159,-3289,-8502,7445,2422,-3992,5783,-16295,-5422,-6313,-13619,3609,-1344,-3862,-4490,7762,2420,6079,-3268,-9526,-5623,-6400,-4193,-1978,-10967,-13391,-18771,-12686,6162,-15426,-3363,11256,3762,-8272,11906,4502,-3235,7372,9627,-16615,17768,25210,16275,-19721,2544,20760,7292,6967,18700,15087,-2766,-12140,-1948,3162,2356,-1252,-4418,7841,-2815,-3391,-12679,-3800,-2586,-9115,-748,3366,15107,10314,-5613,11609,610,2027,-4500,5921,-750,5495,2909,-4982,-14908,-14291,6489,-17600,-11802,1916,4960,-6285,-8189,-6452,559,-8717,7670,8425,-381,-5016,-10888,-7941,1313,5456,-100,-2452,-9365,9929,7861,7984,8854,721,-5133,3713,-2676,-10624,10934,-10897,6100,-8477,-8044,7153,3404,-11607,-9224,3928,9529,
10854,12184,-11285,-6954,-3107,-6887,9363,3948,-13297,8271,10462,-12720,530,662,-11743,-6177,1876,3781,-2500,10567,1035,-9255,1517,-15926,4098,9392,8791,6231,9919,-9325,-4214,3956,-1170,12876,-3385,-5303,2173,13683,8868,8437,-5527,10425,5890,5142,-510,-3237,-1544,18628,3903,-1804,-8162,1851,-4003,-4679,3627,-9787,-1392,3278,1934,-7142,15134,-1946,5611,-13859,4820,3680,15530,19675,18284,18796,21676,9336,-293,10130,13073,9439,12422,6361,-601,-895,-548,3072,7658,12373,-5398,-1434,-6359,-10600,1845,12895,1474,8456,3313,-15844,-6374,-12465,5901,2162,10872,5680,-6374,990,-6771,-4592,-2121,-5212,-581,-12111,471,2912,-2576,3598,-1144,-1783,5539,8372,3375,-7942,-858,-4467,-3611,5280,-5336,-12224,8525,5288,-7985,-18391,-9287,-7554,-670,-9430,-420,1640,4278,3207,2768,428,61,-6533,-4179,2845,509,-2365,4219,-8525,-2046,862,-793,-10016,2874,-6026,8278,-2885,5201,-7705,1031,4959,12725,7314,-10420,10857,-10781,3326,7801,9127,-2649,11273,1160,-7742,6871,-4251,9579,12873,13540,12760,6124,-6014,6342,-2515,-3470,10136,5319,4288,3383,-11232,-1858,-9685,-9304,2775,4810,25948,8851,-10868,-16522,1008,15678,8867,-12781,-13118,-4343,-4133,3057,-2323,-6459,-1241,-4952,-6608,-12551,-18489,6909,-3045,6538,-1907,990,16427,11323,-654,7655,-13976,-14321,-4262,7779,-1692,11204,-8999,1048,3353,-4495,839,2072,2314,-479,23182,-9831,-20038,-3659,-9867,22492,8101,-6839,4706,-6328,11713,8009,-6742,-8306,-3772,13487,-2538,-3502,-1607,684,-2192,-10908,-3779,8312,8500,8602,3958,-1313,3735,3653,16748,-7277,-2128,-5291,299,5500,11454,82,232,-4727,5656,-5143,-4310,1963,4626,-10111,-12537,7784,-3398,-1950,10574,1927,-9058,-2463,-11281,23234,14182,-1038,6034,11335,-5624,9085,4121,-730,-42,8144,11241,-12425,-107,-928,984,-413,4692,-13308,7005,12219,-2373,-6122,-2186,8219,6677,8209,415,-12833,3460,-9664,13671,2950,15365,15486,1507,-8021,-2780,-6599,-10778,-13248,-12372,5718,-5298,5642,-4027,7947,3055,-4698,4047,4715,-11605,-126,7274,-8787,3581,-9698,8727,-6711,-11181,9542,5613,6581,1598,-6873,7646,-5921,-1172,5796,-11164,-3751,8551,
6277,2600,12776,6618,-4597,-5519,-1829,1823,-2488,18819,2133,7883,-8799,-21346,-14570,-1138,6940,-4917,-12013,-176,1767,-4773,3458,8319,-1011,-6067,-5237,6418,-11321,-9504,-12159,-2222,-12655,-12602,1302,-8351,10151,13086,15255,7825,4393,10371,4778,-11493,-8928,-9106,-5847,12922,-52,3994,-4762,-6541,4698,-12749,7539,-1324,-7228,-11661,2597,9220,9945,5617,-5309,1269,2402,12119,8474,10526,16218,11259,8060,3060,-9278,6135,3821,1305,11141,12176,-1418,3531,13345,1710,10132,16909,-7019,-114,-13086,-9798,-475,4392,11435,-4788,795,-3771,-9450,-4286,-6474,-10619,-6498,-4882,-1957,-5339,-904,-5967,-1689,-2613,-13963,-9706,9981,-6655,9141,3505,12051,8405,-10478,3364,-9074,-967,2456,-9165,305,950,-7841,-6460,5004,5719,7252,11935,-8738,-2340,8811,-7217,6498,7479,-5640,11174,-6351,9833,-3797,-14833,-6134,3067,-7812,-2946,-2940,-6496,4635,2167,-9234,4607,2770,-10728,3241,7684,2842,10943,8264,-4789,11300,-3359,-109,-8256,2238,3948,8982,-6532,1636,7120,-4356,-60,4234,-1561,-814,6586,-2698,-4729,692,-392,-8680,10690,6804,564,18203,-1520,10676,4170,9853,-8726,-11746,-11901,-9584,10229,6354,-7123,-11260,-8245,-7696,-3627,719,9,8754,-959,-9534,1719,7430,-1877,-10734,2919,-2174,600,383,5737,-7077,3992,-876,14742,1275,8429,7242,9088,-1780,-10421,-5467,8339,851,8566,-12511,-6290,6691,6487,-6563,8637,3897,-2837,5486,10587,-8880,-8121,770,4001,820,-3298,974,1485,8439,-11659,-9934,-12553,-13965,2615,-9986,-8841,-7411,-15527,-8178,4157,10234,2105,-564,407,552,3046,7786,14985,-6222,-13094,-9271,-14770,3788,-12126,4121,-7633,-886,-11805,-9793,-5523,-8263,-778,-11460,2151,4119,9735,8700,8241,14366,3017,198,-5303,-3576,7008,15570,5140,-155,2237,-4541,-8863,3238,-13920,-8253,9570,5863,3938,-1129,-5827,9763,-2273,73,-1655,-8275,3130,-12750,627,-9564,-10501,6100,4209,-11627,-948,-4182,6185,1862,7310,6249,-11396,6473,-4527,-10056,-4316,-8573,-6891,4918,-9834,6256,2772,10855,-2609,312,9685,-9960,3933,-9698,8847,877,-3282,2304,4144,-690,7585,-6511,7040,8298,7584,-1867,-1564,-803,7134,-6853,6080,-1970,5566,
10868,4644,-13199,-4269,15270,14868,9046,4868,-11193,6463,3594,26621,-3212,1847,-7166,556,7053,21963,1213,-7555,6096,-15872,-23866,-24775,3145,-5451,1967,-9429,-13901,-31689,14964,-11467,765,2546,2166,11043,3155,991,-11515,-6512,-9202,-3392,1012,300,-10817,-11393,-5806,-10282,-7015,-4075,8414,-5841,-17663,-9068,-7543,3588,2822,-4476,-25065,-16606,-10020,-10510,6493,-6055,-3300,23105,15599,33639,9777,22474,8730,12075,5894,4309,4656,-4808,-5397,-10396,-10105,-2327,4587,5325,3352,4490,-1856,8299,2146,-826,10491,6995,-4650,-2948,-1674,-6060,6994,5092,4707,-6403,2508,5513,-17955,-21198,-15485,-4612,12677,4528,-15150,-2988,16786,9446,-6906,-697,-3951,-9174,9090,11127,-1374,2074,-9856,-5322,-5951,13092,3415,5514,3260,11930,-11307,-4407,768,-11103,18755,-9306,551,12546,1107,12042,-3365,-2355,14341,7524,10967,11475,-7829,-22322,8279,-3968,-9358,7386,5359,4211,-450,3428,469,-5201,-9235,-2859,6017,-1758,-8131,7097,-1987,-9397,-6597,3465,-5609,-5919,10484,4508,-8475,-5889,-8357,4855,-4701,-7025,-9145,-7758,5074,-794,7080,-11562,15121,1593,-19826,-6252,-8914,-3508,-9561,-8765,1401,-16364,343,-6029,4168,-1295,-4627,-10458,4641,13866,-3484,-5195,4159,2471,11125,-4946,-1637,-1814,6317,7475,-1590,-8455,941,12546,22379,4808,-21718,3795,12316,15,-2601,-6356,-6603,-10724,-3421,-237,-6128,-3966,3613,-11664,-899,8736,7781,-12995,-3050,-1421,-6042,8603,-2428,-9107,13043,14461,2653,8298,-182,-1132,-4184,8994,5244,11411,-1152,-3570,8997,-9451,427,-6723,13123,1030,11867,2627,-7527,-7180,8771,7272,-10035,5183,1631,3771,11059,20,-13166,-1073,-5910,4863,11118,4884,-1262,-6886,-15907,7902,-2089,-17460,-12266,-12018,9423,-9101,-1344,-1543,-12302,-8974,4652,-6904,-14540,-11238,-9607,-3280,-14649,-17316,-5095,-1450,3556,15137,4888,-355,-7558,-260,-3927,-13161,16222,-10974,9190,-11125,-1797,-29511,-3109,-5607,-14103,-11576,-5531,285,23487,613,-3423,-247,8467,14838,10501,-7792,4830,6012,6259,9610,-5024,11677,3712,8205,6518,6205,1805,7899,9999,5129,-5481,6202,-7057,-3191,10929,5385,8865,3358,-6447,-4747,-7024,-9683,2538,-3859,7124,13384,8201,8841,6432,-9786,
5501,3005,-2004,-6656,3393,14138,9545,7243,-4214,-5681,-2546,-7366,3972,-2070,10519,6538,8160,-5092,-10090,2738,16699,15026,10086,25920,-13081,2576,-14010,-14981,12410,318,8262,-13066,-23002,-26381,-2967,11247,1516,3458,-5047,-9545,-8175,-6092,-7831,-18013,-5026,16380,-12383,3480,15007,8554,-107,1608,10061,-3699,6445,13092,-3220,-6207,-3950,-15519,9218,7158,4650,-12691,-22329,-7494,23856,19031,4678,13413,5732,-4458,-2268,1440,-6486,8864,-3084,-4611,-9481,-983,-4312,3736,6310,2528,1888,9018,4559,18283,-13,4121,1360,14108,4671,2748,890,3714,7323,-10728,1254,3954,-18814,-16971,-15,8845,7295,5458,5603,-10118,2194,5801,-2561,-1844,-1324,309,-4223,-989,-2524,-3131,5519,10664,-13090,-631,-318,-5464,-864,-10156,-11161,-2156,2526,11912,6589,18786,-1965,-6013,12321,-1986,-2531,1082,2488,12952,2700,-13102,-2456,-1412,884,5993,-1341,-2616,7786,9614,-6359,-9908,-898,7260,10309,-8219,-5418,1413,7866,-6318,-4431,-10428,4551,11473,4715,10183,2278,-9433,-4992,7349,3996,10379,-427,-4022,5975,518,-4825,1661,5251,-9638,-2237,-12660,-6918,6450,-1826,1705,-6073,-4963,13714,9050,-2969,-2438,3328,5940,1073,-2817,-13641,4398,16131,1131,5066,-5118,-19493,-11275,2851,24770,17261,2521,2965,-6763,5843,34574,11912,18482,851,8290,-5769,-3451,3856,-3404,-2176,5694,-8519,-8304,2321,3234,16438,3903,-4156,-6862,-464,9971,9490,-4381,5797,6030,-2365,-852,-7952,-15416,-6019,-6876,432,-14330,-5759,3414,13084,8372,2369,-7851,5859,1903,3966,2387,-2587,9312,475,-5186,-1816,-9919,-4002,7149,-1504,-10455,11451,10566,935,5647,14035,-2742,2770,1080,-11276,3923,1319,-13874,3538,70,-7904,-2062,-6161,-3956,14617,-1725,12745,-10259,-15996,-11174,1651,-11797,6754,-9116,-3152,-6308,-6831,986,16993,4654,1009,1217,-14593,3567,30,-3522,8991,21118,-1206,5200,9058,-16869,-1792,6509,13833,10648,-22606,-12914,-8931,-9478,37047,5464,-9994,4499,5033,464,8467,1579,4004,4984,-7484,-706,-10896,-11610,5079,679,-13028,-12097,-5367,4507,-11412,-13075,-8707,10044,-3244,2246,-10878,2162,2974,-5845,5211,-4566,8509,-585,-9162,-7054,-12908,-8977,-8044,4962,-7606,7169,
10696,-726,9070,-6325,13495,20185,1072,-7381,-5356,-8552,-2362,10640,7674,8889,1300,8538,1852,29524,3373,-5829,-1140,-1383,-14522,-9571,-1880,-317,9940,-24574,47,-17699,-5052,-7926,-4738,-12088,2994,1140,-1388,-4348,-11236,-19685,-12623,-3773,-8888,13790,-3312,2214,-6764,-11076,-941,-15075,-6332,485,-8560,-4656,14038,7345,1262,-15360,-25663,-23155,1799,-3148,-11075,-25713,-18124,3335,16642,6562,-5992,2617,-9202,-27210,-6749,2382,-10145,1991,-12161,-11172,2195,-5316,-2256,-4468,-5482,-15526,3350,2478,-3685,-6889,-10937,422,4396,-1462,283,6692,4239,-7364,11511,14288,-5619,6504,-9388,-16003,-6410,1937,12685,-5214,-2646,-10881,-4201,12285,-8287,8749,-3256,-3333,5356,3445,-6055,8976,-8639,-4379,7286,-7761,4133,8883,5349,-1195,-3297,1344,-8550,-8649,-9140,328,-6505,479,582,12810,5646,-754,-3851,8425,5826,2289,10055,3451,4640,-3643,-3018,-2325,-1000,-10771,-2511,11869,-6520,-11831,3253,-10770,10944,10301,10678,5245,5304,-6297,-6699,11197,-10108,3664,-11433,50,10406,4316,3341,1463,-9862,-2157,11363,199,-4112,-10481,10981,10044,1090,-14144,-11373,-6629,-8357,-3718,-1933,3386,-7084,-3610,-12335,-6336,-2114,-8742,-6225,-6326,-13870,-9148,4548,-5462,8125,-12,-2530,-314,10131,-5193,-5016,6523,-12897,10332,506,4729,15941,11212,-19294,6987,-858,-11346,4225,-9784,-9804,-699,6015,-3793,-3196,5712,-113,373,6109,12498,-4867,-7145,5970,-4376,2435,1107,9569,-6293,646,11378,-1309,4104,-9134,14964,20033,14585,-4114,2838,1789,10289,6263,10601,4442,5744,-7430,-144,888,-5772,8060,9403,-4733,10644,-5620,5779,-2566,-2154,2748,1194,-2881,12130,18401,6438,16269,-7295,759,-2645,-10212,7933,-8115,-11630,-13560,-7141,9926,-5527,-4857,-5677,-10815,-26993,-7621,-24742,-7129,-20375,-12737,7326,-2605,5792,-1054,13030,3567,17598,7562,1317,-10867,-1515,-3754,10522,-1455,-5098,-5908,-19280,-4108,7142,-8654,-3820,-13910,-312,983,19838,23937,94,-2806,2682,12118,-5024,1474,8569,12599,-3953,-7096,3945,-11106,-7214,-4312,-10863,-5920,10478,9560,3102,8773,6007,10617,-6104,6282,970,9024,7980,-3265,1396,514,4197,6943,-3892,2845,-1685,-12070,37,1092,-7582,7264,1433,
-3915,-6284,15116,1988,-3224,-13114,-11447,-780,4959,9527,-4519,-15905,-3241,1948,-10095,-3205,4119,1078,821,7720,-13306,-2811,6470,2811,19491,-7977,-1778,-6479,12293,-9462,7843,-6306,-6039,-9288,-8362,2851,-19389,-209,2417,3530,1144,-21935,4075,9962,-12056,7795,-906,4362,6442,-13462,-6532,-2361,4882,11553,-181,-7912,8608,-1930,-22421,-28067,-3621,9060,5842,-29625,-21305,-3504,14247,2097,-833,1363,820,10172,-19616,-166,-742,7694,13529,-41,-8752,-9801,995,-3373,1646,10126,-10967,9553,-4241,-6346,894,12643,5992,-5553,7321,-3312,1323,-18957,-3929,904,17107,7903,-13407,-13966,-5964,3355,7235,11276,-14362,13373,-12995,-3865,259,4618,7456,-6685,-1,-9472,55,-8605,-133,-11303,395,11884,11766,5130,564,-3699,5685,7084,-7548,-18142,15216,10475,-964,5334,11220,16235,460,10382,15681,13189,15569,15106,147,-18388,-4877,-7049,1186,6450,11584,-11256,-7297,-2020,-8949,6917,-4671,4430,-2083,11343,11345,-3366,9606,9785,-11644,8928,11118,3716,-7505,-3163,8026,-10574,4478,2145,-6280,-8198,6991,-4206,-4990,5389,-1270,12347,-2952,2797,10678,12053,6667,-7279,-3586,171,-4395,-5007,-9104,-1310,7249,2023,851,8193,-4557,-4883,5162,5416,-12755,8029,10551,-10703,-7660,4874,-9642,4742,-772,-19001,7635,29641,10792,11016,-20431,-8711,306,-715,12410,10855,8229,-4949,-222,5509,2609,-4025,-3561,4194,6290,10288,12485,-897,-4791,-2111,-3745,1432,-8627,-12347,12617,9777,3051,3111,-772,6358,6837,-8176,-1862,9953,12721,6788,2361,-16807,10564,-6700,1822,-1432,2788,-5470,4318,-3454,4366,9328,-1513,-4732,-11382,-7968,7896,2905,6965,25238,184,1108,19528,13453,-12384,-26834,-10395,2284,15763,-30262,-20237,-195,-668,-5859,-5252,-5237,-7872,-22194,-9415,4863,3770,2925,-746,-8530,-8018,17,-6801,8249,-763,-912,16033,-3241,-5467,-9456,9357,5719,-744,-7032,3012,3410,-9458,-18315,12220,270,-20244,-9825,-15127,-14949,19519,-6281,-12603,-8655,-2269,-3393,9648,-573,5279,-52,4389,-11141,11166,7511,-11742,-855,4320,-2680,4327,1828,847,-326,-3811,9695,11136,9004,7175,6169,-5845,-2065,-5272,9725,2444,9152,-10702,-1200,-97,-8346,5214,6127,-5359,-12026,
11913,12355,-1986,3550,6635,-921,630,8408,9371,5723,15591,-7509,-4799,-2297,-15783,-10654,2301,4636,5592,-4616,5862,-17874,-6214,23671,4537,-9967,-776,9231,-20636,15351,-7666,-2419,12216,10522,15363,-3754,5832,16812,19789,14281,18543,-1880,59,3369,3173,3399,-2176,17666,-5840,782,22278,4037,-1378,2485,-14317,7662,6668,-6564,-5142,-20009,-16361,-4728,-7435,24307,16173,-12994,-23063,-27258,-4982,-3738,3991,24763,6207,2250,8539,-5986,-5753,7671,6378,4119,11886,8655,-1166,-6033,-14923,4161,13581,-15586,8868,-8401,6388,2356,-9413,88,5140,6898,-15192,-5333,3802,-6747,-1499,-3028,-18900,-17182,-10479,-2110,3197,76,15560,-5360,7293,-16786,3276,1962,-4882,-1948,4048,2082,-5783,-2172,-9092,8825,6409,-16356,-4835,578,-9217,3885,-4821,-2326,4964,-5164,591,12854,-188,17710,-906,-9799,9643,-4492,-11441,-3326,3901,-12235,-9309,9340,5470,10368,-2006,11608,5472,3988,-7452,10066,9554,-945,-12492,486,9870,-10890,-6341,5493,-5524,9524,8924,615,1723,-3120,1489,-5939,8850,-11716,-5155,-4399,8425,-5728,7749,-5141,-5765,-229,13405,4607,554,-3884,-4985,-301,-12897,-8686,-4306,549,-5391,1472,3762,-12961,-5713,14250,26140,11243,-7895,53,206,2058,7634,208,-3076,11175,852,-7140,8909,3188,-2710,4856,1421,-3804,1603,-7061,7447,6508,6938,-7266,-9127,3868,-27,3473,2530,-8540,224,-4707,-5381,-5460,-6163,-12306,7617,6,-10959,1286,-860,11251,-3489,-5686,8725,7813,14391,692,-12810,-6661,905,6192,-16464,-2873,6219,-5692,13802,2066,-10296,-7081,13782,-1755,1081,10139,2836,2274,5696,14277,8079,1092,37,-16346,-18804,-9415,-14166,-2137,4891,1216,-13287,-7885,-8923,-7315,3225,18856,18833,-7997,2833,-5913,-18728,-5140,19030,16321,-6144,10448,-2754,-903,14359,15936,3066,-4107,-25917,4605,6337,12616,-5436,-4113,3765,10074,13809,20490,-6878,7278,2681,-3198,-139,14300,1269,-2253,11173,6565,-18327,91,-30242,-11669,2738,-12866,-5272,3307,1717,-9109,8748,-5655,4451,182,-11126,-5620,-6224,7251,5985,-1663,-5045,-3462,-3732,-6495,4590,7232,11720,2427,-1830,-8339,386,5140,-1273,11423,6130,10251,10307,9421,12331,8417,8430,451,9783,1626,
5436,-954,-10187,-8812,-8084,-11407,-3498,-4289,-3794,-138,-17432,-8134,204,6268,-1722,-11608,-5299,-16980,7868,6011,2671,-1401,-4841,7423,-11116,-10366,11493,-1385,6571,15180,-4620,-12791,-1504,-8049,-9420,6709,-1895,4468,5096,-1869,586,-4803,-2250,6436,1367,-1170,-5241,10471,-6321,-5846,901,-3393,1485,10901,287,-13300,3548,5797,12115,-2848,3164,-7812,7070,-5205,-7512,-8681,181,-8421,-11442,-12205,-10860,-14032,7563,3805,8039,5260,6323,13773,-657,-5966,-5192,6130,164,16288,12827,14882,-2212,8517,-18209,-1721,-3800,5686,10729,16925,-1152,-13001,-10469,6468,-28,4421,5912,-5590,-17324,-9007,-10533,-895,3851,9952,9723,9751,8272,-8913,-4418,991,3694,10529,880,12373,-1864,8205,-7510,8963,96,-5219,487,-25601,-4248,-5384,-1431,-2263,-14266,-10432,-9520,-21474,-4755,-12257,7553,48,17168,2275,-4617,-14228,1101,-12,-3819,-848,-7162,-12638,4429,-9419,-4399,-3094,2542,-7560,1378,6727,-2376,-2984,-1372,11495,3393,10022,10072,-12513,-12015,10097,-12126,11414,-3183,-10731,-380,-6384,-10512,10256,4463,-8502,-10839,2731,-2341,10655,2964,5853,-6239,7849,297,-2128,-15142,-9311,-6512,13995,333,-11489,-571,-357,2275,-14205,-27953,-20469,-8727,-9555,-16958,3460,-14418,1375,4157,-9760,-15741,-11288,-2418,-827,-4274,-3912,9032,1539,-2182,837,10520,-1974,-4249,9788,-611,8837,1774,3300,3794,-1060,7855,-7525,-4203,5571,-12506,1086,-4116,-19053,-13107,2337,-1012,-11565,-10992,51,-9742,-7723,-9285,5056,613,4766,4799,1937,-11655,5107,10601,-340,8735,-6662,-2210,2262,-1211,-9838,2266,7707,1196,-5927,-5679,1638,-2707,6442,12950,15740,-5632,11181,8629,-1546,-3009,11941,3213,-16251,-12784,-1245,2934,-9826,-12122,-4,-587,-4461,-14419,-5830,-12280,-10422,12267,-7329,369,10254,461,-9252,-10137,-17929,1221,-743,-16335,-15697,1858,9848,-9781,-14153,-16073,-6433,-29361,-6611,-7797,-9339,16528,-4372,-12944,-8367,921,5830,-7557,1510,-4315,1657,5569,-15873,-16145,-9060,5466,7806,-9046,4972,-7830,10292,12140,-4369,6299,6886,2723,-6273,-11086,657,314,12005,-6923,5994,6855,11854,8880,11939,11044,-9755,9159,4761,-1395,3142,148,-5474,12502,237,6498,-8843,10383,1158,
-11496,10385,13830,611,1958,-3639,-7802,-847,9172,5213,20179,8260,-11793,2816,7654,9549,-7104,25799,1482,1553,2577,4300,-1638,-17191,6735,-1330,9008,9419,-17134,-33297,-3523,14784,8172,12170,3127,-11903,-6125,-4110,19510,-1544,-3222,-1125,1441,-5181,-1479,-3481,11326,10326,-5271,6290,-8132,-7733,9414,-3395,4888,191,1111,4097,29798,16816,8087,-12756,8218,27190,19180,26118,-22104,-34196,-20312,-12343,-9349,2794,-2677,-3377,-2361,-10326,3873,-5956,-8944,-2049,-2469,5087,2977,5721,14589,4439,-8248,-1983,1063,-5668,1251,11874,6815,-620,4159,7185,-13974,3989,-10566,-7470,1626,16308,12194,15039,4288,-5166,-2163,1772,5234,-2077,-7753,11232,4548,-10298,6290,855,-1118,2427,-6435,-4590,6867,-2360,2687,14154,-7902,13740,-9478,-3022,-4221,13155,-6613,-11781,-9239,-7523,-13009,-11946,-7077,-14675,-4499,-10419,-3139,-7496,-4038,-6711,2949,5775,-10303,-10695,-8666,2656,-5522,-4893,9143,2500,12294,5556,-5535,729,-7295,5790,-3966,2567,5644,3598,1178,2488,-8922,-3313,9692,-7426,-7727,9375,5353,12753,1476,-8589,-4383,-5422,-1800,-7537,2743,-6350,9613,-10161,-10405,-20674,11434,5536,811,-10391,-31795,4284,-7359,-2205,-5856,-11808,-8396,10944,-14761,-8577,-5787,-6775,-1550,17642,-389,6872,-5987,-10532,3663,3407,624,-21948,-14140,-3047,-17190,-4494,-11530,9356,848,15043,-7833,-32970,3861,3574,-3054,2777,-12920,-12325,-5272,-5512,1534,-4346,-8375,4808,-4387,-10516,-704,1276,-4275,970,5090,-4423,-9765,-10300,-719,-1329,2230,5418,-11629,-4007,-2433,9084,-5840,-7383,3732,9005,18576,15242,12319,2057,-11788,-3427,-1625,3539,-1252,2344,-46,2835,15903,-18326,-8231,-7851,-10514,1729,543,2464,11108,-2722,11941,10067,6196,6907,-13330,-12818,-3078,-2954,22863,16705,-17541,10916,16101,-9779,-12426,-4272,-7547,-7089,3860,-5927,-1368,19946,-4773,-2983,4027,-13244,-12388,-10070,-729,273,177,6766,-4439,-21996,2320,723,13576,10556,3897,15125,-7055,-2978,-730,-8766,-10623,-3566,2010,3978,6305,5232,-2246,5761,-3523,5197,1035,12230,-4050,-647,5037,231,1758,9042,6493,4810,-11246,6768,4496,4970,-3530,5289,-8830,-11043,-11665,-5668,-10630,-7333,-3942,-4861,-8322,-11811,291,-1320,
2943,-2679,-251,-8764,968,4338,1094,8730,2556,-8901,3486,16026,5912,-4219,-15361,-2107,-15334,-2176,-12619,2795,-1638,-4208,2808,-13396,-18335,-7763,-13685,-5578,12067,-3804,-4183,14256,-6993,-6705,-2038,2643,6199,1872,-7331,-7269,6167,4518,6227,-10902,8928,-5483,-9720,-23926,-236,8181,1596,6136,5226,13136,-618,4231,6091,11641,27583,-3039,-464,5532,1827,-2402,-4565,-8341,-18332,-17093,-10622,6709,4352,20035,280,6257,3654,-3628,5340,-5099,10117,11025,-1627,8450,-5921,-11436,6813,13566,7220,3097,-2393,-20036,-8366,5058,841,4896,-3439,-15461,-7759,-8152,-12923,4888,20648,13472,5039,-843,-794,4688,5647,-6384,13368,9401,6657,-9404,-745,8915,9379,-1178,-1333,-5638,5808,16206,-5282,-10092,-7154,-10325,-7733,-10333,-8785,-7384,1516,-9402,-266,-12175,-9630,1535,822,823,-4823,4383,-6263,1884,-18049,-25286,-12250,-252,4379,-2067,-4411,7074,5732,1765,6518,-9068,-13385,4601,7302,-8746,-5615,-9148,6120,-10856,-8257,1478,-3272,-6599,-10689,-10963,334,4846,-10562,-4595,7183,-9135,2746,-9249,-9351,-909,9872,-4663,-6561,9819,8801,-3447,-1225,-2056,1886,22904,-5295,-13199,-6494,7386,-11704,-13585,-6018,-10445,5488,-746,-6923,-7330,-10332,-14062,11045,-4850,5573,19371,13200,5229,-8319,-21081,2234,891,-9340,-9198,-17569,-4498,-10757,3306,8806,3574,-1824,-13476,302,14066,-2151,3108,3431,-617,284,-840,4521,-1742,-2600,-8646,214,-16308,-1801,-2970,-754,-6704,-2064,-9983,-2083,-6672,14470,-9571,-303,7694,7602,-3781,462,-11820,5543,-6336,-3161,-599,-15072,-3144,-8261,-14383,4818,6833,2291,-7875,-6848,-28824,12028,-1014,1100,-3346,-6740,-20147,2307,-8625,2234,13441,4286,1533,-535,-2463,-767,-7609,-1172,12109,-299,12783,12691,-3433,3509,-5094,15445,-3854,-14629,-8736,4005,19503,9827,-12982,-2161,-386,-11451,-12382,922,-1867,-1085,-5232,-7210,-5117,-10797,6654,-2496,3223,11134,899,10497,-3422,-16786,-2506,-518,-12712,-24901,-10085,-5587,17785,8087,-2933,1156,12906,-5106,11601,-8758,3358,-5776,-10709,6763,-6703,-10690,-10519,-1492,8273,8461,12670,4713,8604,-3548,12780,-3512,2522,4323,-5837,-5825,-26,-9016,12528,4156,11675,16,-11093,-781,-9684,2499,8180,
15539,4689,13020,-14656,-9079,-13649,-3131,5781,10995,912,6567,10599,509,-2576,9914,-3739,8129,24531,7102,-3033,-24226,2203,-19194,-29399,2077,4523,-6173,4191,4590,-2241,2150,-11167,10198,16354,2852,3401,-5194,-1308,2338,17114,13890,13035,-6722,-3414,3693,15246,-3227,-5217,-11957,-23374,-26062,-9396,1221,2688,-4055,7165,-3269,-1843,18153,13898,-10674,-3589,-4119,673,3729,10081,-1887,-1276,-13089,485,-2054,-285,-2067,6482,5552,-4988,-7442,-5272,8613,-3643,-4162,4319,-7777,2323,-13298,-6372,5163,6773,7491,12965,-971,3057,-2224,-6829,-5175,9889,1992,-815,13357,-1411,-9340,7142,-6899,-8980,-12642,1739,-7166,-16235,871,-3089,-1457,11609,8350,-11332,-4858,-1100,-13342,8700,8648,11642,-3108,-14726,8081,-3128,11218,18357,-8210,-2626,-12066,-5665,4511,-3827,-9342,-787,583,6451,14081,4159,5953,2783,-1189,21301,13351,7571,-6840,-1883,-1085,13468,1322,-3597,-7863,-6511,6131,6624,-8318,105,-7914,11136,-5059,14098,-1988,3336,5172,-4071,-6066,6322,-5216,5563,11046,4436,-7549,-6029,-1785,278,3637,-8688,-1946,-7019,-4642,-9137,2908,-11142,-4175,1700,-5184,8265,-19164,-9858,19113,16153,3667,18702,-1714,-8875,-13418,2638,3421,-12836,-11869,-5863,-388,6694,11327,-687,-9915,1945,-4416,-3513,-4656,2975,5650,2462,2478,-2612,3165,5494,565,7666,-2119,8399,-778,10403,-5162,-14117,-13406,-6751,10991,-5464,2605,-4757,7576,2002,-3637,-15173,-2736,-4256,-15331,8601,-3757,-4836,5940,13867,6657,20590,1494,-7611,8268,6291,12406,6490,2676,9622,4361,-12773,2462,-1145,9866,7066,-1896,2025,-12491,15167,-7338,659,-17435,-12206,5512,14338,10605,-8718,-3068,6869,-1482,6838,-10027,18009,-2500,-4231,3222,4679,-9000,-6139,4296,-666,-2819,1899,-4625,-9988,-3604,9122,2993,21610,11342,5070,2495,-2823,19730,16867,7220,2653,7791,-7097,-20225,7382,-13200,-37689,9572,3858,7152,13330,-2341,-12533,-11953,-8094,14166,-3649,-4025,17621,-10317,-5129,7126,-4111,-2748,-964,4223,-3877,-1553,-12111,3031,-1967,-1975,-5859,3808,-1242,-10864,-4772,3031,8356,5875,-13584,-7280,-2301,3927,-12840,-14136,3642,1685,6457,-9929,5196,-11482,-13829,268,-3510,-4162,-999,9312,-8611,-6926,-2742,
2892,-11167,-13465,-8904,6950,-3963,15320,-14098,-10730,-4706,10503,2221,8332,1129,-14126,-3673,11831,-1623,2136,2764,-9026,-465,5431,-7737,2666,-7076,1992,12451,6426,16742,12296,-7445,-15332,-2057,24559,4586,-5991,-8400,-13242,-11753,-3769,1659,497,4948,10654,-10003,-5502,-2376,1120,6501,5639,-14743,-3870,-12144,-4684,9330,8887,9518,3828,7369,-12006,-1641,-9380,-5368,4594,12425,-9859,7266,-6193,2067,-1900,-5203,-6830,-9623,-3465,9926,-12100,-2944,-13512,865,2602,-2681,7696,-3448,10931,7128,2912,7326,5355,3189,12506,-6949,6426,14239,-2401,-10112,9135,-852,-6624,2802,16437,7725,8406,7545,-11157,5095,6646,9346,556,14801,1651,-2389,-3115,-2426,12739,12907,-12072,3230,-14806,-9130,11304,12282,1255,5134,554,-8194,-6559,6373,-2919,-1343,-20448,-8050,-1641,7047,-8904,-1483,884,-58,2374,-7580,1653,-10883,-7235,16311,-6744,-11818,-4885,10357,7497,-790,10892,-6617,-310,-8635,2147,-9073,-3308,7166,-3356,10499,-1995,3701,-7982,10823,-12793,2285,-6498,5375,-5392,-5585,-10232,9471,-3826,5554,699,-7637,-12626,5706,11098,-11379,270,7430,2344,-10557,-8247,-7569,-7657,-13248,9258,7133,1631,6424,722,-530,707,-8011,6878,6011,1040,1886,-10601,-11492,4205,-4957,-6573,3976,-3536,-9260,-846,2305,-11514,-6201,-5267,8650,11579,13331,2667,6270,1163,-955,-5509,-9679,5739,9066,2794,-954,-9662,5427,-2158,4436,4643,-4499,-3639,-3030,-9036,-3185,-7293,-1764,-12442,8116,9400,3362,-378,-9530,12343,11979,-4350,-4225,-15045,847,437,1514,4329,-14860,10292,-9016,12176,2872,4077,-3624,-11103,2744,6899,12085,-9411,3322,6096,17487,2370,-2292,14266,-2747,-394,15604,8976,3322,-6010,-3497,-63,5837,1091,2007,315,1825,-7233,-5113,-4367,4858,8376,-14247,-7050,-3838,-8328,961,-3027,-17242,7453,5819,8661,11187,8941,3275,-1596,2003,6685,16606,-4816,-1417,-13881,3667,8758,19537,13650,581,-2066,-3633,19071,16748,5441,-4644,-647,11031,8603,6277,-5820,10877,-5544,-8123,11466,12636,2987,11268,4482,-2652,-4617,4391,5759,-9038,372,-2594,-5426,9896,11281,-5433,12005,2656,-8956,8665,5725,-409,-10594,-3156,-9645,7300,-4191,4718,-8191,-1386,-4062,12476,
1531,-6823,-11337,-3179,1624,2862,-2754,-3551,-12743,-13116,1179,-8137,-5540,13621,96,2784,-3409,-9096,3442,7682,13242,708,-49,-12650,-16420,-955,19459,6903,15871,1847,1662,-17936,5393,-2928,10682,18142,-2137,-13680,-29643,-25397,-15196,-21344,-1024,-6160,486,-4600,4220,7186,6972,13597,4646,-8223,1363,-10758,1853,-25471,-1298,12497,-10621,22304,-10513,7294,1079,2184,4374,10417,11949,17991,15941,4140,11129,4539,-7230,3987,-8618,-1657,-1149,2465,-8247,-5013,-14155,6049,-6029,-9523,-2458,1944,10478,-1660,3882,1875,-12926,-1894,17654,118,8933,-1043,-8055,-15607,-7240,-3303,-3819,7048,172,4571,-3083,1762,4708,11235,2308,3720,8869,-10020,5223,1588,-109,7250,1961,-12879,7883,-3980,-10696,6871,-6431,-3435,-10091,-8704,-3302,-5666,3382,1805,8285,-3127,-8339,5135,-5356,849,627,11901,-5573,-16,-3263,1353,5514,-5495,-4476,-1308,-10280,1232,9094,6270,-6156,10059,5473,-5321,7237,1368,7415,-4192,4020,4168,13861,-2721,6988,-6365,1765,-613,13302,4716,-3889,-8525,11138,-7909,10532,1316,-6155,8789,1739,9985,8233,390,-7622,4469,2576,-9369,-2574,-10017,-2987,-1501,2264,-4460,4973,7262,4020,608,4127,3635,11359,1773,8402,-3271,-10030,-968,7916,-7253,-926,-12177,-4232,18544,-9231,-8997,10992,20930,24331,7521,1467,3602,-4288,4180,-1292,5756,4477,-10235,-4647,-2426,-10455,9176,1575,2399,-6094,-10256,7744,3383,-1660,9788,2041,8660,-3979,-5599,-5650,4221,1561,2586,-25324,1584,-10043,-17322,-7066,-13673,-3279,11872,-16812,-7779,9242,9406,-4736,3679,4222,646,-4595,13996,4838,-11065,-891,-6406,-6148,8703,4545,-4562,-14078,-6738,-7698,-7084,1256,2581,20490,18478,-6444,-6764,-231,-5986,1905,7729,10918,-12273,-5606,-266,1573,19344,-234,-15908,-25810,-14545,6247,-13700,-10439,1059,-3096,-10047,-4765,-5234,-201,2545,11549,8007,6371,-17873,-13662,-4228,3831,18118,4888,-3941,-9715,6559,9299,9649,3035,3880,26781,-508,343,-142,6617,11082,-12516,-3553,5039,-8176,-8655,-1763,4528,5485,2664,-4047,-5697,3135,7302,-2448,8076,4692,-1303,4631,9475,-6308,10083,3624,4030,2168,-7009,5088,7289,-7979,1330,-12219,493,3594,-11334,-10946,-4738,-3463,
6120,4950,-1922,-2942,2111,-10443,7771,4425,-12216,-654,2156,6917,4612,11707,-6773,3168,-5631,-16106,-13990,1478,9845,-12230,-13857,-3987,3576,8060,-4013,5081,-1643,-1841,-7411,10046,-9633,-1489,-1771,-860,7362,20968,-2919,10228,6547,8795,-1785,10505,1595,11280,1622,9893,353,-190,2530,-11201,-11138,802,7835,510,-3964,-5488,5983,15313,1088,2910,6177,7361,-11355,-12008,14147,24043,11929,26072,16611,5130,12679,856,-1018,7679,-664,5547,-1026,6253,10555,5678,-6977,10112,1307,10590,8720,-1679,-10782,-5338,-4085,-8208,-1399,-4873,4243,-10642,-3528,2574,-3737,-8722,5415,13698,45,-8734,4379,-9775,2348,-10587,5925,14157,1816,1140,-11171,3079,-6038,6575,-2817,-3205,7623,5434,-7243,-10617,-12840,-9263,-4282,-4692,5865,-8592,2974,1140,-5961,-420,4854,154,735,12464,-1027,1991,-14423,-8916,-6515,-6111,12415,5699,-8733,-6873,12570,9616,-1409,-6449,7538,11906,-6149,-7507,-10283,6288,208,4277,-7921,-1222,-6324,-3993,1,-8594,50,11223,-7815,-1073,-1604,12890,-142,12761,-7927,1036,12289,10160,11177,9418,-9409,-3950,9004,-3945,8715,7565,-973,-1547,2765,5558,463,2629,4604,-5714,-260,6479,-12774,-9643,-317,-13309,3135,-2520,8994,-820,2062,-8432,1581,5352,637,-6257,7576,11089,8782,8361,-8346,349,14480,19096,-2567,8532,-1491,-12841,13360,12965,3710,-935,3950,599,3884,11251,7343,-4898,-224,-8616,6786,-4963,-5632,-16373,-15789,8222,-5202,-19239,-2189,2616,-12111,-5465,1946,3217,-11461,-7774,5022,5316,2007,2016,2496,-4713,1678,-2341,12638,7189,6270,11625,586,-11843,2500,6465,-1859,2317,-3734,-5436,-13251,-7509,-3646,-1767,-1713,-7632,-9276,-9752,-2485,-8405,-3112,-187,-5742,-8380,9975,21777,10350,-1873,-11484,-4945,9171,-1082,-5344,-5949,11712,8657,-10813,-11311,-3175,-6606,11590,4962,-17834,-6762,7290,5684,-6764,80,-389,6179,6005,4968,-7145,2447,380,2790,-1728,-6007,1340,2068,-4144,13823,10839,24203,21287,911,-5960,-1703,2135,-4208,-5026,10818,9371,-1666,514,-10008,3794,8744,-7814,6989,9122,-8402,-5079,-2883,-8751,-1481,-7935,-4425,5793,4574,7153,2627,-2292,8505,-66,9723,-8846,-1074,-12212,-6571,-6702,5970,
949,8031,5515,-7227,4129,-11143,-2686,3627,-1358,-3846,-13408,-17645,4225,18660,-10591,-13569,10759,3625,14736,5384,11103,2976,-1316,14790,-17760,-1458,10070,-3112,5674,25222,-18687,-9795,9885,14697,-2354,5200,1033,-8994,-13169,-20937,-6307,-23346,-1491,6078,-6143,2976,3059,6599,-9427,-528,17603,-6647,746,-3593,-2055,-5520,-222,2848,-5493,-11951,2815,3660,6038,18553,-1841,-6257,6134,2424,18405,-15010,-3361,1659,1327,-7899,-1933,-577,-2203,-7858,8592,-12358,3982,3266,-5509,-12191,6859,15162,-6888,3583,-1485,-8606,13939,6311,9769,4927,1893,460,-14612,-9806,2744,-1836,-21541,-4690,-16397,-1733,1529,-2201,-994,7817,-289,4020,2026,-6570,-7693,-10241,-9158,-481,1790,-240,-3282,-2832,-15860,5912,10634,-11484,4288,-17325,-10821,420,7854,8587,-11648,1131,-10907,850,-13817,-416,-747,-355,9058,-12610,-10445,12094,6501,-562,-4572,-12371,-5298,3832,6289,9338,9052,-2698,5392,-1212,11052,7764,-9721,10648,6599,5796,5997,-4256,6876,-7959,-10110,-9955,1635,4629,6644,-1422,9947,2723,-1449,-2392,451,2355,3726,-1778,-3014,4393,1796,-2952,6930,-842,-5192,-11415,-8647,-10131,-7423,2684,-3979,-10115,986,-5042,3230,-12358,-9232,2207,-4402,4685,-10806,-2304,-15466,-5886,-4007,916,-2436,-501,16099,10254,-3063,-2507,3787,3153,2514,9069,1860,-4220,-343,6231,-4925,-5868,4061,-9576,-11826,5350,-1212,-609,-36,-550,3511,-5549,2666,9161,-171,-559,3522,-5564,-1610,-1178,-8906,9466,-17269,9008,-6202,-6281,12948,-12134,-14653,11705,-12438,2794,10619,1480,-3558,-977,3826,3279,-2091,7842,-4055,3936,-776,6250,13296,208,10560,-4661,9524,8,-10354,-11291,1634,-2406,7751,19563,-9273,-9746,2502,-3223,-2753,3064,14947,12972,-13226,4452,-2129,16158,-18649,-2951,-16033,-14749,-17514,-11222,7739,8684,-7042,-13611,7810,6677,12032,5603,2196,-9123,2091,27835,-21516,-7371,3200,-3951,9482,31488,-4239,2167,6891,15369,10692,8827,-7879,-13788,18639,11673,-4867,12064,6725,7457,-9511,-11063,5866,-5157,9501,11573,-4641,-6941,3684,4244,3872,12158,-2737,5349,-10144,-7692,-3272,-4109,-10001,3549,-982,11689,8590,11420,-11245,-7918,696,-6756,10972,-2253,-8473,-11133,10381,2340,
};
#endif
