//(180, 20)
#ifndef DR_Letter_0D_FC1_Map_Weight_H
#define DR_Letter_0D_FC1_Map_Weight_H
static int Letter_0D_FC1_Map_Weight[]={
1951,-10758,-13795,-3919,-2434,-14409,10693,11582,-15177,15016,-5393,7051,9301,-3592,12131,-8381,13697,-5540,-17196,12153,-1908,13994,16689,12164,-9379,2869,12336,11576,13268,-16279,1517,7504,9508,7293,-14644,8682,-11122,6343,-13842,6192,-17335,16127,-12161,295,-14044,-6223,7344,15074,4622,7398,452,-11742,-2576,162,16613,7084,13764,17531,7170,-14261,-1164,2172,12458,5946,13800,-4229,5137,-2386,-14683,14534,-3254,12498,-12366,-11128,-15106,15417,-1757,7523,-4684,-15940,-12894,17155,14029,-4225,-15203,-4071,-1730,16465,11483,-9236,4957,12938,9974,20729,17374,15734,7744,6492,13140,1869,15643,6098,1397,-5833,13185,16329,6744,-9446,-6784,-16972,15771,17240,-15600,9060,-14217,-889,-13937,10682,-15338,-13827,7571,-16769,13113,-1336,4484,-15519,10273,-13024,3201,3524,13892,-14604,10550,8719,-10570,2658,8927,6849,4189,-27,-3250,-1640,-197,-10796,-21830,-9242,6127,-9704,6831,-4461,15225,-11660,-6426,10570,7636,64,13515,-4155,16173,7643,-18614,8466,-9319,-5254,10651,-3864,4147,2415,7355,9352,3432,-6829,7723,-16271,2637,6531,6838,13014,-4581,16168,
-392,3032,-9004,13050,13695,-3973,-6434,15002,-4356,-4261,-2796,-10199,11209,14426,-8069,-9659,-970,8862,19426,4847,-10453,-10166,8110,3935,-13321,13356,-13859,-16844,-9282,10853,909,-13559,-15113,-5636,4952,9981,1685,13435,-16412,-6889,-2025,-12875,1623,2701,-5898,-3890,13504,442,13286,12099,-10600,13661,-15012,-2683,14326,2400,6674,-10782,3101,17276,-11275,-13688,12711,-9249,-10260,4243,15782,-4809,8656,-287,8058,-14977,-14158,-10696,-2988,-10618,11056,-4733,10089,937,14123,9744,-7461,7892,-8655,1534,-13868,-13303,-12853,-1692,2808,-16464,-2397,-71,-11648,-16227,-2224,6653,-3143,-10673,-12027,12734,6918,-5874,-7382,-11551,-12479,-822,2312,-15783,194,-3362,1403,2473,11765,-1311,5236,-9804,-13501,-15230,850,-1943,5254,-11684,12499,-5640,5963,-11347,12557,5371,-932,3072,8832,1717,-7177,-4790,239,-1386,-11092,-2665,3302,-13537,-14730,-11005,7461,3498,-6862,-15897,-8373,923,6354,4322,14832,11329,-5555,-9618,6162,-9557,-2534,19097,-5896,-3498,-16138,7274,-5491,-16083,13419,1996,11728,6537,11658,9171,10554,5665,-5998,8022,-14380,1233,12003,156,
-2292,1220,12855,8939,14604,-9549,11991,1650,-10712,4328,-7219,12011,-6070,7054,-4454,-11589,19018,8643,19297,-9320,-9888,-11570,-6072,16492,3153,-16097,-3070,-13,9034,11889,-7921,15492,-8453,11420,22205,7973,16907,4155,10000,10877,-8026,-9033,14073,6168,8555,-13482,8615,-13893,-3396,16792,13090,14715,-15336,9212,16393,5701,-12004,-14799,-6095,15779,8807,6565,-2131,-14768,-3493,-12684,12748,12243,-7084,-13578,14902,-1265,7786,1279,5183,7476,-16481,10707,8281,-12631,3853,14473,8428,7700,-186,848,-11691,-13932,8480,2257,13815,14844,2843,-2634,-3460,-5403,-8292,-1589,5558,2732,6576,4946,-1371,-6512,2959,-13265,6012,12606,3941,11723,15202,5605,7352,10568,-11199,-14654,-12464,-11787,5897,-10767,2374,16678,6818,2329,-2861,9152,-14739,-13005,11061,6320,9343,-11204,-16836,-9820,11190,7872,-1780,-15713,-12084,-15073,16757,8453,12526,-3841,-3601,-4209,3773,5669,-17735,-10403,6960,-17300,1322,2121,143,-9727,6457,-13322,4183,19801,-5427,5315,-9197,-2241,4358,3376,-5724,-4266,14396,10582,-15005,8825,-5878,-6527,13781,-13141,-3506,13084,-15613,-8715,
-6952,-9351,-3538,-7274,-9540,13133,10133,-5932,8706,-9785,8104,9756,-9343,6230,-14684,-1586,10660,5722,-7272,-9152,3132,-11056,5978,8421,-16044,-7107,7379,2226,9472,5985,3564,-810,-72,-1207,2657,-12285,-9516,-13431,3097,9130,-14814,-1616,10547,-1843,5352,-4410,-13000,-6180,-4010,8304,-8811,-4586,-7724,14854,6437,-12788,-11044,-1064,-13393,13192,7858,15081,4907,-13688,14866,-10883,-670,2586,-7771,-14629,18930,14179,9751,10883,-7461,12076,-6827,15267,4680,12272,-6819,3538,1106,10067,460,6813,-15544,-2951,2234,4407,10676,-10060,11491,-18009,-15587,-12752,10181,-10611,-4927,7250,14529,4704,1185,-16860,-3151,-14037,20488,-8410,-997,-11538,7857,1847,2608,-2645,-2986,2686,-11360,5305,4574,-6458,-224,12127,8418,6482,-14944,-15552,13138,14642,16846,15813,15284,6862,-2302,9758,-1085,-12330,-2958,-2549,-8616,-15852,-4756,12969,12138,-7785,7909,4951,12025,11991,-6978,15302,-7895,-2752,-9988,8672,-17292,-3950,2985,-21801,9090,2605,-4465,1382,-2717,13015,-15717,2002,-1550,10324,-7078,7326,12177,-13089,-4168,3352,9081,9709,-15088,-5582,14095,-10226,
-12479,6368,-16854,5205,-8594,792,15197,-9081,3037,-568,9692,2698,-3944,3164,-16174,-14353,6616,7483,-7622,-3890,4500,-7810,-1823,-972,19557,17498,-13798,8609,11084,-11191,3774,-1830,4948,-18062,-15821,1119,6203,-17050,-14171,6345,-2408,3605,-12649,-10271,-11768,-11536,14535,4233,15209,-194,16365,-8585,8031,10588,-10149,-4933,-14911,14152,16761,8353,3791,-2365,-10089,-7342,-1081,-13811,-5843,11635,-153,20910,8677,-16757,-3577,-9324,-507,-12901,-7895,-11980,-6521,12046,-17523,773,12973,9800,-1307,-12149,-16568,-5156,-5419,13092,-5489,-3999,3832,11772,18262,8679,5869,13168,16381,-8370,13865,13780,176,6125,13303,-1620,1805,-14674,15937,-6604,4305,-10591,10378,4864,-8155,14418,-6557,-516,-10632,-2700,8225,-3000,-11272,3182,-7354,-14640,10421,11919,-15156,4857,13772,1388,-69,11583,-9677,7889,8910,-11499,10733,1356,-8341,-12450,-7025,-16061,-16758,11872,15736,-13683,16106,-11766,-371,-14718,-3965,4783,3544,10140,4219,11709,13438,7470,-14231,7617,7831,-7612,-15495,5442,11187,-7396,-475,2230,15748,-1038,1529,5243,14062,10211,8783,-11280,-10582,15096,
5145,460,16085,-7932,16734,64,3651,-6444,-9104,-3290,-13497,-453,-6645,-7234,6238,7120,-16917,-11564,-1461,11525,16857,-3366,-12085,9997,-6747,-10212,-4519,12335,-13577,4397,4075,11499,8988,7140,-13818,-16130,-15390,6546,-5305,5477,6997,-3264,-14096,57,-13931,8001,-4141,1382,9600,11423,-825,3067,6732,11958,-14757,15331,15969,14633,-6437,15410,15536,-1006,-264,13760,15516,-13275,6364,16102,6745,16824,7416,-13503,-2944,666,-9450,-1571,15883,5690,-3157,14430,5994,15803,-6504,-2384,10758,-12289,14214,3086,-6191,16122,10112,12407,-5107,-5507,8908,-9210,4945,14716,-1201,-7929,-17078,-12724,-9611,12003,2531,-1513,-14495,10811,-8649,-10002,7931,-627,7211,3671,-10362,15734,-3630,1181,-2603,-16613,8472,7194,14006,-16061,-16479,-8379,-2308,4650,-15978,-13460,-16772,1542,2044,11748,-12466,-5655,-8799,14320,-7991,-5814,-8526,5084,-8553,15894,832,11349,4432,-14696,6857,15089,-14292,-15242,4787,9848,-9235,-17265,4050,16597,5895,-15764,-6715,4313,-12803,1591,7146,-15380,-14924,6323,8093,2090,16504,-13921,11672,-13710,-8507,-3339,7090,15529,-10093,-2436,
12559,-9922,-12560,-9475,-13059,8071,15930,9626,-7169,13092,16335,4098,-7978,8987,-1210,1444,-2976,13482,-1917,13834,14326,-4937,-11599,-247,-10605,15155,9243,-13443,-8891,4150,-6725,-1047,15556,-4167,-13741,10664,11712,13016,12575,3798,-15451,7259,-10468,-11534,7032,713,9792,-1071,-15296,-17318,5417,-16700,-10732,10411,-5619,1434,-14371,-296,-321,-9101,-7645,15838,-1844,-333,250,9954,-3669,9616,2216,-17596,2272,2646,4891,-1798,12201,16236,-16905,1069,2970,16872,6093,9370,-10385,-9819,-16592,15430,-12611,16144,-8412,9271,3379,10135,-10604,-4128,-59,3565,10600,-16271,4486,-11731,5660,-3295,-15802,8483,-10374,-13001,13887,7921,-14788,10233,-1395,-16928,-9895,6025,-3358,-16367,15719,-8887,11995,3349,-15763,-8929,-6004,16257,12456,2346,-7283,13807,-17285,17313,-1884,15639,7605,10366,15989,-9284,7635,458,15813,9607,16580,3826,-4371,7477,13796,488,-11697,-4803,10855,12373,14950,10981,-1066,-6026,-6410,-13723,-3921,-12493,8377,-1629,-10955,-1241,11076,-11030,740,7631,5538,13426,1624,-17382,6067,7779,-9339,-5839,-2856,-12559,-2092,3111,6980,7983,
-11536,-9324,13345,2410,-18307,15354,4,8869,-17239,-14524,-15884,1608,-3135,-5189,3687,-9351,-1248,-11341,5151,-11855,-7597,-15511,1227,-1221,5442,3722,4286,12328,2694,-11735,-15288,-9107,17149,-16365,-15392,1610,-1473,9411,9408,6259,11901,-11752,229,7842,14711,19,-3567,2654,-3748,-12324,6905,-15270,-13412,18638,-2979,17236,-13966,11697,17432,-14752,-3915,-6178,-10944,-1231,-4776,11019,3197,-7356,6887,-8591,-14808,-8227,6672,-15181,-5036,-10433,-17746,-6079,5353,-7731,15431,-2257,-715,1609,8495,-16382,5339,-3053,13255,-12688,-13602,-6016,14662,7177,-3282,6951,-5839,1110,7134,-13669,-315,-15804,-13999,-10819,-2160,4118,-1963,10412,-2726,-12607,-7660,-4199,-9569,16406,6583,18466,5364,-3693,3206,-15425,18309,5228,9655,4594,-31,178,-129,11660,-661,-669,-7385,18302,-14622,16780,17043,-5266,7278,-5607,7388,6433,-13368,7840,6772,9592,-1199,5830,-2105,13289,-3908,-10821,-7585,14241,4817,5575,8643,-12019,6947,9609,-2221,-11743,3152,4488,-13451,-6872,14215,-14698,-12516,-1415,4408,-8276,-11349,-3433,-1155,13246,-2901,15486,16805,-2113,-3069,7801,
16948,-1219,-6529,5591,3395,-4532,-746,4105,10852,9398,14173,3720,12412,-14367,-884,-10361,-16246,5463,14487,12163,7156,-4058,12408,-5859,6615,16204,-11482,-9338,4355,17121,-7722,12652,-11248,13945,9185,14122,15793,16344,246,-7557,2540,927,11210,-2263,2649,-14442,6679,13166,-12027,2735,7629,266,-13264,6487,10187,-16888,8078,5725,17012,-3312,13724,14331,-7629,-8219,5097,16967,-1960,-407,-15477,2283,-12703,10756,11765,-16836,2112,12805,7225,-4923,2568,-831,3502,-3951,9604,7249,16467,8436,12494,-15913,13610,-9426,-1800,1963,15402,4664,-14237,10625,-10239,-13898,-1329,-5647,1670,-779,-10571,-16794,-4665,-11782,73,9394,-3516,408,-4794,7398,11272,-6337,8724,10223,4147,6954,-6088,-9819,-14218,-7613,-5085,10712,-10398,7572,-7295,16000,15670,522,16985,-1815,17295,570,9153,-6061,16557,-12674,14607,-6095,-11259,-14075,13454,16241,-6681,-12362,16401,458,3112,5444,-4938,4678,-5253,-11050,5451,3624,-8616,4998,-664,-5253,14543,-15070,11916,4139,10133,-8781,-11591,-12913,3405,12930,-8966,-5028,11765,11117,11361,-9200,4825,277,12918,1299,
-12666,5270,15777,-2732,-5984,-9199,-10429,1927,380,16188,-1030,1794,5996,-13493,-11412,9510,8730,-9920,1112,-6730,-4674,-736,-1393,-3229,14075,-3661,-2884,14674,-2809,2292,-3465,7193,-4633,-1208,18138,4453,-2955,-15426,-3051,-9975,-5743,4488,-6728,-12965,10202,-1730,1589,2227,-15505,-10757,-337,4733,16567,-15668,-15467,5274,912,6274,6162,18208,-3260,-2161,7048,12657,-2651,3448,-2642,-10312,6276,-11930,15995,-5865,9576,3522,15315,10659,17082,5965,-515,-3572,-5900,-3027,-3976,13597,-4921,-9438,6114,-10917,9106,-10574,-1727,1897,14592,-12930,-21875,-14210,1080,-9691,8608,7260,-3731,11892,12604,-4588,-4404,-14477,15452,-3489,-12281,12125,15084,-18170,-15315,-16359,16062,-16121,14301,6370,-7541,11786,-7061,-6417,-9736,-10229,-5442,663,9551,-194,15922,-2740,-17050,17177,-14540,-13234,3010,-16849,-7286,10088,9309,-10812,3060,15626,4261,11511,-6259,2267,-12721,-6155,7334,6225,-10030,-13779,-16501,7070,14874,7075,-11201,9626,5999,4399,-3583,-6409,10663,5413,1211,11469,11073,16442,-8118,2762,-9036,6930,6426,13503,11657,14625,14270,-3488,7702,1913,
3959,8856,-10500,-6756,-11444,13522,-10540,-4382,14528,-10394,9325,-9582,11159,0,5465,15593,16195,-2218,11341,11772,4152,-11312,-5909,-3348,6899,-4426,10749,29,-12327,1349,-10289,13459,4198,7641,-8636,16540,2256,-8688,3086,6632,7361,7647,16023,-9723,2604,191,-830,-3637,6174,-9741,-14142,-4715,11947,7923,-12838,1732,9310,4764,4077,-14919,-9907,8671,5592,12165,4593,5497,12276,-5347,2881,14640,-7456,4187,11151,-11220,5644,-13413,-7941,-953,5678,9473,-7953,8098,-9559,14919,4613,-604,-2002,4665,6869,15427,3660,10801,14264,-13743,-15085,13503,11350,6432,-15905,987,-15677,1141,-1863,12389,9825,15875,6059,7005,4304,17238,15087,-1351,13695,11087,8581,4060,3477,-11752,-15718,-6368,16086,18030,9018,-8038,9567,4758,-10996,-7698,-15865,-6163,-14186,15974,-404,-4357,4205,-13416,8088,8636,9460,-7085,-4374,14332,-3704,4343,15932,-15628,-2010,8647,-446,12085,8428,14889,2043,14509,621,1140,4439,-10943,-7133,-5221,9754,-6906,-13723,3285,14227,-2020,6581,-492,2787,-14975,-8632,16413,16445,632,-7075,-15316,-15017,-2026,13768,-7742,
7052,-5003,15200,-4755,6530,-1795,12736,-6670,6796,3970,9039,12809,4136,-76,-11596,-12022,3022,-15240,-21369,-14089,7742,8876,-9202,-11595,13594,-11902,-10747,6374,8446,-9199,-8689,-12860,-9076,-18371,-21164,-2371,15258,2105,2892,8659,-8032,5212,-17690,-2829,-17661,13442,-5245,-10268,-11817,-5229,14218,-1527,7947,4875,7422,6088,13161,22930,-3530,-1714,-3161,8317,8680,-7384,-11222,3367,-8885,14894,-9839,-2553,-20369,10238,2183,-13613,-7972,8427,5053,-12977,-10121,16018,2434,-5354,-14463,-12552,8728,-7332,-8602,-9484,387,-5859,-11120,-9903,10113,4090,18744,12758,11506,11052,-15331,-2173,9303,-9962,-7105,-3601,3662,2659,-17326,-188,-15118,2091,-16725,-7126,13937,-2526,17145,-14769,11104,-2243,1755,-13783,-8905,-8923,-6751,-13219,-4792,-543,2566,-6812,10344,6823,-4604,10279,-8384,4978,1271,5632,2300,16109,9138,-8222,651,-1859,12533,4083,379,-13283,9243,-761,-11971,-2468,-8279,-11642,9054,1589,13058,1786,14641,10142,7014,-21213,10624,1929,-3014,-6430,3412,-4281,8692,-13644,-9638,3110,6061,-12618,249,-1908,5409,-2083,-7938,-5276,2460,-10579,
-1150,17570,10572,15859,7753,-14405,14045,-15607,-13067,-14459,-11129,-9622,-3143,-8265,13500,-1351,18698,5023,20094,-5986,-5832,-6258,13255,10967,5616,-10542,-5057,-15512,-12449,14573,8827,5661,2497,-1387,17020,-3410,-974,-11088,-1713,11450,15624,-8672,3082,-2304,13290,-15879,-2935,-17782,11135,12855,-12146,15926,13906,7663,5071,9960,-399,-21458,11659,5351,6931,13142,-11563,-10614,6135,8801,-12401,5840,4358,9598,14879,7887,-5678,9947,3265,-4135,11814,10817,9520,14149,-3017,17547,11558,-9787,9955,-4624,-5663,-5823,3654,12578,13746,15161,14205,-10835,2378,380,-20593,-14027,-7094,-6706,3450,-13594,-14955,-4826,8040,1337,7808,1511,11751,-4417,-8473,-359,-716,-10130,-18102,-12395,10018,-17160,-17294,4406,8583,-17025,-4241,343,4564,9948,-16207,10808,-8021,-12977,-470,-630,7731,6546,13381,-306,1573,-5590,-5077,-16994,6878,11216,-1149,11996,14118,-2312,2070,2373,-10909,-3841,7339,-11343,7435,-1025,-14693,-7232,-6075,-22475,7810,13610,-7684,-14345,-13871,7464,-4464,-10546,1074,-2248,-4923,7749,4315,10055,13634,-9321,1046,-13292,14122,6735,-10504,-14507,
8118,-2787,-16616,-2583,-5530,-291,3105,-5108,-11316,-11427,-2237,6445,-2154,2870,13969,12958,-3810,-4867,-1398,1049,5373,10673,16721,-3577,-15824,4758,18757,-12405,-4231,2645,3596,4974,13303,-7891,21917,-7143,11461,124,-16050,-8939,-5306,-8647,-5064,-8714,7388,1377,-3873,9018,-4360,-252,132,-11649,-139,-13257,-3687,-2959,1692,-26512,-14065,2644,4652,1521,-313,11549,-1099,8256,-7697,12759,6429,5182,6388,6067,-12430,7089,-7207,406,5181,1052,-18427,12003,14088,318,1579,13554,15206,5728,10192,11622,11916,-10930,19938,11605,-10355,-27834,-14414,-272,2478,4411,-12351,7932,4673,-2116,-7645,12265,12889,11533,-7086,5772,14904,-10108,-506,-16602,16834,-8060,-6684,-13192,-7751,-4746,10965,16348,-8153,7223,10200,13820,-7092,15461,13414,-14092,-5340,-381,879,-12968,4007,-4374,-2733,11357,-3468,17145,-9381,12009,-8790,9426,-9183,4544,714,-8490,-2770,-7331,-10602,5814,5963,5859,-4365,-10621,9344,13075,-1403,-13265,-15338,-1397,7125,-6166,-1943,-11121,12371,7209,-11908,-4882,5619,-10895,11002,-9719,11815,10826,1466,4521,-12458,17147,13032,5044,
3222,-14558,-7402,11972,-10525,8053,10023,2562,-9368,6653,-14778,-8332,3465,-13933,13124,3248,-326,9822,-16088,-13170,-14150,-1391,6921,4015,-8423,-6842,-8358,12779,-9687,-9412,17041,-14838,-4095,7385,5269,-4066,-8686,-1780,-2558,9588,-15409,11050,-16083,11071,6505,-9056,6385,-12065,-12615,16633,4561,13131,1046,-14895,12463,7288,7142,-6575,-6014,-18716,-8747,-12332,-5240,-1558,16090,-9897,-5817,13134,14887,11605,10998,-7333,16355,-10410,11015,13350,1222,-8268,-16611,9524,3199,-16084,-16680,13230,9830,-8349,-16056,3377,10325,13998,-22539,14531,-9427,605,11700,-591,19442,5596,9928,17048,-11906,-12478,7185,1333,-14010,-7432,-20922,-3912,-643,-9107,13617,18882,2396,15296,-5923,-12762,17896,-8305,10720,-224,-4024,-687,7108,8988,-929,-10494,4731,6989,-11365,-6284,-1166,5618,-4290,-9380,-831,933,11602,6376,-15258,-8919,-5963,-4902,3259,-10213,8596,9473,-3288,14772,-9655,-11666,12708,-6375,-9636,-815,-15028,-1246,-8744,1911,1428,-6949,-13487,8894,3729,12246,1937,12533,-12528,-8711,8871,-6102,-1999,-131,-5679,-16299,-6872,-133,-5073,-101,-4559,-10876,
10470,15766,-281,9302,-1770,1977,5712,8141,-12930,-11013,5389,11844,8472,-14432,-3712,17179,7086,-6980,-2572,-3743,15167,6009,7404,16765,8159,8394,-5041,7877,3685,-7231,6340,28,-4684,-11900,-9788,-2905,-16082,13321,16109,8178,15231,11237,-11753,2823,10887,-3827,-17379,6487,6814,-9123,494,13940,-501,-7271,-14399,-15531,10652,-14495,8229,78,4977,3194,10912,4796,13190,-4969,4064,-15404,997,2127,-11720,15700,8479,4718,8221,6561,-3639,-11919,-322,-16884,13273,-4302,1443,13402,810,-16943,-2953,-566,-3820,-5170,753,-13590,-7257,-24608,-22277,-2141,12558,4602,10930,-12910,-11379,12716,-12888,-13258,-11708,-2329,11495,-16004,-6547,-7149,1086,-6632,15842,-11315,4887,-2071,-4962,14043,-14051,-4366,372,-6439,-14968,3163,9890,-15902,-2521,-7484,6443,-13723,-13693,10737,7131,8247,-8428,-5777,5903,8419,-9230,1925,7106,15151,13724,8410,16163,-5244,1178,-2179,-11175,-17056,-8140,11440,-9834,-4624,5043,-7146,12903,-1337,-13027,183,-5049,-10160,7544,-6801,11475,-7627,-15585,-11344,-797,5360,879,-872,-1758,-12900,-10082,10326,-10529,7759,13168,-14117,
-6765,2037,-4422,8996,6897,10013,-7152,-5436,-5625,-5916,-3316,-4960,-16665,-13668,-2926,-11780,350,-12621,2984,-9789,-882,-16029,12895,-17007,13114,7433,-7862,14757,-4198,3337,-11569,13015,16776,7896,7195,-3086,-14148,-5222,3384,13020,12958,13180,-7055,14377,-11098,14302,7582,-16406,10351,-7145,-12267,7816,-15715,-8709,15590,-6854,-7751,17267,12314,-2303,-3174,-13147,8890,2306,-6171,-3446,17916,-11807,8248,1812,5413,-16181,-11248,2517,-3883,-12130,-1301,-5826,4949,9996,13909,16719,12272,-2458,15401,-6643,-10383,-1876,13635,-1461,11172,-5022,-2418,18209,10234,-630,14610,12927,8117,7638,-735,-16372,15245,6829,12860,5597,-5989,-4876,8940,9488,-3917,13037,-5447,-4786,-6355,-11871,-4560,-8274,7986,-8775,-1677,-17452,8258,5876,9950,-8269,9010,12334,7846,-15113,-14483,5774,6347,-2529,-16484,14527,109,13537,-14816,6869,-10518,-15912,6332,-17768,2452,-5614,-4755,-2709,7360,3510,9806,-10300,3399,-6080,-14569,13125,15716,8139,13568,-8729,7853,-3202,15063,-2719,-8698,-2136,1758,16060,10838,16443,5947,-4237,-13497,2556,11245,-17417,10755,736,13114,6807,
-6612,-15810,-13433,12668,3055,-13041,-16550,-924,-16654,3679,14618,8075,6259,-9515,-17237,-7763,-13609,2099,21771,11878,14164,-19404,2890,-9742,-10422,-9118,95,1323,-3742,12987,1969,6877,7376,-1422,15327,4920,-8193,7543,-11986,-9171,-11235,-14571,5572,-10804,-16335,-4272,17069,10276,-6205,-7212,-4224,15283,-12960,-16532,-11044,16095,3591,-2718,-10107,-580,-13141,-12215,11516,-8745,-12781,-8937,-4567,411,-14648,-11582,1250,12379,7416,-11420,-2230,9352,14159,13351,15205,-16546,11376,-980,-10873,10330,-5898,-13752,-3507,3226,4727,-6618,16509,9993,-8583,-10455,-21215,-8376,1358,3784,-7151,11802,9952,1483,-8679,14472,4709,-7729,3240,345,16998,9894,-1478,-18079,-158,-1468,-15030,-11826,-5838,-7580,16869,-16405,-1263,3255,307,6978,-3026,5066,9215,5246,-9236,5462,-15759,-8910,-18505,-5286,-15099,565,-858,4049,3696,-15922,14884,15887,2851,1367,14698,15311,-1651,-17625,-9120,-10416,-15319,-14866,550,15180,2238,7009,-13611,-20478,-8421,5896,10146,-3974,-1427,-2450,15525,1859,3894,10309,-4461,-9304,11686,-13214,-16218,4536,-11325,-8095,1247,3692,-13895,14398,
5938,3157,1456,-14750,-10934,3714,3078,9969,7649,7252,-6873,-11945,-4376,-6840,-342,15160,8464,3940,684,16202,-3190,13752,9859,7302,1815,7961,-14735,-10862,1953,7033,-4703,1492,10109,-14285,6149,-1362,-14777,12000,15398,16726,2758,-5825,9847,66,13612,-3371,-6353,-8742,10062,-10976,9982,-1950,4299,-3901,-16031,17301,12366,13977,11788,-3922,10966,-4258,12966,-11186,-1350,15443,-13038,-5537,4441,-4158,-5947,7482,2965,10873,6604,-10783,1611,-13992,11496,-2093,13568,-3934,-10601,13073,-13175,4202,-624,7133,-1148,1952,-14826,-17081,-9843,6358,10294,4508,7747,15491,-11097,14141,14591,4346,577,12660,13176,12404,-5622,-12634,-6538,-5615,-2979,-2403,-14907,-3423,-12385,8918,-3964,-10524,-15149,2952,11259,-2643,9108,10074,-3410,-3228,-4336,13022,7588,-1662,-2235,-16367,5,2104,-11488,16368,11788,-13029,-11049,5977,-2992,-11751,4169,13799,5109,11977,-14191,3230,-11595,-14824,-7052,744,16217,5355,-2729,-3107,4125,11298,-13024,8640,7111,15677,6469,-14384,13414,-5988,-13543,-12263,1239,-12449,-1100,5003,-4884,14653,-6672,12638,13042,56,-13057,-2950,
7807,-13873,1190,-6181,-7718,-5061,13706,1860,-7571,9838,4298,-3969,-17583,5762,9460,-7481,-4174,-7546,6346,-10656,2827,-950,2295,12656,-9403,8408,-17526,13070,-8427,1789,2245,10992,4820,-7738,-23898,-11386,22,14140,-5026,7530,2014,1000,8163,7926,10517,-2241,-15206,-16328,12410,-12516,-14116,16101,-12354,-12979,13124,8528,-16186,18283,2731,-2220,2840,-5619,2116,-2995,5555,229,15448,-6509,-6713,12886,8005,-2413,-11684,-3485,-1660,-9310,-9151,-6187,-2698,-11802,12353,4476,-15551,-13896,14266,-12979,6487,-10075,106,1322,6898,-4138,-3867,25895,2918,5900,-6142,-13919,11070,7364,-9652,8516,9879,9016,3638,1350,-21270,6226,16182,2070,-5148,1074,-11012,-11598,11443,5043,2383,8161,-9012,-3781,6978,7304,10339,-14707,-2346,-4236,3249,12382,-7304,-13288,380,-4110,9664,13236,13214,17527,12050,4201,-16007,-4651,1958,1436,-16272,-13678,-7813,-6876,16448,7686,8498,10934,13128,2495,15841,6420,-2513,13411,-241,14102,3975,-2324,6512,-4483,10671,933,-13227,5219,-5290,3218,-11458,-16659,10164,12541,-5617,-5070,-8044,-11127,9110,7249,-3786,-5027,
};
#endif
