//(120, 20)
#ifndef DR_Letter_0Q_FC1_Map_Weight_H
#define DR_Letter_0Q_FC1_Map_Weight_H
static int Letter_0Q_FC1_Map_Weight[]={
15172,-21038,-8964,2480,-6626,-19558,-21313,5157,18759,-17990,-10142,4299,14359,249,14078,6413,-1983,5821,-14276,17329,-6147,16755,12321,-12469,18874,-12983,126,11943,8645,12445,5240,-6743,-11386,15242,17889,-2120,5072,-10397,9992,-7331,-6024,13173,5057,9857,-7963,-15255,5197,-12986,5441,-18437,-1178,-18714,14091,3856,-12095,-2360,10708,6272,8501,9835,-5684,13528,12611,19390,18450,-2866,-19072,19024,10297,-16511,-2060,18702,3747,2239,15635,3163,520,-18695,1438,-15711,10789,-10454,6171,-16965,-19302,-4526,-16747,10021,7977,-21549,-10858,-20486,16034,869,14623,1546,-7771,-17706,8508,1265,14625,1157,-11250,15689,10693,-137,14414,-15717,8741,16605,-15114,-10720,-3227,11149,2691,-909,-18127,-10758,-2755,20376,
20477,1043,-928,-18717,19269,17022,2313,12906,-7124,16174,20424,10136,12108,-15594,16098,-8084,5885,16792,-594,20632,-17019,-13021,-14418,-1588,6063,-19819,-12215,-13987,-7015,-20365,-16618,-10746,11074,-2600,19106,2757,-9628,10569,16710,-10062,-9315,14561,-12107,3995,-8507,-11922,-18250,1787,9927,-13712,-3411,15722,-15544,-3066,-10555,1527,3334,-9447,-15925,13681,20006,-13966,17995,-3057,-193,6354,8615,-835,-14112,-19680,-9595,8713,-19645,-14447,8035,334,-7217,-7897,-11608,-3083,4020,-10804,16745,12820,-17397,15467,20030,-2255,-8351,-14202,2446,7811,-15158,-15196,16828,12957,-18653,-6148,4537,2735,-621,1135,3624,-19737,4587,14766,-17675,7188,-10383,6257,-5243,19025,-17956,-242,-17255,-2992,-2470,-13469,4541,12713,
-550,17109,11890,9891,-13225,-15036,-8615,-19006,-9074,13495,10410,-5881,-6911,-18812,8622,45710,47420,2501,-17127,8869,-16250,-15411,18464,11009,6501,-10414,-4831,3527,-25966,6168,-873,-9638,5309,31362,-9276,-10744,-1919,2536,6807,13784,3145,5665,15454,10675,4603,15381,-14344,-16464,-29,-14327,6612,-13307,21857,9224,14289,-9408,-11397,-12268,-13216,-8899,9772,4299,-6090,10041,-5664,4073,15855,-14357,7934,10138,15271,4609,-18772,10148,8772,-3963,-14826,-18856,17247,19492,-17748,20858,-13942,-9757,-11730,1258,-16021,-18984,-8003,17047,16662,11750,8519,16471,-17556,-4242,3366,7344,-16447,15143,5414,4116,-2784,16389,7085,-10355,-1700,-12247,-8564,-18880,-2241,-10861,17930,13453,-7766,15194,-9177,-11028,6923,16829,
7800,10768,10137,-15145,-17134,11044,-17727,9087,7518,14102,6258,8921,10403,3961,-14021,3847,5275,-1957,-12370,14732,-9244,-9643,-17880,2842,-5809,9934,-10061,12605,3037,-2760,-6000,-11263,12068,-11688,19739,-16251,-5472,-3552,-14922,8132,1875,3993,-18882,-9591,4560,19575,11457,-7717,17570,10896,-6169,-17017,10772,20261,-17861,7346,15492,11779,20204,-3344,-15625,18434,19832,-4850,3523,8412,-7023,-86,10214,3729,68,13058,-556,-10717,6303,-17137,6390,3894,20168,10178,2928,-13877,6062,-14942,-14417,4045,-14513,-1285,19154,19376,16686,18219,-7713,-233,-7118,3289,17913,20680,11410,20091,-20381,20672,8162,6468,11101,-5363,-6812,8341,-7678,11482,-2592,15244,9687,-5476,1452,5288,13947,-5911,-1115,17758,
-14050,-18663,6074,8738,-21587,-6560,5545,-7787,-8314,-16795,9016,13324,11505,-5956,14579,38738,37681,-12013,-6651,17165,-21324,-8217,19813,30055,-13918,-17638,10842,1683,-5864,5433,942,-14000,15130,15351,14866,5241,-1787,-11925,8482,7324,20422,-19483,-15046,-13589,3615,-18433,-5493,-4215,-1088,-1007,571,9336,-13953,18966,11545,-453,-8157,-15522,-20558,-21028,-8461,20105,-18982,-18607,11345,-6015,7065,17292,-13704,-15439,6818,6292,14941,-376,-13097,-6827,-14236,-13139,-10357,10107,20347,19458,-15888,-1005,-14347,227,12310,19722,16721,6175,-9400,-1279,-11254,7159,17341,-18034,-3835,-8150,10155,15076,20997,9674,20493,5568,14754,5399,15736,-13710,15705,16247,-19493,-4084,13232,-14384,15716,2644,3700,-10944,11061,-9538,
-7775,10015,-14324,-12819,-4900,17902,-6175,-8723,19631,-18674,-2866,-3040,-10844,-4735,-17061,-1280,-19998,10809,-13859,6463,18821,-911,-1628,-19338,11758,20340,-5110,-14810,13295,-6212,-6055,13162,678,8479,-4117,20262,4670,-3514,-19945,12383,16558,-2016,9148,10938,-10059,-7222,16807,15799,-105,-13805,-6694,-14427,-7521,-162,4512,-10842,16585,18433,-9597,8429,-12683,10602,20117,-6673,13591,-6763,-7818,5956,4785,-2098,18865,10677,-19597,14636,-4573,1990,5362,7606,16718,-155,19577,7462,16632,-14331,-17106,4728,15756,-15422,-19647,-8121,9729,4615,-4153,-2715,-3021,14577,10208,10474,5457,-14991,-10857,8220,179,11175,2496,-20214,-6418,846,728,-1580,15081,-1048,-11332,-4755,13625,-5946,9785,12197,17707,-8997,
-12737,4245,7158,-888,10571,19663,816,-163,-12077,-3567,-3683,19634,-16125,4114,11705,22961,36754,-9931,2090,-7950,-28915,-3645,25431,10908,17363,-4473,-12165,19707,-6791,-2208,1496,9195,11664,32638,-3808,-11328,9211,7723,-3020,-16641,14693,-1168,-6874,16578,8498,78,17528,-15148,20663,7639,-8063,11034,18171,17340,-12970,-706,13280,6922,-13451,-16735,-4391,-5042,-7873,-16957,1004,-10392,7111,-7063,2267,-5547,-16375,3931,-4138,16293,9372,15752,807,-15624,-15447,-3821,-10589,-13931,18683,-11227,-6394,-10808,-19801,9340,18492,3011,-1514,6604,-15378,18158,1542,8690,-16792,-11039,15362,11616,19427,-10437,646,9530,-7447,14358,-11523,9434,7227,-12938,-5351,10711,3363,-12333,10057,-23,21242,3731,-17634,9625,
-1568,-14528,-4841,8568,-9616,-9890,-7985,17605,-13218,17835,-20621,-16889,4278,22982,-1388,-45678,-24718,7216,19745,13270,6115,19258,-24686,-35660,-12810,-2066,-17840,-25559,7219,11668,7028,-10596,-8437,-11171,12685,13512,9353,-1705,-18739,-13547,-9957,10121,-13000,8350,6869,-12727,8144,8057,-17711,-14336,-17170,1944,-3611,-3350,-8968,9286,-5279,15018,9050,4472,19593,2134,-12973,3916,-4347,5050,-5864,-17560,17970,9251,5850,20399,-19601,-8811,-17784,205,-20625,5353,5557,-3950,-2452,19609,-7049,5715,16785,-12403,18257,-15229,-13930,-13371,-6236,11223,6058,-12465,3439,16140,16687,16089,-19111,-3378,-6578,7046,-17013,5839,-4734,-12082,-15155,-8522,11231,-12760,-13501,-15847,18040,7022,8823,11048,-21184,16831,17798,-17681,
-13349,2159,-10749,3851,-9828,16980,4934,-5667,-7942,2010,19914,-10580,10709,-1466,-13686,-34022,-6174,-17496,5733,-2743,12118,20685,-2325,-29494,-18729,-15416,-21576,14053,-7480,-20139,-20209,17133,17621,-26591,996,-9540,10421,13244,13803,-14660,-713,-11030,18107,12954,-16934,-3465,8613,9547,2836,-4836,12029,-19216,-7273,5408,1515,4511,16712,3783,7736,1919,-8476,5202,-16252,-17628,9090,-15592,-18969,-17891,3271,-8119,-6548,-18053,9510,-10392,4293,-1109,8030,-2376,-11685,9506,-4009,12351,16387,6482,-14500,-6867,-5237,16592,-9894,7644,-10220,21353,4430,13283,-15300,9786,6977,-2248,251,7744,17627,-1264,-4278,-117,6639,6241,4892,7786,11829,-8319,-12345,5376,-4139,-15675,3283,17340,-8864,-13500,10319,-4405,
5853,2603,-11431,-9240,-6603,-3984,13122,17866,19877,-3835,-11332,21608,-2699,-9067,-12352,21929,31575,4443,-25472,18172,-25308,-1835,13225,27019,3592,-2194,14804,24429,3987,-7200,-19967,14274,-15000,19800,3902,-8600,-3157,-19374,-10983,-19350,9037,-3408,9204,16118,1329,15297,-8159,11028,-12589,-9240,-1878,17312,-13761,12379,-19184,2131,5365,4450,-11175,-18413,18018,4518,-714,15495,4880,4912,17684,-7256,18556,-10227,-12225,14364,1846,10289,3186,10119,-11968,13054,-19786,-2513,-10967,-11559,-17406,-14955,12313,-11879,12169,-11091,-2992,-17432,-4149,-142,20678,-10020,16627,6116,5201,10657,3197,18729,12645,16506,-4045,-14349,12285,8822,9890,-2712,-19468,-7244,16908,-19239,5666,11000,8052,-5932,7722,17242,-10866,-13096,
4787,18763,-17505,6067,13059,1961,10298,-15903,17690,8171,-3335,-9219,16410,18451,12302,-31912,-28680,-7631,2415,10353,7523,5856,-24502,-32583,9936,-7486,-9107,-13460,13311,-18481,20924,15227,-15508,-18486,-728,-6922,8231,-1258,-18809,20844,-18018,3396,-4737,-10721,-8851,6363,19714,13035,11718,-3093,-593,3968,-4869,19422,-10466,-191,17243,-13983,4733,11336,2039,-15711,-8992,17219,-16308,-4069,-3780,-3516,-10989,2913,20393,-5989,-7896,-7847,-19098,9300,9869,3971,2340,-18103,463,-13562,496,8526,-17045,13152,6736,12589,7553,-18161,1881,10822,-5209,-6238,12693,10215,-13565,-874,19466,17648,-11737,6463,17585,18284,-14260,-11008,10005,-17723,-310,-13870,18487,20041,-18952,-16,12865,5824,-6149,-5133,11935,-14680,
7360,-15239,-4345,-19455,-9629,-2725,9106,-10710,-8456,-6837,10241,3133,14361,-7257,5040,-37836,-30288,-12460,7911,15890,10093,20556,-4342,-1179,20982,-6836,-22878,6486,11403,-15647,-18343,-7483,13200,-11404,-2141,13474,2036,11460,-1073,-6526,-10313,9733,-20241,-924,7055,15256,-8400,14852,-5235,6557,-18320,-2561,-17880,5643,-2080,-3973,-16856,-11426,-14153,-3411,12363,6744,-380,-9559,9911,14385,3925,1015,16369,13072,-16393,-15061,1358,-232,-2342,17388,9131,-8761,5908,-9596,4620,6517,-15824,1625,11121,-11007,-20428,-19653,-11296,-9549,15662,14189,-2003,-8820,-1108,849,-13769,-6968,-18183,-2129,5904,-1154,-13692,-12921,12705,-5357,-553,13825,-19832,-18315,10354,-14541,-20118,10728,-18829,4496,-16226,6829,4281,-6471,
10297,-3497,14977,731,19097,18471,5706,7640,-17889,-4425,18576,16836,-15450,-7066,18920,31625,25893,-1248,2406,16772,-16162,6281,-4263,30732,11552,-20690,-2041,15854,-19744,395,-13130,544,21284,-7552,19771,13705,-4733,-18520,12831,-5041,-15905,20282,-16698,5698,3762,-19105,-18191,-13703,16888,-12173,19825,1075,19230,-11871,-2199,-13158,19579,2863,-4825,8188,7555,10217,14321,18280,-19856,20995,-18140,9871,9979,-3853,12344,18881,6018,-255,-18868,-12820,-16007,-1740,-2957,4565,-6882,11183,9847,11257,-8901,-14802,-16559,-7259,14694,-1519,3244,-7822,-5118,11291,-10740,-5370,9270,-9022,5621,-2660,13092,361,-14684,-130,-19500,17154,2559,7074,-437,6344,-4082,-5761,-3065,-18263,12257,-15133,16941,6971,7627,4144,
-10308,18440,-8065,14558,2877,-3003,19193,-10738,2576,-20335,-16612,-6827,-7694,-13829,5166,28158,14500,10826,-7856,17853,-10136,8323,20384,19022,-4721,-18439,15934,9719,-13863,9875,753,15202,-4456,20553,-1139,-19411,836,3159,-14844,6937,20328,-3490,-2122,18879,9860,9015,-20263,-17949,-12506,17042,13286,2219,2752,-9146,-3755,-4888,20379,-1513,-444,-10003,-5777,-2074,-5253,-19832,2436,-9361,-15477,5104,17336,-14490,14871,14775,5610,-5632,-10901,7772,6594,9957,-2419,-13206,-8991,-5112,9976,-2950,-13641,14209,-188,10948,3400,401,14346,-12370,-3375,-14843,-277,240,9576,-14693,6439,-1015,9975,2923,-17974,-6374,4795,-14104,6193,191,14461,-2118,-8456,-8965,5350,-9316,-14878,-19441,19827,5167,12756,17460,
14596,11076,9363,2136,17125,-18038,-19171,-20568,-1564,6718,10640,-16692,-18634,13798,18360,-11497,-17167,8440,-11576,-6614,9318,-2288,-12513,-5433,-15856,11554,13602,12135,508,19929,-3066,7375,588,13697,2186,3671,17112,-10640,9306,-2290,14129,-14000,14244,-5050,-18571,10883,18385,-17887,-4425,-7724,2841,-3114,1320,-18251,10316,-11422,-18312,-16950,824,-6393,-7804,-15486,280,-17658,-15341,9168,-14123,6002,7627,-16889,7121,3813,12132,-18849,6831,-3452,19202,12486,-13552,-12945,4614,-318,-11087,13500,-3873,-4181,16555,-713,-12442,6412,-19435,10202,15941,19579,-11362,8849,3670,13594,-6400,16398,-4156,-12165,14317,-17558,14544,-11718,3395,1829,-3007,12334,15142,-3323,5190,2002,7275,-8314,2732,-3678,-15780,-4985,
18653,6013,-20186,-19638,-3707,14273,-21169,-8554,8591,11644,18623,18281,1739,-3472,12446,47408,20645,23569,-16452,14692,-4955,-27712,20935,18946,-4328,17966,-2320,21889,-33073,1230,-8767,-9492,15741,15744,15128,-21387,14124,-670,-11901,24,-4225,-2116,8358,5704,-3052,9936,-11686,5768,-18525,-7429,-19097,16649,14452,-14045,-12625,12056,6374,7501,-16524,-3321,-6336,6162,11559,1279,-2648,-18337,9959,2614,-11113,-19776,-12176,19662,-10448,12756,17856,5883,160,20504,4376,18005,-10657,-11993,-7947,437,18441,5699,8055,-6756,-8269,11462,-4712,2517,-21094,-19411,-7300,-11627,2991,13785,4143,6561,14542,19452,1639,-13856,14673,-7195,-11826,20618,-12333,11274,-17499,-8152,9248,-8443,10835,20477,12888,-2036,-10414,-14260,
-16535,12510,1152,12084,6834,3393,4556,6436,15375,-16675,-6765,92,4783,3835,13163,40239,17940,13592,-18614,4074,-32554,-8518,6626,35329,298,-10257,1708,5714,-14052,-2592,4165,4229,15014,27174,2625,-7865,21671,6950,13994,13712,10357,-2734,-13309,-90,20051,7563,12657,-12679,6034,-8998,-8677,15078,-19897,-10303,-8921,12650,-9454,17203,-14404,2417,5708,-18656,327,-3809,-4409,13164,10506,14113,11211,10689,2924,896,15465,5435,-8174,-7712,-13078,3256,13801,15874,-1107,14530,-12674,-14197,-15459,-20802,7464,-9319,-7632,14179,7837,-7325,2881,14266,-16471,8221,16858,-18978,-5865,-19272,6469,-5801,-806,-6382,15713,9823,-12999,15549,-9085,-4092,-19207,16563,1275,-17884,1426,-17285,12646,-16619,-12643,17646,
-9334,14183,-1738,-19322,-12526,-18817,-15197,-20614,-18520,5174,10942,-2811,3096,-21647,-9545,40978,28862,-11768,-15985,5043,2896,-8500,5236,36111,7782,-16911,-4314,7871,-14516,-13424,13606,12032,6112,25012,12985,-11859,-15411,2605,13149,-1438,7282,-17605,13885,1540,13645,-4597,-8978,-6515,-2493,-17535,3152,19822,-10905,-14428,4502,6675,18820,-19075,-4708,-1814,19453,-146,-19171,-16135,-2787,9868,17200,-17217,-12941,7195,6018,10206,8584,6391,16369,-662,-6691,-17913,-6257,20967,-8596,-4586,4785,16721,17220,9888,7699,14335,11796,4591,5296,-12516,-6689,-228,-6992,6285,-17949,2177,6858,97,-14565,9654,15203,-9337,-12897,-17832,-5233,19205,4454,-3422,-18601,15558,-15305,-566,11054,10344,-12436,8537,4936,-14093,
-14025,-6098,-12401,-2118,16895,9445,-6376,18948,-19329,-8109,-7366,14749,-7266,-19124,2546,41272,25512,6567,-4870,14129,-4922,-4557,3456,35457,1209,-18774,6725,-1849,-28972,15869,704,2083,4499,9976,18989,7913,15344,-15536,7469,-12396,12589,1247,5410,-15746,14474,16611,9124,14307,84,3169,-20101,350,9780,5347,-764,-418,-13809,-18432,-5099,-13894,6642,3775,4360,16445,18017,4808,-344,6172,-5528,-539,-16682,-5787,15324,-13522,-16923,17871,-10375,-19737,-8420,1046,5573,-5949,-18300,17173,19969,7201,17408,-9288,12255,153,8259,14964,4929,-16880,-8084,13685,16158,-10146,19798,1093,-20209,-3704,7307,17205,-17613,-9820,-10449,-10273,1827,17932,-4797,14875,7760,10416,-17106,14112,17622,20205,10406,11747,
-8346,-16883,15014,11401,-11740,-17198,-16920,-14297,9576,894,20656,16133,12308,2340,-10576,28213,11390,-1005,3332,-6793,-2218,-23187,12340,21275,-6768,18219,19727,-18073,15899,-11702,7782,3631,-4382,-12833,7112,2657,3066,-21818,-15358,13504,13209,7525,-15477,10950,11744,-8941,14558,-16460,-12734,9051,8624,-334,9543,-19698,-5864,-21387,-8189,-5960,12656,-9646,18188,-16728,3133,3998,-8114,-18748,17579,-18304,-1745,13634,-7117,-10048,-18371,14976,8708,3404,13226,-3764,12619,4303,3273,18236,9319,15376,-16669,-8975,-2694,-500,-14103,657,-7590,10615,-15647,21739,-3739,12626,-1072,-9079,-21028,-11392,18219,-22477,1970,-713,2654,-915,16037,-2112,-9395,1285,-18103,10117,-13328,11037,-10556,8491,-3271,12462,-18895,1199,
};
#endif
