//(120, 20)
#ifndef DR_Letter_0G_FC1_Map_Weight_H
#define DR_Letter_0G_FC1_Map_Weight_H
static int Letter_0G_FC1_Map_Weight[]={
1332,-4622,-12962,2002,-6399,-12589,6539,-16264,-12169,-19950,1074,-18695,4204,6528,18312,-18461,-11727,-19268,15135,-13917,-4139,235,17791,-19596,-671,-16550,18335,5636,-17398,-5666,17540,-515,6496,15802,20701,8432,-13269,1345,-6075,6480,6588,-3411,14588,14520,15434,-14991,-4167,65,9141,-17853,-9871,-19330,-12900,1528,8772,17486,-8310,266,-302,-15178,-510,18619,-8215,15690,-16129,14898,12865,5684,14191,365,6451,12809,11244,17175,8449,18002,17108,14219,-12783,3805,-17066,-6509,-15433,4461,-6616,-20230,10732,-16057,8873,-14256,13836,-8367,-241,-8080,-8313,6417,4948,-12298,5044,-20619,9433,6239,-15192,-1561,-10710,13783,10875,-20599,-4088,-8400,17703,5149,20637,-7299,-11891,-11980,2822,-17832,-6323,-13949,
-9008,10041,-3673,-16626,2350,-7196,-12718,7396,5640,9145,-9906,6387,4676,-16733,19704,19729,-8703,7909,-18258,13041,18408,-8672,6103,20839,15002,1687,10598,16821,23696,29354,-23770,9182,-7317,15236,4721,-12826,-12619,17375,12733,9485,11994,-8135,-5669,-19184,13523,11278,2709,-17990,4825,-9705,16068,1766,-15870,-8362,-121,-1127,-5438,-10152,16764,15820,1694,10983,-4078,9053,322,2948,-1653,-13589,15071,-12150,11481,-15710,8716,9684,13527,9979,-12806,498,8006,-1565,16855,-16291,-16668,1439,-6038,17571,10047,10621,4154,8273,-18652,1168,-16433,16156,-13237,561,-11140,11372,-4971,14394,-7110,228,-16594,-22807,3040,-16203,-1311,4698,-18423,-10776,-17060,-5081,-10825,-1123,8157,-3749,-20703,-1086,-17447,2392,
20867,-3474,-2598,-17076,5364,-12215,4211,1999,11575,5657,-6202,-10352,-303,7039,9735,-2370,11289,-15465,13600,-6375,-9829,1289,10954,-16691,12593,-13097,9030,4275,13954,32550,-25528,-15385,6096,-5588,-13800,10630,-1101,-10454,12724,2373,-9227,8692,14548,-15690,11557,-13565,14055,-14871,7483,-8835,-18575,-767,12321,-4685,-13052,-11285,-29806,1934,2210,12297,418,3432,19553,10490,-10067,-10,19433,-17820,10665,-16383,-1485,17680,1162,10223,5806,7702,-17326,-7585,-22538,-6658,6772,-10687,2070,12060,6597,13862,-1584,3763,14927,7044,-902,5821,-20021,-8559,-18581,20094,9855,17890,3824,-6327,2740,-13027,-4639,-3712,11572,4309,-1576,8693,-17140,343,9750,-2521,-1865,-10907,-5268,-17871,-2026,50,-10158,-19333,
4035,-18292,-17947,18448,17636,-4723,15144,-1564,-13212,-16584,4893,12689,13740,-5703,22089,14523,6291,19759,18538,15750,7627,-11997,880,-20307,8959,-5921,15,9564,-5979,27237,-20829,8325,-2081,11061,3382,-11723,-9634,8017,-11730,-1119,13442,1061,18599,1024,-9907,-28001,-21247,15988,-7821,11083,-1160,-17014,16853,4826,-845,-10931,-17337,4285,12937,10686,6221,-10106,14122,-6699,-3966,16517,-11656,-14981,18838,-17917,-15701,-4570,17784,-15174,-18352,10243,-11088,233,-30598,-16637,14879,-3525,15240,3218,3411,-7975,-10449,-8874,-18909,12168,-3719,-6723,-19546,-6003,20980,10309,-875,-16262,-12598,-1833,-25748,-6068,-8130,-1838,-10674,-11995,3699,8551,16390,-10771,2159,-15924,20141,15469,-10653,19520,-16757,9861,80,19097,
5978,-8372,6550,-911,-17532,7908,20015,16762,11420,-22272,-11587,-6984,-978,-10522,17154,13561,14442,11822,-12938,-2909,7228,-7182,-621,-14601,-1107,-12264,-22158,11463,-2782,-5297,5282,670,11588,-8442,20355,-17132,-2120,-11716,-10891,-3769,3873,-18860,-23324,-16413,-1991,5018,14165,6134,16303,-16437,-10878,6754,-6239,7565,19470,3232,16367,12241,3158,-3075,11388,-11835,-16324,-2103,-1156,10083,-12002,10518,-14584,6590,-8697,8084,-15339,-7503,-19312,4340,-1709,5564,15514,12328,-12179,-7521,-10705,3099,-10116,-7040,-8929,16298,4618,14832,14206,11663,17051,-9423,11875,-349,13984,-1490,-11354,-20047,970,14991,24785,33589,-11205,14967,-18180,-17589,-20101,2588,-10622,13538,13321,15188,19137,-10625,17387,17011,8905,-3712,
-12379,-1478,-17698,-14039,3339,-8532,16525,11840,9659,9075,1584,-7533,8177,-13952,14369,10901,16604,-912,9456,-4251,7767,16017,-20708,16018,19049,-3621,3564,10590,-20234,-11783,-6263,-13448,17561,12041,-5948,1185,-3023,-12581,7362,6454,-2107,-21804,-1269,-7766,19828,-12288,-5079,2482,-8281,21024,5211,25902,-7860,-3386,12756,17038,29632,15927,-3175,-18220,18253,-7652,13343,18239,-8672,-10725,4914,-19848,-20588,1932,8529,-17649,-21533,-5197,-10903,10706,-2398,16363,20097,8201,-5325,-5302,-5167,-15176,9310,17292,7965,-21107,11509,3282,17631,18393,3645,-19100,11163,-581,11862,9622,9288,-3790,-4598,-14837,24832,5096,8203,-3927,9813,-14535,-104,14639,-3507,4749,10957,7828,-3072,12806,12418,-10527,-11102,-16519,
-2497,-18261,8653,6590,5868,-9174,-13821,-5748,7828,7795,-19394,5267,-11147,8258,-3868,-20367,-12488,1854,12413,-14444,2750,-3895,-10718,-12699,-17191,6919,-12621,-12943,-17428,-16002,20964,-20871,-8232,20855,-12639,-162,-5886,-48,19964,-16198,7678,10275,-22195,-19726,22327,-10043,7698,-10186,12998,10517,3568,23104,-9263,5121,-15670,-3479,20692,7757,-16042,-9492,715,20519,-3749,-14300,20353,10856,4801,6618,392,2577,-12979,-17702,9989,-2499,-8806,9495,13555,5223,20732,27509,-7491,13091,-12588,-11146,-7580,-14992,-1035,-2654,19947,-12249,-10716,-10723,12592,10412,-18813,11005,-9421,9758,-1492,7903,-10857,13193,30595,16320,3832,-1598,14498,-338,-8941,-14070,2233,-11434,7368,-1106,-17682,16222,-16353,-7435,1531,7910,
-5427,16921,7319,5743,-12246,13684,-14210,-11323,12776,-13590,-17808,4315,-16962,19040,10586,-5457,1468,-9586,15797,1421,7136,-13173,3712,-8127,12406,15407,8243,-1796,-21304,-32762,-347,-829,-9105,-4394,13254,-1163,-6106,15997,2626,3817,-7297,-16030,-5106,5016,-2081,4506,4724,6286,11561,-6868,-6055,12551,9668,-12714,-1021,5488,23362,8052,17230,4909,-2805,1810,19040,7141,-16134,9401,-8510,16826,-12849,-15868,-18310,-12846,-21011,-9634,2063,10850,2340,-5165,27134,237,-468,5812,-4003,10965,14255,1503,-11963,-10330,-19956,8842,-2240,-10172,10036,-3800,606,-17492,5954,6249,-2210,-6298,-11041,13650,10045,33415,7678,-3453,9074,6425,15320,10274,7065,18145,-13013,8788,8092,-6393,1238,9037,17820,15345,
1346,9685,-20819,1641,8113,13415,6937,-3332,10546,13196,12640,-6625,23535,-6276,15089,-6868,-2092,-12025,10380,-15822,-7576,10180,-14707,-2837,-17450,4858,-3527,-5020,442,11376,-9115,14609,-85,-9698,10824,-10112,20483,-9802,-7661,10994,18396,778,13989,-14567,-16909,4083,18777,-18154,2522,-17959,1408,-672,-13546,-17824,-6648,11794,-21245,-2980,-6686,-18844,-10439,11664,21156,-12248,5695,3483,6139,-15726,-7671,14721,-20088,-149,19640,-8901,1955,6072,-11634,-5279,-30466,1406,6078,-1982,8156,14577,5311,12605,9631,11268,-3817,-19498,-16369,3109,-13763,11753,1860,19702,-4133,-4060,-12625,20091,-11271,-145,-17815,-25931,12481,12815,6188,-8639,-4667,4779,-9642,7002,5654,-10819,-16992,14258,-20146,18732,-17550,-9126,
-14064,12433,11758,17674,-4733,2452,7326,-10124,11974,16112,1347,11399,-18023,7687,-11043,8016,-15797,14821,-10884,7625,-15684,-9291,-566,-17449,-4454,-4448,3463,18319,25715,-16,-12116,5105,-7928,6894,-18476,-12522,-677,13205,-19697,-15345,17648,-5002,9965,2237,3962,7038,-6563,-3299,5355,2494,-14935,7102,8015,514,11895,-20211,-4371,-18309,13661,10292,15718,-2948,8718,-10673,18917,2151,18665,17442,10145,-15854,-15488,17482,-15579,19089,-6497,6234,5170,-11632,-27230,-19566,-7235,5351,8576,-8964,-20715,-16321,11597,-16303,6174,6128,7221,-10488,-1127,9132,10859,-14606,-9105,8211,20134,3178,-8354,6637,-15242,-24610,-16285,11021,-21027,14204,-13188,-6957,-1873,2855,-853,9972,1907,-5415,10982,3621,-20507,-4052,
8748,-15592,-2468,20741,2022,10782,4399,-13630,8909,17156,20393,-1216,-12465,-2957,8891,3505,-9979,-13770,-19148,-17553,16607,7987,8934,14014,461,-5642,8313,4472,-7938,25365,-1103,-5243,4770,3223,-1229,3139,-19765,-13490,-4305,-9695,22308,-7408,9884,23714,-12278,-7652,13172,-10130,7506,8715,-13650,-16283,7326,-11244,-6387,11427,-31362,-22126,9277,15222,8273,10934,9846,-7405,-7478,-7805,12952,3185,-7525,-11930,1692,-18946,-2040,-6246,11086,-4178,-1632,-3950,-27130,-19381,11264,15729,13251,26078,-13789,-6455,12625,5335,10204,-15349,8775,11265,9953,6397,10054,-12664,8187,11604,13317,24016,-6234,-1629,-13075,-36399,-12917,3401,-20952,-10499,9280,-961,11953,-1606,-14320,6130,1933,-17101,1489,10396,-9109,10851,
-18799,-18084,12633,-8641,4546,-1476,-12525,2457,6887,3124,-16530,11932,-2237,-1455,-15464,18832,-15900,-14006,3793,153,2717,21888,-18239,-6660,-2471,-6380,-15020,-531,-19172,-21598,16453,-15168,11159,-1998,9771,-12829,19448,-7381,-19051,-18024,14975,17494,6333,12876,738,-12676,-12617,4944,1896,4613,13839,-1294,-15051,-4465,-6207,15178,4133,6892,-17757,-16900,-6256,17584,-13054,-11469,-414,15581,11245,-7027,7897,8610,-444,19317,-14224,7104,-11857,2476,16779,22019,17528,2617,-20997,15286,-7041,-17336,-13706,-2990,2929,-12866,-9241,-2909,-16061,9613,-19395,11292,13378,-16611,6971,82,-8386,-9297,15587,14849,27298,-9518,-4998,16915,-21010,-10114,-4098,12155,-14799,15273,-9387,410,1885,12541,12837,-12258,-13623,9049,
-12845,-9492,-8994,6877,13826,12570,-12615,11318,11640,4650,-7938,-20191,-8013,-13379,-12570,-3039,21384,-5898,5186,-6810,-8677,5004,18370,11242,-3286,13475,3372,6804,-14237,-29206,-5180,-18264,2040,8102,-4121,-22246,12845,5215,-14207,-15042,953,-6222,8555,-21925,11526,1017,9161,517,10989,-14192,16466,22675,993,4737,13957,-9334,31796,2068,-12581,7644,-10736,10273,-3784,1582,-12262,17513,-9969,-10544,9672,-17,-2207,1294,-21944,17350,2599,-8707,-2267,-6629,23900,27494,-9943,14959,-24339,-8906,-3621,21121,12127,-18438,-5302,-2870,-12361,-6548,-14229,-13825,1066,4513,-14554,-6729,-2907,-15281,-1418,4308,25876,12364,-10794,-7670,6005,-15758,-8864,-16266,-770,21439,-1784,20523,3416,-7377,-10410,11520,8113,-1777,
11121,-14392,3859,-72,8744,13777,-15874,14270,14975,13189,19829,18039,-8478,-9086,-12975,15599,17956,21821,-3340,20726,15776,-13176,11197,-4349,-2425,-6947,-13141,-15091,11476,26491,4762,2054,-18778,5673,7635,17539,-7652,8713,13558,-11419,16621,13485,10993,-15556,14712,-526,-1520,19063,18697,19433,19813,-7089,9192,-8972,15427,-11234,-18588,-7625,-8512,14006,-2807,306,13753,8292,19546,6934,14757,4155,14215,16818,-17059,6327,-10991,-3240,-5436,-13909,8367,-6356,-12794,-2624,1533,-15924,5918,-16490,5350,320,-18933,8308,11258,-19242,3750,17389,6295,58,11684,-13621,-19913,14728,-12590,5703,6215,4543,-7539,-15776,-9410,3871,1703,-11677,3282,8147,9547,-11037,-18086,2318,-434,4886,-4742,4676,-11766,-7299,
18740,-9636,-11687,-7173,6841,-18474,13806,-2314,-10107,11841,13869,8013,4220,16920,-5839,9733,15550,1311,3245,-8020,14976,-1095,7114,-15912,-16089,-16335,-4415,13946,10838,26285,5638,-15471,14178,-21939,13476,-1909,-4191,6130,14162,-20925,-2959,-7419,-535,4689,-3445,15503,-9078,1885,9957,1627,-4162,-9898,-18072,-19180,-15288,4286,9244,-13585,-2429,6951,16326,-14786,-9417,-6444,10213,16091,1406,-1623,-6692,8747,-13777,-1752,8953,5425,-6251,12199,-2585,-18896,-26696,-25279,8242,8893,-4237,-2591,-9250,18507,6471,-4014,-17780,11950,16113,3930,13499,3870,17749,-12578,-12842,14644,18399,-9093,-14126,6416,-23124,3256,-16132,1068,-11844,-2320,-15022,14458,8900,5360,-21205,-2897,-13995,2199,7228,5345,3060,-19274,
5204,9066,15788,-16829,-17123,11164,-2702,2963,8439,-2319,16895,-969,6273,-14118,-136,-5144,21646,-6169,-11953,5334,-9088,-2083,-6877,14757,-16953,-417,-7016,-9763,2389,-8639,10890,-20098,13874,-6727,1758,16340,8774,-10313,6350,12362,-4041,-9965,9651,-2049,-4580,12691,-17919,12979,-3854,-6319,-19575,8466,-17326,22889,23433,6298,16972,-5889,6860,12710,-6586,11591,-1674,-17272,3666,12180,8992,-6246,16693,7434,15328,1231,3452,12648,-9313,4268,22427,2439,22440,74,-8897,11904,3297,19961,-19193,-19795,-7251,16345,3326,8328,-6069,11587,-18898,14818,-19652,-21408,17939,-8306,11322,-12353,-11995,-12131,22622,15552,-8753,-15707,10558,-14577,14840,-11807,-5682,-18365,14146,8791,4782,13581,6617,-18215,13843,-291,
-2263,395,-8502,-11225,-18150,9841,-14352,11270,-11358,9169,-9794,-18451,5045,-7357,-6722,-7737,4691,-9305,-13806,-21160,16080,-20903,-5546,7808,-8501,-17746,-9085,-17732,-13692,-5380,-17129,-14587,17491,-12602,11428,3637,-7011,7501,-20931,5613,14019,-12952,-5192,-7305,-13193,12320,15658,13744,4177,4883,-8277,-7890,20552,13763,17060,-11239,-18144,-8420,15946,17326,-8430,13263,9989,3672,6587,702,-401,-573,18100,-12263,-13734,8654,1000,-10566,7891,2421,-12853,-14589,-11858,-28785,17991,18506,-10308,-15369,16318,-10345,-21587,-14828,14781,-5542,-9851,-2351,13967,11706,14319,-14755,10024,19344,8109,3024,15485,-16625,-21169,7888,10594,2157,-14523,3083,1434,-8964,-5825,1879,6702,12968,-15447,-17892,-1340,15764,-17113,-20835,
15593,18739,9014,4696,-259,7783,3199,-6087,14046,9030,-4335,-12269,12300,9973,4593,10159,8729,13350,9699,4874,-5668,-17618,-13561,-209,17116,-18885,21798,-7971,5065,5589,1490,-14984,11505,13110,4495,-6851,-2329,-9967,-5803,7536,-6054,-6520,-14987,-4074,-3243,-4669,10577,13612,-20164,-19371,-16565,7292,6154,-3731,-8215,-2427,-14235,-23266,-3237,13304,17173,19488,-1299,19120,-18220,-9137,-16133,950,1590,-8700,3295,-8403,-2768,-10580,-15036,8074,14917,-6539,-6280,8427,-12394,-21008,18727,-16630,-16033,-7800,11975,4150,-999,12339,-2798,12928,5223,-7887,-4326,-2290,12543,5022,-20764,-17029,7469,15927,15062,7703,-6364,-17994,-2863,10522,-951,-17139,206,12036,-9123,-5095,-14685,-6018,-7757,4538,1577,-6643,
10696,-2948,3197,-8411,13558,12811,-10788,15741,-24811,3114,-2162,87,-12701,-6361,7091,-1453,-14599,-18221,20264,2977,-7012,9661,-11092,-9314,9029,15140,-18635,3672,-22847,-35751,14518,-2215,24908,-3677,-15887,3682,-8631,-8550,15357,19071,-13133,-21490,-2087,10651,14834,2217,18105,5698,790,-15601,11779,6052,-15224,17500,3109,1884,6456,3982,10289,-2621,15836,14489,2432,8959,5263,2109,-17124,17354,-11137,-6752,-4790,11084,5387,-21733,-17288,-7180,-6069,24958,24603,19648,-5130,-4727,-13755,14283,-17715,9046,15482,3558,966,3120,16635,-6254,14990,-12106,-3476,-119,-20588,16668,11,-13366,15619,-1971,15838,33333,1445,-300,-4679,-6839,-13367,-16018,-9631,-11861,-10621,833,-14771,6982,6661,-7641,-20073,310,
-9996,-14078,16845,-2110,9264,18691,-14602,21706,-20780,-7908,-12224,17083,14970,-10698,-14161,17822,16806,-3432,11791,-957,-5295,2171,6050,18859,-12586,26,11084,-11213,311,-20457,-13675,-5864,18164,21608,-10800,15161,-2031,-14308,19471,-695,-15070,17521,8400,-13686,2862,-15779,-10346,14580,809,14371,13454,10440,-1487,12452,-12160,-12084,11742,1673,17345,3304,-5476,-4109,2338,5897,7145,5757,8554,-9542,-13116,17078,-12983,-10245,-1337,1826,-13372,6197,-1919,-1042,27371,19162,-5654,-9441,2493,-5891,13526,-18654,-10911,-6991,2420,18456,6756,10194,-8664,16272,-20656,-10757,-11637,-3575,-18859,-6564,17921,-4061,3561,93,8389,-11574,14752,-276,-14004,3871,3396,9931,4019,-9283,7906,-5673,19963,6097,8309,7967,
};
#endif
