//(40, 25)
#ifndef DR_Letter_FC2_Map_Weight_H
#define DR_Letter_FC2_Map_Weight_H
static int Letter_FC2_Map_Weight[]={
-50347,27585,-42156,-34846,44591,53927,-45122,36084,27356,50022,-19566,-47413,-30727,41069,43369,-44993,23563,-45264,-31897,-40649,-45183,-41482,13092,-38137,-40406,-56816,-65552,-33632,38553,-49489,55839,-43845,-28510,42262,-42513,45907,-52154,49340,-37786,37267,
-64078,-43663,51023,45044,-21477,32297,38328,-46926,25047,-53271,-31309,-37731,-45401,-35877,-40175,49852,32651,45480,51053,-29034,41090,51232,-36668,40672,-57343,17945,22358,-42121,19958,-55493,-42705,20701,-34492,-43478,-66454,-41660,29093,46339,50017,40371,
56874,60867,-38722,-41180,49247,-48659,-31628,-56998,45910,53461,-25037,-33940,46149,9423,-39953,63919,-63276,-35374,35788,67282,-32306,35077,-48931,30412,17598,17994,17553,75263,-27668,39773,20803,-47156,-27814,62965,-38594,65061,10388,-41489,28700,-55773,
-55675,-53463,57105,-39860,57739,64552,-39248,55675,-69406,41885,-19939,-31391,49436,-57030,-40766,57503,45784,-36102,45251,-37618,-32449,38918,-34708,18899,-58048,17014,13955,26498,24298,40464,51248,47737,67682,-41284,-39131,11861,25182,-45276,36123,41911,
39896,45768,-48223,-51618,-40883,-50399,-12608,-47207,-47919,-45576,-38920,42447,-39862,35824,-33036,46056,20749,42845,-48096,-40862,-25986,14928,-47661,-45957,-57470,20529,25782,40460,30826,-46718,47701,32289,-31768,-44748,31921,-50742,-55755,-703,51978,-46759,
32726,-50116,15554,46639,-29648,-47440,-45644,31677,33459,50820,51025,36869,-33530,-40144,58978,17507,12229,42545,41259,-27454,-61683,-66070,-64942,-38888,-37319,-61436,26571,-48098,24897,-51741,41969,41219,32571,-43468,45803,-43994,-54574,-51223,-42255,-52614,
-27143,-50669,-39519,-39042,-53506,24305,59876,-47954,30958,-60923,-25738,-34498,45266,-43352,-44498,-55075,-65928,-40346,-64671,-44896,-38111,48227,17896,31029,39208,20721,22721,-45174,-74709,-52236,-38740,-43175,-19115,41079,11745,47933,20611,-15022,39163,-35236,
30066,-47676,33039,52920,-27043,-31908,39839,42455,16922,-58070,54198,43442,-39737,-46694,48179,37015,8964,-42881,37974,-17089,43485,53727,-55649,-39565,-44940,-62543,-51159,39168,34259,32449,-39529,41800,-29420,-27903,33095,-51094,30640,51451,-39426,42398,
22878,17315,-25507,32886,-41726,-32644,-27744,41313,39254,38130,55678,40089,-41267,36519,-21937,-36872,22453,-45394,44345,55388,-35231,45648,29206,27498,39226,-50820,27452,-39750,-48613,41685,34407,-40044,51928,42493,-51430,40068,-45651,41648,-40928,47083,
31656,-13117,-35186,45259,33959,67872,-52911,41618,45903,-45478,-21627,47916,48754,21410,44498,-29943,27575,31324,47132,52231,48475,-27392,29474,-41653,-14049,18834,23971,65096,43357,49176,29040,-59659,52307,-47372,-51587,44522,-45839,31149,42602,-36763,
31602,33567,39156,-38116,49551,-40278,-47847,44775,30866,55955,-29205,51789,35502,39079,-37102,48609,25052,46065,-47520,-30918,53447,-41809,17149,-41995,39111,-59207,-55519,-43726,21657,-56614,-41539,-50582,48423,-25497,36072,27048,44575,48609,-26890,-37718,
35713,51597,-40659,54007,57475,-27265,35684,47621,38829,45898,37723,-30057,-37654,-39989,-39048,43997,28184,-40958,-48896,-33431,-28304,46942,-46122,4190,41729,23160,17551,48239,22927,30420,50193,-44263,60284,-40751,36546,-47706,25172,42873,32053,38672,
19247,-54183,45500,46964,-46891,-16727,39303,45403,-70330,54108,-14675,13792,54370,-50471,43043,34908,-63837,-38842,-22224,-24543,41617,-30973,44067,-43158,-25053,39635,-54148,47642,-57029,39493,53068,40538,-30013,-45123,-37647,54720,21995,44914,-34989,32699,
28177,38349,42388,-41287,-26334,-42731,40363,43136,34740,-2676,-31683,-47426,49703,-49088,41682,-51554,-59996,-38694,-33577,-19784,-56324,-39518,40336,-38663,34925,-57526,-60813,7747,-55104,42293,-49274,35579,10653,59675,51023,-51053,27410,44390,-30940,46825,
-51754,-66507,-42297,-37148,-80232,58176,-47273,-39088,-78676,42504,-14840,-30808,46418,58298,-25773,-64132,-71287,-35675,42630,65995,-33645,45559,-53646,24395,39748,15890,14699,-52936,37908,49122,59219,-51558,-12342,-55955,-54620,-69266,23048,-41012,29911,-214,
-84294,-59158,35573,57972,-29187,44736,49728,25543,25880,52762,58297,52298,-29176,-35380,47453,10857,12858,39249,41772,-17905,40530,65611,50296,-39238,-54890,18052,24596,32779,30412,-42569,44601,41233,-26077,71831,-78662,-39207,-49190,-56643,-36578,-50736,
-59680,49601,-22442,-35297,53619,-47624,-38225,55134,-58164,49681,-23200,-32208,43231,50493,-38352,-43828,-61076,-35793,36416,-50078,-29838,-61893,41958,28502,38335,15502,22012,-50867,-49879,-35952,-47001,57149,-26143,46130,-56441,-28014,26731,-40083,34447,35383,
33681,50369,34103,-50382,-26921,44979,45406,-50170,37059,54754,63753,-33439,-35179,-48578,-54380,-48152,20329,39890,44887,-27746,40062,-43952,36566,-38986,17408,28191,25129,4470,-60802,-50823,24132,46889,-24513,61598,-17115,-38947,38271,56610,-44166,-38985,
37628,-25913,-34697,-40766,-45709,54588,41411,-43379,30378,-54765,-35636,-31542,-49421,14868,60474,35357,34715,-34948,-47513,67772,-41456,-50754,-18038,33401,-60276,23349,23260,-35608,19296,-45466,-41559,-46829,46476,54466,44555,-32761,25196,34824,44832,52156,
31309,37132,-27168,45548,-58186,-18454,-53068,49046,-41721,-40740,59281,39546,53256,38499,-22974,-37270,23519,43417,50705,51572,-27514,-51326,28303,-43168,48222,19831,27620,-30843,-61209,-21971,-58650,41142,50515,46561,35242,40210,-39291,-63413,48419,-34552,
17572,-54053,34716,-39724,58588,-32880,-17498,56506,-70860,-60759,4011,-29055,55312,44119,45370,45353,-68571,-34506,-54110,-20990,62664,45858,-49041,31995,41555,14606,23331,46379,32092,35765,-38213,-44687,-35505,-42779,46339,-53950,26418,28234,38036,38822,
-68775,46905,32908,-31166,-39636,58837,33840,57965,31612,-25082,50951,-42644,-31470,46973,50834,39669,32075,-22948,28948,-33154,53090,40833,-56554,-5652,47225,-35225,-63735,-35928,18444,32264,-48293,-42966,-24680,56738,27161,35362,33092,-35643,-35788,-51461,
34181,38234,44115,52069,55306,51550,47561,-36522,37101,-26854,-32325,-45105,9461,-39163,53242,-52576,23613,-41867,-44464,-32863,41389,-44221,26955,-25448,43241,22440,-64261,-34038,31407,-43369,-48151,37162,-22926,-41455,29084,35413,-52751,44857,30042,-41881,
18698,-45655,-33279,44519,29444,-41127,43542,-49975,-49515,41972,58165,40244,38298,41482,41768,-44774,34315,39656,-34110,49051,55988,-41628,18307,36064,-35431,30909,-65735,-35381,-53011,34946,-44024,47603,42918,-43219,39692,38419,-44506,49020,35015,51042,
-46706,30479,42778,48625,9804,58744,-52225,-44806,-64528,-5380,53132,-48129,-50727,40874,-32143,-28838,26579,-46762,-44104,51273,46230,56426,45459,-40533,18016,15402,29847,62116,39556,-37408,14526,47068,-28970,-36740,34053,47576,-44462,-45246,48755,-46116,
};
#endif
